tree
version=v4
num_class=1
num_tree_per_iteration=1
label_index=0
max_feature_idx=122
objective=huber
feature_names=Column_0 Column_1 Column_2 Column_3 Column_4 Column_5 Column_6 Column_7 Column_8 Column_9 Column_10 Column_11 Column_12 Column_13 Column_14 Column_15 Column_16 Column_17 Column_18 Column_19 Column_20 Column_21 Column_22 Column_23 Column_24 Column_25 Column_26 Column_27 Column_28 Column_29 Column_30 Column_31 Column_32 Column_33 Column_34 Column_35 Column_36 Column_37 Column_38 Column_39 Column_40 Column_41 Column_42 Column_43 Column_44 Column_45 Column_46 Column_47 Column_48 Column_49 Column_50 Column_51 Column_52 Column_53 Column_54 Column_55 Column_56 Column_57 Column_58 Column_59 Column_60 Column_61 Column_62 Column_63 Column_64 Column_65 Column_66 Column_67 Column_68 Column_69 Column_70 Column_71 Column_72 Column_73 Column_74 Column_75 Column_76 Column_77 Column_78 Column_79 Column_80 Column_81 Column_82 Column_83 Column_84 Column_85 Column_86 Column_87 Column_88 Column_89 Column_90 Column_91 Column_92 Column_93 Column_94 Column_95 Column_96 Column_97 Column_98 Column_99 Column_100 Column_101 Column_102 Column_103 Column_104 Column_105 Column_106 Column_107 Column_108 Column_109 Column_110 Column_111 Column_112 Column_113 Column_114 Column_115 Column_116 Column_117 Column_118 Column_119 Column_120 Column_121 Column_122
feature_infos=[5:15.169925001442312] [0:10] [7:15.584962500721156] [4:11] [0:8] [0:8] [7:15] [5:13] [1:7] [0:5.7781512503836439] [1:3.3010299956639813] [1.4771212547196624:6.8573324964312681] [0:4.7781512503836439] [2:4.7781512503836439] [0:6.5563025007672868] [0:5] [1:3.6989700043360187] [1:3.6989700043360187] [1:3] [0:6.9087547793152204] [0:8.3180102775468718] [0.5:10] [0.5:5] [0.001:0.10000000000000001] [0.00050000000000000001:0.050000000000000003] [0.00050000000000000001:0.050000000000000003] [0.10000000000000001:0.94999999999999996] [0.5:10] [0.01:0.5] [0.01:0.5] [10:1000] [1:20] [1:20] [2:20] [1:10] [0:16] [0:8] [0:8] [1:12] none [0:1] [0:1] [0:1] [0:1] [0:3] [0:8] [0:2250] [0:14.5] [0:13.699999999999999] [0:776] [41.700000000000003:399] [207:7998.8999999999996] [7457:146000] [29.100000000000001:572] [0.48999999999999999:19.100000000000001] [0.10000000000000001:399] [388:8586] none [0:1] [0:1] [0:1] [0:1] [0.0021551724137931034:2.25] [0.0086206896551724137:3] [0.015625:1024] [0.00067326468576972857:4.2312483823251519] [0:1] [0.015625:128] [0:3] [0:3] [0:5] [0:5] [0:15.169925001442312] [0:13.321928094887362] [0:1] [0:1] [0:1] [0:1] [0:15] [0:15] [0:23.890756251918219] [0:4.5] [0:63.966865691558546] [0:26.516524540295379] [0:25] [0:18.494850021680094] [0:50] [0:8.9986964646779466] [0:14.334453751150932] [0:2.7000000000000002] [0:39] [0:15.909914724177227] [0:15] [0:11.096910013008056] [0:30] [0:14.334453751150932] [0.10000000000000001:2.7000000000000002] [5:38.360541967715818] [0:15.909914724177227] [0.5:15] [1:11.096910013008056] [0.5:29.771647360043321] [0:4.3003361253452796] [0:61.18183491342954] [0:25.339992977608187] [0:23.890756251918219] [0:17.674238151349741] [0:47.781512503836439] [0.5:13.652932501298082] [0:6.2178793013836984] [0.050000000000000003:4.5] [0.10000000000000001:3.3290730039024168] [0.050000000000000003:9] [0:81.85382368152743] [2.5:63.921508415989493] [5:47.315872286674953] [2.5:130] [0:26.516524540295379] [0:19.616765778758509] [0:53.033049080590757] [0.5:18.494850021680094] [0.25:50] [0.5:36.989700043360187]
tree_sizes=5197 5557 5561 5612 5537 5578 5597 5580 5585 5594 5593 5567 5607 5573 5552 5630 5602 5595 5630 5590 5658 5607 5606 5611 5611 5617 5587 5598 5660 5611 5600 5582 5615 5638 5574 5597 5611 5590 5588 5628 5627 5639 5570 5575 5572 5581 5568 5586 5609 5614 5555 5589 5625 5564 5581 5535 5593 5628 5564 5577 5638 5563 5566 5587 5613 5561 5597 5652 5633 5607 5611 5589 5637 5619 5631 5617 5609 5565 5615 5596 5611 5606 5656 5631 5627 5618 5652 5672 5620 5644 5624 5649 5632 5674 5640 5638 5688 5647 5653 5664 5677 5670 5642 5658 5647 5652 5667 5669 5676 5676 5601 5661 5692 5660 5658 5674 5659 5697 5693 5656 5697 5723 5735 5678 5646 5653 5701 5690 5684 5646 5755 5679 5712 5707 5729 5659 5684 5702 5716 5760 5715 5700 5715 5703 5696 5686 5711 5685 5703 5711 5697 5715 5731 5711 5680 5764 5690 5690 5707 5704 5720 5758 5720 5733 5733 5732 5693 5751 5683 5734 5718 5717 5682 5736 5747 5750 5700 5688 5740 5715 5727 5723 5712 5703 5700 5682 5714 5714 5711 5718 5771 5711 5782 5710 5732 5754 5746 5720 5730 5724 5739 5748 5736 5740 5686 5665 5738 5746 5734 5704 5674 5778 5701 5737 5720 5688 5733 5751 5720 5756 5716 5720 5700 5704 5691 5715 5694 5739 5725 5711 5712 5713 5724 5727 5699 5710 5715 5724 5691 5740 5685 5700 5695 5728 5709 5759 5738 5705 5686 5739 5717 5721 5772 5722 5767 5714 5780 5700 5757 5726 5706 5757 5689 5704 5736 5755 5742 5679 5735 5719 5707 5742 5723 5733 5752 5726 5763 5718 5738 5725 5751 5736 5714 5747 5772 5708 5702 5712 5725 5783 5728 5736

Tree=0
num_leaves=63
num_cat=0
split_feature=59 44 15 52 52 48 46 58 61 48 52 60 87 52 73 48 52 87 48 97 58 60 97 95 64 0 97 15 112 81 15 48 97 48 15 60 52 48 9 19 48 52 48 7 63 61 122 38 4 32 9 48 15 82 0 79 90 48 52 87 121 64
split_gain=5920.83 1093.57 425.416 116.316 104.96 143.304 87.4775 82.1815 47.4712 33.1057 27.7082 29.6392 42.0856 26.3614 24.3692 22.2898 51.7258 21.4275 20.8986 20.2453 20.2047 19.0029 33.2495 19.0019 17.0843 12.0192 11.9474 11.418 11.155 11.0301 10.7217 10.6319 10.39 8.01232 7.67942 7.01965 6.91785 8.83707 6.69109 5.58417 5.42976 14.7907 13.291 4.65547 4.55579 4.53858 4.12427 4.09981 3.94901 3.94604 3.81328 3.50688 3.22968 3.22672 3.06715 2.98508 2.96804 2.55165 2.50229 2.35064 2.27878 4.6322
threshold=1.0000000180025095e-35 1.0000000180025095e-35 3.9693225835645189 112388.50000000001 112388.50000000001 13.050000000000002 1.0000000180025095e-35 1.0000000180025095e-35 1.0000000180025095e-35 13.350000000000003 11799.500000000002 1.0000000180025095e-35 3.7442929831226768 11799.500000000002 5.3749347136984236 13.250000000000002 11799.500000000002 4.004321373782644 13.15 13.074540690624724 1.0000000180025095e-35 1.0000000180025095e-35 12.800628575303332 7.0836358531147061 15.50757575757576 9.6934859053335156 11.108363897834865 3.5390132215408916 2.2505625000000005 1.1527046895874262 3.2926969722734531 13.050000000000002 13.563329137599057 13.350000000000003 4.1953875226954338 1.0000000180025095e-35 16638.500000000004 13.15 4.8095466653133725 2.0126758453675748 13.15 11799.500000000002 13.250000000000002 9.9985897404688124 0.57586880387931039 1.0000000180025095e-35 8.9323899762778378 6.5000000000000009 5.9188139665857031 7.5000000000000009 4.4231685560649039 12.750000000000002 3.3390520953045137 36.465447744436538 12.45344529780426 7.1088466810317561 23.991530155288292 12.850000000000003 74503.500000000015 3.6190933306267428 4.0977705000000002 2.6694444444444447
decision_type=2 2 2 2 2 2 2 2 2 2 2 2 2 2 2 2 2 2 2 2 2 2 2 2 2 2 2 2 2 2 2 2 2 2 2 2 2 2 2 2 2 2 2 2 2 2 2 2 2 2 2 2 2 2 2 2 2 2 2 2 2 2
left_child=1 3 4 8 7 20 -2 9 13 19 11 30 -13 18 17 -9 33 21 48 35 38 24 -23 -20 60 29 -5 28 -19 -16 -11 45 -12 -17 58 -3 37 -10 -6 -30 52 42 -42 56 -24 46 -28 53 -1 -40 -26 -15 -21 -48 -43 -33 -34 -38 -4 -37 61 -7
right_child=6 2 34 26 5 14 -8 15 36 10 32 12 -14 51 25 16 -18 27 23 40 -22 22 44 -25 50 -27 31 -29 39 -31 -32 55 43 -35 -36 59 57 -39 49 -41 41 54 -44 -45 -46 -47 47 -49 -50 -51 -52 -53 -54 -55 -56 -57 -58 -59 -60 -61 -62 -63
leaf_value=6.8480303021018587 6.8090054423331372 6.8296230517906729 6.8135185465931052 6.8644437792429818 6.8349095308470629 6.8409039607365081 6.9090054423331368 6.8150812074849725 6.8783425080830796 6.9072874695777049 6.8168205190419311 6.8101745470623989 6.8992407948847907 6.8641784308970903 6.8996345902662837 6.8504050150585769 6.8207750824389475 6.8989648566025732 6.8453303922196245 6.8341638852464035 6.817592072543035 6.8135970732070064 6.8778762967481368 6.8973628132739542 6.866647839114731 6.8601981979034621 6.8943239805828398 6.8522993967488492 6.8489279161611352 6.8675767983331815 6.8628081808441408 6.8886733519289134 6.8393562558769485 6.8855061481540227 6.809164018778942 6.8097205303623305 6.885721419453561 6.904396262415486 6.8719131655774168 6.8847009009837263 6.8421784038500642 6.8334903827030606 6.8796721364202327 6.8638324207340382 6.8507548928975215 6.898648702954941 6.8694800214868463 6.8594760692866403 6.8699801719496083 6.8421162173754624 6.8936206804910709 6.8429275554815527 6.823970597371626 6.8939167336796228 6.8520660192488778 6.9081842022586182 6.8539964258320847 6.8697455280368045 6.8215520588249268 6.8254085611024644 6.833360383023237 6.871969087828611
leaf_weight=85 22 110 256 29 360 30 3683 806 87 42 40 36 21 21 86 29 274 55 23 1219 195 70 30 74 20 48 64 40 24 39 20 22 197 37 2368 117 31 52 20 20 60 300 39 27 32 102 22 23 27 25 38 257 83 35 24 180 42 129 156 30 20 20
leaf_count=85 22 110 256 29 360 30 3683 806 87 42 40 36 21 21 86 29 274 55 23 1219 195 70 30 74 20 48 64 40 24 39 20 22 197 37 2368 117 31 52 20 20 60 300 39 27 32 102 22 23 27 25 38 257 83 35 24 180 42 129 156 30 20 20
internal_value=6.85542 6.83302 6.82578 6.87607 6.83491 6.84789 6.90841 6.83063 6.86425 6.83588 6.84854 6.86901 6.84299 6.85462 6.86579 6.81961 6.83035 6.859 6.86804 6.83316 6.83082 6.85052 6.83721 6.88503 6.86425 6.88147 6.89555 6.87484 6.88395 6.88963 6.89294 6.89756 6.84058 6.87008 6.81026 6.82007 6.87993 6.88809 6.83718 6.86519 6.83511 6.84003 6.85695 6.84415 6.86388 6.89058 6.88486 6.87729 6.85332 6.85536 6.88432 6.84453 6.83351 6.88449 6.83487 6.90606 6.84193 6.87284 6.81656 6.81292 6.84762 6.85333
internal_weight=12473 8768 7505 1263 4725 1172 3705 3553 786 2407 425 119 57 487 572 1146 340 399 209 1982 600 260 132 97 128 173 477 139 99 125 62 448 306 66 2780 257 299 139 405 44 1725 423 99 266 62 246 144 80 112 45 58 278 1302 57 324 202 239 160 412 147 70 50
internal_count=12473 8768 7505 1263 4725 1172 3705 3553 786 2407 425 119 57 487 572 1146 340 399 209 1982 600 260 132 97 128 173 477 139 99 125 62 448 306 66 2780 257 299 139 405 44 1725 423 99 266 62 246 144 80 112 45 58 278 1302 57 324 202 239 160 412 147 70 50
is_linear=0
shrinkage=1


Tree=1
num_leaves=63
num_cat=0
split_feature=59 44 74 52 48 45 58 52 51 61 60 18 18 60 18 51 51 48 97 48 18 58 18 97 51 48 48 121 18 80 48 78 97 112 60 9 52 90 51 48 34 18 44 64 61 122 106 48 112 99 37 67 88 58 2 65 81 78 48 78 28 48
split_gain=5818.44 1055.43 433.719 113.764 96.7786 87.4775 72.9783 66.8077 83.6578 43.704 40.434 52.9185 25.5824 27.4012 26.7429 24.9918 23.1169 39.2245 22.5013 20.1832 21.4883 19.1491 15.4884 15.0174 14.5015 43.1538 13.4382 12.9695 12.7207 11.3626 10.0062 8.87118 8.6137 8.53921 8.21915 7.86584 7.64155 7.17911 6.8853 9.23681 5.62379 5.13598 4.1292 4.09752 3.70712 3.76828 4.16089 3.56977 3.53391 4.56753 3.23278 3.09952 2.97161 2.95879 3.60321 2.9083 2.83649 2.69818 2.58446 2.50135 2.47177 2.41484
threshold=1.0000000180025095e-35 1.0000000180025095e-35 1.0000000180025095e-35 112388.50000000001 13.250000000000002 1.0000000180025095e-35 1.0000000180025095e-35 112388.50000000001 504.25000000000006 1.0000000180025095e-35 1.0000000180025095e-35 1.8721464915613384 2.002160686891322 1.0000000180025095e-35 1.8948608469904611 504.25000000000006 1350.0000000000002 13.050000000000002 14.313742952597178 13.15 1.9566419508802095 1.0000000180025095e-35 1.7520314413393463 11.27280235858988 1350.0000000000002 13.050000000000002 13.050000000000002 4.181680000000001 1.7888607622545107 18.908049058957662 13.350000000000003 8.2298888084034392 13.563329137599057 2.5607960000000007 1.0000000180025095e-35 4.8095466653133725 136435.00000000003 13.627533884472793 504.25000000000006 13.15 4.5000000000000009 1.8948608469904611 1.5000000000000002 1.5029411764705884 1.0000000180025095e-35 8.9323899762778378 16.049162316237773 13.350000000000003 3.8005360000000006 2.9735803697304974 5.5000000000000009 7.9935897435897445 12.387417597930092 1.0000000180025095e-35 13.060523894343463 0.031783424078792914 2.6429825081096037 4.204892749477624 12.750000000000002 12.198136085699616 0.18050000000000002 12.850000000000003
decision_type=2 2 2 2 2 2 2 2 2 2 2 2 2 2 2 2 2 2 2 2 2 2 2 2 2 2 2 2 2 2 2 2 2 2 2 2 2 2 2 2 2 2 2 2 2 2 2 2 2 2 2 2 2 2 2 2 2 2 2 2 2 2
left_child=1 3 4 9 6 -2 16 8 10 15 30 -12 13 18 -15 19 28 35 -9 50 -21 32 -5 -19 -8 -26 44 -27 34 31 37 36 -10 -14 -3 60 -4 -6 39 -11 51 -17 57 55 45 -24 56 -45 -49 -50 -1 -25 -33 -20 -55 -34 -47 -38 -43 -54 -18 -40
right_child=5 2 29 22 7 -7 24 12 21 38 11 -13 33 14 -16 41 17 23 53 20 -22 -23 26 40 25 27 -28 -29 -30 -31 -32 52 43 -35 -36 -37 42 -39 61 -41 -42 58 -44 47 -46 46 -48 48 49 -51 -52 -53 59 54 -56 -57 -58 -59 -60 -61 -62 -63
leaf_value=-0.010035923450072915 -0.050000000000000003 -0.025892733875662089 -0.042811472883860349 0.006028980551621853 -0.013856887444853784 0.050000000000000003 -0.041713281078518447 0.037161644329798633 -0.038622124299958899 0.018492458342713701 -0.04908574659090776 0.02796207047425784 0.040571700531290847 -0.050000000000000003 0.0037021207870269312 -0.03819869795814157 -0.024653435292504348 -0.017605568864382803 0.0083359709291747127 -0.020384931340813636 0.037784683897897797 -0.036081727080340131 0.034601130432474751 0.037243703778746522 -0.039332670898813954 0.032006661101214348 0.0484652189873159 -0.0153937630907253 -0.023563598513025818 -0.049653920224303705 0.0376587361296905 -0.047987269785659779 -0.014565956950187683 0.0085996936105432048 -0.050000000000000003 0.0024500489960808088 -0.027730204035406526 0.025666789420776898 0.025775210307009761 0.045128949971583031 -0.001202954463660717 0.0049143396384481878 -0.025419219296909573 -0.024097077848063305 0.038341434800056556 0.019829022752888063 0.037067698119651708 -0.017722116436679564 0.014671280767236436 -0.018715771511197091 0.01008422141805148 0.015867375821939537 -0.028006697068404821 -0.024431676149368288 0.0021537243173672602 0.011014645770192148 -0.0035428097211046236 -0.049427940343555653 -0.013386905129865316 -0.046645625101195444 -0.013736642424076323 0.01023351366217916
leaf_weight=86 22 64 393 39 20 3683 769 58 54 87 52 39 64 44 49 20 293 32 33 20 77 267 64 43 190 31 200 27 1417 1699 84 709 25 31 79 34 23 27 31 52 20 21 127 194 98 34 21 201 21 20 26 28 36 25 26 20 21 38 237 36 63 129
leaf_count=86 22 64 393 39 20 3683 769 58 54 87 52 39 64 44 49 20 293 32 33 20 77 267 64 43 190 31 200 27 1417 1699 84 709 25 31 79 34 23 27 31 52 20 21 127 194 98 34 21 201 21 20 26 28 36 25 26 20 21 38 237 36 63 129
internal_value=-0.00312823 -0.0253271 -0.0324435 0.0169599 -0.0224678 0.0494062 -0.0273521 -0.0113212 -0.0176262 0.00526979 0.00953721 -0.0160653 0.00824318 -0.000608207 -0.0217053 -0.00396847 -0.0219701 -0.0127626 0.0132089 0.00909484 0.0257909 -0.0251452 0.0362229 0.0118563 -0.0383227 -0.027809 0.0389114 0.00994095 -0.0249979 -0.0469264 0.0273221 -0.043524 -0.0196872 0.0301387 -0.0392107 -0.0205271 -0.0388454 0.0088482 0.0203167 0.0284572 0.0222166 -0.0137895 -0.0305548 -0.0175614 0.030883 0.025662 0.0181343 -0.019044 -0.0149932 -0.00161509 -0.00536518 0.0288136 -0.0470044 -0.00332986 -0.0108783 -0.0031968 0.0109052 -0.0412468 -0.0118973 -0.0373262 -0.0227215 0.0132447
internal_weight=12473 8768 7505 1263 4444 3705 3090 1354 1024 786 222 91 330 235 93 487 2073 513 142 209 97 802 477 123 1017 248 438 58 1560 3061 131 1362 535 95 143 390 581 47 299 139 91 278 188 481 238 140 76 436 242 41 112 71 781 84 51 45 55 61 258 72 356 160
internal_count=12473 8768 7505 1263 4444 3705 3090 1354 1024 786 222 91 330 235 93 487 2073 513 142 209 97 802 477 123 1017 248 438 58 1560 3061 131 1362 535 95 143 390 581 47 299 139 91 278 188 481 238 140 76 436 242 41 112 71 781 84 51 45 55 61 258 72 356 160
is_linear=0
shrinkage=0.05


Tree=2
num_leaves=63
num_cat=0
split_feature=72 44 15 52 52 48 45 48 51 61 51 73 18 18 61 108 73 48 18 15 18 18 48 15 0 15 81 92 73 51 48 23 18 112 18 48 51 98 101 48 5 11 18 5 1 61 122 106 4 50 122 13 15 64 65 15 61 114 73 18 4 34
split_gain=5718.64 1017.43 484.316 111.418 89.0544 119.366 87.4775 45.5381 59.3614 40.3898 23.7661 23.1449 26.3317 22.4827 29.2631 20.4078 20.1012 19.5341 21.1231 18.5995 15.5545 15.2756 14.2084 12.9587 11.3297 10.9141 10.6262 7.26853 6.86517 6.85083 9.62319 5.76539 5.44673 5.38923 5.10626 4.97158 12.935 4.69648 4.49876 5.61417 4.45163 4.23073 4.18382 4.97882 3.77976 3.60599 3.59743 4.09091 3.5804 3.4239 3.24877 3.09483 2.93276 3.74667 3.16525 2.82383 2.77261 2.63362 2.63011 3.29077 2.965 2.39215
threshold=1.0000000180025095e-35 1.0000000180025095e-35 3.9693225835645189 112388.50000000001 112388.50000000001 13.050000000000002 1.0000000180025095e-35 13.350000000000003 805.55000000000007 1.0000000180025095e-35 504.25000000000006 5.3749347136984236 1.8603276782758624 1.8095466653133714 1.0000000180025095e-35 5.6581447107713538 6.6510338362632604 13.15 1.9566419508802095 3.1012286279963459 1.7888607622545107 1.7520314413393463 13.050000000000002 4.204892749477624 9.6934859053335156 3.495819960314352 1.1527046895874262 1.2010000000000003 8.9929376414672788 504.25000000000006 13.15 0.0045000000000000014 1.9934306351450226 2.2505625000000005 1.8948608469904611 13.250000000000002 504.25000000000006 2.1134953024384813 8.3999684243713144 13.350000000000003 3.5221970596792271 5.5532756213780354 2.2977591333356195 3.6427011094311248 4.0437314206251704 1.0000000180025095e-35 8.9323899762778378 16.049162316237773 5.9188139665857031 397.50000000000006 4.8965341020055098 3.3576489388077988 3.3777613529167323 1.7890321441186863 0.1734936410673675 4.5961295648750413 1.0000000180025095e-35 13.767318294261521 6.6934701226621565 2.2683423363104658 2.1609640474436813 4.5000000000000009
decision_type=2 2 2 2 2 2 2 2 2 2 2 2 2 2 2 2 2 2 2 2 2 2 2 2 2 2 2 2 2 2 2 2 2 2 2 2 2 2 2 2 2 2 2 2 2 2 2 2 2 2 2 2 2 2 2 2 2 2 2 2 2 2
left_child=1 3 4 9 7 31 -2 16 13 10 17 12 27 14 37 19 20 48 -19 33 56 -5 45 49 26 -15 -13 -7 32 30 -11 -6 -10 -14 -12 -18 -37 -9 39 -17 50 -41 43 57 61 46 -23 55 -1 -4 -29 -20 53 -44 -55 -48 -3 -22 59 -33 -61 -34
right_child=6 2 23 21 5 11 -8 8 28 29 34 24 15 25 -16 38 35 18 51 -21 42 22 -24 -25 -26 -27 -28 40 -30 -31 -32 58 44 -35 -36 36 -38 -39 -40 41 -42 -43 52 -45 -46 -47 47 -49 -50 -51 -52 -53 -54 54 -56 -57 -58 -59 -60 60 -62 -63
leaf_value=-0.010139719598981389 -0.050000000000000003 -0.044439166985128238 -0.03729407118012508 0.0059130384753911924 -0.0067073090492110509 0.00033942628119673049 0.050000000000000003 -0.042532332977538723 -0.042147947882497039 0.01768069156133115 -0.037530221026390795 0.039387143931763124 0.041161541296885568 0.04300228827472391 0.036146955316265425 0.015934079885482788 -0.023494778817755656 -0.020232044383883478 0.021591767126863656 -0.0055813689319852821 -0.029836903187243448 0.033898295264953048 0.04839252116996795 -0.049677905298655629 0.00099235152980933577 0.00016884469427168371 0.0079218620243362899 -0.017679021620880003 -0.010243266188008811 0.0126773601550849 0.044868590663491678 -0.033806787923370538 -0.023273097377802646 0.018012258737552456 -0.011304999869984626 0.021238291247383412 -0.020594698761371859 -0.01213371412207683 -0.02539516847867232 -0.019837123119249581 -0.0079184196346128981 0.0073425803672183647 -0.010069569465943062 -0.036903506532411444 -0.037733534686267382 0.037669475405115865 0.025628491837996994 0.036582628743989126 0.01076061549872436 -0.047171460885194041 -0.040779130425718096 0.04378095445307819 -0.034388753277610762 -0.023964982156340405 -0.032916160478041724 0.0020768479028733314 -0.028277851094802221 -0.011907900124788285 -0.021636586137499442 -0.0068558808593522941 -0.02670353891852811 -0.011012101545929909
leaf_weight=85 22 230 300 39 38 35 3683 27 43 87 20 86 65 58 27 30 710 20 22 47 831 64 200 2356 48 20 39 23 93 160 52 190 259 41 258 23 94 24 26 41 24 22 39 298 40 98 20 21 27 124 45 55 98 411 130 35 30 21 170 21 181 47
leaf_count=85 22 230 300 39 38 35 3683 27 43 87 20 86 65 58 27 30 710 20 22 47 831 64 200 2356 48 20 39 23 93 160 52 190 259 41 258 23 94 24 26 41 24 22 39 298 40 98 20 21 27 124 45 55 98 411 130 35 30 21 170 21 181 47
internal_value=-0.00267575 -0.0246835 -0.0316706 0.0168354 -0.0219279 -0.00997613 0.0494062 -0.0258703 -0.0137707 0.00526649 -0.00361459 0.00636657 -0.000256139 0.0130378 -0.00594377 0.00852074 -0.0285185 0.00912436 0.0255498 0.0205992 -0.0311315 0.0358988 0.0385687 -0.0482297 0.0216409 0.0320194 0.02957 -0.0190539 -0.0224474 0.0197317 0.0278517 -0.0255562 -0.025365 0.0322076 -0.0131917 -0.0219211 -0.0123711 -0.0282271 -0.00700872 -0.00186842 -0.0264317 -0.0103458 -0.029504 -0.0313407 -0.0232793 0.0303134 0.0251642 0.0178091 -0.00510125 -0.0401827 -0.0329659 0.0374412 -0.0263887 -0.0250369 -0.0261159 0.0106411 -0.0425744 -0.029395 -0.0268306 -0.0290832 -0.0246402 -0.0213899
internal_weight=12473 8768 7505 1263 4725 1172 3705 3553 638 786 487 572 399 156 78 272 2915 209 97 153 2088 477 438 2780 173 78 125 127 482 299 139 600 389 106 278 827 117 51 119 93 92 63 1828 1150 346 238 140 76 112 424 68 77 678 580 541 55 260 852 562 392 202 306
internal_count=12473 8768 7505 1263 4725 1172 3705 3553 638 786 487 572 399 156 78 272 2915 209 97 153 2088 477 438 2780 173 78 125 127 482 299 139 600 389 106 278 827 117 51 119 93 92 63 1828 1150 346 238 140 76 112 424 68 77 678 580 541 55 260 852 562 392 202 306
is_linear=0
shrinkage=0.05


Tree=3
num_leaves=63
num_cat=0
split_feature=72 44 15 52 46 52 6 61 61 60 97 73 51 15 87 60 120 7 97 51 108 67 71 71 31 120 95 15 51 12 10 50 26 11 15 101 15 11 116 1 65 78 90 107 24 111 60 61 111 50 87 104 106 14 101 102 38 108 50 5 120 65
split_gain=5621.4 980.733 510.81 109.051 87.4775 82.2738 60.4143 37.2238 32.8065 35.4022 52.0435 26.8012 22.7154 16.0988 12.7765 42.1786 13.8001 12.6669 11.6466 10.8087 15.1439 9.62052 9.17624 8.84455 8.65203 8.57368 8.564 6.89 6.83633 6.6064 6.87027 6.36848 15.7259 6.04708 5.79772 5.22874 4.92021 4.53574 4.52131 5.57662 4.45773 4.43823 4.31042 4.31708 4.28441 4.20461 4.11759 4.98859 3.9379 3.74823 3.60247 3.37308 3.34767 5.14792 3.2795 3.25395 3.24724 3.18302 10.9913 5.14894 3.31442 3.22421
threshold=1.0000000180025095e-35 1.0000000180025095e-35 3.9693225835645189 112388.50000000001 1.0000000180025095e-35 112388.50000000001 10.083709072915871 1.0000000180025095e-35 1.0000000180025095e-35 1.0000000180025095e-35 12.158010979529687 5.5077075261933448 504.25000000000006 4.204892749477624 3.6190933306267428 1.0000000180025095e-35 1.5000245053566803 6.5774090545260533 12.030088987224373 504.25000000000006 5.5569359042354725 8.5996654435570914 3.6560979374686684 3.3542984809654786 7.5000000000000009 3.0570410557042673 6.243907842716907 2.7024168583099697 504.25000000000006 3.6931991362338987 2.194512125381848 397.50000000000006 0.56250000000000011 5.4337690974543031 3.4184654720661345 7.9801461730042922 3.3390520953045137 5.5699584247484726 29.797827730164581 3.0849625007211565 0.010018343945525561 7.2334760072252289 15.748408216730379 10.934359919212826 0.035500000000000011 1.2729745891412272 1.0000000180025095e-35 1.0000000180025095e-35 1.018112888208065 397.50000000000006 3.6190933306267428 12.374109825182773 13.956776888102516 5.1450595935163621 8.9987396296434046 0.86143421589760882 5.5000000000000009 4.2261476844781525 192.20000000000005 3.0849625007211565 2.4847226747272226 0.055253983856917717
decision_type=2 2 2 2 2 2 2 2 2 2 2 2 2 2 2 2 2 2 2 2 2 2 2 2 2 2 2 2 2 2 2 2 2 2 2 2 2 2 2 2 2 2 2 2 2 2 2 2 2 2 2 2 2 2 2 2 2 2 2 2 2 2
left_child=1 3 5 7 -2 8 11 12 9 31 50 14 26 49 15 25 27 -8 -5 20 23 46 33 29 41 -7 -1 -16 -9 30 -10 32 36 -13 -21 -32 42 -35 45 -40 -17 -18 43 -3 52 -26 47 -19 -34 -4 -11 54 53 -28 -20 -56 -46 58 59 61 -61 -12
right_child=4 2 13 18 -6 6 17 28 19 10 57 22 -14 -15 16 40 24 21 51 34 -22 -23 -24 -25 38 -27 44 -29 -30 -31 35 -33 48 37 -36 -37 -38 -39 39 -41 -42 -43 -44 -45 56 -47 -48 -49 -50 -51 -52 -53 -54 -55 55 -57 -58 -59 -60 60 -62 -63
leaf_value=-0.014608513645362109 -0.050000000000000003 -0.024135661070666663 -0.035925284765660766 0.0082271432198467668 0.050000000000000003 0.021278420202434062 -0.00038947600107225669 0.027265148502464656 0.015522817556941232 -0.049808263797548755 -0.023361108616854139 0.031605247567806929 -0.012621904748471843 -0.049530913517612761 0.028598825404277217 -0.050000000000000003 0.024007333070039751 -0.03683178268727802 0.039426101040509011 -0.019712108230712466 -0.022253261701631791 0.0018908278475846013 -0.01105467690223897 -0.018618910358502314 -0.014451999692246318 -0.016792042491336666 0.028146010925146667 -0.0059337787050753842 0.01210687895530782 0.026324753512938823 0.0065597990261656901 -0.039024963226631876 -0.012827088125050068 -0.0014521616737584811 -0.036686595998428488 -0.021611947640776636 -0.03224111031740904 0.020539804354848458 -0.026423093643097674 -0.0062677891069167369 -0.022685103751719001 -0.0057631540866125196 0.010970710895278237 0.0041993321478366857 -0.0091447382513433692 0.016305724620819095 -0.020000670202286311 -0.023594979418144712 -0.035400055535792362 -0.046259909051079906 -0.028212598914449868 0.040677969645912526 0.026257304805539439 -0.0032732866529840976 0.012608734321068316 0.034177935506320666 0.014997294029364221 -0.019398008907320713 -0.024352814386549751 0.025436620009334193 -0.0023944079875946045 0.0013078559948890298
leaf_weight=32 22 41 300 36 3683 50 59 139 43 158 26 70 278 2356 52 59 31 147 63 735 148 31 27 52 20 21 22 20 160 30 28 446 20 37 54 40 28 64 64 74 20 21 22 20 30 25 142 138 569 124 22 308 67 32 34 36 26 906 95 23 20 27
leaf_count=32 22 41 300 36 3683 50 59 139 43 158 26 70 278 2356 52 59 31 147 63 735 148 31 27 52 20 21 22 20 160 30 28 446 20 37 54 40 28 64 64 74 20 21 22 20 30 25 142 138 569 124 22 308 67 32 34 36 26 906 95 23 20 27
internal_value=-0.00223101 -0.0240508 -0.0309108 0.0167125 0.0494062 -0.0209051 -0.00941738 0.00526703 -0.0246945 -0.0279755 -0.0222501 0.000668195 -0.00325887 -0.0479168 -0.00598915 -0.0179494 -0.000145364 -0.022195 0.0355722 -0.017659 -0.0102207 -0.0250041 0.0160339 -0.000993591 -0.00601315 0.0100181 0.00919532 0.0190064 0.0191537 0.00550653 -0.000120021 -0.0343554 -0.0313802 0.020311 -0.0208739 -0.0100118 -0.0141169 0.0124833 -0.0111273 -0.0156152 -0.0430848 0.0119846 -0.00800265 -0.0148455 0.0134988 0.00263562 -0.0269566 -0.0304224 -0.0346336 -0.0389477 -0.0471688 0.0378044 0.018791 0.00952717 0.03115 0.0237015 0.00206406 -0.0181614 -0.0122955 -0.000363777 0.012492 -0.0107939
internal_weight=12473 8768 7505 1263 3705 4725 1172 786 3553 2423 1277 655 487 2780 457 150 307 517 477 1130 341 458 198 193 235 71 209 72 299 141 111 1146 700 171 789 68 111 101 183 138 79 52 83 61 177 45 427 285 589 424 180 441 121 54 133 70 56 1097 191 96 43 53
internal_count=12473 8768 7505 1263 3705 4725 1172 786 3553 2423 1277 655 487 2780 457 150 307 517 477 1130 341 458 198 193 235 71 209 72 299 141 111 1146 700 171 789 68 111 101 183 138 79 52 83 61 177 45 427 285 589 424 180 441 121 54 133 70 56 1097 191 96 43 53
is_linear=0
shrinkage=0.05


Tree=4
num_leaves=63
num_cat=0
split_feature=59 44 15 52 48 52 48 58 61 18 60 48 51 73 18 60 51 48 18 48 51 108 15 18 48 58 48 15 15 26 15 15 51 48 18 64 48 7 15 15 48 115 101 48 11 48 51 0 61 6 122 50 0 108 4 13 90 15 32 20 48 114
split_gain=5532.44 943.103 533.68 106.733 87.4775 74.9833 97.8058 56.6326 34.1479 30.4198 37.1151 26.6339 35.9426 21.561 26.6364 53.3431 21.1794 19.2571 20.7687 17.7424 33.7652 15.1332 21.1667 14.8556 16.1611 14.5706 13.277 12.8308 10.1677 13.9347 9.68239 7.97908 6.59565 10.7688 5.22879 4.75235 5.35694 4.66744 4.40102 4.38671 4.10685 6.07467 3.7783 5.27082 3.84435 3.66735 16.8708 4.08169 3.64149 3.98026 3.80289 3.516 3.40274 5.086 3.30527 3.14812 2.95744 2.58609 2.51049 2.37796 2.37209 2.35107
threshold=1.0000000180025095e-35 1.0000000180025095e-35 4.0330616906733807 112388.50000000001 1.0000000180025095e-35 112388.50000000001 13.050000000000002 1.0000000180025095e-35 1.0000000180025095e-35 1.6384605660328873 1.0000000180025095e-35 13.350000000000003 805.55000000000007 5.7141800863521466 1.8603276782758624 1.0000000180025095e-35 504.25000000000006 13.15 1.9566419508802095 13.350000000000003 805.55000000000007 5.6581447107713538 3.1012286279963459 1.7520314413393463 13.050000000000002 1.0000000180025095e-35 13.350000000000003 4.2795300499912186 3.6393370474639606 0.7985000000000001 3.3390520953045137 3.2495631304454657 504.25000000000006 13.15 1.8948608469904611 31.937743190661482 13.15 9.9985897404688124 3.6011898649328269 2.3042630167885974 12.950000000000001 21.260452467948202 8.3999684243713144 13.350000000000003 5.5532756213780354 13.250000000000002 504.25000000000006 7.7380883033134937 1.0000000180025095e-35 7.6546315869653627 8.9323899762778378 397.50000000000006 7.6688806295783367 4.4143978509171715 5.9188139665857031 3.3576489388077988 23.991530155288292 3.5767442590158263 7.5000000000000009 5.987706711087152 12.850000000000003 8.58843388830471
decision_type=2 2 2 2 2 2 2 2 2 2 2 2 2 2 2 2 2 2 2 2 2 2 2 2 2 2 2 2 2 2 2 2 2 2 2 2 2 2 2 2 2 2 2 2 2 2 2 2 2 2 2 2 2 2 2 2 2 2 2 2 2 2
left_child=1 3 5 8 -2 7 25 9 16 10 26 38 31 14 15 30 17 54 -19 57 -21 22 35 -5 48 40 -3 51 29 39 58 -13 33 -10 -18 -16 -37 56 45 -15 -7 -42 43 -23 -45 -11 47 -47 49 -25 59 -4 -52 -54 -1 -20 -14 -9 -8 -51 -34 -24
right_child=4 2 27 23 -6 6 13 19 32 11 -12 12 37 28 21 -17 34 18 55 20 -22 42 61 24 -26 -27 -28 -29 -30 -31 -32 -33 60 -35 -36 36 -38 -39 -40 -41 41 -43 -44 44 -46 46 -48 -49 -50 50 52 -53 53 -55 -56 -57 -58 -59 -60 -61 -62 -63
leaf_value=-0.009922501085983481 -0.050000000000001037 -0.024479859100565757 -0.037729363212859413 0.0055938910501889694 0.050000000000000003 -0.021000082801903682 0.015804018723693761 -0.035047332717176159 0.015691709102548915 -0.020285509765676932 -0.050000000000000003 0.039849276970262117 -0.017129861289785372 0.040923144434316036 0.041144175330797839 -0.048558751304876316 -0.036652558716014028 -0.020044754743576049 0.021157366850159384 0.022131975109760577 -0.029262038450793362 0.015817327226201695 -0.015713436792002006 0.041472115768836096 0.048274671379476788 -0.034735300109693501 0.011812850512150261 -0.049755187034878856 -0.006806720594565073 0.00095180453998701918 -0.014502147687599063 0.0020203049341216686 0.023981165549447458 0.044452434454041609 -0.010114570127352495 -0.00073511026799678815 0.031092709417526537 0.0075286356302408071 -0.028962864632910441 0.016478340731312834 -0.016412855985842339 0.012583961617201567 -0.022678587896128498 -0.018693790784696254 0.0072150653058832342 -0.00055790983140468597 -0.019242077987099537 0.031003577794347495 0.036385451881595109 0.017310659662776052 -0.0053796122851781552 -0.04687508369485538 0.035737091501283909 0.0017032666220551447 0.010158766740588127 0.043536763407967305 -0.0026013053776252838 -0.044283126658165313 0.03997321955504872 0.039403368388142054 0.0085776354470281212 0.004485060794674609
leaf_weight=85 22 84 322 39 3683 316 22 873 87 1426 168 46 211 78 51 73 20 20 22 39 177 30 34 26 200 198 36 2192 30 42 20 20 31 52 258 20 39 26 126 24 73 24 27 41 22 20 227 21 98 21 20 156 23 21 27 55 42 83 21 29 129 25
leaf_count=85 22 84 322 39 3683 316 22 873 87 1426 168 46 211 78 51 73 20 20 22 39 177 30 34 26 200 198 36 2192 30 42 20 20 31 52 258 20 39 26 126 24 73 24 27 41 22 20 227 21 98 21 20 156 23 21 27 55 42 83 21 29 129 25
internal_value=-0.0018208 -0.0234673 -0.0301943 0.0165063 0.0494062 -0.0202862 -0.00950873 -0.0238836 0.00518319 -0.0195638 -0.03483 -0.017533 -0.00479547 0.00484837 -0.00122138 -0.0194684 -0.00298285 0.00904289 0.0253514 -0.032925 -0.0199826 0.00736547 0.0170067 0.0351646 0.0377976 -0.0235839 -0.013592 -0.0481366 0.0196739 0.0251907 0.0142394 0.028386 0.0184837 0.0264511 -0.0120238 0.0299661 0.0203036 -0.0126448 -0.0199475 0.0351714 -0.0182377 -0.00923839 -0.00621263 -0.0014322 -0.00964625 -0.019277 -0.0139106 0.0156077 0.0289933 0.0238188 0.0197926 -0.0407142 0.0117208 0.0194937 -0.00508148 0.0371427 -0.014718 -0.0358492 0.0276076 0.0301244 0.0115621 -0.00715475
internal_weight=12473 8768 7505 1263 3705 4835 1210 3625 786 2453 288 2165 345 599 425 136 487 209 97 1172 216 289 169 477 438 611 120 2670 174 144 63 66 299 139 278 110 59 279 1820 102 413 97 120 93 63 1694 268 41 238 140 114 478 64 44 112 77 253 956 43 50 160 59
internal_count=12473 8768 7505 1263 3705 4835 1210 3625 786 2453 288 2165 345 599 425 136 487 209 97 1172 216 289 169 477 438 611 120 2670 174 144 63 66 299 139 278 110 59 279 1820 102 413 97 120 93 63 1694 268 41 238 140 114 478 64 44 112 77 253 956 43 50 160 59
is_linear=0
shrinkage=0.05


Tree=5
num_leaves=63
num_cat=0
split_feature=59 87 15 52 45 52 48 48 51 73 60 18 97 73 18 60 51 48 18 60 73 15 18 48 15 112 15 15 26 15 103 69 97 51 48 18 9 48 1 7 48 51 15 50 60 73 36 48 116 10 73 6 15 0 3 11 13 37 89 60 87 18
split_gain=5443.15 910.377 556.513 104.58 87.4775 68.9299 88.6388 35.4134 44.7357 31.5502 30.5672 45.7754 21.0031 20.6859 27.0547 53.4943 20.3006 18.6723 20.4681 16.7986 35.9038 16.3516 14.6645 16.9193 14.5269 14.0031 16.3723 9.51808 13.1902 8.80695 8.65862 8.59933 8.23117 6.5622 11.0993 5.17392 4.50988 7.23078 4.49784 5.20121 4.30632 12.1516 4.20459 3.86386 3.77591 7.21831 3.67004 4.59606 4.85613 3.62634 3.49643 4.03667 5.21104 3.31448 3.41487 3.26877 3.21455 2.9587 2.87959 2.79354 4.30385 2.69256
threshold=1.0000000180025095e-35 1.0000000180025095e-35 4.0330616906733807 112388.50000000001 1.0000000180025095e-35 112388.50000000001 13.050000000000002 13.350000000000003 805.55000000000007 1.0000000180025095e-35 1.0000000180025095e-35 1.8721464915613384 12.800628575303332 5.7141800863521466 1.8095466653133714 1.0000000180025095e-35 504.25000000000006 13.15 1.9566419508802095 1.0000000180025095e-35 6.1598360604734976 4.2795300499912186 1.7520314413393463 13.050000000000002 3.495819960314352 2.1860890000000004 3.4184654720661345 3.6393370474639606 0.75050000000000006 3.3390520953045137 18.243476926515473 1.0000000180025095e-35 13.563329137599057 504.25000000000006 13.15 1.8948608469904611 4.8095466653133725 12.950000000000001 4.1286939213463265 9.9985897404688124 13.250000000000002 504.25000000000006 2.3042630167885974 397.50000000000006 1.0000000180025095e-35 6.5156782981278552 1.0000000180025095e-35 13.350000000000003 43.830360066573341 2.5699584247484721 1.0000000180025095e-35 9.018199508022219 4.5417539233703677 11.928990497563788 8.9957609230378495 5.9229847383117695 3.3576489388077988 4.5000000000000009 1.1905000000000003 1.0000000180025095e-35 3.6190933306267428 1.8721464915613384
decision_type=2 2 2 2 2 2 2 2 2 2 2 2 2 2 2 2 2 2 2 2 2 2 2 2 2 2 2 2 2 2 2 2 2 2 2 2 2 2 2 2 2 2 2 2 2 2 2 2 2 2 2 2 2 2 2 2 2 2 2 2 2 2
left_child=1 3 5 9 -2 7 36 12 10 16 24 -12 31 14 15 29 17 57 -19 20 -14 43 -5 50 -9 26 58 28 42 -8 46 59 -10 34 -11 -18 44 -38 39 53 -22 -42 -15 -4 45 -7 -27 48 -48 -32 51 -24 -53 -34 -55 -49 -20 -1 -16 -3 -61 -21
right_child=4 2 21 22 -6 6 13 8 32 33 11 -13 19 27 25 -17 35 18 56 61 40 -23 23 -25 -26 30 -28 -29 -30 -31 49 -33 38 -35 -36 -37 37 -39 -40 -41 41 -43 -44 -45 -46 -47 47 55 -50 -51 -52 52 -54 54 -56 -57 -58 -59 -60 60 -62 -63
leaf_value=-0.0099349849277859913 -0.050000000000000003 -0.035588649588602563 -0.036300091838799647 0.0054863161288010772 0.050000000000000003 -0.033825080177268471 0.02638388958781265 0.038415178743501505 -0.038835371037324269 0.014997306020278751 -0.050000000000000003 0.041562931088819394 -0.033808006690405353 0.039905551990541896 0.04168400773230721 -0.049661660530197792 -0.036011138993781062 -0.019894419088959697 0.020724602450023999 -0.036383354663848878 -0.020487478576662284 -0.049635433916845467 0.033801622791049472 0.048202259378042074 -0.0037899173263992582 -0.026788218542933465 -0.0064210017311519809 -0.0064663846231997023 0.0012997859352549841 -0.013777040503919126 0.034377575684338808 -0.023739496735381147 -0.019974300116840482 0.011069301695970354 0.044195978114238157 -0.0096127618183634543 -0.028645583024869366 0.0041915081735504301 -0.031127276464744853 0.0046436854477586416 0.025413672029972079 -0.017673305306169725 0.015578951200713282 -0.045887571554153399 -0.018248182265506809 -0.019530872160778243 -0.011418504305183888 -0.018435399606823923 0.02018275534914386 0.0046286120700339472 0.035717147602034469 0.02892461674332264 0.00401754395182555 0.0016594145276651877 -0.019007606422289824 0.0053500679135322568 0.043338869105685844 0.0080541258183075125 0.019684794296820962 -0.050000000000000003 -0.028102731066090722 -0.017841094824426834
leaf_weight=80 22 135 322 39 3683 185 43 75 51 87 39 21 841 78 51 71 20 20 22 20 694 2192 56 200 28 20 35 30 43 20 20 102 276 160 52 258 30 38 54 29 20 90 23 156 189 169 20 52 31 21 98 42 42 41 39 20 55 32 21 113 28 929
leaf_count=80 22 135 322 39 3683 185 43 75 51 87 39 21 841 78 51 71 20 20 22 20 694 2192 56 200 28 20 35 30 43 20 20 102 276 160 52 258 30 38 54 29 20 90 23 156 189 169 20 52 31 21 98 42 42 41 39 20 55 32 21 113 28 929
internal_value=-0.00140575 -0.0228768 -0.0294861 0.0163971 0.0494062 -0.0193682 -0.00903499 -0.0228174 -0.0122743 0.00518874 0.0104162 -0.017953 -0.0251339 0.00463274 -0.00131256 -0.0199031 -0.00266056 0.00911303 0.0251721 -0.0235294 -0.0265855 -0.0478082 0.0348662 0.0374822 0.0269419 0.00724802 0.0216311 0.0191543 0.0244919 0.0136344 -0.00111607 -0.0361449 -0.0198224 0.0179734 0.0259206 -0.0115119 -0.0224343 -0.0102954 -0.0176136 -0.0157182 -0.0190306 -0.00983931 0.0343658 -0.0394291 -0.0239544 -0.027001 -0.00692384 -0.00369385 0.0077901 0.0191403 0.0284737 0.0234033 0.0164711 -0.0173769 -0.00841576 -0.0118283 0.0368777 -0.00479524 0.0352676 -0.0407295 -0.0456516 -0.0182319
internal_weight=12473 8768 7505 1263 3705 4835 1210 3625 653 786 163 60 2972 599 425 134 487 209 97 2594 1645 2670 477 438 103 291 107 174 144 63 184 378 490 299 139 278 611 68 439 385 804 110 101 478 543 354 143 123 51 41 238 140 84 356 80 72 77 112 72 276 141 949
internal_count=12473 8768 7505 1263 3705 4835 1210 3625 653 786 163 60 2972 599 425 134 487 209 97 2594 1645 2670 477 438 103 291 107 174 144 63 184 378 490 299 139 278 611 68 439 385 804 110 101 478 543 354 143 123 51 41 238 140 84 356 80 72 77 112 72 276 141 949
is_linear=0
shrinkage=0.05


Tree=6
num_leaves=63
num_cat=0
split_feature=59 77 15 53 46 51 58 6 18 60 61 73 51 18 60 15 18 64 120 18 15 79 6 58 51 108 15 13 15 51 53 26 15 16 51 34 15 15 18 6 11 7 29 10 7 9 99 20 26 53 5 29 65 88 118 27 122 65 15 98 31 67
split_gain=5357.31 878.295 576.164 102.396 87.4775 63.4809 40.5139 36.206 31.7895 39.7814 29.137 24.2559 19.4381 18.9534 46.7993 18.4842 14.4513 14.1161 13.7717 13.1943 11.7627 11.2149 10.5906 8.47646 8.34885 13.4408 8.61057 7.98316 7.0924 6.55586 6.34158 9.57295 6.10339 6.4767 5.3264 5.39469 5.25804 5.21764 5.11401 4.92969 4.89879 4.65161 4.4293 4.31638 4.23428 4.21947 4.11075 4.02179 3.92595 3.79939 3.77543 3.64792 4.20283 3.42805 3.28655 3.18632 3.01133 2.93411 2.86455 2.84361 2.70845 2.53031
threshold=1.0000000180025095e-35 1.0000000180025095e-35 4.0496439638388901 439.00000000000006 1.0000000180025095e-35 1350.0000000000002 1.0000000180025095e-35 10.083709072915871 1.6384605660328873 1.0000000180025095e-35 1.0000000180025095e-35 5.5077075261933448 504.25000000000006 1.8095466653133714 1.0000000180025095e-35 4.3216812513278509 1.7520314413393463 1.4439626168224302 1.5000245053566803 1.8603276782758624 3.7573960022456077 7.5960862529393669 8.2407893613990169 1.0000000180025095e-35 504.25000000000006 4.2261476844781525 3.3069602157862845 3.0094506878995357 3.6840819815497983 504.25000000000006 65.000000000000014 0.56250000000000011 3.3390520953045137 1.4842414742769676 1004.8000000000001 2.5000000000000004 3.3777613529167323 3.3390520953045137 1.8948608469904611 9.9106425358067529 5.7704836532146233 6.0767760158540565 0.079500000000000015 1.0206963425791129 6.3128544215322338 4.8836521587266377 2.1266928998771388 4.7050052835523761 0.88750000000000007 533.80000000000007 3.0849625007211565 0.19150000000000003 0.14965705521331521 4.7001150278867314 1.9727678022742547 2.3065000000000002 9.8320510962221288 0.074285948510053809 3.5390132215408916 2.206581095271567 7.5000000000000009 1.1105012478343712
decision_type=2 2 2 2 2 2 2 2 2 2 2 2 2 2 2 2 2 2 2 2 2 2 2 2 2 2 2 2 2 2 2 2 2 2 2 2 2 2 2 2 2 2 2 2 2 2 2 2 2 2 2 2 2 2 2 2 2 2 2 2 2 2
left_child=1 2 5 10 -2 6 8 11 9 34 12 13 19 14 28 49 -5 59 21 -3 22 -15 -13 61 25 26 41 39 44 56 31 32 33 -8 35 -1 54 -26 -14 -20 57 46 -24 -43 -7 -27 -10 -25 -18 -4 -45 52 -21 -47 -29 -44 -12 -41 -32 -9 -33 -19
right_child=4 3 15 16 -6 7 30 17 24 -11 29 20 38 18 -16 -17 48 23 27 51 -22 -23 42 47 37 45 -28 36 -30 -31 58 60 -34 -35 -36 -37 -38 -39 -40 40 -42 43 55 50 -46 53 -48 -49 -50 -51 -52 -53 -54 -55 -56 -57 -58 -59 -60 -61 -62 -63
leaf_value=0.016533415438607337 -0.050000000000000003 -0.026567807275315991 -0.042247068074144675 0.0053808101763327919 0.050000000000000003 0.00074814982388330547 -0.019307170949272208 -0.0017077081650495531 0.035770785382815772 -0.050000000000000003 0.017442997416947038 -0.017820204123854638 -0.035380944013595587 0.026757375382986226 -0.049664491320712656 -0.049677651705531817 0.039010942732456998 -0.017778706991723174 -0.023198621781313256 0.018156348674092444 -0.015432096753433787 -0.016387511240318418 0.032296444963325156 -0.010472044669505624 -0.01775206329446348 -0.018393138446845116 -0.016072104331697264 0.0032137287637362118 -0.018112794717862493 0.010565698663981493 -0.032502878539754608 -0.016304228107134503 -0.029773549683805967 0.010481845685798262 -0.02320028322569111 -0.013746286105168494 -0.0085551956773269929 -0.029642181858420377 -0.0091358493473886176 -0.021589985253607356 0.015840969812124968 0.02059522055089474 0.0082080009366002158 -0.015617426132737864 0.02994251351941515 0.013212487557902934 0.004485820162863959 -0.028418522481905656 0.02514549227336706 -0.033300368550620726 0.0075056978291080855 0.020211192475137665 -0.0037884631135966631 -0.014321589222750987 0.02860407954454422 0.025597520757379921 0.032208082914352419 -0.0044044789340760976 -0.044031583656698972 0.024955057306215167 -0.032235327260993825 -0.010728332226166979
leaf_weight=24 22 23 356 39 3683 23 37 20 21 167 64 20 20 61 79 2111 379 353 73 40 34 20 55 36 1193 376 63 26 21 160 621 30 36 36 57 38 40 100 258 41 20 20 68 41 27 20 21 235 59 178 31 98 48 26 25 43 75 63 59 20 241 199
leaf_count=24 22 23 356 39 3683 23 37 20 21 167 64 20 20 61 79 2111 379 353 73 40 34 20 55 36 1193 376 63 26 21 160 621 30 36 36 57 38 40 100 258 41 20 20 68 41 27 20 21 235 59 178 31 98 48 26 25 43 75 63 59 20 241 199
internal_value=-0.00100348 -0.0223046 -0.0287964 0.0162711 0.0494062 -0.0185761 -0.0225832 -0.0104269 -0.0187112 -0.0342586 0.00518047 -0.00230394 -0.00236268 -0.00820166 -0.0231881 -0.0475754 0.0345463 -0.0173826 -0.00210962 0.00915811 0.0116093 0.0161043 0.0165524 -0.0187924 -0.0163856 -0.0116104 -0.000826839 -0.00723229 0.00627164 0.0174665 -0.0306121 -0.0254387 -0.0129254 -0.0046167 -0.0121678 -0.00202511 0.00501595 -0.0186716 -0.011024 -0.0128901 -0.00682139 0.00634071 0.0206936 4.63758e-05 0.0165131 -0.0166444 0.0201283 -0.0260345 0.0371432 -0.0392648 -0.00566164 0.0135758 0.00618645 -0.00235025 0.01566 0.0149445 0.0254098 -0.0111795 -0.0335032 0.0116237 -0.0304717 -0.015237
internal_weight=12473 8768 7505 1263 3705 4860 3258 1602 2198 286 786 739 487 519 150 2645 477 863 369 209 220 81 186 823 1912 619 197 288 71 299 1060 380 109 73 119 62 91 1293 278 197 124 134 166 92 50 422 42 271 438 534 72 186 88 46 51 111 139 104 680 40 271 552
internal_count=12473 8768 7505 1263 3705 4860 3258 1602 2198 286 786 739 487 519 150 2645 477 863 369 209 220 81 186 823 1912 619 197 288 71 299 1060 380 109 73 119 62 91 1293 278 197 124 134 166 92 50 422 42 271 438 534 72 186 88 46 51 111 139 104 680 40 271 552
is_linear=0
shrinkage=0.05


Tree=7
num_leaves=63
num_cat=0
split_feature=59 78 89 15 52 45 48 58 52 51 60 87 61 87 60 87 51 48 97 15 48 50 65 22 52 97 15 79 60 48 58 97 112 114 51 48 51 48 61 97 98 71 51 4 90 50 106 82 9 48 97 11 97 7 27 87 58 48 34 67 0 69
split_gain=5277.81 879.425 416.265 155.12 100.293 87.4775 52.2216 37.2639 34.5454 43.4432 34.9253 36.8055 26.9173 19.5168 20.6599 21.278 18.1784 18.7451 17.3779 16.5715 15.1198 13.7706 13.156 12.6791 23.531 12.5749 11.7925 11.4766 10.6754 10.1899 9.62187 8.4208 7.01929 6.94481 19.353 6.7607 6.35896 12.0627 6.04684 6.40646 5.4772 8.19415 5.41843 5.09681 4.83025 4.38404 4.36346 4.12384 4.10615 3.93191 4.63957 3.34505 3.12687 3.17299 3.09097 3.02264 2.94276 2.87327 2.43581 3.10613 2.38031 2.36041
threshold=1.0000000180025095e-35 3.8194770063909496 0.13000000000000003 4.1425302445428267 112388.50000000001 1.0000000180025095e-35 13.250000000000002 1.0000000180025095e-35 112388.50000000001 504.25000000000006 1.0000000180025095e-35 3.7442929831226768 1.0000000180025095e-35 4.054689642949981 1.0000000180025095e-35 3.8115750058705937 504.25000000000006 13.250000000000002 15.358552365558518 3.85539792903357 13.050000000000002 397.50000000000006 0.0033953601357985938 1.2005000000000001 136435.00000000003 13.845296344448725 4.3378783704709756 7.1088466810317561 1.0000000180025095e-35 13.250000000000002 1.0000000180025095e-35 13.563329137599057 2.5773440000000005 6.8678599154540994 1350.0000000000002 13.350000000000003 504.25000000000006 13.15 1.0000000180025095e-35 16.381785229620046 4.5298768596296108 2.3351229265370628 1350.0000000000002 5.9188139665857031 13.896710815726117 376.90000000000003 15.849789354002949 46.449134957419723 2.0986402790628103 12.950000000000001 14.000809501211966 5.9540011005862779 25.312288840584898 7.661773699968486 0.76350000000000018 3.8007170782823851 1.0000000180025095e-35 12.750000000000002 4.5000000000000009 1.4996339677891657 6.9366259214510642 1.5000000000000002
decision_type=2 2 2 2 2 2 2 2 2 2 2 2 2 2 2 2 2 2 2 2 2 2 2 2 2 2 2 2 2 2 2 2 2 2 2 2 2 2 2 2 2 2 2 2 2 2 2 2 2 2 2 2 2 2 2 2 2 2 2 2 2 2
left_child=1 2 4 19 12 -2 7 22 9 10 35 -12 16 14 18 -16 17 43 -10 21 38 29 28 48 -25 -19 -5 -22 -4 45 31 -11 -15 34 -9 44 37 -14 39 -6 41 55 -21 52 -8 -3 47 -41 -24 -47 -51 56 -1 -54 -50 -31 -20 -18 -33 -60 -26 -37
right_child=5 3 6 26 20 -7 8 33 13 30 11 -13 36 32 15 -17 57 25 51 42 27 -23 23 24 60 -27 -28 -29 -30 40 -32 58 -34 -35 -36 61 -38 -39 -40 46 -42 -43 -44 -45 -46 49 -48 -49 54 50 -52 -53 53 -55 -56 -57 -58 -59 59 -61 -62 -63
leaf_value=-0.013878458633553237 -0.050000000000000003 -0.025378543676558035 -0.0095607646430532142 -0.040133551067235519 -0.0020913241830255304 0.050000000000000003 -0.005857425573326293 -0.032790525746150094 0.033668792650780897 -0.035508656189885253 -0.043192267995707849 0.028668932776365966 0.013315644634462061 0.042594945205505504 -0.04550104032202465 0.0035465406253933907 0.007223702630116827 -0.0034496367350220682 0.0066041757352650167 -0.03582732782570823 0.018030523394958843 -0.029722455590144622 -0.037937603890895844 -0.017106875204726268 0.0096318253129720685 0.04346094197034836 -0.049586624143161402 0.048927614094873707 -0.050000000000000003 -0.035066506976173042 -0.026324991174905957 -0.014452633098041441 0.0078711165623231369 -0.030205007926782684 0.014285646159859264 0.026716004125773907 0.010083638641153811 0.043755185432158984 0.034988990408816825 0.025861396112364449 0.015459871964176764 0.013224685814098589 -0.024292098629469957 0.015895145211834463 0.028476391956210136 -0.024579074122011664 0.043534977672000728 0.0026719391990739569 0.0001139887505107456 -0.020416906343833096 0.0043984625883846697 0.012258581651581659 0.015693556575570256 -0.011272058002650739 -0.016945444259258598 -0.009335162177681924 -0.016985715581820562 -0.012011842916634458 -0.010283014793758809 0.009915034007281066 0.031041409311866438 0.045379472441143459
leaf_weight=64 22 119 24 392 28 3683 21 61 55 43 49 28 87 43 41 48 21 20 20 283 36 182 23 95 20 50 2083 182 51 21 248 354 22 840 34 32 160 52 108 73 37 28 159 32 20 40 24 26 27 31 48 27 24 20 1602 25 39 257 92 24 37 36
leaf_count=64 22 119 24 392 28 3683 21 61 55 43 49 28 87 43 41 48 21 20 20 283 36 182 23 95 20 50 2083 182 51 21 248 354 22 840 34 32 160 52 108 73 37 28 159 32 20 40 24 26 27 31 48 27 24 20 1602 25 39 257 92 24 37 36
internal_value=-0.00062806 -0.0217705 -0.00902236 -0.0414399 0.0160315 0.0494062 -0.0168301 -0.0205992 -0.00829028 -0.0129444 0.00871723 -0.0170609 0.00506664 0.00665032 -0.000186534 -0.0190484 -0.00217144 0.00893182 0.0117192 -0.0245257 0.0341224 -0.0185724 -0.0165405 -0.0156874 -0.00186832 0.0300579 -0.0480894 0.0438253 -0.0370594 -0.0127578 -0.0182389 -0.0143298 0.0308423 -0.0287558 -0.0159422 0.0269275 0.01688 0.0247031 0.0259554 0.0194943 -0.000247471 -0.00810114 -0.0316778 -0.00163123 0.0108908 -0.0185925 0.0244081 0.0197712 -0.0169589 -0.0118064 -0.00533921 -0.00231835 -0.00682423 0.00343646 -0.0166627 -0.0210821 -0.00898914 -0.0105588 -0.0123921 -0.00610411 0.0235293 0.0365967
internal_weight=12473 8768 5320 3448 1264 3705 4056 2814 1242 947 186 77 787 295 230 89 488 210 141 973 477 531 1879 1804 152 70 2475 218 75 349 761 513 65 935 95 109 299 139 259 151 111 74 442 140 41 238 123 99 1652 119 79 86 108 44 1629 46 59 278 470 116 57 68
internal_count=12473 8768 5320 3448 1264 3705 4056 2814 1242 947 186 77 787 295 230 89 488 210 141 973 477 531 1879 1804 152 70 2475 218 75 349 761 513 65 935 95 109 299 139 259 151 111 74 442 140 41 238 123 99 1652 119 79 86 108 44 1629 46 59 278 470 116 57 68
is_linear=0
shrinkage=0.05


Tree=8
num_leaves=63
num_cat=0
split_feature=72 78 44 15 53 45 48 58 53 51 60 18 51 48 18 60 18 18 15 18 60 48 61 18 0 50 92 53 48 15 4 58 18 48 110 61 114 51 61 0 90 51 18 51 78 18 6 50 18 15 64 27 48 48 101 18 58 65 69 48 106 21
split_gain=5194.85 880.353 400.491 156.004 98.1227 87.4775 46.1922 34.3993 32.0652 38.2966 33.2082 44.6781 24.9859 27.8003 20.0952 20.7087 24.5725 20.0196 19.8743 17.5612 26.9141 15.8433 15.738 15.5233 14.5424 13.9172 12.856 19.3007 9.43221 9.34901 8.32334 8.24215 9.54602 7.42438 7.13743 6.65595 6.32607 17.5755 5.80578 6.02429 5.43995 5.2664 5.17077 5.14841 4.87871 5.65917 4.37005 4.25833 4.10436 4.02385 3.50041 3.3023 3.01526 2.94221 4.6564 2.83426 3.33797 2.67547 2.37602 2.33646 2.2502 2.20281
threshold=1.0000000180025095e-35 4.0004338607656145 1.0000000180025095e-35 4.1953875226954338 439.00000000000006 1.0000000180025095e-35 13.250000000000002 1.0000000180025095e-35 439.00000000000006 504.25000000000006 1.0000000180025095e-35 1.8948608469904611 504.25000000000006 13.15 2.0232475821673548 1.0000000180025095e-35 1.9057875029352969 1.5622521124171413 3.84176603892455 1.7888607622545107 1.0000000180025095e-35 13.050000000000002 1.0000000180025095e-35 1.7888607622545107 9.9985897404688124 397.50000000000006 2.4010000000000002 533.80000000000007 13.250000000000002 4.4229343735654938 6.8137669422363967 1.0000000180025095e-35 1.8095466653133714 13.350000000000003 0.46563900000000008 1.0000000180025095e-35 6.8678599154540994 1350.0000000000002 1.0000000180025095e-35 7.3083318517307303 13.627533884472793 1350.0000000000002 1.8948608469904611 1350.0000000000002 6.95438580297622 1.8948608469904611 9.018199508022219 376.90000000000003 2.4207798376797949 4.5417539233703677 1.5029411764705884 0.76350000000000018 13.250000000000002 12.950000000000001 9.1423348591549249 1.8095466653133714 1.0000000180025095e-35 0.031783424078792914 1.5000000000000002 12.850000000000003 14.423091774991926 3.7745000000000002
decision_type=2 2 2 2 2 2 2 2 2 2 2 2 2 2 2 2 2 2 2 2 2 2 2 2 2 2 2 2 2 2 2 2 2 2 2 2 2 2 2 2 2 2 2 2 2 2 2 2 2 2 2 2 2 2 2 2 2 2 2 2 2 2
left_child=1 2 4 18 12 -2 7 19 9 10 33 -12 13 30 15 24 -17 -15 25 20 41 38 42 -23 -10 28 51 -28 47 -5 35 32 -11 40 -16 -1 37 -9 39 -6 -8 -4 -14 55 -30 -46 60 -3 -29 -48 57 -21 -19 -49 61 -20 -57 -34 -35 -24 -41 -55
right_child=5 3 6 29 21 -7 8 36 14 31 11 -13 22 17 34 16 -18 52 43 26 -22 23 59 -25 -26 -27 27 48 44 -31 -32 -33 50 58 -36 -37 -38 -39 -40 46 -42 -43 -44 -45 45 -47 49 53 -50 -51 -52 -53 -54 54 -56 56 -58 -59 -60 -61 -62 -63
leaf_value=-0.0093821539983619008 -0.050000000000000003 -0.024912065144707549 -0.017217830097188757 -0.042013884019576203 0.00024703637781468309 0.050000000000000003 -0.0093737315209138968 -0.03111916564164623 0.032154006766621022 -0.038207253931384341 -0.048599030204275827 0.026644907672615615 -0.034551570191979408 -0.015136360228061677 0.042378708429452849 -0.050000000000000003 0.0034320169128477574 0.027013809262559963 -0.042363712026884687 0.0020372845304126924 -0.050000000000000003 0.001774775478988886 0.021949046847951268 0.047996133432319066 -0.0020583470783582551 -0.029033087282441555 -0.013954099106142322 0.038234851935080125 0.015971353730639896 -0.049853226216411493 0.030461953052630025 -0.025110987907492496 -0.0098072839379310609 0.02546006445772946 0.011868649322746529 0.010322259390299829 -0.028805839776328803 0.013613380710868275 0.034314832800171439 0.024716104815680803 0.026204198327931489 0.013228737488389014 -0.0081612180343146861 -0.024866426421972326 -0.027431861156682398 0.0035114029334444141 0.028438060414801177 -0.022902896744199097 0.0085783775895833976 0.0049579355691093951 -0.013539002952638921 -0.015925805167598953 0.043658434343006876 -0.004281851106687733 0.010834767917524381 -0.027683820274940346 -0.039964676935268548 0.014728030115365982 0.044185110802451771 0.0066616370725195474 0.047127630996207398 -0.026679951662109014
leaf_weight=100 22 94 49 476 33 3683 21 62 50 38 47 34 20 20 41 39 48 39 95 26 89 20 31 198 82 160 83 28 37 1892 24 249 25 32 36 75 864 34 108 21 22 20 258 197 22 45 37 32 20 36 443 1605 90 23 29 152 87 20 36 129 24 21
leaf_count=100 22 94 49 476 33 3683 21 62 50 38 47 34 20 20 41 39 48 39 95 26 89 20 31 198 82 160 83 28 37 1892 24 249 25 32 36 75 864 34 108 21 22 20 258 197 22 45 37 32 20 36 443 1605 90 23 29 152 87 20 36 129 24 21
internal_value=-0.000233275 -0.0212089 -0.00871469 -0.0412992 0.0159334 0.0494062 -0.0162287 -0.019725 -0.00825626 -0.012664 0.0073271 -0.0170152 0.00507666 0.0150779 0.00614342 -0.00158149 -0.0205203 0.0314099 -0.0246752 -0.015861 -0.0318297 0.0338232 -0.00286953 0.0437556 0.0109009 -0.0171037 -0.0144291 0.000640864 -0.0108044 -0.0482774 0.00284945 -0.0176167 -0.014069 0.0250904 0.0281143 -0.000937405 -0.0274529 -0.0152764 0.0254631 0.0191321 0.00882893 -0.00839274 -0.0100598 -0.031277 0.00139858 -0.00664907 0.0244135 -0.0171818 0.025878 0.0168588 -0.0121893 -0.0156395 0.0386263 -0.0102614 -0.00471991 -0.0350581 -0.0321543 0.0010973 0.0353733 0.00962357 0.0366689 -0.0149719
internal_weight=12473 8768 5406 3362 1263 3705 4143 2880 1263 967 192 81 786 348 296 219 87 149 994 1920 158 477 438 218 132 463 1762 131 303 2368 199 775 526 111 77 175 960 96 259 151 43 69 278 531 104 67 118 199 48 73 488 1631 129 105 73 334 239 45 68 160 45 44
internal_count=12473 8768 5406 3362 1263 3705 4143 2880 1263 967 192 81 786 348 296 219 87 149 994 1920 158 477 438 218 132 463 1762 131 303 2368 199 775 526 111 77 175 960 96 259 151 43 69 278 531 104 67 118 199 48 73 488 1631 129 105 73 334 239 45 68 160 45 44
is_linear=0
shrinkage=0.05


Tree=9
num_leaves=63
num_cat=0
split_feature=59 78 89 15 52 45 48 58 52 51 60 18 51 48 15 18 18 60 18 18 60 48 18 73 108 55 22 52 15 48 4 18 58 48 112 73 51 48 121 55 73 0 18 51 78 18 6 9 7 60 51 18 15 0 27 18 60 58 64 89 28 11
split_gain=5115.45 878.013 380.702 165.886 96.0599 87.4745 41.1558 30.4671 28.7819 33.9629 32.6165 43.434 24.3701 27.2756 20.8116 19.6295 19.2676 20.117 24.4707 18.6197 27.5186 16.5271 15.4753 14.4236 13.2942 12.5761 12.1979 19.494 9.68705 8.49381 8.00114 7.76078 8.89436 6.83377 6.83341 6.04278 5.8334 21.0322 10.901 5.8129 5.54854 5.82283 5.09279 4.82418 4.54911 5.37068 4.43385 3.94795 3.94656 3.86852 3.84901 3.82171 3.81972 3.65991 3.5531 3.35119 5.26536 4.23607 3.22438 2.96022 2.92172 2.685
threshold=1.0000000180025095e-35 4.0004338607656145 0.13000000000000003 4.2230803853942165 112388.50000000001 1.0000000180025095e-35 13.250000000000002 1.0000000180025095e-35 112388.50000000001 504.25000000000006 1.0000000180025095e-35 1.8948608469904611 504.25000000000006 13.15 3.84176603892455 1.5622521124171413 2.0232475821673548 1.0000000180025095e-35 1.9057875029352969 1.7888607622545107 1.0000000180025095e-35 13.050000000000002 1.7888607622545107 1.0000000180025095e-35 10.624060723822376 368.00000000000006 1.2005000000000001 136435.00000000003 4.4229343735654938 13.250000000000002 6.8137669422363967 1.8948608469904611 1.0000000180025095e-35 13.350000000000003 2.5607960000000007 5.1496040091936406 1350.0000000000002 13.050000000000002 4.181680000000001 368.00000000000006 1.0000000180025095e-35 7.3083318517307303 1.8948608469904611 1350.0000000000002 6.95438580297622 1.8948608469904611 9.018199508022219 2.0986402790628103 5.9188139665857031 1.0000000180025095e-35 1350.0000000000002 2.4207798376797949 4.5417539233703677 7.2714554729845702 0.76350000000000018 1.7888607622545107 1.0000000180025095e-35 1.0000000180025095e-35 1.5029411764705884 1.6990000000000001 0.22850000000000004 6.1563976708645631
decision_type=2 2 2 2 2 2 2 2 2 2 2 2 2 2 2 2 2 2 2 2 2 2 2 2 2 2 2 2 2 2 2 2 2 2 2 2 2 2 2 2 2 2 2 2 2 2 2 2 2 2 2 2 2 2 2 2 2 2 2 2 2 2
left_child=1 2 4 14 12 -2 7 19 9 10 33 -12 13 30 25 -15 17 24 -19 20 43 40 -23 42 -10 29 47 -28 -5 50 35 49 58 53 -18 -1 -9 -38 -39 55 41 -6 -14 -4 -31 -46 -43 -21 -17 -11 -3 -29 -48 -8 -49 56 -16 -57 59 -33 -52 -42
right_child=5 3 6 28 21 -7 8 36 16 31 11 -13 23 15 39 48 34 18 -20 26 -22 22 -24 -25 -26 -27 27 51 -30 44 -32 32 -34 -35 -36 -37 37 38 -40 -41 61 46 -44 -45 45 -47 52 54 -50 -51 60 -53 -54 -55 -56 57 -58 -59 -60 -61 -62 -63
leaf_value=-0.0089411927345208822 -0.050000000000000003 -0.023772470534164855 -0.016374507850530195 -0.041329788022602981 0.00023842759317520897 0.049998300513462497 -0.006989838853478432 -0.028293381578155925 0.028589117272119775 -0.023261481042831177 -0.048495628003110275 0.026342662277095249 -0.03394691773690283 -0.01506067842245102 -0.027144080466484723 0.018300388380885126 0.037490576810131855 -0.050000000000000003 0.0033211914822459223 -0.037013611197471617 -0.050000000000000003 0.0017614647187292574 0.047911291755735878 0.0092029658099636435 -0.003445574094851812 -0.027699379837140443 -0.013814556728420633 0.03726793314729418 -0.049756852959540632 0.015280700696481242 0.029890791528547806 0.015489305555820466 -0.023477347096020573 0.034119887124089636 0.0056806624233722691 0.0098336727780600399 -0.027280466196437675 0.032611563384532929 -0.013208246797633669 -0.038009003127614654 0.026463010951371518 0.036341931343906453 -0.0077563204728797915 0.012765731886029245 -0.026808409710330047 0.0033358328204808963 0.02766946395103996 0.0040413591414690019 0.041972026051184455 -0.050000000000000003 -0.015365871221898761 0.010077506222296508 0.0047926711073766155 0.022255771348009941 -0.01495723874560944 -0.019849825398946669 -0.050000000000000003 -0.032287239321158269 -0.012897278099611604 -0.010318641901016237 0.0027536942609003748 0.042298431439819387
leaf_weight=100 22 94 49 416 33 3683 20 728 57 31 47 33 20 20 79 21 52 39 48 20 89 20 198 160 75 160 89 28 1892 37 24 20 233 68 25 75 180 25 27 180 59 45 258 20 22 45 37 25 109 24 73 24 36 23 1576 187 37 108 442 25 32 49
leaf_count=100 22 94 49 416 33 3683 20 728 57 31 47 33 20 20 79 21 52 39 48 20 89 20 198 160 75 160 89 28 1892 37 24 20 233 68 25 75 180 25 27 180 59 45 258 20 22 45 37 25 109 24 73 24 36 23 1576 187 37 108 442 25 32 49
internal_value=0.000145874 -0.0206688 -0.00819122 -0.0407324 0.0158279 0.0494045 -0.015521 -0.0188203 -0.00799188 -0.0121717 0.00671336 -0.0176248 0.00509687 0.0149537 -0.0242973 0.0310536 0.005649 -0.00191517 -0.0205814 -0.0151839 -0.0316268 0.0335328 0.0436774 -0.00275707 0.0103876 -0.0163594 -0.0137094 0.000396218 -0.0482379 -0.0103713 0.00281802 -0.0168259 -0.0154431 0.0242544 0.0271627 -0.000894822 -0.0260931 -0.0191889 0.00882051 -0.030516 0.0249942 0.018805 -0.00964054 -0.00792806 0.00120878 -0.00656228 0.0239974 -0.0149364 0.0381481 -0.0349292 -0.0164231 0.0247185 0.0163878 0.00865316 -0.0146606 -0.0272344 -0.0344343 -0.0244032 -0.0115991 0.00115156 -0.00984372 0.0336476
internal_weight=12473 8768 5406 3362 1264 3705 4142 2880 1262 966 191 80 787 349 1054 150 296 219 87 1920 158 477 218 438 132 463 1762 141 2308 303 199 775 720 111 77 175 960 232 52 591 259 151 278 69 104 67 118 1621 130 55 199 52 73 43 1601 411 116 295 487 45 105 108
internal_count=12473 8768 5406 3362 1264 3705 4142 2880 1262 966 191 80 787 349 1054 150 296 219 87 1920 158 477 218 438 132 463 1762 141 2308 303 199 775 720 111 77 175 960 232 52 591 259 151 278 69 104 67 118 1621 130 55 199 52 73 43 1601 411 116 295 487 45 105 108
is_linear=0
shrinkage=0.05


Tree=10
num_leaves=63
num_cat=0
split_feature=59 78 89 15 52 45 48 58 52 51 18 61 51 48 18 61 18 15 18 48 18 61 15 50 22 52 61 58 18 90 18 58 4 48 48 111 61 61 67 50 51 48 121 18 96 4 51 78 18 7 26 9 18 18 58 50 2 98 24 64 89 28
split_gain=5036.49 873.467 362.274 175.009 94.1203 87.4299 36.5623 26.9005 25.7158 30.0802 27.9028 24.5192 23.7913 26.9155 19.6358 28.0973 19.3799 19.2431 18.3117 17.2015 15.4274 13.1918 12.9306 11.3604 11.2673 18.0773 11.1383 10.3771 24.3724 8.23602 7.82924 8.05768 7.69174 7.64365 6.9122 6.55529 5.4861 5.37078 5.59173 5.30881 5.2662 19.0052 9.89003 5.01173 4.74421 4.67927 4.41955 4.23943 5.0977 4.01511 3.9554 3.94153 3.61738 3.54158 3.8515 3.48354 3.44503 3.23278 3.15796 2.97701 2.74866 2.67569
threshold=1.0000000180025095e-35 4.0004338607656145 0.13000000000000003 4.2230803853942165 112388.50000000001 1.0000000180025095e-35 13.250000000000002 1.0000000180025095e-35 112388.50000000001 504.25000000000006 1.8095466653133714 1.0000000180025095e-35 504.25000000000006 13.15 1.7888607622545107 1.0000000180025095e-35 1.5622521124171413 3.84176603892455 2.0232475821673548 13.050000000000002 1.7888607622545107 1.0000000180025095e-35 4.4229343735654938 397.50000000000006 1.2005000000000001 136435.00000000003 1.0000000180025095e-35 1.0000000180025095e-35 1.9057875029352969 19.984496705065315 1.8948608469904611 1.0000000180025095e-35 6.8137669422363967 13.250000000000002 13.350000000000003 1.2884040191012491 1.0000000180025095e-35 1.0000000180025095e-35 2.2869912210694339 397.50000000000006 1350.0000000000002 13.050000000000002 4.181680000000001 1.8948608469904611 1.9817907005791617 4.8824357953680462 1350.0000000000002 6.95438580297622 1.8948608469904611 5.9188139665857031 0.89950000000000008 2.0986402790628103 2.4207798376797949 1.7888607622545107 1.0000000180025095e-35 376.90000000000003 12.45344529780426 2.1134953024384813 0.035500000000000011 1.5029411764705884 1.6990000000000001 0.22850000000000004
decision_type=2 2 2 2 2 2 2 2 2 2 2 2 2 2 2 2 2 2 2 2 2 2 2 2 2 2 2 2 2 2 2 2 2 2 2 2 2 2 2 2 2 2 2 2 2 2 2 2 2 2 2 2 2 2 2 2 2 2 2 2 2 2
left_child=1 2 4 17 12 -2 7 14 9 10 11 57 13 32 15 -4 -15 23 26 37 -21 43 -5 33 51 -26 27 28 -10 -29 -11 59 36 55 56 -20 -1 38 44 53 -9 -42 -43 -14 -6 -40 -17 -35 -49 -18 -28 -16 -27 -19 -55 -3 -12 -8 -51 60 -32 -57
right_child=5 3 6 22 19 -7 8 40 18 30 34 -13 21 16 24 46 49 39 35 20 -22 -23 -24 -25 25 52 50 29 -30 -31 31 -33 -34 47 -36 -37 -38 -39 45 -41 41 42 -44 -45 -46 -47 -48 48 -50 58 -52 -53 -54 54 -56 61 -58 -59 -60 -61 -62 -63
leaf_value=-0.0085209567029960447 -0.050000000000000003 -0.022690319436344697 -0.050000000000000003 -0.039890673697496271 0.032791732640608272 0.049972789369456767 -0.041666926296822955 -0.026890371610911998 -0.050000000000000003 -0.034273647435686803 0.021675021339345863 0.028485663980245591 -0.033352846670895817 -0.01498537503182888 -0.036273338720202448 -0.015572490877642923 0.017864664652872654 -0.033527167167129189 0.038409810165564218 0.001748253721743822 0.047826600086056825 0.0087802046137039728 -0.049626885401774158 -0.026426939507946376 -0.013162633885493439 0.036153155937790872 0.031795237004756928 0.027474097509940083 0.0032139445655047895 -0.0072206564545631404 0.015024626255035402 -0.022348822522188973 0.029330339174096783 0.014612150313080968 0.035827043134380475 0.008807189206709155 0.0093682122294946272 0.03305239802769696 -0.0071885195230284044 -0.036422361880540849 -0.025931598618626595 0.031046657145023349 -0.01259675393294957 -0.007371510706400651 0.0094451880373526368 0.023831935329362751 0.012318931370973589 -0.026199127733707431 0.003169041173791306 0.046383901454863097 0.0050646685664692236 -0.013938462986133243 0.009699599832917254 -0.018873256232099542 -0.030732668491287363 -0.014723872595182812 -0.0053269692474887491 -0.019181024223085374 0.026140796124935153 -0.012290445968458151 -0.0098439841270446787 0.0026160097157116981
leaf_weight=100 22 94 89 416 68 3683 33 728 39 55 27 24 20 20 20 49 21 116 45 20 198 160 1892 160 89 28 25 26 48 50 20 233 24 37 55 32 75 108 31 180 180 25 27 258 32 20 20 22 45 84 31 1601 24 187 108 73 21 31 25 442 25 32
leaf_count=100 22 94 89 416 68 3683 33 728 39 55 27 24 20 20 20 49 21 116 45 20 198 160 1892 160 89 28 25 26 48 50 20 233 24 37 55 32 75 108 31 180 180 25 27 258 32 20 20 22 45 84 31 1601 24 187 108 73 21 31 25 442 25 32
internal_value=0.000502153 -0.0201513 -0.00770603 -0.0401629 0.0157245 0.0493792 -0.0148562 -0.0179659 -0.00775967 -0.0117106 0.00606221 -0.0146132 0.0051024 0.0148415 -0.014549 -0.0314346 0.0308348 -0.0232818 0.00513419 0.0332498 0.0435992 -0.0026577 -0.047872 -0.0156489 -0.0130348 0.000522017 -0.00223996 -0.00884931 -0.0206406 0.0046486 -0.0160907 -0.0147017 0.00278617 -0.00995757 0.0237267 0.0261074 -0.00085417 0.0245388 0.0184495 -0.0292616 -0.0247998 -0.0182398 0.00838566 -0.00924067 0.0253208 0.00497636 -0.00748802 0.00102765 -0.00647424 0.037884 0.016998 -0.014214 0.0239438 -0.0261255 -0.023215 -0.0156986 0.00986165 -0.0307753 0.041741 -0.0110431 0.00120873 -0.00943934
internal_weight=12473 8768 5406 3362 1264 3705 4142 2880 1262 966 191 88 787 349 1920 158 150 1054 296 477 218 438 2308 463 1762 141 219 163 87 76 775 720 199 303 103 77 175 259 151 591 960 232 52 278 100 51 69 104 67 130 56 1621 52 411 295 199 48 64 109 487 45 105
internal_count=12473 8768 5406 3362 1264 3705 4142 2880 1262 966 191 88 787 349 1920 158 150 1054 296 477 218 438 2308 463 1762 141 219 163 87 76 775 720 199 303 103 77 175 259 151 591 960 232 52 278 100 51 69 104 67 130 56 1621 52 411 295 199 48 64 109 487 45 105
is_linear=0
shrinkage=0.05


Tree=11
num_leaves=63
num_cat=0
split_feature=59 44 15 52 45 51 48 15 18 60 58 51 48 48 18 48 51 52 15 18 60 18 26 48 18 97 51 64 15 58 4 48 18 48 51 4 97 71 0 15 15 67 55 71 6 11 30 64 1 109 112 99 71 18 48 115 82 15 58 29 24 0
split_gain=4949.65 733.897 643.469 92.1181 87.2757 43.4182 31.6607 29.2054 24.2685 54.2567 36.7687 23.2731 26.8021 22.459 19.3024 18.7064 23.8424 17.965 21.9214 23.1611 35.0617 34.6064 19.5516 17.9158 15.3796 13.4843 13.2357 10.2656 8.91068 7.75229 7.39143 6.41122 5.56199 5.28124 8.61444 5.12126 6.52192 4.37456 3.84955 4.54857 3.69411 3.67672 3.65158 3.61922 3.57153 5.03624 3.53428 3.74892 3.33384 3.23039 2.94994 3.1524 2.90085 2.80757 4.167 5.32664 2.79431 2.70282 2.59627 2.34275 2.33582 2.33095
threshold=1.0000000180025095e-35 1.0000000180025095e-35 4.1425302445428267 112388.50000000001 1.0000000180025095e-35 1350.0000000000002 13.050000000000002 4.4229343735654938 1.8095466653133714 1.0000000180025095e-35 1.0000000180025095e-35 504.25000000000006 13.15 13.350000000000003 1.5622521124171413 13.350000000000003 805.55000000000007 112388.50000000001 3.659012144231617 2.002160686891322 1.0000000180025095e-35 1.8481781943666664 0.7985000000000001 13.050000000000002 1.7888607622545107 15.358552365558518 1004.8000000000001 1.9453006995058002 3.2495631304454657 1.0000000180025095e-35 6.8137669422363967 12.750000000000002 1.8292918577035315 13.350000000000003 805.55000000000007 6.0979936490142554 17.628973205731395 3.554124210664257 5.7141800863521466 3.3390520953045137 3.5767442590158263 0.26905616554054063 368.00000000000006 3.3020049662061157 7.6546315869653627 6.2524889275136371 196.50000000000003 21.886116886116891 1.2924812503605783 1.4059463927347526 3.8005360000000006 2.5310516904655525 3.8641251429193422 1.8603276782758624 12.950000000000001 20.630571146839028 45.059794760678642 3.7013517162933458 1.0000000180025095e-35 0.11650000000000002 0.025500000000000005 6.607311343151169
decision_type=2 2 2 2 2 2 2 2 2 2 2 2 2 2 2 2 2 2 2 2 2 2 2 2 2 2 2 2 2 2 2 2 2 2 2 2 2 2 2 2 2 2 2 2 2 2 2 2 2 2 2 2 2 2 2 2 2 2 2 2 2 2
left_child=1 3 5 11 -2 8 29 42 9 13 15 12 30 57 -14 37 28 27 19 20 25 -22 38 35 -25 61 -15 -8 -17 53 52 -13 -33 40 -35 36 49 -10 -21 58 -12 -18 -4 -34 -38 60 -16 -48 -29 -5 -50 -52 -1 -7 -55 -56 -47 -3 -40 -37 -46 -19
right_child=4 2 7 23 -6 6 17 -9 10 -11 33 31 14 26 46 16 41 18 -20 22 21 -23 -24 24 -26 -27 -28 48 -30 -31 -32 32 43 34 -36 59 44 -39 39 -41 -42 -43 -44 -45 45 56 47 -49 50 -51 51 -53 -54 54 55 -57 -58 -59 -60 -61 -62 -63
leaf_value=-0.00471792094808734 -0.050000000000000003 -0.019525481173923002 -0.033776874505863412 -0.011553132130453985 0.049884590738790049 -0.029957707762718201 0.022022779818092073 -0.049457723548119975 -0.013794376060546655 -0.049157867047387338 -0.024960466735992646 0.018289364066303656 -0.014910448156297208 0.025619179217351809 0.02011348456144333 0.043040976202801659 0.0079317509063652585 0.014551770257786279 -0.014304889937550386 0.0086195262148976333 -0.050000000000000003 0.004875305268381324 -0.023161444698714399 0.0017351417988538743 0.047742058131655662 -0.0025243679041063397 -0.023266195952892307 0.0036678990125656127 0.0030558968047526749 -0.02558533953218331 0.028772301444162925 -0.027662156578541427 -0.0053033454378591562 0.0085174637039502465 -0.024207459158096158 0.024078448972216362 0.042786271432819573 -0.025554845127535156 0.039133526984511356 0.010044451236076979 -0.035671125433485336 -0.015352526576977901 -0.042092720522443852 0.0068361997987161083 0.019443660485931338 0.039422912173904479 0.048337599485587912 0.02834300036941256 -0.01754969300909175 0.016524759568274022 0.010268666772615342 -0.013365306739890299 0.0098064601945225156 -0.01538316404916352 -0.011085726024552447 0.015941691849953855 0.01653330703265965 -0.031848559528589247 0.022341024471825222 0.042870151857997099 9.6046372961539495e-05 0.029869383198046495
leaf_weight=128 22 181 381 21 3683 25 21 1892 1671 197 763 34 20 45 23 38 21 41 161 24 59 56 22 20 198 91 20 25 22 203 24 24 303 30 61 27 23 83 82 23 90 88 202 77 39 40 71 35 270 20 21 43 47 312 61 26 20 59 32 43 26 63
leaf_count=128 22 181 381 21 3683 25 21 1892 1671 197 763 34 20 45 23 38 21 41 161 24 59 56 22 20 198 91 20 25 22 203 24 24 303 30 61 27 23 83 82 23 90 88 202 77 39 40 71 35 270 20 21 43 47 312 61 26 20 59 32 43 26 63
internal_value=0.000837672 -0.0196369 -0.0255712 0.0156254 0.0492915 -0.0153013 -0.00868547 -0.0464427 -0.0185631 -0.0287047 -0.0167874 0.00510603 0.0147584 -0.0154939 0.0307945 -0.0128201 0.00306705 -0.00330996 0.00171377 0.00694502 -0.00138163 -0.0232781 0.0210503 0.0329591 0.0435212 0.0115317 0.0105775 -0.0119561 0.0283798 -0.0175503 0.00275148 -0.00256297 -0.00431787 -0.024869 -0.013419 0.024069 0.0197902 -0.0143509 0.0270916 0.0303276 -0.0260905 -0.0108666 -0.0366582 -0.00284349 0.0246788 0.0213471 0.0378805 0.0417356 -0.0139437 0.0021434 -0.0152619 -0.00561041 -0.000817087 -0.0137034 -0.0126849 -0.00300857 0.031793 -0.0225549 0.0344198 0.0356219 0.0117046 0.0238307
internal_weight=12473 8768 7505 1263 3705 5030 1661 2475 3369 502 2867 786 348 305 149 1923 169 1034 654 493 310 115 183 477 218 195 65 380 60 627 199 438 404 944 91 259 189 1754 161 137 853 109 583 380 148 125 129 106 359 41 334 64 175 424 399 87 60 240 114 70 65 104
internal_count=12473 8768 7505 1263 3705 5030 1661 2475 3369 502 2867 786 348 305 149 1923 169 1034 654 493 310 115 183 477 218 195 65 380 60 627 199 438 404 944 91 259 189 1754 161 137 853 109 583 380 148 125 129 106 359 41 334 64 175 424 399 87 60 240 114 70 65 104
is_linear=0
shrinkage=0.05


Tree=12
num_leaves=63
num_cat=0
split_feature=59 78 89 15 52 46 51 48 50 51 48 15 87 60 18 18 48 69 18 60 58 48 51 18 18 15 1 61 50 64 4 48 51 51 48 9 61 62 58 18 61 6 48 96 7 18 18 58 15 60 24 122 48 2 1 11 50 106 101 62 18 81
split_gain=4841.79 861.704 328.287 192.798 90.4023 86.8357 30.7045 27.154 25.2479 22.7523 26.3823 20.643 19.5022 22.2107 36.6388 18.9566 18.48 17.708 29.5612 23.6099 19.2346 16.8373 19.9971 15.3265 14.1601 13.5086 12.3367 11.76 9.41923 9.36601 7.07688 6.9886 8.99524 6.34722 6.25654 5.81841 5.23995 5.41613 5.12899 4.89407 4.7297 4.66912 4.38639 7.07067 4.23384 3.98784 3.83587 4.57526 3.54077 3.39962 3.38517 3.37118 3.35848 3.14971 2.97283 2.96497 2.8851 2.74097 2.51577 2.40421 2.385 2.35433
threshold=1.0000000180025095e-35 4.0004338607656145 0.13000000000000003 4.2795300499912186 112388.50000000001 1.0000000180025095e-35 1350.0000000000002 13.050000000000002 344.30000000000007 504.25000000000006 13.15 3.84176603892455 4.054689642949981 1.0000000180025095e-35 1.8481781943666664 1.5622521124171413 13.050000000000002 1.5000000000000002 1.7363782246586064 1.0000000180025095e-35 1.0000000180025095e-35 13.350000000000003 805.55000000000007 1.7888607622545107 1.9934306351450226 4.4775842080881469 3.9534452978042598 1.0000000180025095e-35 397.50000000000006 1.9453006995058002 6.8137669422363967 13.350000000000003 805.55000000000007 1350.0000000000002 13.250000000000002 4.9469363393975412 1.0000000180025095e-35 0.010674838362068966 1.0000000180025095e-35 1.8948608469904611 1.0000000180025095e-35 9.018199508022219 13.350000000000003 1.4483084987169119 5.9188139665857031 1.7520314413393463 1.774501631012894 1.0000000180025095e-35 4.5417539233703677 1.0000000180025095e-35 0.035500000000000011 13.543888210965745 13.250000000000002 13.060523894343463 1.2924812503605783 6.1563976708645631 376.90000000000003 14.423091774991926 13.963675517382168 0.0067685883620689667 1.7888607622545107 1.7558272047489625
decision_type=2 2 2 2 2 2 2 2 2 2 2 2 2 2 2 2 2 2 2 2 2 2 2 2 2 2 2 2 2 2 2 2 2 2 2 2 2 2 2 2 2 2 2 2 2 2 2 2 2 2 2 2 2 2 2 2 2 2 2 2 2 2
left_child=1 2 4 11 9 -2 17 35 29 10 30 28 13 24 -15 -12 36 18 19 52 31 -19 -23 -18 -10 -5 51 39 34 -9 40 -20 -33 46 56 38 37 -6 -8 -11 -1 57 -22 -44 -17 -36 49 -48 -43 -13 -46 59 -4 -16 -31 -38 -3 -39 -56 -14 -35 -47
right_child=5 3 6 25 16 -7 7 8 12 27 15 33 26 14 53 44 23 21 20 -21 42 22 -24 -25 -26 -27 -28 -29 -30 54 -32 32 -34 60 45 -37 55 41 -40 -41 -42 48 43 -45 50 61 47 -49 -50 -51 -52 -53 -54 -55 58 -57 -58 -59 -60 -61 -62 -63
leaf_value=-0.0078987294957041741 -0.050000000000000003 -0.020787480148546242 -0.023802414100344588 -0.039622165284295019 -0.00024117964009443918 0.049632515374519501 -0.013713547409359265 0.021296391565175283 0.024848789548458056 -0.032508672254625712 -0.014835895933210851 -0.032659362937862937 0.02301553332557281 -0.050000000000000003 0.019534266293048858 0.016895579382599817 0.0017221282050013543 -0.012662065261159412 -0.013316791081588262 -0.050000000000000003 -0.023693664132737789 0.039454064952830478 -0.0081459134555699527 0.047649540165157031 -0.0021799056799159393 -0.049650529427590066 -0.013579678907990457 0.0083336589540203929 -0.024226935273036362 0.0035505263209342957 0.028172878610591097 0.031550230951688719 -0.0090377537539055534 -0.029665616244980788 -0.012748218255324496 0.0069881917192385753 0.024539333894469981 0.022148810921325573 -0.024298532272494119 -0.0068341254642911896 0.0087114878185093406 0.025726055998254466 0.012817595357244665 -0.020810243901279238 0.046220675838135543 0.017996106885848642 -0.02441057729013606 -0.03653487486164432 0.0037004389774261252 -0.050000000000000003 0.025261983990669253 0.010446926802396776 -0.0042507767304778106 -0.0035742266938604155 -0.01564180903654817 0.041179886875122945 -0.0087282836695556486 0.046883895186086495 0.0002882684270540873 0.039577234375091003 -0.018562339978853436 -0.00068389293611855124
leaf_weight=100 22 94 82 414 33 3683 342 21 86 20 20 76 36 50 30 21 20 571 1011 128 735 36 57 198 111 1778 20 160 160 25 24 20 43 66 36 26 59 21 172 258 75 37 22 54 84 31 218 121 36 45 25 20 30 29 302 49 105 24 27 56 181 37
leaf_count=100 22 94 82 414 33 3683 342 21 86 20 20 76 36 50 30 21 20 571 1011 128 735 36 57 198 111 1778 20 160 160 25 24 20 43 66 36 26 59 21 172 258 75 37 22 54 84 31 218 121 36 45 25 20 30 29 302 49 105 24 27 56 181 37
internal_value=0.00111795 -0.0191323 -0.00677118 -0.0390088 0.0155332 0.0490409 -0.0135777 -0.00739698 -0.00162414 0.00512303 0.014647 -0.0226198 0.00652884 -0.000400648 -0.0185103 0.0304812 0.0327089 -0.0165761 -0.0188032 -0.0353305 -0.0166989 -0.00944881 0.0102799 0.043436 0.00961942 -0.0477565 0.0225926 -0.00246574 -0.0144129 -0.0111468 0.00271175 -0.01231 0.00384732 -0.0279944 -0.00923054 -0.0160883 0.0236799 0.0176653 -0.0172556 -0.00868122 -0.000780065 0.022673 -0.0225112 -0.0110759 0.037453 0.000708071 -0.031466 -0.0287381 0.0148641 -0.0391084 0.0414136 0.029052 -0.0185654 0.00817585 -0.0130714 0.0320892 -0.0144246 0.0353409 -0.0143345 0.0330966 -0.0215292 0.00783199
internal_weight=12473 8768 5406 3362 1264 3705 4142 1353 813 787 349 1170 438 306 109 150 477 2789 2125 240 1885 664 93 218 197 2192 132 438 463 375 199 1074 63 707 303 540 259 151 514 278 175 118 811 76 130 104 460 339 73 121 109 112 112 59 354 108 199 45 329 92 247 68
internal_count=12473 8768 5406 3362 1264 3705 4142 1353 813 787 349 1170 438 306 109 150 477 2789 2125 240 1885 664 93 218 197 2192 132 438 463 375 199 1074 63 707 303 540 259 151 514 278 175 118 811 76 130 104 460 339 73 121 109 112 112 59 354 108 199 45 329 92 247 68
is_linear=0
shrinkage=0.05


Tree=13
num_leaves=63
num_cat=0
split_feature=59 78 89 15 52 45 69 18 60 60 15 51 48 65 48 18 50 8 15 95 48 50 48 61 52 48 50 51 52 22 112 48 52 4 73 48 73 87 60 4 97 65 48 73 18 51 109 73 22 48 2 48 48 106 82 18 60 60 110 51 109 48
split_gain=4678.41 851.483 313.105 201.469 88.6075 85.673 28.875 38.6828 61.0144 26.6195 22.5532 22.2653 26.222 20.2655 19.1171 15.2709 13.7518 12.7987 12.4427 11.6399 11.3802 11.2742 12.611 10.758 10.5503 9.48197 8.34851 8.29187 7.62076 7.42981 7.38477 6.72182 6.71896 6.56752 7.2751 6.30922 5.88488 9.0136 11.7149 5.12444 6.1594 5.10259 5.0421 4.92439 4.80684 4.7524 4.58122 4.50446 4.44872 4.36035 4.34565 4.33001 4.27324 4.07492 4.51772 3.7757 3.83142 3.75964 3.53856 3.18959 3.03024 3.01229
threshold=1.0000000180025095e-35 4.0004338607656145 0.13000000000000003 4.3216812513278509 112388.50000000001 1.0000000180025095e-35 1.5000000000000002 1.8095466653133714 1.0000000180025095e-35 1.0000000180025095e-35 3.8924563631549591 504.25000000000006 13.250000000000002 0.025336326669815928 13.050000000000002 1.7888607622545107 397.50000000000006 1.5000000000000002 4.5173476752339745 6.7762832792469476 13.250000000000002 397.50000000000006 13.15 1.0000000180025095e-35 136435.00000000003 13.250000000000002 397.50000000000006 504.25000000000006 112388.50000000001 0.93300000000000016 2.5773440000000005 13.15 136435.00000000003 6.8137669422363967 7.9277749205843344 13.250000000000002 6.0552416549081132 3.6190933306267428 1.0000000180025095e-35 6.0979936490142554 17.628973205731395 0.026288006101814403 13.15 8.9929376414672788 1.8948608469904611 5908.2500000000009 1.2148587768710322 6.9943423433860836 1.2205000000000001 13.350000000000003 13.422588040573638 13.050000000000002 13.15 16.084573946817148 46.211444143828729 1.774501631012894 1.0000000180025095e-35 1.0000000180025095e-35 1.2231795000000003 5908.2500000000009 1.4059463927347526 13.050000000000002
decision_type=2 2 2 2 2 2 2 2 2 2 2 2 2 2 2 2 2 2 2 2 2 2 2 2 2 2 2 2 2 2 2 2 2 2 2 2 2 2 2 2 2 2 2 2 2 2 2 2 2 2 2 2 2 2 2 2 2 2 2 2 2 2
left_child=1 2 4 10 11 -2 7 8 24 20 26 12 33 16 39 -16 25 21 -5 -14 47 22 -11 44 49 46 36 -22 43 35 -30 -26 55 34 -1 -15 37 38 -3 40 60 42 -19 -29 -13 -31 48 -9 -8 -4 -32 -39 -38 54 -42 56 -12 -57 -56 -43 -6 -34
right_child=5 3 6 18 14 -7 13 9 -10 17 32 23 19 29 15 -17 -18 41 -20 -21 27 -23 -24 -25 31 -27 -28 28 30 45 50 -33 61 -35 -36 -37 52 51 -40 -41 53 59 -44 -45 -46 -47 -48 -49 -50 -51 -52 -53 -54 -55 58 57 -58 -59 -60 -61 -62 -63
leaf_value=-0.0032945755120875365 -0.050000000000000003 -0.0031744677763940257 -0.021419335106531018 -0.040022871900096679 -0.011441362072669325 0.048963208937172396 -0.014286168352426852 -0.022100990191321165 -0.049143543987724914 -0.0014638991170638318 -0.032045749617883791 -0.031939770481549203 0.002145225803057353 -0.0061522692441940315 0.0017092122510075571 0.047553278460647122 -0.011918193426240108 -0.0084307463997153245 -0.049708463131434226 0.043764033319339868 0.011251012696765173 -0.015053057149052621 0.039545481965730073 0.0079482271408778619 -0.0087926294122423459 0.029778632682023777 -0.023150892120737562 -0.019752420791898109 0.022615201527682635 -0.011703364843133531 -0.020011647128396565 0.025553102585776102 -0.031220136937059342 0.029310101671860767 0.016585768942340193 0.026171024029071517 -0.0095388256732309093 -0.01913492360736354 -0.050000000000000003 0.034810070982202894 0.026861890246766773 -0.010793174988411751 0.02022113794726985 -0.0038692868391021354 -0.0064950679411503402 0.0069751415401697161 0.024734095223248004 -0.014602332975793603 0.015432558655738832 0.0040730232186615466 0.0090570375323295593 -0.0021475106061806955 0.010282047503054717 0.044127110924039571 0.021027588143589952 -0.032296575774180603 -0.050000000000000003 -0.021365943103218859 -0.008359100073575973 0.002381681961317857 0.015752821918576958 -0.018527305732743117
leaf_weight=152 22 22 104 412 21 3683 34 850 201 37 78 20 21 36 20 198 58 34 1699 84 39 35 38 160 28 72 173 244 26 630 36 29 61 26 66 26 57 59 34 70 86 1070 28 61 258 36 20 262 20 20 20 103 52 21 21 249 48 115 20 48 20 200
leaf_count=152 22 22 104 412 21 3683 34 850 201 37 78 20 21 36 20 198 58 34 1699 84 39 35 38 160 28 72 173 244 26 630 36 29 61 26 66 26 57 59 34 70 86 1070 28 61 258 36 20 262 20 20 20 103 52 21 21 249 48 115 20 48 20 200
internal_value=0.0012681 -0.0186376 -0.00634996 -0.0383958 0.0154326 0.0483756 -0.0129973 -0.0152467 -0.030181 -0.0132295 -0.022496 0.00512626 0.0145478 -0.00524961 0.0324369 0.0433474 0.00867848 -0.00793265 -0.0478181 0.0354403 -0.0176721 0.00837915 0.0193142 -0.00238084 -0.00912323 0.0168607 -0.0142683 -0.0107233 -0.0129377 -0.00915254 0.000594106 0.00868151 -0.0279739 0.00555716 0.00272424 0.00740266 -0.00956893 -0.0143119 -0.0316043 0.0232536 0.0189734 -0.00945325 0.00450881 -0.0165758 -0.00832562 -0.0106937 0.00429194 -0.0203342 -0.00327923 -0.0173077 -0.00962997 -0.00833428 -8.29963e-05 0.0237243 0.0203506 -0.0314255 -0.0388855 -0.0288432 0.00669262 -0.0102275 0.00182409 -0.0214938
internal_weight=12473 8768 5406 3362 1264 3705 4142 3210 382 2828 1251 787 349 932 477 218 204 1290 2111 105 1538 110 75 438 181 146 500 426 387 728 82 57 751 244 218 62 327 218 56 259 189 1180 62 305 278 666 74 1112 54 124 56 162 109 148 127 490 126 364 41 1118 41 261
internal_count=12473 8768 5406 3362 1264 3705 4142 3210 382 2828 1251 787 349 932 477 218 204 1290 2111 105 1538 110 75 438 181 146 500 426 387 728 82 57 751 244 218 62 327 218 56 259 189 1180 62 305 278 666 74 1112 54 124 56 162 109 148 127 490 126 364 41 1118 41 261
is_linear=0
shrinkage=0.05


Tree=14
num_leaves=63
num_cat=0
split_feature=59 78 89 15 52 45 69 18 60 58 51 48 15 48 18 65 15 18 108 50 50 48 61 52 48 48 108 50 25 50 4 52 48 73 18 60 61 0 34 18 50 48 51 28 88 18 60 58 26 48 61 48 1 48 30 64 64 51 25 50 48 51
split_gain=4485.76 839.554 299.023 209.386 87.0746 84.0723 27.0948 40.7185 62.2682 27.1571 21.6618 26.3099 20.3514 19.7183 18.6666 18.572 16.1763 15.2155 12.662 12.5795 11.1902 10.6532 9.84372 9.5297 8.60006 8.30415 7.53819 7.33504 7.11216 7.04271 6.55073 6.28758 6.07812 5.62352 9.05756 12.0125 5.10291 5.1207 4.81186 4.71782 4.45666 5.06564 4.28066 4.11552 4.10757 4.10074 4.54561 4.36451 3.94914 3.94527 3.93373 3.88834 5.021 3.86003 3.63292 3.90373 3.57961 9.05063 3.47919 3.26493 3.18418 3.11295
threshold=1.0000000180025095e-35 4.0004338607656145 0.13000000000000003 4.3216812513278509 112388.50000000001 1.0000000180025095e-35 1.5000000000000002 1.8095466653133714 1.0000000180025095e-35 1.0000000180025095e-35 504.25000000000006 13.15 3.8924563631549591 13.050000000000002 1.5622521124171413 0.025336326669815928 4.5173476752339745 1.7888607622545107 4.1912319557242368 397.50000000000006 397.50000000000006 13.15 1.0000000180025095e-35 136435.00000000003 13.250000000000002 13.250000000000002 5.4006575966799213 397.50000000000006 0.0021000000000000007 397.50000000000006 6.8137669422363967 136435.00000000003 13.15 6.0552416549081132 1.8095466653133714 1.0000000180025095e-35 1.0000000180025095e-35 7.4304464911694117 3.5000000000000004 1.8948608469904611 376.90000000000003 13.050000000000002 5908.2500000000009 0.21050000000000002 6.0030294705536189 1.774501631012894 1.0000000180025095e-35 1.0000000180025095e-35 0.60950000000000004 13.350000000000003 1.0000000180025095e-35 13.15 1.7924812503605783 13.15 196.50000000000003 21.886116886116891 1.4439626168224302 1350.0000000000002 0.0045000000000000014 376.90000000000003 13.15 5908.2500000000009
decision_type=2 2 2 2 2 2 2 2 2 2 2 2 2 2 2 2 2 2 2 2 2 2 2 2 2 2 2 2 2 2 2 2 2 2 2 2 2 2 2 2 2 2 2 2 2 2 2 2 2 2 2 2 2 2 2 2 2 2 2 2 2 2
left_child=1 2 4 12 10 -2 7 8 23 18 11 30 27 36 -13 19 -5 -15 20 24 21 59 39 49 40 -11 29 33 -17 44 50 45 -25 34 35 -3 37 -6 -23 -12 -8 -42 58 -36 -27 46 -14 -47 -39 -4 -1 -20 -53 -35 -16 -56 57 -54 -30 -9 -60 -28
right_child=5 3 6 16 13 -7 15 9 -10 25 22 14 31 17 54 28 -18 -19 51 -21 -22 38 -24 32 -26 26 61 -29 42 -31 -32 -33 -34 53 43 -37 -38 48 -40 -41 41 -43 -44 -45 -46 47 -48 -49 -50 -51 -52 52 56 -55 55 -57 -58 -59 60 -61 -62 -63
leaf_value=-0.0073726441378239548 -0.050000000000000003 -0.0032134192185881345 -0.020379261815777192 -0.038503471411113599 0.0001536421264920916 0.048034363043169076 -0.011494794677543854 -0.018654513761401176 -0.049119094466392087 -0.020993672388989779 -0.03138082449790091 -0.014758843071758749 -0.030443846314954455 0.001696393210440874 0.019100274275178495 0.0095056986957788477 -0.049547021830341549 0.047457211261445829 -0.011872141858833351 -0.011322283735177642 -0.013502389628972326 0.030054162691036862 0.007580621653833078 -0.008384400113884893 0.028505203803393265 -0.00047269773614757205 -0.01845291998150737 -0.022087021628556226 -0.011986196647705106 -0.023701305836439132 0.02697531630595525 -0.020511811938836201 0.02427544733830567 -0.009070251828259707 -0.013927195029495991 -0.050000000000000003 0.031150283406626574 0.032032213795859861 0.0027174362404779953 -0.0061728320415258093 -0.0042978437173934207 0.029013055071234709 0.006742636735240619 0.002724667616060068 0.02654396003733079 -0.023420354566671436 -0.050000000000000003 -0.034907506693770567 0.013512166582107072 0.0038693719543516636 0.0077755443934972093 0.012227874566965245 -0.01157871173960822 0.0097679452112060978 0.047662438074540764 0.027306014299392702 -0.0096053565638426815 0.029941520378703165 -0.012439141534268857 0.0046111514840863257 0.014327267378568652 -0.0049239096776494441
leaf_weight=100 22 23 104 412 35 3683 28 25 201 844 20 20 78 20 23 50 1699 198 976 58 70 60 160 28 72 34 215 173 597 20 24 261 29 57 103 34 108 53 22 258 21 25 36 58 24 237 48 127 63 20 75 34 35 52 72 35 357 21 20 38 25 53
leaf_count=100 22 23 104 412 35 3683 28 25 201 844 20 20 78 20 23 50 1699 198 976 58 70 60 160 28 72 34 215 173 597 20 24 261 29 57 103 34 108 53 22 258 21 25 36 58 24 237 48 127 63 20 75 34 35 52 72 35 357 21 20 38 25 53
internal_value=0.00132487 -0.0181667 -0.00596541 -0.037786 0.0153217 0.0474522 -0.0124615 -0.0146405 -0.0299627 -0.0125709 0.00510488 0.0143978 -0.0215768 0.0321783 0.0302102 -0.00495648 -0.0473917 0.043259 -0.00839459 0.00837696 0.00291501 0.0108407 -0.00229979 -0.00868967 0.0162027 -0.0183194 -0.0117959 -0.013761 -0.00869278 0.00188407 0.00247894 -0.0267804 0.00823201 -0.00935612 -0.0139926 -0.0311212 0.0228517 0.0169162 0.0227199 -0.00798636 0.00423267 0.0138059 -0.0100348 -0.00792839 0.0107066 -0.0301194 -0.0378938 -0.0274282 0.0219739 -0.0164682 -0.000880563 -0.0101033 -0.00624127 -8.3222e-05 0.0371286 0.0410038 -0.00776173 0.00399138 -0.0109756 -0.00462126 0.00243109 -0.0157774
internal_weight=12473 8768 5406 3362 1264 3705 4142 3210 382 2828 787 349 1251 477 150 932 2111 218 1638 204 215 145 438 181 146 1190 346 500 728 78 199 751 57 327 218 57 259 151 82 278 74 46 678 161 58 490 126 364 116 124 175 1423 447 109 130 107 413 56 642 63 45 268
internal_count=12473 8768 5406 3362 1264 3705 4142 3210 382 2828 787 349 1251 477 150 932 2111 218 1638 204 215 145 438 181 146 1190 346 500 728 78 199 751 57 327 218 57 259 151 82 278 74 46 678 161 58 490 126 364 116 124 175 1423 447 109 130 107 413 56 642 63 45 268
is_linear=0
shrinkage=0.05


Tree=15
num_leaves=63
num_cat=0
split_feature=59 78 89 15 52 45 15 51 51 48 48 48 18 61 58 58 100 111 18 18 48 51 18 0 58 18 61 58 15 61 11 58 82 48 100 61 97 106 73 65 96 58 101 18 55 48 55 58 52 65 87 38 48 51 11 18 48 48 58 61 48 97
split_gain=4288.65 825.958 285.67 217.058 85.1218 82.365 26.2159 24.6608 21.2067 26.2034 20.7014 20.4525 18.9582 22.8137 25.1362 18.581 18.1982 19.0955 16.3767 15.15 12.6563 15.7286 11.5661 11.3011 10.7521 9.87076 13.3829 14.9035 9.55602 9.00727 7.17256 7.12267 5.29784 11.1645 4.96507 4.89005 5.02695 5.67201 4.83286 7.01363 4.67983 15.5281 4.669 4.62733 4.6133 4.48668 4.60883 4.48047 4.2985 4.27316 3.95212 3.69664 3.42328 10.0176 3.3203 3.29356 3.42922 3.17209 3.15797 3.13599 3.07948 3.07045
threshold=1.0000000180025095e-35 4.0004338607656145 0.13000000000000003 4.4043461433435072 112388.50000000001 1.0000000180025095e-35 4.0496439638388901 1350.0000000000002 504.25000000000006 13.250000000000002 12.950000000000001 13.050000000000002 1.6384605660328873 1.0000000180025095e-35 1.0000000180025095e-35 1.0000000180025095e-35 5.3069250931180347 0.79819295430790749 1.8095466653133714 1.7888607622545107 13.350000000000003 805.55000000000007 1.9566419508802095 12.160964047443683 1.0000000180025095e-35 1.7888607622545107 1.0000000180025095e-35 1.0000000180025095e-35 4.5779624589737722 1.0000000180025095e-35 5.9540011005862779 1.0000000180025095e-35 38.501368481070394 13.15 6.62293730594092 1.0000000180025095e-35 15.592762201908878 16.084573946817148 5.5077075261933448 0.024580904802309483 0.77265946357041781 1.0000000180025095e-35 9.1423348591549249 1.8948608469904611 368.00000000000006 13.15 368.00000000000006 1.0000000180025095e-35 136435.00000000003 0.051998527360790005 3.9508514588885468 2.5000000000000004 13.250000000000002 504.25000000000006 6.2256968524506826 1.7888607622545107 13.050000000000002 13.250000000000002 1.0000000180025095e-35 1.0000000180025095e-35 13.250000000000002 12.652996849160211
decision_type=2 2 2 2 2 2 2 2 2 2 2 2 2 2 2 2 2 2 2 2 2 2 2 2 2 2 2 2 2 2 2 2 2 2 2 2 2 2 2 2 2 2 2 2 2 2 2 2 2 2 2 2 2 2 2 2 2 2 2 2 2 2
left_child=1 2 4 6 8 -2 25 12 9 32 58 35 13 14 -4 20 17 18 24 -13 61 50 -11 38 51 26 27 -3 -5 43 34 45 -1 -34 -18 36 -6 42 40 -40 41 -19 -38 -10 55 -27 -47 -42 -7 -20 -22 -12 -17 -54 -37 59 -57 -15 -9 -8 -16 -14
right_child=5 3 7 28 11 48 44 10 29 22 16 19 15 57 60 52 30 23 49 -21 21 -23 -24 -25 -26 31 -28 -29 -30 -31 -32 -33 33 -35 -36 54 37 -39 39 -41 47 -43 -44 -45 -46 46 -48 -49 -50 -51 -52 -53 53 -55 -56 56 -58 -59 -60 -61 -62 -63
leaf_value=-0.0023024008474934262 -0.050000000000000003 -0.050000000000000003 -0.050000000000000003 -0.040808485707511076 -0.0061358937372763961 0.045880698262467212 -0.040132705489514586 -0.012685380030038338 -0.030831660064868628 0.0019940059099878586 -0.034594951019338939 0.001683670226484537 -0.025971376140498454 -0.011206533724353427 -0.021227075642263386 -0.021016961718304153 0.035011752260227999 -0.050000000000000003 0.037590091666856479 0.047345830771056092 0.012489397441968322 -0.0071375274205023494 0.043480696427148018 0.022691483423113824 0.022749151608773641 -0.012656925677195265 -0.0078150924512070345 -0.015995905946119358 -0.049760854865351326 0.0072282756833010366 -0.0016434161546262536 -0.020562295371486572 0.004485112067777664 0.040285156560795649 0.0088082957242069573 0.02280115476183471 0.026538786262273791 0.042755777291629632 0.018968662271897002 -0.0072307904034333171 -0.0051820009546254273 0.0060588151393901743 0.0056048345474297538 -0.0058665829233494919 -0.03484763849933608 0.0038520480697149073 -0.016979379079171589 -0.015862505890142459 0.04956414350094427 0.0142408584141069 0.042584162267545862 -0.005926495841280981 0.0091756521222683112 -0.019964117877000621 0.040484194520940174 -0.031646422882421088 -0.020879724679207359 0.010080911020437877 -0.022010888534605057 -0.022484829677985266 -0.0011139799195986528 -0.0111955196752083
leaf_weight=118 22 71 121 368 21 2530 71 286 20 21 23 20 36 42 71 657 48 30 43 198 20 97 84 28 21 206 73 59 1569 160 37 163 98 28 29 61 50 23 30 172 186 21 57 258 238 110 35 208 1153 36 24 22 39 121 47 104 256 30 133 39 26 1505
leaf_count=118 22 71 121 368 21 2530 71 286 20 21 23 20 36 42 71 657 48 30 43 198 20 97 84 28 21 206 73 59 1569 160 37 163 98 28 29 61 50 23 30 172 186 21 57 258 238 110 35 208 1153 36 24 22 39 121 47 104 256 30 133 39 26 1505
internal_value=0.00135511 -0.0177034 -0.00560133 -0.0371632 0.015205 0.0464577 -0.0223511 -0.0119507 0.00510344 0.0142983 -0.00641157 0.0318715 -0.0146379 -0.0267391 -0.0347986 -0.0132336 -0.00226915 -0.00487144 0.0115911 0.0431566 -0.0102288 0.0041097 0.0351834 -0.00840784 -0.00679295 -0.015612 -0.0249471 -0.0345674 -0.04806 -0.00222303 0.0164491 -0.0119252 0.00531083 0.0124407 0.0251429 0.0223729 0.0165625 0.0202292 -0.00975372 -0.00333978 -0.0126652 -0.026917 0.0153871 -0.00766263 -0.0291759 -0.00791419 -0.00117623 -0.0108204 0.0470338 0.0269499 0.0289047 -0.0205793 -0.0194198 -0.0128613 0.0304966 -0.0263038 -0.0239901 -0.00233677 -0.0156455 -0.0338757 -0.0158359 -0.0115407
internal_weight=12473 8768 5406 3362 1264 3705 1425 4142 787 349 1353 477 2789 290 218 2499 934 820 145 218 1682 141 105 675 66 717 203 130 1937 438 114 514 244 126 77 259 151 130 647 202 445 51 107 278 708 351 145 394 3683 79 44 45 817 160 108 470 360 72 419 110 97 1541
internal_count=12473 8768 5406 3362 1264 3705 1425 4142 787 349 1353 477 2789 290 218 2499 934 820 145 218 1682 141 105 675 66 717 203 130 1937 438 114 514 244 126 77 259 151 130 647 202 445 51 107 278 708 351 145 394 3683 79 44 45 817 160 108 470 360 72 419 110 97 1541
is_linear=0
shrinkage=0.05


Tree=16
num_leaves=63
num_cat=0
split_feature=72 44 15 52 45 15 15 69 97 60 48 51 48 58 48 51 52 79 51 97 48 52 48 51 52 73 52 48 87 52 79 60 58 24 82 48 112 97 73 67 48 58 97 117 26 67 50 8 64 11 2 0 73 22 51 88 0 88 65 52 79 48
split_gain=4093.75 617.952 665.588 83.2528 80.6397 36.5289 32.3837 28.0429 40.0141 62.16 21.0692 20.8723 26.3721 20.6193 17.112 17.364 19.5669 12.3703 11.3311 11.2358 9.09074 10.3174 8.49293 8.70195 9.29247 8.24329 8.19024 12.1581 8.0435 7.60383 7.30025 12.4921 5.88412 5.11285 5.09702 11.1933 5.07932 4.7594 4.68834 4.99394 4.38882 4.33134 4.26961 4.21523 3.72534 3.63208 3.54965 8.24194 7.10746 3.37478 2.91137 2.87935 2.79934 2.7787 5.90069 2.65912 2.54042 2.32947 2.30992 2.30123 2.23936 2.23386
threshold=1.0000000180025095e-35 1.0000000180025095e-35 4.2736377704982829 112388.50000000001 1.0000000180025095e-35 3.8028075313373422 4.5417539233703677 1.5000000000000002 10.902212453579368 1.0000000180025095e-35 13.050000000000002 504.25000000000006 13.250000000000002 1.0000000180025095e-35 13.250000000000002 504.25000000000006 136435.00000000003 7.1088466810317561 1350.0000000000002 13.432311709206553 13.15 136435.00000000003 13.250000000000002 504.25000000000006 112388.50000000001 1.0000000180025095e-35 112388.50000000001 12.950000000000001 3.9508514588885468 136435.00000000003 7.4387009726857807 1.0000000180025095e-35 1.0000000180025095e-35 0.0047500000000000007 38.501368481070394 13.15 2.5607960000000007 13.074540690624724 1.0000000180025095e-35 2.2869912210694339 13.350000000000003 1.0000000180025095e-35 27.249639506365494 10.41619059666119 0.59950000000000003 0.27803439571586974 397.50000000000006 1.5000000000000002 1.4439626168224302 6.2256968524506826 13.060523894343463 5.2666648661529178 1.0000000180025095e-35 1.2005000000000001 1350.0000000000002 6.7544302934146563 6.8765038844726236 3.9840995537090849 0.18116471351646282 136435.00000000003 7.7372574583860567 12.750000000000002
decision_type=2 2 2 2 2 2 2 2 2 2 2 2 2 2 2 2 2 2 2 2 2 2 2 2 2 2 2 2 2 2 2 2 2 2 2 2 2 2 2 2 2 2 2 2 2 2 2 2 2 2 2 2 2 2 2 2 2 2 2 2 2 2
left_child=1 3 5 11 -2 7 41 8 9 18 38 12 34 20 26 56 45 -12 40 -14 37 46 -15 55 -25 61 -9 -28 -23 -6 31 -7 59 -29 52 -36 -26 -10 39 42 -3 60 -5 -41 -35 -17 47 -22 -49 58 -38 -11 -1 -39 -55 -24 -16 -48 -40 -32 -4 -13
right_child=4 2 6 10 29 30 -8 14 13 51 17 25 19 22 15 16 -18 -19 -20 -21 21 28 23 24 36 -27 27 33 -30 -31 32 -33 -34 44 35 -37 50 53 49 43 -42 -43 -44 -45 -46 -47 57 48 -50 -51 -52 -53 -54 54 -56 -57 -58 -59 -60 -61 -62 -63
leaf_value=-0.0095190174154741996 -0.050000000000000003 -0.020484611223782263 -0.040782323235006475 0.031190984360873697 0.044478514033108367 -0.022298881602297677 -0.049314070719582034 -0.01168032704290372 -0.031154697760939598 -0.030002271011471751 0.016265362459752294 0.0083258256892718013 0.0061221056729555134 -0.019039066598333165 0.016641435405129894 0.0048902210091119232 0.024708602837014596 0.04834292984598286 0.012302441343243393 0.044581774254388445 0.020125140930925101 -0.0066711787283420566 -0.0010065510682761671 -0.017650356137823214 0.01876432632229158 0.0068917090298305089 -0.014424231508108851 0.03021003503095487 0.029482237845659256 0.049377567074863377 -0.019425536007426372 -0.047958754147920349 -0.02731214455181831 0.017644299254302057 0.0042951812657613161 0.040141281059810095 -0.01735746885824483 -0.010944491058513665 0.012256400297240665 -0.0094990177612219538 0.0034976268070749938 -0.041981059028578634 0.010101861138828098 0.019389340848378515 -0.0061575192638805938 -0.010861693676457059 -0.0086194428565379757 0.017238636687397956 -0.0074285468605241019 0.039974539100806769 0.0045156048803493892 -0.050000000000000003 0.0059032747373878799 -0.013587517164102414 0.014817067057910291 0.024776757098734378 0.035454428352807703 -0.023397396749683788 0.03171859388389895 -0.011226300873856683 -0.030732515400908073 -0.0086349050525271476
leaf_weight=62 22 93 67 60 2530 139 1644 555 28 20 36 21 25 928 34 46 59 182 53 79 35 25 20 253 28 160 73 29 40 1153 240 72 190 31 98 28 32 1052 30 28 24 173 40 23 35 179 112 32 334 47 29 180 56 41 33 20 38 35 31 133 321 257
leaf_count=62 22 93 67 60 2530 139 1644 555 28 20 36 21 25 928 34 46 59 182 53 79 35 25 20 253 28 160 73 29 40 1153 240 72 190 31 98 28 32 1052 30 28 24 173 40 23 35 179 112 32 334 47 29 180 56 41 33 20 38 35 31 133 321 257
internal_value=0.00137635 -0.017244 -0.0226894 0.0151131 0.0454421 -0.0130851 -0.0457744 -0.0113685 -0.0135705 -0.0291058 0.0315917 0.00511278 0.0142537 -0.0117024 -0.00433402 0.0046393 -0.000920723 0.0430457 -0.00687704 0.0353367 -0.00817824 -0.00325758 -0.0164561 -0.0101812 -0.0127621 -0.0021499 -0.00875242 0.000920132 0.0155771 0.0460122 -0.0231229 -0.0310549 -0.0201501 0.0127111 0.00526757 0.012261 0.00113387 -0.0107921 0.0219509 0.0162617 -0.0155652 -0.0354016 0.0227553 0.00352907 0.00502212 -0.0076413 -0.00549161 -0.00305516 -0.00527185 0.0299053 -0.00695879 -0.0480002 -0.00219996 -0.0102857 -0.000920608 0.0118851 0.0265705 -0.012138 0.022147 -0.0165019 -0.0324679 -0.0073537
internal_weight=12473 8768 7505 1263 3705 5300 2205 4526 3447 370 477 786 348 3077 1079 356 284 218 170 104 1767 613 1310 382 342 438 723 168 65 3683 774 211 563 95 244 126 89 1154 259 151 117 561 100 51 66 225 548 401 366 108 61 200 118 1126 74 40 72 147 61 373 388 278
internal_count=12473 8768 7505 1263 3705 5300 2205 4526 3447 370 477 786 348 3077 1079 356 284 218 170 104 1767 613 1310 382 342 438 723 168 65 3683 774 211 563 95 244 126 89 1154 259 151 117 561 100 51 66 225 548 401 366 108 61 200 118 1126 74 40 72 147 61 373 388 278
is_linear=0
shrinkage=0.05


Tree=17
num_leaves=63
num_cat=0
split_feature=59 78 44 15 52 45 15 69 18 60 48 51 48 60 18 65 52 95 18 60 55 108 15 48 52 61 52 48 48 4 73 55 48 51 25 4 97 48 52 48 33 106 18 112 82 18 60 63 119 73 107 51 38 15 48 29 55 11 67 109 65 9
