tree
version=v4
num_class=1
num_tree_per_iteration=1
label_index=0
max_feature_idx=65
objective=huber
feature_names=Column_0 Column_1 Column_2 Column_3 Column_4 Column_5 Column_6 Column_7 Column_8 Column_9 Column_10 Column_11 Column_12 Column_13 Column_14 Column_15 Column_16 Column_17 Column_18 Column_19 Column_20 Column_21 Column_22 Column_23 Column_24 Column_25 Column_26 Column_27 Column_28 Column_29 Column_30 Column_31 Column_32 Column_33 Column_34 Column_35 Column_36 Column_37 Column_38 Column_39 Column_40 Column_41 Column_42 Column_43 Column_44 Column_45 Column_46 Column_47 Column_48 Column_49 Column_50 Column_51 Column_52 Column_53 Column_54 Column_55 Column_56 Column_57 Column_58 Column_59 Column_60 Column_61 Column_62 Column_63 Column_64 Column_65
feature_infos=[5:13] [0:9.9943534368588587] [7:15] [4:11] [0:8] [0:7.9943534368588578] [7:12] [5:10] [1:7] [0:5.7774268223893115] [1:3.3010299956639813] [1.4771212547196624:6.5563025007672868] [0:4.7779123227074614] [2:3.9999131324165713] [0:5.7781512503836439] [0:4.9999652550516309] [1:3.6989700043360187] [1:3.6989700043360187] [1:2.9995654882259823] [0:5.2983173665480363] [0:6.9087547793152204] [0.5:10] [0.5:4.9980000000000002] [0.001:0.10000000000000001] [0.001:0.050000000000000003] [0.001:0.050000000000000003] [0.10000000000000001:0.90000000000000002] [0.5:10] [0.01:0.5] [0.01:0.5] [10:999] [1:20] [1:20] [2:20] [1:9] [0:16] [0:7] [0:7] [1:10] [0:1] [0:1] [0:1] [0:1] [0:3] none none none [12.5:13.699999999999999] none none [0:1] [0:1] [0:1] [0:1] [0.0021551724137931034:0.55172413793103448] [0.0086206896551724137:2.2068965517241379] [0.017996651785714284:1024] [0.00067326468576972857:4.2312483823251519] [0:0.875] [0.017996651785714284:128] [0:3] [0:3] [0:4.9999652550516309] [0:4.9999001007803114] [0:13] [0:12.807354922057604]
tree_sizes=6421 6817 6763 6765 6757 6766 6752 6818 6811 6761 6838 6793 6760 6783 6788 6762 6761 6765 6778 6789 6799 6780 6822 6802 6847 6760 6761 6801 6776 6800 6803 6787 6779 6809 6834 6773 6807 6761 6778 6769 6741 6736 6796 6802 6750 6744 6765 6768 6827 6788 6760 6738 6739 6792 6771 6781 6767 6783 6764 6757 6769 6780 6773 6781 6756 6808 6802 6810 6770 6763 6784 6766 6807 6818 6762 6777 6760 6749 6766 6777 6773 6777 6772 6778 6778 6780 6790 6799 6766 6794 6775 6787 6823 6762 6781 6798 6789 6777 6785 6813 6820 6823 6844 6788 6792 6795 6809 6805 6801 6821 6806 6847 6813 6810 6803 6838 6795 6800 6808 6843 6816 6868 6817 6817 6813 6847 6816 6833 6826 6837 6831 6840 6858 6865 6850 6836 6813 6850 6851 6845 6860 6881 6817 6850 6864 6862 6856 6849 6835 6835 6817 6832 6866 6866 6859 6830 6832 6870 6872 6864 6851 6853 6865 6885 6899 6859 6869 6900 6884 6869 6901 6900 6904 6860 6883 6846 6856 6867 6885 6863 6836 6865 6888 6897 6885 6873 6887 6865 6881 6883 6886 6902 6916 6893 6898 6914 6904 6899 6934 6902 6910 6876 6896 6891 6930 6890 6892 6897 6902

Tree=0
num_leaves=63
num_cat=0
split_feature=51 43 15 61 18 18 52 52 47 26 47 50 47 26 47 22 47 65 54 15 15 47 16 54 6 12 10 20 25 4 4 54 47 17 18 53 50 47 25 18 47 47 14 21 57 10 14 10 47 16 39 38 57 28 16 12 47 9 11 11 16 18
split_gain=4516.22 1115.57 416.611 114.417 91.1184 77.7291 78.6343 70.0345 48.594 46.5926 43.4166 26.472 21.1324 18.9927 17.0715 11.0548 10.4807 10.3388 10.1902 9.46851 8.31264 7.45424 7.34637 7.72816 5.88396 5.08823 5.07158 7.12461 5.0517 4.81871 4.71409 4.42108 4.3513 3.89573 3.92873 3.77408 3.58572 3.54247 5.07304 3.37403 3.22688 3.04381 3.02158 2.87253 3.14507 2.84651 2.58335 3.38893 2.40956 2.48037 2.29513 4.86799 2.28628 2.27375 2.25701 2.12647 2.11098 2.14954 2.06358 2.02645 1.90834 1.8065
threshold=1.0000000180025095e-35 1.0000000180025095e-35 3.8543361720892642 1.5000000000000002 1.7520314413393463 1.8027602617187346 1.0000000180025095e-35 1.0000000180025095e-35 13.250000000000002 0.77950000000000019 13.250000000000002 1.0000000180025095e-35 13.15 0.7985000000000001 13.250000000000002 1.2005000000000001 13.050000000000002 5.894766822485181 0.0075767780172413804 4.1425302445428267 3.3423238653204104 13.450000000000001 1.4697596263093093 0.013032058189655174 10.084962500721158 3.8051949079014302 2.2753098267184626 5.3683070215747577 0.0045000000000000014 5.894766822485181 2.9036774610288023 0.011483028017241379 13.15 2.428943537015599 1.9845214836529068 1.0000000180025095e-35 1.0000000180025095e-35 13.050000000000002 0.0023500000000000001 1.8027602617187346 13.050000000000002 13.350000000000003 5.516190141915736 4.0785000000000009 0.17733653928165019 2.5734514349641002 1.0000000180025095e-35 2.550839175513985 13.350000000000003 1.6483325951307657 1.0000000180025095e-35 3.5000000000000004 0.002723926262836779 0.20150000000000004 2.7375899845190843 1.0000000180025095e-35 13.050000000000002 5.6058432056258578 4.5965622991772319 6.4712183381097867 2.5954948230009438 2.2214122795938196
decision_type=2 2 2 2 2 2 2 2 2 2 2 2 2 2 2 2 2 2 2 2 2 2 2 2 2 2 2 2 2 2 2 2 2 2 2 2 2 2 2 2 2 2 2 2 2 2 2 2 2 2 2 2 2 2 2 2 2 2 2 2 2 2
left_child=1 4 3 5 7 6 14 32 11 21 16 15 17 20 37 25 -5 29 -17 39 48 26 23 -13 31 33 27 -10 45 43 -27 46 -1 34 -7 41 55 -3 -39 -4 -20 50 -31 44 -6 -28 -18 -48 49 -12 51 -14 -16 -24 -55 -11 57 -46 -36 -45 -33 -35
right_child=-2 2 19 10 12 8 -8 -9 9 36 13 22 35 -15 52 18 24 -19 40 -21 -22 -23 53 -25 -26 30 28 -29 -30 42 -32 60 -34 61 58 -37 -38 38 -40 -41 -42 -43 -44 59 56 -47 47 -49 -50 -51 -52 -53 -54 54 -56 -57 -58 -59 -60 -61 -62 -63
leaf_value=6.7959772494881978 6.831104906642528 6.7463682946298791 6.7350220947435187 6.7614687421056487 6.8136490706723576 6.7904617244085799 6.7311049066425284 6.7311049066425284 6.8137897067263298 6.7704737857936159 6.8181604493031092 6.7437682934102368 6.7845950446597332 6.774758176719188 6.810413211255832 6.7581079590035449 6.7637491043742939 6.8134316465586595 6.7798719197173325 6.7314006504142769 6.7854843779996772 6.8207313495126547 6.7411104271986551 6.7874385184837056 6.7623517462525768 6.8029353650605167 6.7602737048038986 6.7776367756331775 6.7981724839331115 6.8153036902750852 6.765945078149981 6.8088321859228582 6.8264254638992528 6.7355848176034723 6.745486981303455 6.8262692236981328 6.7433307208517714 6.7881888837770106 6.7547344889497341 6.7460361245827718 6.8051580986796605 6.8276041360644388 6.7936241568171321 6.7904347449523668 6.7743330836286546 6.788126926018581 6.8024882427594795 6.7676101502035797 6.8224019830346201 6.7940395042459087 6.8183516393324997 6.814653517120643 6.7885192090786965 6.7393988516805754 6.7663718008871223 6.7482669977199654 6.8084230759431517 6.7989618635351885 6.7621700356554868 6.770818937184008 6.7871399729785926 6.7576104235270877
leaf_weight=23.69770622253418 3182.3643336296082 24.729925036430359 125.4595850110054 123.67768067121506 27.256491839885712 11.792742133140562 416.60550832748413 65.7798171043396 48.588557124137878 33.644620358943939 24.80668443441391 19.886421203613281 19.313256919384003 44.440606236457825 25.775385200977325 27.97356504201889 18.945775926113129 194.15075880289078 20.56716001033783 2257.6114238500595 24.638351500034332 31.327683329582214 209.23936557769775 20.651326477527618 28.148433208465576 13.814310133457182 21.962212383747101 18.939240694046021 35.574614822864532 50.582069635391235 22.876689970493317 25.691218733787537 23.241519927978516 21.416087627410889 19.910701096057892 183.64564502239227 40.739655375480652 20.679381966590881 25.06935054063797 155.98699110746384 32.640457034111023 44.285514652729034 23.557428777217865 68.082201480865479 18.772795557975769 15.751711666584013 16.292173027992252 12.164870560169218 80.540868282318115 18.685869455337524 77.782450497150421 44.517365634441376 22.188544094562531 13.077460348606108 19.05799788236618 15.862917661666868 14.811066389083861 16.776523411273956 268.40963137149811 16.322988152503967 16.748467922210693 16.467913031578064
leaf_count=32 2175 50 125 249 33 18 190 30 58 61 29 40 30 78 31 44 37 179 34 2231 35 34 432 31 56 19 33 19 47 60 43 34 16 16 27 107 76 30 44 315 42 47 37 112 31 23 22 23 88 28 95 57 31 27 33 13 20 23 539 27 24 34
internal_value=6.78382 6.75607 6.74587 6.76312 6.80648 6.75671 6.74133 6.7644 6.76494 6.78342 6.78576 6.75836 6.81242 6.80344 6.77727 6.76581 6.77164 6.80488 6.78254 6.73248 6.81201 6.79867 6.74632 6.76602 6.7823 6.76219 6.79376 6.80365 6.78466 6.79786 6.77987 6.78855 6.81105 6.76027 6.76217 6.82119 6.75432 6.76161 6.76986 6.74113 6.79538 6.81616 6.80842 6.79303 6.79997 6.77191 6.77805 6.78758 6.81728 6.8078 6.81259 6.80556 6.80028 6.74301 6.7554 6.76336 6.79256 6.78596 6.76102 6.78664 6.80027 6.74516
internal_weight=8604 5421.64 4509.06 1970 912.576 1535.22 535.048 112.719 1000.17 262.391 434.781 737.782 799.857 193.112 118.443 455.869 241.669 430.312 81.1812 2539.06 148.672 172.144 281.913 40.5377 117.991 374.688 140.816 67.5278 73.2885 236.162 36.691 89.8425 46.9392 337.997 300.113 369.544 90.2472 70.4787 45.7487 281.447 53.2076 185.899 74.1395 162.022 77.6169 37.7139 47.4028 28.457 124.033 43.4926 141.613 63.8306 47.9639 241.375 32.1355 49.5075 50.3604 35.5493 288.32 84.4052 42.4397 37.884
internal_count=8604 6429 5493 2822 936 2119 376 78 1743 364 703 1379 858 258 186 816 445 522 120 2671 180 214 563 71 196 696 180 77 103 343 62 140 48 634 584 336 150 124 74 440 76 229 97 246 107 56 82 45 145 57 182 87 62 492 60 74 74 54 566 139 58 50
is_linear=0
shrinkage=1


Tree=1
num_leaves=63
num_cat=0
split_feature=51 53 61 15 15 18 50 47 26 47 11 50 18 15 26 47 47 38 47 54 12 47 15 6 15 12 7 10 26 47 4 14 15 10 29 11 11 21 12 50 56 54 26 50 26 57 25 23 30 54 12 12 47 26 4 47 47 11 4 47 4 50
split_gain=4493.92 190.408 525.751 292.672 75.5587 111.79 79.7092 61.393 45.9083 34.0666 26.9502 24.92 19.1987 24.7346 18.7381 14.0669 12.2474 12.1367 11.8423 11.3644 10.5821 10.0756 9.00947 8.00135 6.29833 6.12618 5.8901 5.67411 5.38151 6.78152 8.04541 6.79186 5.44121 5.31789 5.3425 5.17813 5.16772 5.15525 5.03131 4.96389 4.66214 4.46801 4.26642 4.2185 3.89574 4.3947 3.58305 3.53899 7.86903 3.43568 3.16573 6.25746 3.63289 3.10156 2.99109 2.93185 2.8985 3.99999 2.88521 5.42109 6.23249 5.27867
threshold=1.0000000180025095e-35 1.0000000180025095e-35 1.0000000180025095e-35 3.8942052025880183 3.7844389610383358 1.8027602617187346 1.0000000180025095e-35 13.250000000000002 0.59950000000000003 13.250000000000002 5.9788649245114014 1.0000000180025095e-35 1.9164459723798954 4.7598528386947541 0.7985000000000001 13.250000000000002 13.050000000000002 1.5000000000000002 12.950000000000001 0.0066338900862068974 3.5852911940047547 13.15 3.3423238653204104 10.084962500721158 4.1674058758691901 3.876823788925893 6.0111839065142281 1.8481781943666664 0.70050000000000001 13.15 5.9657381169433963 5.4177597433249653 4.4688934837070518 1.7520314413393463 0.046500000000000007 6.3707905546765922 4.4842414742769687 3.4675000000000007 3.9167959653271951 1.0000000180025095e-35 16.033333333333335 0.023471174568965521 0.5505000000000001 1.0000000180025095e-35 0.25150000000000006 1.3553014236843588 0.039500000000000007 0.0065000000000000014 222.50000000000003 0.011078933189655174 1.0000000180025095e-35 3.1792636083489048 13.350000000000003 0.42650000000000005 4.2089262574429496 13.050000000000002 13.450000000000001 5.5532756213780354 5.3749347136984236 13.050000000000002 7.5274717082866633 1.0000000180025095e-35
decision_type=2 2 2 2 2 2 2 2 2 2 2 2 2 2 2 2 2 2 2 2 2 2 2 2 2 2 2 2 2 2 2 2 2 2 2 2 2 2 2 2 2 2 2 2 2 2 2 2 2 2 2 2 2 2 2 2 2 2 2 2 2 2
left_child=1 4 21 7 5 6 -1 16 9 18 11 17 43 20 22 40 -4 -10 -7 -20 46 -3 -9 49 -5 50 -13 -21 29 37 31 35 53 -11 -35 -31 -29 42 -12 -38 -8 -34 -22 -6 45 -39 -14 48 -45 -18 52 -52 -19 -33 -30 -42 57 -36 -15 -60 61 -61
right_child=-2 2 3 24 12 8 15 14 10 33 38 26 13 58 -16 -17 23 25 19 27 28 -23 -24 -25 -26 -27 -28 36 54 30 -32 32 41 34 56 -37 39 44 -40 -41 55 -43 -44 47 -46 -47 -48 -49 -50 -51 51 -53 -54 -55 -56 -57 -58 -59 59 60 -62 -63
leaf_value=-0.050000000000000003 0.050000000000000003 0.029728904715313156 -0.02029456951703696 -0.033988770246166942 -0.049347391489729109 -0.030450065859593225 -0.0350022453096323 0.035626077121436742 0.032190087140934978 0.037048253279451895 0.024947764653523712 0.00035644095288647976 -0.040738924370798256 -0.041093889228599106 -0.0063265069318490172 0.018162055608702939 -0.002766617916724582 -0.016672868586061894 -0.027610413368445049 -0.014626468554026462 -0.024152672128609217 0.045106384243489048 0.0046366107076876916 -0.019262471175482056 -0.049605423397525404 0.0097888352456506015 -0.036603429899556783 -0.013943738439336804 -0.026554544559485985 -0.030097416461229289 -0.039398248546902631 -0.031406894620374805 0.022354516569950824 -0.0080507315519623961 0.0022732388598645657 -0.0021405236691180453 0.029494200328217302 -0.033619967994619443 -0.0078393472464673292 0.00055874428448391398 -0.027816054458006514 -0.0072754447556230162 0.00095981283029236057 -0.042309308140409674 -0.037270859416453167 0.0020837056888823066 -0.015063178915892936 -0.043001019203639662 0.013053018092853001 0.01589397792643794 -0.048027641485460008 -0.016826983677735791 0.0075067726072316002 -0.00060951917550214872 -0.042818793855958256 0.00089018505700182637 0.038781015670086516 0.026989554790488063 -0.042002714911677924 -0.012042792148282681 -0.050000000000000003 -0.031970197930533795
leaf_weight=436.33945345878601 3182.3643336296082 225.45038664340973 205.53289544582367 71.683856725692749 317.45520788431168 54.840039670467377 24.500833690166473 130.98266047239304 13.870421111583708 39.245622396469116 34.889228582382202 11.280336260795591 148.89459836483002 747.07242184877396 45.40930700302124 46.48282265663147 48.883926153182983 157.61026298999786 35.238820791244507 26.833771705627441 59.96598619222641 201.93143916130066 28.56926554441452 42.678944706916809 650.02980750799179 21.591971755027771 242.82598716020584 15.382342875003813 67.34811133146286 50.056422412395477 26.950641095638275 16.52402400970459 30.134538650512695 19.624626934528351 29.252763986587524 24.75333309173584 38.649050056934357 19.886421203613281 17.604946732521057 24.041779160499573 12.649220943450926 22.020211160182953 23.557428777217865 18.405314564704899 110.3430734872818 15.211250305175779 14.952215671539305 101.85650020837784 9.8553406000137311 49.789108872413635 23.379656851291656 51.397251605987549 17.232818305492401 16.179951071739197 48.716465055942535 29.966205716133118 17.885501623153687 37.16794341802597 170.10386937856674 49.784317314624786 30.926339328289032 99.956475794315338
leaf_count=199 2175 214 418 148 156 97 46 153 17 44 41 18 221 533 80 60 84 318 59 42 103 117 41 86 746 34 489 24 126 97 50 32 40 25 41 37 47 40 30 38 24 37 37 38 219 24 15 126 14 70 13 104 25 26 90 46 20 45 129 52 18 66
internal_value=0.00283469 -0.0248502 -0.0109917 -0.027095 -0.0311857 -0.0224174 -0.0402872 0.000315996 -0.0118486 0.00284714 -0.0202476 -0.0235772 -0.0369758 -0.0346637 0.0220119 -0.0029801 -0.0125033 -0.0134289 -0.0107518 -0.00304378 -0.0272861 0.0369945 0.0300771 -0.00117436 -0.0480543 -0.0157619 -0.0349627 0.00520829 -0.0238623 -0.0212038 -0.0141291 -0.00986386 -0.000181408 0.021367 0.0154456 -0.0208469 0.0120255 -0.0269701 0.013952 0.0183975 -0.0176226 0.00984448 -0.0170698 -0.0462397 -0.0326557 -0.0181461 -0.0383958 -0.0386575 -0.0230028 0.00664927 -0.017972 -0.0265821 -0.0142897 -0.0161702 -0.0333812 -0.00763048 0.020915 0.0161041 -0.0393375 -0.0355968 -0.0295654 -0.0253449
internal_weight=8604 5421.64 1700.94 1273.56 3720.69 1479.78 549.939 551.846 929.845 338.162 591.683 539.189 2240.91 1793.34 204.961 113.599 346.885 285.082 194.986 140.146 695.495 427.382 159.552 141.352 721.714 271.212 254.106 104.907 531.648 415.583 186.619 159.668 84.8587 143.176 103.931 74.8098 78.0732 228.964 52.4942 62.6908 67.1163 52.1547 83.5234 447.572 145.441 35.0977 163.847 130.117 28.2607 98.673 249.62 74.7769 174.843 32.704 116.065 42.6154 84.3062 66.4207 1097.84 350.771 180.667 149.741
internal_count=8604 6429 2157 1826 4272 1946 375 932 1571 482 1089 1018 2326 1992 274 176 658 511 307 210 1194 331 194 240 894 494 507 151 958 742 319 269 135 175 131 134 109 423 71 85 116 77 140 334 283 64 236 178 52 154 460 117 343 58 216 70 106 86 798 265 136 118
is_linear=0
shrinkage=0.05


Tree=2
num_leaves=63
num_cat=0
split_feature=51 43 15 61 18 18 53 47 26 47 47 26 15 19 47 47 15 65 47 27 38 15 18 25 23 0 15 18 4 7 13 8 59 59 23 31 65 47 16 20 14 21 47 0 59 3 9 59 14 18 7 11 14 10 55 56 12 35 19 12 11 16
split_gain=4466.29 1077.01 429.939 108.253 90.1412 87.2959 46.0414 41.757 41.39 38.1813 21.9963 17.1134 13.317 12.0053 9.80511 8.85867 7.79757 7.70641 6.78123 5.81883 9.55824 6.35032 5.10989 5.03766 4.94698 4.89926 4.75354 4.44242 4.34538 4.19783 6.35351 4.09195 3.94213 4.30004 3.88584 3.83288 3.42735 3.27848 3.19607 3.08714 2.67057 2.58138 2.46491 2.59841 2.43728 2.32528 2.21043 2.16933 2.07812 2.18537 2.03963 1.99542 3.8672 7.86053 1.98592 2.50466 1.98297 1.89195 1.81378 2.42684 1.78153 2.60369
threshold=1.0000000180025095e-35 1.0000000180025095e-35 3.8543361720892642 1.5000000000000002 1.7520314413393463 1.8027602617187346 1.0000000180025095e-35 13.250000000000002 0.77950000000000019 13.250000000000002 13.15 0.7985000000000001 4.1975148758330159 2.3502401828962087 12.950000000000001 13.050000000000002 3.3423238653204104 5.894766822485181 13.450000000000001 2.0775000000000006 2.5000000000000004 3.2292976241561822 1.8027602617187346 0.0035000000000000005 0.0075000000000000006 7.6183808317857933 2.3042630167885974 2.2866795194690002 5.894766822485181 6.8765038844726236 2.5198200657281475 1.5000000000000002 11.013440860215056 4.002183406113538 0.0065000000000000014 6.5000000000000009 5.1496040091936406 13.350000000000003 1.4911356165197844 4.7492611597348082 5.516190141915736 4.0785000000000009 13.350000000000003 6.7481772442823091 6.0267647058823544 5.8703120222447076 4.9661353879497456 0.75048828125000011 5.1818035811493894 2.5556984746728038 7.3442890785578516 5.1507537285192191 3.954266619487032 2.3453726240678754 0.029397898706896557 3.0049261083743848 4.6481598821237267 8.5000000000000018 0.89587973461402759 1.0000000180025095e-35 4.5965622991772319 1.4697596263093093
decision_type=2 2 2 2 2 2 2 2 2 2 2 2 2 2 2 2 2 2 2 2 2 2 2 2 2 2 2 2 2 2 2 2 2 2 2 2 2 2 2 2 2 2 2 2 2 2 2 2 2 2 2 2 2 2 2 2 2 2 2 2 2 2
left_child=1 4 3 5 6 29 34 13 18 15 17 16 22 24 -15 -5 42 28 19 20 -9 35 -4 38 25 57 44 60 41 51 -31 -29 33 47 -1 -21 37 56 -17 -22 -30 48 43 -11 -25 -35 -40 -16 -6 -50 -32 52 -3 -54 -43 -56 -12 -7 59 -10 -26 -62
right_child=-2 2 12 9 10 7 -8 8 58 11 36 -13 -14 14 32 23 -18 -19 -20 21 39 -23 -24 26 27 -27 -28 31 40 30 50 -33 -34 45 -36 -37 -38 -39 46 -41 -42 54 -44 -45 -46 -47 -48 -49 49 -51 -52 -53 53 -55 55 -57 -58 -59 -60 -61 61 -63
leaf_value=-0.019937978889031455 0.050000000000000003 -0.044841916601805837 -0.045972203615742821 -0.01768789988732598 0.030835980002396457 -0.029626318950241277 0.034723584575856663 0.02307595659586277 -0.022994139909120442 0.0076184436008102617 0.034101002493279541 -0.0057414928217384732 -0.049715073360514297 -0.030450796094892891 0.0045586215539940465 0.0096769364678169784 0.0039286672383522731 0.030511532757373658 0.037915319420559507 0.011717079896758128 -0.003009414952041975 -0.0025175666859971056 -0.033977358095895187 0.03716406892254865 -0.042023593597382329 0.0087113911502873786 -0.0096757914053545845 0.0031895938433623276 0.033567295803220903 -0.0098659156031473891 -0.027306946491174516 -0.022072232974291853 -0.021414300760194387 0.0017281953621416921 -0.043812965368811185 0.038960394958124075 0.044716358285843985 0.046638702227116052 -0.020516298722352722 -0.032771719512191676 0.013185859458948956 -0.0095499518654848566 0.039903922757330818 0.033660441367621668 0.010935074758524586 0.02622458631913312 0.0047952577587834994 -0.018475319302408325 -0.0040030392585854724 0.019380092118321028 -0.042758557628238832 -0.044693800640588296 -0.043888606844941558 -0.0099419220042676268 0.023490266919502453 0.0032861852094494947 0.018804361276621533 -0.0053363935332164623 -0.010645291214919974 -0.043811764934932024 -0.0061061678728797546 -0.02930320625264551
leaf_weight=24.263319313526154 3182.3643336296082 81.618454873561859 160.2607274055481 123.67768067121506 25.262979328632355 23.303041577339172 31.18751448392868 27.172325372695923 53.446875095367432 14.242549538612364 117.77232974767685 44.440606236457825 2179.7030973434448 33.474399626255035 22.160488605499268 19.142164349555969 24.638351500034332 194.15075880289078 31.327683329582214 19.48158985376358 19.369367897510529 20.679381966590881 199.09417521953583 16.860689878463745 25.519982039928436 22.104377627372742 15.667545199394224 17.176707327365875 50.582069635391235 26.542034149169922 32.296239972114563 240.17703169584274 16.52402400970459 15.72365617752075 57.268209457397461 38.276921629905701 179.55154657363892 46.386100590229034 36.354334235191345 15.836749970912932 23.557428777217865 15.810582280158995 80.540868282318115 29.250004351139069 18.657813966274261 25.234923839569092 11.308391749858854 18.973831415176392 13.444941341876982 38.908956527709961 63.054246366024017 262.50698333978653 38.273873746395111 30.756262719631195 23.157244861125946 45.437362492084503 25.834255814552307 12.220981538295744 17.832150280475616 18.968168020248413 12.705331921577452 252.48305153846741
leaf_count=18 2175 56 151 249 31 40 25 36 104 22 149 78 2116 61 32 30 35 179 34 24 28 30 404 20 28 34 26 27 60 22 30 486 32 24 35 42 104 48 74 20 37 27 88 35 29 32 17 36 20 56 54 166 24 24 33 79 35 21 28 18 22 504
internal_value=0.00297993 -0.0246197 -0.0346452 -0.0171171 0.0249165 -0.0233546 -0.016944 -0.0146341 0.00249706 0.00490744 0.0308157 0.0214829 -0.0482448 -0.0207268 -0.00706897 -0.00833766 0.0296207 0.0231318 0.0168756 0.0121948 0.000797381 0.0212587 -0.0393267 0.00146323 -0.0237053 -0.00977017 0.0132661 -0.0251706 0.0170649 -0.0396559 -0.0315022 -0.0203862 0.000867724 0.00535275 -0.0367079 0.0297714 0.0397631 0.0350821 -0.00758017 -0.0163974 0.0270912 0.012477 0.0347243 0.0251324 0.023386 0.0168206 -0.0145109 -0.00606613 0.0190583 0.0133751 -0.0375249 -0.0420615 -0.0374746 -0.0287637 0.0064249 0.010107 0.0313492 -0.0212701 -0.0249296 -0.028447 -0.0294061 -0.0281918
internal_weight=8604 5421.64 4509.06 1970 912.576 1535.22 112.719 1000.17 262.391 434.781 799.857 193.112 2539.06 737.782 132.091 241.669 148.672 430.312 172.144 140.816 62.3784 78.4379 359.355 117.991 605.691 57.6284 51.186 548.062 236.162 535.048 121.893 257.354 98.6169 82.0929 81.5315 57.7585 369.544 189.993 66.8049 35.2061 74.1395 162.022 124.033 43.4926 35.5185 40.9586 47.6627 41.1343 77.6169 52.3539 95.3505 413.156 150.649 69.0301 84.4052 68.5946 143.607 35.524 90.2472 72.415 290.708 265.188
internal_count=8604 6429 5493 2822 936 2119 78 1743 364 703 858 258 2671 1379 217 445 180 522 214 180 84 96 555 196 1162 95 75 1067 343 376 106 513 156 124 53 66 336 232 121 48 97 246 145 57 49 56 91 68 107 76 84 270 104 48 139 112 184 61 150 122 554 526
is_linear=0
shrinkage=0.05


Tree=3
num_leaves=63
num_cat=0
split_feature=51 43 15 61 18 18 50 53 47 26 47 47 50 26 15 47 22 0 47 15 65 15 27 38 16 0 18 25 3 15 12 17 4 4 56 23 59 65 47 23 18 15 16 31 50 14 31 59 21 57 47 16 50 12 34 18 29 23 6 25 57 40
split_gain=4442.09 1048.71 436.764 104.649 90.2519 88.528 81.4489 44.7951 38.463 38.8136 35.6679 22.9279 21.0328 16.2139 15.7328 12.6511 9.14902 8.91575 8.27041 7.5141 7.18557 6.34706 6.65359 10.5299 5.71195 6.61938 5.18509 4.79502 4.77797 4.5262 4.30805 4.50868 4.29235 4.18389 4.14903 3.85243 3.74939 3.48329 3.41294 3.21584 3.21156 3.1088 2.92636 2.90534 2.64678 2.61076 2.46622 2.43594 2.42166 2.81702 2.39384 2.62367 2.32147 2.31623 2.24765 2.2246 2.15092 2.2991 2.02233 2.47837 1.926 1.78985
threshold=1.0000000180025095e-35 1.0000000180025095e-35 3.8543361720892642 1.5000000000000002 1.8027602617187346 1.7520314413393463 1.0000000180025095e-35 1.0000000180025095e-35 13.250000000000002 0.77950000000000019 13.250000000000002 13.15 1.0000000180025095e-35 0.7985000000000001 4.2709698193302783 13.250000000000002 1.2005000000000001 6.8137669422363967 13.050000000000002 3.3423238653204104 5.894766822485181 3.1680396547188345 2.0010000000000003 2.5000000000000004 1.4697596263093093 7.5961849397276051 1.8027602617187346 0.0035000000000000005 6.0979936490142554 2.3042630167885974 3.8051949079014302 2.4734863566967342 2.9036774610288023 5.894766822485181 16.033333333333335 0.0065000000000000014 7.0582921665490481 5.1496040091936406 13.350000000000003 0.018500000000000003 1.9845214836529068 4.077821950405542 1.4911356165197844 7.5000000000000009 1.0000000180025095e-35 5.516190141915736 6.5000000000000009 6.0267647058823544 4.0785000000000009 0.14994696071224697 13.350000000000003 1.6483325951307657 1.0000000180025095e-35 1.0000000180025095e-35 2.5000000000000004 2.2214122795938196 0.093500000000000014 0.031500000000000007 8.6706551631188731 0.024500000000000004 0.002723926262836779 1.0000000180025095e-35
decision_type=2 2 2 2 2 2 2 2 2 2 2 2 2 2 2 2 2 2 2 2 2 2 2 2 2 2 2 2 2 2 2 2 2 2 2 2 2 2 2 2 2 2 2 2 2 2 2 2 2 2 2 2 2 2 2 2 2 2 2 2 2 2
left_child=1 5 3 4 6 7 -3 35 12 21 18 20 16 19 26 34 30 -18 -5 50 33 22 23 -10 25 -14 -4 42 -25 47 31 40 -32 48 -8 -1 -36 38 56 -23 -6 52 -20 -19 53 -35 -24 -29 49 -7 51 -12 -28 -11 -42 -33 57 -13 -51 -60 -17 -50
right_child=-2 2 14 10 8 11 15 -9 9 44 13 37 24 -15 -16 60 17 43 27 -21 -22 39 46 28 -26 -27 41 29 -30 -31 32 55 -34 45 36 -37 -38 -39 -40 -41 54 -43 -44 -45 -46 -47 -48 -49 61 58 -52 -53 -54 -55 -56 -57 -58 -59 59 -61 -62 -63
leaf_value=-0.019817424136547756 0.050000000000000003 -0.049368138809944409 -0.045745782843567513 -0.016824887720599677 0.0094172677708629395 0.032389113365166415 -0.032180295530341213 0.033942955346577465 0.031712665336353932 -0.008833474436749816 0.035168691003382678 0.033352991314545201 -0.033714782073267599 -0.0054672958719652297 -0.049829112092116268 0.027973427223200065 -0.020752969844433575 0.025117862488417665 0.0093694513267985249 0.003732233825712172 0.029590947823590331 -0.018508429069885642 0.019529687557506024 -0.028550832519955396 -0.03340886507557668 0.0067014941949887323 -0.023258829968947375 0.036843789478065533 0.0090426092506463943 -0.0091920016383312247 0.021864804855801227 -0.045399389015391839 -0.013432069239827045 0.032848059402586012 0.01411837713664179 -0.043589561225024907 -0.017448092171584047 0.044438314554420461 0.046516955264241169 0.011873598163242287 -0.031457433763959666 -0.03949309462250148 -0.013775340371440962 0.001708363652595332 -0.033466380238841152 0.012696162478471197 0.038271154278864856 0.010621994790052302 -0.002042731362428404 0.02436472401789766 0.039067326312709101 0.010360739632652407 -0.039103693380269033 -0.032009932213276727 -0.015839476357938198 -0.020627470591841356 0.034307077766975107 0.0072293914603192887 -0.010363113871222589 0.017260661039683128 0.0076922638061749293 0.012641185343093019
leaf_weight=24.263319313526154 3182.3643336296082 423.4144691824913 188.91590309143066 123.67768067121506 11.792742133140562 24.778628945350647 24.016483306884766 31.18751448392868 28.25324809551239 33.644620358943939 24.80668443441391 16.320228517055511 19.886421203613281 44.440606236457825 2095.092368543148 24.778628945350647 27.97356504201889 28.197137117385864 19.142164349555969 24.638351500034332 194.15075880289078 16.608190476894379 27.939990282058716 16.805450737476349 241.37482380867004 20.651326477527618 72.652557492256165 16.860689878463745 17.003726959228516 15.667545199394224 13.814310133457182 20.931737244129181 22.876689970493317 50.582069635391235 14.783010900020598 57.268209457397461 25.866958737373352 179.55154657363892 46.386100590229034 18.313741028308868 25.238555312156677 148.49264401197433 47.662725985050201 25.010479927062988 40.739655375480652 23.557428777217865 47.219672441482544 18.657813966274261 36.777926206588745 20.251142561435699 80.540868282318115 18.685869455337524 33.904526829719543 15.862917661666868 264.05047792196274 15.983562648296354 109.88244616985321 17.403910875320435 15.35428738594055 17.232818305492401 22.188544094562531 47.627263426780701
leaf_count=18 2175 203 189 249 18 30 45 25 34 61 29 21 40 78 1966 30 44 36 30 35 179 29 33 22 492 31 150 20 21 26 19 15 43 60 21 35 46 104 48 23 38 296 91 40 76 37 52 29 65 27 88 28 70 13 530 33 138 25 25 25 31 74
internal_value=0.00310747 -0.0244173 -0.0343102 -0.0166435 -0.0227763 0.0244638 -0.0393513 -0.0170205 -0.0139094 0.00253219 0.0050113 0.0303099 -0.0197568 0.0210319 -0.0480173 -0.00135847 -0.013118 0.00209955 -0.00779043 0.028953 0.022465 0.016456 0.0212994 0.00918324 -0.0304922 -0.0131253 -0.0394673 0.00167945 -0.00964388 0.0131946 -0.0164151 -0.0181815 -0.000142653 0.0166066 -0.0157033 -0.0365151 -0.00596844 0.0394448 0.0347257 -0.0025755 -0.0161594 -0.0348169 -0.00714347 0.0141141 -0.0240271 0.0264449 0.0313042 0.0230695 0.0121048 0.0184793 0.0339629 0.0245104 -0.0283004 -0.0162595 -0.017202 -0.0346737 0.0309171 0.0198715 0.0119562 0.00424498 0.0183921 0.00624295
internal_weight=8604 5421.64 4509.06 1970 1535.22 912.576 535.048 112.719 1000.17 262.391 434.781 799.857 737.782 193.112 2539.06 111.634 455.869 81.1812 241.669 148.672 430.312 172.144 137.222 62.0624 281.913 40.5377 443.966 117.991 33.8092 51.186 374.688 337.997 36.691 236.162 64.6665 81.5315 40.65 369.544 189.993 34.9219 301.082 255.05 66.8049 53.2076 90.2472 74.1395 75.1597 35.5185 162.022 77.6169 124.033 43.4926 106.557 49.5075 289.289 36.9153 143.607 33.7241 52.8382 32.5871 46.9672 84.4052
internal_count=8604 6429 5493 2822 2119 936 376 78 1743 364 703 858 1379 258 2671 173 816 120 445 180 522 214 162 77 563 71 705 196 43 75 696 634 62 343 112 53 67 336 232 52 586 516 121 76 150 97 85 49 246 107 145 57 220 74 568 48 184 46 77 50 61 139
is_linear=0
shrinkage=0.05


Tree=4
num_leaves=63
num_cat=0
split_feature=51 43 15 61 18 18 52 52 19 47 47 47 15 28 26 52 47 15 47 47 47 15 65 18 6 59 59 26 47 25 15 4 4 65 13 56 65 47 52 59 15 13 52 23 56 14 59 4 21 57 47 54 56 39 38 23 57 3 1 6 25 21
split_gain=4420.83 1022.39 441.004 101.562 94.7988 86.9934 86.4485 68.3989 37.1413 33.2567 23.8506 20.9597 18.8082 15.6668 15.3149 13.3867 13.0448 10.8598 10.0021 7.70615 7.56649 7.20736 6.68022 6.06444 5.67302 5.3298 5.15833 5.11681 4.59949 4.57262 4.30602 4.02029 3.89281 4.88285 3.60551 3.57074 3.52747 3.53929 3.48845 3.20446 3.09433 2.92383 2.84539 3.70318 2.82291 2.55146 2.42391 2.32556 2.32459 2.69841 2.30959 2.56146 2.28675 2.26111 4.91889 2.2486 2.06693 1.99472 1.90848 1.89381 2.30085 1.89031
threshold=1.0000000180025095e-35 1.0000000180025095e-35 3.8543361720892642 1.5000000000000002 1.8027602617187346 1.7520314413393463 1.0000000180025095e-35 1.0000000180025095e-35 1.7005986908310777 13.250000000000002 13.15 12.950000000000001 4.2773226384290934 0.20050000000000004 0.7985000000000001 1.0000000180025095e-35 13.250000000000002 3.4390948717627174 13.250000000000002 13.050000000000002 13.250000000000002 3.3423238653204104 5.894766822485181 1.8027602617187346 9.6008418152974198 7.1264510779436163 11.013440860215056 0.60250000000000015 13.15 0.0035000000000000005 2.3042630167885974 5.894766822485181 1.2924812503605783 5.8703120222447076 3.1645015358593676 16.033333333333335 5.1496040091936406 13.350000000000003 1.0000000180025095e-35 7.0582921665490481 4.0625255782775751 3.2456360118907139 1.0000000180025095e-35 0.018500000000000003 12.229473791452298 5.516190141915736 6.0267647058823544 5.2666648661529178 4.0785000000000009 0.14994696071224697 13.350000000000003 0.0072400323275862077 86.090630644781285 1.0000000180025095e-35 3.5000000000000004 0.015500000000000002 0.002723926262836779 5.768123607844065 8.0084259023085682 8.6706551631188731 0.024500000000000004 3.4120000000000004
decision_type=2 2 2 2 2 2 2 2 2 2 2 2 2 2 2 2 2 2 2 2 2 2 2 2 2 2 2 2 2 2 2 2 2 2 2 2 2 2 2 2 2 2 2 2 2 2 2 2 2 2 2 2 2 2 2 2 2 2 2 2 2 2
left_child=1 5 3 4 6 7 16 28 13 19 22 -10 23 15 21 32 35 20 25 -5 26 50 31 38 -17 44 42 -20 -1 41 46 48 -6 -34 61 -3 37 53 -4 -37 -25 57 43 -13 -15 -33 -31 -19 49 -7 51 -11 -22 54 -12 -44 -18 -21 -50 -51 -61 -26
right_child=-2 2 12 9 8 10 -8 -9 11 14 36 17 -14 18 -16 24 56 47 27 29 52 -23 -24 40 34 -27 -28 -29 -30 30 -32 45 33 -35 -36 39 -38 -39 -40 -41 -42 -43 55 -45 -46 -47 -48 -49 58 59 -52 -53 -54 -55 -56 -57 -58 -59 -60 60 -62 -63
leaf_value=0.013509298387350162 0.050000000000000003 -0.028988411867505171 -0.035759358385986567 -0.016003982866590851 -0.0046417751298789226 0.031616541986519128 -0.050000000000000003 -0.050000000000000003 -0.029883789359235375 0.0064790682649402496 0.0024225088066596873 0.01668695257455647 -0.049790226351200548 -0.014154142816136004 -0.0052061934994168712 0.0085195230316077522 0.028153882043951129 -0.013761973102704257 0.027512745813313196 0.0044261144889178559 0.034540516942763833 0.0035456220646860959 0.028689620474496264 -0.026446858106274965 0.0020316980051773991 -0.031930659353877178 -0.02062095979440496 -0.0068797202754624842 0.044813832489587827 0.036474861898224346 -0.0087324015597583203 0.032144233822026406 -0.032961733565852767 -0.019118369067775701 -0.032835105127312865 0.011801136894542735 0.044161999702674704 0.046395526065867637 -0.050000000000000003 -0.016705029764170386 -0.037741079829999878 0.012888471085175299 0.0064675904190823032 -0.021647780708806214 0.012135701238890781 0.012222513630024081 0.010317878688579319 0.0098506945632860464 0.0020679956675944866 0.02362617815472742 0.038166614085659835 0.032335242251101348 0.013288156488259685 0.036121548005606977 0.032637725347391962 0.03384680423550248 0.0073366406593606704 -0.018045969720752827 0.02033896122373971 -0.0099189529157779396 0.016697137919193507 -0.015187028261611569
leaf_weight=23.69770622253418 3182.3643336296082 28.375636756420135 64.418600976467133 123.67768067121506 16.664301455020905 24.778628945350647 416.60550832748413 65.7798171043396 38.088812112808228 14.242549538612364 19.313256919384003 15.295416772365572 2084.4104924201965 24.100649774074554 44.440606236457825 25.979180693626404 25.775385200977325 42.531260192394257 31.727867245674133 13.245793282985685 54.140855252742767 24.638351500034332 194.15075880289078 95.901375889778137 17.148651838302612 25.750961184501648 14.074216604232786 16.407154619693756 23.241519927978516 16.860689878463745 15.667545199394224 50.582069635391235 247.86863905191422 85.730017840862274 28.281159460544586 15.751711666584013 179.55154657363892 46.386100590229034 129.36697363853455 26.35130912065506 164.9605570435524 14.754955410957335 12.249037027359011 10.711819410324095 17.717168688774109 23.557428777217865 18.657813966274261 13.814310133457182 66.175615072250366 20.251142561435699 80.540868282318115 29.250004351139069 16.519376575946808 79.775963008403778 44.517365634441376 19.33855277299881 22.188544094562531 38.804141640663147 18.22957456111908 15.35428738594055 17.232818305492401 226.03363364934921
leaf_count=32 2175 54 133 249 27 30 190 30 67 22 30 21 1951 42 78 42 31 73 38 21 61 35 179 198 28 38 28 24 16 20 26 60 498 177 27 23 104 48 59 47 330 22 20 20 26 37 29 19 113 27 88 35 20 97 57 23 31 78 26 25 25 424
internal_value=0.00321984 -0.0242389 -0.0340069 -0.0162547 -0.0222963 0.0240248 -0.0392837 -0.0170984 -0.0132088 0.00507827 0.02982 0.00409263 -0.0477804 -0.0185747 0.0205479 -0.0216021 -0.00159072 0.0106064 -0.00162756 -0.00728317 0.0179616 0.0282462 0.0218188 -0.0385661 -0.0138017 -0.0140355 0.00651457 0.0157898 0.0290094 0.00185796 0.0131029 0.0161702 -0.0282261 -0.0294042 -0.0159379 -0.0152795 0.0391369 0.034388 -0.0452661 -0.00604021 -0.033589 -0.00675792 0.0131456 0.000897703 -0.00301579 0.0258142 0.0227346 -0.00797283 0.0117572 0.0180027 0.0331528 0.0238681 0.029572 0.0305095 0.0234955 0.0232297 0.0185236 -0.0123272 0.0060141 0.0116184 0.00415625 -0.0139728
internal_weight=8604 5421.64 4509.06 1970 1535.22 912.576 535.048 112.719 1000.17 434.781 799.857 236.764 2539.06 763.409 193.112 647.706 118.443 198.675 115.704 241.669 142.329 148.672 430.312 454.648 297.443 67.5688 71.669 48.135 46.9392 117.991 51.186 236.162 350.263 333.599 271.463 70.4787 369.544 189.993 193.786 42.103 260.862 66.8049 57.5948 26.0072 41.8178 74.1395 35.5185 56.3456 162.022 77.6169 124.033 43.4926 70.6602 143.607 63.8306 31.5876 47.9639 52.0499 84.4052 52.8382 32.5871 243.182
internal_count=8604 6429 5493 2822 2119 936 376 78 1743 703 858 352 2671 1391 258 1223 186 285 168 445 193 180 522 720 521 106 112 62 48 196 75 343 702 675 479 124 336 232 192 70 528 121 84 41 68 97 49 92 246 107 145 57 81 184 87 43 62 99 139 77 50 452
is_linear=0
shrinkage=0.05


Tree=5
num_leaves=63
num_cat=0
split_feature=51 43 15 61 18 52 18 52 47 26 47 47 15 50 26 47 12 47 18 15 15 12 28 65 16 54 47 12 25 11 56 23 52 7 15 4 50 65 47 10 10 56 50 16 14 15 11 13 14 39 17 21 57 47 16 23 7 33 47 28 26 14
split_gain=4400.25 996.709 444.115 98.5399 99.372 87.1685 85.8794 67.6824 33.0179 34.5782 30.9197 24.7882 21.9929 17.1277 14.421 12.0989 7.20274 7.18596 7.03916 6.88138 6.40849 6.34853 6.29259 6.2027 4.72146 5.80821 4.70411 4.52855 4.3473 4.28513 5.69367 5.06006 4.23032 4.14902 4.09194 3.85844 3.84553 3.54921 3.64997 3.34301 5.11352 3.27515 3.21919 3.1887 2.87351 2.85854 2.76987 2.68794 2.4901 2.22947 4.02822 2.22882 2.58482 2.1921 2.57577 2.17608 2.13831 2.12364 2.07178 2.02072 2.59041 1.96726
threshold=1.0000000180025095e-35 1.0000000180025095e-35 3.8543361720892642 1.5000000000000002 1.8027602617187346 1.0000000180025095e-35 1.7520314413393463 1.0000000180025095e-35 13.250000000000002 0.68750000000000011 13.250000000000002 13.15 4.2773226384290934 1.0000000180025095e-35 0.7985000000000001 13.250000000000002 3.5581081520826321 13.050000000000002 1.8027602617187346 3.3423238653204104 3.1680396547188345 4.1007667165773194 0.13050000000000003 5.894766822485181 1.4697596263093093 0.013032058189655174 13.15 1.0000000180025095e-35 0.0035000000000000005 5.2933611487590353 14.723228313900606 0.0075000000000000006 1.0000000180025095e-35 5.768123607844065 2.3042630167885974 5.894766822485181 1.0000000180025095e-35 5.1496040091936406 13.350000000000003 2.2999415360368443 2.5792114032924416 16.033333333333335 1.0000000180025095e-35 1.4697596263093093 3.1463641103250413 4.077821950405542 5.8024314915868551 3.2456360118907139 5.516190141915736 1.0000000180025095e-35 3.2136505281658052 4.0785000000000009 0.14994696071224697 13.350000000000003 1.6483325951307657 0.019500000000000003 8.1472026811682827 8.5000000000000018 13.350000000000003 0.23450000000000001 0.46450000000000008 4.3521149429577282
decision_type=2 2 2 2 2 2 2 2 2 2 2 2 2 2 2 2 2 2 2 2 2 2 2 2 2 2 2 2 2 2 2 2 2 2 2 2 2 2 2 2 2 2 2 2 2 2 2 2 2 2 2 2 2 2 2 2 2 2 2 2 2 2
left_child=1 6 3 4 5 15 7 26 13 20 17 23 18 21 19 41 27 -5 32 53 22 29 -10 35 25 -15 -1 36 47 30 -6 46 -4 -24 61 51 58 38 49 -35 -41 -3 45 -33 -43 -20 -31 -19 -37 50 -13 52 -8 54 -12 -22 -23 -45 -11 60 -17 -30
right_child=-2 2 12 10 8 -7 11 -9 9 16 14 37 -14 24 -16 59 -18 28 42 -21 55 56 33 -25 -26 -27 -28 -29 34 31 -32 43 -34 39 -36 48 -38 -39 -40 40 -42 44 -44 57 -46 -47 -48 -49 -50 -51 -52 -53 -54 -55 -56 -57 -58 -59 -60 -61 -62 -63
leaf_value=0.012919066396782445 0.050000000000000003 -0.027701905798891781 -0.034318053482503233 -0.015223130913552619 -0.0046232694695944902 -0.050000000000000003 0.03086239863011422 -0.050000000000000003 -0.0052034695689011472 -0.017552717107579302 0.033813343922865384 0.0037792502354660044 -0.049705830444421166 -0.031145336532015719 -0.0049575608379220397 0.0096365221888438848 0.020448991882085883 -0.011715423466377529 -0.020724603851355532 0.003368340954506094 -0.016319158404419366 0.013635431446264449 0.043434730226750491 0.02780958169878869 -0.030299898910883902 0.0067136144218887502 0.044577649046747096 -0.043487245614948045 0.011192923083828374 0.022104682538284764 -0.035509132929657759 0.0082256915581671586 -0.050000000000000003 0.029641914119613717 -0.0082957813409652997 0.031447250404841913 -0.03066153525770688 0.043884664859851631 0.046274413852983746 -0.0094880224619818699 0.028349123162880092 -0.019475203314830367 -0.040111863011938781 0.0044687523112916091 0.0066839158539195656 -0.03370261858117081 -0.0097994006797892767 0.012461714147422118 0.011766534569241795 0.035714558366474282 0.031310501112703761 0.0057991294487919134 0.01128969648237596 0.037182853216225449 0.0092328984607272062 0.0099750576874440122 -0.011204157547463209 -0.015482798625770828 0.0063976373985337237 0.0018228582185738135 0.037248106643172255 0.034757499322069098
leaf_weight=23.69770622253418 3182.3643336296082 28.375636756420135 64.418600976467133 123.67768067121506 22.219359219074249 416.60550832748413 24.778628945350647 65.7798171043396 18.171575784683228 20.342716097831726 24.80668443441391 18.856962025165558 2084.4104924201965 19.886421203613281 44.440606236457825 15.779767155647276 9.8833960890769941 52.049934923648834 72.652557492256165 24.638351500034332 15.639489710330965 30.106483161449432 27.368713796138763 194.15075880289078 241.37482380867004 20.651326477527618 23.241519927978516 23.35348916053772 18.657813966274261 16.292173027992252 45.430683135986328 16.179951071739197 129.36697363853455 47.875115394592285 15.667545199394224 50.582069635391235 31.967125296592712 179.55154657363892 46.386100590229034 17.860205769538879 17.857446134090424 19.97058767080307 86.214368224143982 13.985402703285216 22.132433116436005 101.99500721693039 11.68052017688751 14.754955410957335 23.557428777217865 79.775963008403778 44.973660528659821 84.405189633369446 52.838248252868652 80.540868282318115 18.685869455337524 15.835878133773802 12.164870560169218 287.80981439352036 16.236062049865723 13.786254644393919 18.397907495498657 16.860689878463745
leaf_count=32 2175 54 133 249 36 190 30 30 22 42 29 28 1951 40 78 22 13 99 150 35 27 41 29 179 492 31 16 20 29 22 55 26 59 53 26 60 66 104 48 27 21 37 178 19 33 200 22 22 37 97 59 139 77 88 28 20 23 572 24 20 20 20
internal_value=0.00332883 -0.024066 -0.0337105 -0.0158958 -0.0218469 -0.0392392 0.0235878 -0.0172711 -0.0125427 0.00269064 0.00511741 0.0293458 -0.0475325 -0.0179605 0.0200336 -0.00138953 -0.0201098 -0.00680179 -0.0375686 0.0275039 0.01714 -0.0119696 0.022071 0.0211889 -0.0276481 -0.0118587 0.0285945 -0.0244717 0.00202542 -0.0138559 -0.0253648 -0.0116053 -0.044787 0.0265376 0.0129898 0.015746 -0.0179932 0.0388441 0.0340806 0.0210053 0.00942909 -0.0145726 -0.0322064 -0.0133989 -0.00572405 -0.0283038 0.00878254 -0.00637551 0.0251938 0.0301419 0.0231772 0.0114227 0.0175381 0.0322982 0.0232528 -0.00309002 0.00648708 -0.0145582 -0.00692198 0.0179818 0.0244999 0.0223791
internal_weight=8604 5421.64 4509.06 1970 1535.22 535.048 912.576 112.719 1000.17 262.391 434.781 799.857 2539.06 737.782 193.112 118.443 101.783 241.669 454.648 148.672 160.608 455.869 129.133 430.312 281.913 40.5377 46.9392 91.8994 117.991 413.598 67.65 345.948 193.786 110.961 51.186 236.162 68.5459 369.544 189.993 83.5928 35.7177 70.4787 260.862 317.975 42.103 174.648 27.9727 66.8049 74.1395 143.607 63.8306 162.022 77.6169 124.033 43.4926 31.4754 42.2714 301.795 36.5788 47.9639 34.1777 35.5185
internal_count=8604 6429 5493 2822 2119 376 936 78 1743 364 703 858 2671 1379 258 186 165 445 720 180 199 816 152 522 563 71 48 152 196 752 91 661 192 130 75 343 132 336 232 101 48 124 528 617 70 350 44 121 97 184 87 246 107 145 57 47 64 591 66 62 42 49
is_linear=0
shrinkage=0.05


Tree=6
num_leaves=63
num_cat=0
split_feature=51 43 15 61 18 18 50 47 26 47 47 50 15 26 47 15 4 6 15 47 22 0 28 4 12 18 12 47 7 13 6 0 12 17 4 65 47 50 0 10 10 14 5 47 23 18 18 63 13 15 61 13 10 0 59 29 2 21 19 23 9 8
split_gain=4379.91 971.315 446.222 96.2911 111.054 84.7376 82.0887 30.5227 30.6656 30.3696 25.7214 16.5794 16.2761 12.5037 11.0711 9.77288 9.16699 12.4557 8.91674 6.59521 6.22439 7.34324 6.00556 5.95331 5.9337 4.38497 4.36922 4.20034 4.09908 3.80978 3.58174 4.02626 3.5756 4.58088 4.0077 3.57154 3.76767 3.47596 3.46184 3.15699 4.79042 2.94481 3.11202 2.77281 4.04743 2.746 2.68582 2.6074 3.23445 2.55427 2.48779 2.47203 2.45974 2.43194 2.30761 2.24813 2.61732 4.73002 3.22156 2.33912 2.1946 2.17758
threshold=1.0000000180025095e-35 1.0000000180025095e-35 3.9802987303922017 1.5000000000000002 1.8027602617187346 1.7520314413393463 1.0000000180025095e-35 13.250000000000002 0.68750000000000011 13.250000000000002 13.15 1.0000000180025095e-35 4.2773226384290934 0.7985000000000001 13.250000000000002 3.5678488786225504 1.2924812503605783 9.965062576227254 3.1680396547188345 13.050000000000002 1.2005000000000001 6.8137669422363967 0.13050000000000003 4.8824357953680462 3.5581081520826321 1.7520314413393463 1.0000000180025095e-35 12.950000000000001 5.768123607844065 2.6928460258455043 10.084962500721158 7.4136217255118009 3.8051949079014302 2.4734863566967342 2.6961587113893803 5.1496040091936406 13.350000000000003 1.0000000180025095e-35 7.5961849397276051 2.2999415360368443 2.5792114032924416 5.1922872053180829 6.3836784270628435 13.050000000000002 0.014500000000000001 2.2214122795938196 1.9845214836529068 4.3789244643703187 3.6889089607593113 2.8575577368564855 1.0000000180025095e-35 2.2081704452872404 2.7777890363864777 6.8887304063348935 2.9477774747750209 0.093500000000000014 11.292481250360579 5.1995000000000013 4.816232960488728 0.031500000000000007 5.4778438751567533 1.5000000000000002
decision_type=2 2 2 2 2 2 2 2 2 2 2 2 2 2 2 2 2 2 2 2 2 2 2 2 2 2 2 2 2 2 2 2 2 2 2 2 2 2 2 2 2 2 2 2 2 2 2 2 2 2 2 2 2 2 2 2 2 2 2 2 2 2
left_child=1 5 3 4 6 16 -3 11 18 19 23 20 25 15 43 -11 -1 -18 22 -5 32 -22 -9 41 26 50 37 -23 -24 38 31 51 33 46 -34 36 55 -10 -13 -30 -41 54 60 -8 61 -35 -6 48 -25 53 -4 -21 -29 -16 -7 59 57 58 -57 -12 -43 -45
right_child=-2 2 12 9 7 10 14 8 24 13 35 29 -14 -15 49 -17 17 -19 -20 30 21 27 28 47 -26 -27 -28 52 39 -31 -32 -33 34 45 -36 -37 -38 -39 -40 40 -42 42 -44 44 -46 -47 -48 -49 -50 -51 -52 -53 -54 -55 -56 56 -58 -59 -60 -61 -62 -63
leaf_value=-0.03576076407088024 0.050000000000000003 -0.049342954950251872 -0.047772011886316613 -0.015194785917258483 0.0093577596757416209 0.030016370436553343 -0.029172754750457594 -0.0050488968763484918 -0.0065584460083696131 0.030187193165490313 0.032068988445622441 -0.027784477616784133 -0.049597940132169061 -0.0047208021949473149 0.0078761911670441713 -0.0076536327680918788 0.013720779326961927 -0.028450698333954666 -0.0056238693427634427 0.010957147189875983 -0.019019643907430189 -0.013224655049774742 0.04275493921137058 0.027727218862303935 0.014832490018193213 -0.033396326597147377 -0.041935304908471291 0.026987102954878106 0.0288537741505362 -0.028932085451391178 -0.014707170453617092 0.016281099385003467 0.020934120972835094 -0.043960633481715902 -0.012420374617243097 0.043599611591092935 0.04615361782248463 -0.029128458141720361 0.0029997861682850365 -0.0090983384754261994 0.027523944058267819 -0.0012679259065357649 0.025143551003032671 -0.0038526008033703805 0.011631915279426289 -0.01736785889210584 -0.014983827116193449 0.034278076055484996 0.011750119524188741 -0.0037428619958882713 -0.030322629099264316 -0.012137535794018744 0.0035034486882366948 0.033726647575523509 0.012042450751196788 0.023549446799292807 0.042043423716870434 0.040620099605285093 -0.010975746298371624 0.0057189979676712122 0.012844549121308372 -0.031284710532679331
leaf_weight=42.516157805919647 3182.3643336296082 456.78872811794281 118.01757329702377 131.91163718700409 11.792742133140562 44.010162591934204 24.729925036430359 18.171575784683228 36.578778147697449 134.45727962255478 16.320228517055511 17.464669287204742 2084.4104924201965 44.440606236457825 16.776523411273956 19.542348265647888 36.804703593254089 33.398181855678558 39.224973976612091 17.689113199710846 33.301419258117676 14.586622476577757 27.368713796138763 98.280943930149078 11.336447238922117 210.26040172576904 23.837839543819427 27.712786734104156 47.875115394592285 255.9614462852478 28.632783591747284 45.345788955688477 14.29866051673889 21.900438010692596 24.32974112033844 179.55154657363892 46.386100590229034 31.967125296592712 19.142164349555969 17.860205769538879 17.857446134090424 49.162593245506287 28.518357396125793 12.733387410640718 16.264117538928986 17.436613798141479 290.25773400068283 70.889540374279022 46.742729127407074 13.217737793922423 24.701869547367096 33.588509380817413 18.657813966274261 19.879014134407043 30.050372183322906 22.188544094562534 47.675967335700989 30.302871584892273 9.7150631546974164 17.403910875320435 62.657625198364258 16.751227557659149
leaf_count=25 2175 219 92 266 18 47 50 22 66 157 21 35 1951 78 23 34 29 24 63 27 55 28 29 116 16 420 21 35 53 520 57 64 20 17 46 104 48 66 30 27 21 68 33 21 23 36 570 57 69 22 51 63 29 22 43 31 54 34 19 25 89 30
internal_value=0.00343681 -0.0238946 -0.0334155 -0.0163545 -0.0220781 0.0231482 -0.0396637 -0.0123089 0.00207896 0.0039474 0.0288678 -0.0174138 -0.0479166 0.018643 -0.00292688 0.0253852 -0.0174382 -0.0063418 0.0152543 -0.00739228 -0.0116395 -0.000138233 0.0215962 0.0205587 -0.0193073 -0.0379877 -0.0234966 0.0101768 0.0259598 -0.0267743 0.00082481 0.00542746 -0.0144922 -0.0161236 -7.38993e-05 0.0385432 0.0337648 -0.0170842 -0.011687 0.0204609 0.00921139 0.0146569 0.0104 -0.0156838 -0.00839217 -0.0321731 -0.0140335 0.0264192 0.0225776 0.0151006 -0.0447519 -0.00417062 0.0175381 0.0218954 0.0227234 0.0297631 0.0332288 0.0264732 0.0130361 0.0184706 0.00663989 -0.0194377
internal_weight=8604 5421.64 4509.06 2071.67 1616.06 912.576 577.141 1038.92 272.078 455.608 799.857 766.843 2437.39 198.44 120.352 154 112.719 70.2029 168.358 257.168 474.275 94.2586 129.133 430.312 103.72 352.98 92.3837 60.9572 110.961 292.568 125.256 96.6234 380.016 341.388 38.6284 369.544 189.993 68.5459 36.6068 83.5928 35.7177 214.399 140.339 70.4787 45.7487 39.3371 302.05 215.913 145.024 49.8733 142.719 51.2776 46.3706 36.6555 74.0605 143.607 109.882 62.2065 31.9036 33.7241 111.82 29.4846
internal_count=8604 6429 5493 2979 2233 936 410 1823 384 746 858 1439 2514 269 191 191 78 53 215 477 854 147 152 522 169 563 153 92 130 585 211 154 707 641 66 336 232 132 65 101 48 280 190 124 74 53 588 242 185 67 143 90 64 45 90 184 138 84 50 46 157 51
is_linear=0
shrinkage=0.05


Tree=7
num_leaves=63
num_cat=0
split_feature=51 15 53 18 50 61 53 19 61 26 18 15 15 11 16 27 50 11 27 4 28 15 26 50 7 20 30 23 30 2 10 9 23 3 50 57 15 19 56 26 26 33 25 20 38 15 28 26 13 13 21 3 41 10 10 13 7 9 5 6 19 15
split_gain=4357.73 182.594 124.9 141.88 88.5792 79.833 572.309 32.3413 28.4107 22.3996 17.9783 34.024 17.2325 16.2538 14.4033 9.44049 8.00612 7.5481 7.28711 6.93876 6.896 6.93239 6.44364 6.16013 5.66195 7.11823 5.30149 4.77867 6.58445 4.51828 4.38464 4.2972 4.14507 4.1227 3.97727 6.28581 5.75557 5.14335 3.9214 3.74617 3.7171 3.411 4.05489 5.54605 3.53553 3.43823 3.68527 3.36909 4.34472 3.35219 3.32494 3.21406 3.16901 3.14317 3.14293 2.87939 2.95697 2.86831 2.86453 3.29885 2.80723 2.79036
threshold=1.0000000180025095e-35 3.8753209512625477 1.0000000180025095e-35 1.8027602617187346 1.0000000180025095e-35 1.0000000180025095e-35 1.0000000180025095e-35 1.7005986908310777 1.0000000180025095e-35 0.75450000000000006 1.9164459723798954 4.7598528386947541 4.3160225135161427 5.9544836502091956 2.3021130265422358 6.3440000000000003 1.0000000180025095e-35 5.7615518257881311 2.0775000000000006 5.9657381169433963 0.20050000000000004 3.4390948717627174 0.59750000000000003 1.0000000180025095e-35 7.7714856921890503 6.6839863367171022 763.50000000000011 0.0087500000000000026 228.50000000000003 9.9299978730999303 2.7638020629766342 4.8948608469904622 0.028500000000000004 6.9366259214510642 1.0000000180025095e-35 1.327289473320082 4.362896957595491 4.2972622671762819 99.974208017942274 0.46050000000000008 0.59950000000000003 12.500000000000002 0.0065000000000000014 4.945201156493737 2.5000000000000004 3.5063017852307401 0.31750000000000006 0.69150000000000011 3.7716976799401811 2.2741332725853733 5.3135000000000003 7.3174055250858601 1.0000000180025095e-35 2.2540627680415999 2.4934574915226406 2.8878983971270311 6.8765038844726236 5.720158515568734 2.9036774610288023 9.8556469559428859 1.4978661367769956 3.6293584759670625
decision_type=2 2 2 2 2 2 2 2 2 2 2 2 2 2 2 2 2 2 2 2 2 2 2 2 2 2 2 2 2 2 2 2 2 2 2 2 2 2 2 2 2 2 2 2 2 2 2 2 2 2 2 2 2 2 2 2 2 2 2 2 2 2
left_child=1 2 3 4 -1 6 10 13 51 20 23 15 -7 14 16 26 32 53 -15 24 22 -22 61 -3 25 47 34 28 -25 -28 -21 -24 39 55 35 36 -12 -37 -26 -5 -18 45 43 -43 -44 46 52 48 -17 -41 -31 -4 -9 -16 -55 56 -6 -8 59 -54 -57 -10
right_child=-2 5 8 7 33 12 57 41 9 -11 11 -13 -14 18 17 19 40 -19 -20 30 21 -23 31 27 38 -27 29 -29 -30 50 -32 -33 -34 -35 -36 37 -38 -39 -40 49 -42 42 44 -45 -46 -47 -48 -49 -50 -51 -52 -53 58 54 -56 60 -58 -59 -60 -61 -62 -63
leaf_value=-0.050000000000000003 0.050000000000000003 -0.049472385735536202 0.041539928431040971 0.0075685325534175108 0.0018812643657030931 -0.029153770145870075 0.035742440077605554 0.035482081548702027 0.012450356529882498 -0.013193967346710467 -0.021153958354093897 -0.039472062840491373 -0.049411920324482918 -0.013461359684049531 0.018565380632240142 -0.0021362346780121394 -0.0097476210294161949 -0.019012301364204065 0.026487730747016183 -0.012423667147868172 0.020755007857383087 -0.0061960919841123376 -0.013717423055715317 -0.035649307654246225 -0.026339531404136508 -0.028772908331528832 -0.03657870777976073 -0.041774693320734149 0.013352975028859107 0.0058456859685818985 -0.042436206929439314 0.014877113465325274 -0.036915443819218324 -0.02022661273579765 -0.036904118534749966 0.0079690378188336953 -0.040371109098394767 -0.025198734366197923 0.0038964084346328025 -0.037048808042134139 -0.028285017797167314 -0.024344725096559598 0.02813321940893624 0.011120525322136211 -0.0023112135212421921 -0.0007815229871697949 -0.0069797844397154821 -0.017491732100740977 0.026220941328248412 -0.012562039647175092 -0.022474025466080384 0.023081430544634726 0.018891457189467338 -0.019878337592174843 0.0088926221362100599 -0.016436036287198343 0.029317968099048082 0.019686094222301057 0.022691695951593583 -0.011669477846129575 0.0066183585819640624 -0.010759905393040347
leaf_weight=453.88073801994324 3182.3643336296082 296.24015611410141 41.313167214393616 21.847230792045593 22.588728010654449 127.38415080308914 300.46493679285049 22.841227412223816 108.78087502717972 175.27132070064545 71.876469552516937 1097.8434236645699 596.75126534700394 17.146764039993286 38.937012016773224 31.363145887851715 30.794629037380219 36.665704250335693 34.149619162082672 18.344556152820587 137.14634507894516 28.88528299331665 68.377570509910583 20.34271609783173 67.147075474262238 20.909345149993896 17.920964181423187 97.01299637556076 10.339690983295439 23.585484266281128 36.151410579681396 16.264117538928986 18.228558599948883 22.392339587211609 182.07273036241531 20.623270988464355 85.086656153202057 26.978696584701538 12.761442899703978 14.86616140604019 221.94280970096588 29.253635823726654 16.804578900337219 17.689113199710846 22.048266649246216 43.640238404273987 15.667545199394224 13.873180747032164 23.725761711597443 233.6121472120285 18.489481031894684 54.951574444770813 17.773279666900635 14.612790167331694 27.088158905506134 24.385852098464966 17.373095750808716 30.652147352695465 45.429955422878265 17.548835754394531 28.79646909236908 14.698844432830809
leaf_count=207 2175 145 28 31 35 263 217 26 159 346 129 798 636 22 55 51 53 69 43 28 189 48 138 42 121 34 37 116 15 36 63 23 20 42 335 32 127 49 20 12 448 41 22 27 36 70 26 23 31 440 35 56 24 21 39 44 20 30 61 32 39 24
internal_value=0.00355487 -0.0237073 -0.0124909 -0.020282 -0.0400503 -0.0312139 -0.0270149 -0.00853932 0.00594664 0.00155649 -0.0362674 -0.0340509 -0.0458483 -0.0139752 -0.0160867 -0.02518 -0.0195289 -0.000202996 0.013134 -0.0168101 0.00846632 0.0160662 0.00240341 -0.0455153 -0.0118275 -0.00321766 -0.0293829 -0.0363351 -0.019136 -0.0155541 -0.0323333 -0.00822291 -0.0138379 -0.000963361 -0.0315288 -0.0267445 -0.0315712 -0.010829 -0.0215108 -0.0122817 -0.0260263 0.00697718 -0.00109156 -0.0109806 0.0108566 0.0112268 0.0156209 0.0045307 0.0100767 -0.0140271 -0.00659917 0.0310031 0.019039 0.00834951 -0.00118926 0.00366763 0.0138092 0.0342561 0.014388 0.00370808 -0.00395284 0.00968744
internal_weight=8604 5421.64 2173.69 1528.01 569.417 3247.94 2523.81 958.588 645.689 549.424 2192.69 1768.75 724.135 709.892 658.595 670.91 541.292 117.304 51.2964 224.276 374.153 166.032 208.121 423.936 169.78 89.8714 446.634 127.695 30.6824 59.9959 54.496 84.6417 288.554 115.536 386.638 204.565 156.963 47.602 79.9085 270.326 252.737 248.697 85.7956 46.9427 38.8528 162.901 119.261 68.9621 55.0889 248.478 42.075 96.2647 103.593 80.638 41.7009 93.1441 39.9618 331.117 80.7521 35.3221 53.1823 123.48
internal_count=8604 6429 3016 2005 387 3413 2514 1618 1011 927 2267 1949 899 1253 1188 1151 1004 184 65 371 581 237 344 318 280 139 780 173 57 108 91 161 503 180 672 337 256 81 141 483 501 365 126 68 58 239 169 105 82 452 71 84 143 115 60 138 55 247 117 56 83 183
is_linear=0
shrinkage=0.05


Tree=8
num_leaves=63
num_cat=0
split_feature=51 15 53 57 61 63 50 47 61 15 47 26 15 57 11 57 1 26 47 25 47 12 59 0 10 47 15 6 1 57 61 47 33 27 22 12 13 0 30 21 15 32 26 57 11 7 4 33 16 4 3 7 33 26 15 57 57 50 12 50 20 24
split_gain=4333.89 181.945 121.628 81.5033 77.6139 557.925 69.0178 36.602 20.8884 19.4291 18.3316 17.4202 16.2801 22.5685 15.2827 14.8152 23.4429 12.0656 11.9135 8.88888 8.84318 8.44033 8.98415 7.85814 7.58963 7.42657 7.29685 7.21561 6.15343 8.05452 5.92643 7.16752 5.12217 4.90286 4.85888 4.71808 4.70426 4.64085 5.56615 4.5828 4.40752 4.7566 6.14972 4.32733 4.18369 4.69666 3.94608 6.47203 9.38245 9.0854 8.74373 6.29918 3.76186 3.68183 3.66865 4.13116 3.63487 3.72558 3.49484 3.32291 4.93781 3.88101
threshold=1.0000000180025095e-35 3.8753209512625477 1.0000000180025095e-35 0.0087506629630338759 1.0000000180025095e-35 3.9407149265017307 1.0000000180025095e-35 13.15 1.0000000180025095e-35 4.3160225135161427 13.250000000000002 0.68750000000000011 4.7965396423818634 0.043909893940666932 6.2551518342244297 0.02135573251725589 1.7924812503605783 0.75750000000000017 13.15 0.0072500000000000004 13.350000000000003 3.5852911940047547 1.2324617840845458 10.500000000000002 2.1775341031744255 13.250000000000002 3.6293584759670625 9.009827938746918 3.2459265481648374 0.073285010042837384 1.0000000180025095e-35 13.350000000000003 10.500000000000002 2.9675000000000007 2.0695000000000001 4.0592224067287885 2.6503064363551432 6.3487010037513549 10.500000000000002 4.8310000000000004 4.7598528386947541 3.5000000000000004 0.45750000000000007 0.16004076578210327 5.7547303010530459 6.4511875572430135 5.3749347136984236 8.5000000000000018 3.5098071502875512 7.1241120448342379 6.9366259214510642 5.022197059679228 13.500000000000002 0.41550000000000004 4.6821902174827317 0.75608276900412086 0.0076818942819029913 1.0000000180025095e-35 1.0000000180025095e-35 1.0000000180025095e-35 1.0000000180025095e-35 0.0042500000000000012
decision_type=2 2 2 2 2 2 2 2 2 2 2 2 2 2 2 2 2 2 2 2 2 2 2 2 2 2 2 2 2 2 2 2 2 2 2 2 2 2 2 2 2 2 2 2 2 2 2 2 2 2 2 2 2 2 2 2 2 2 2 2 2 2
left_child=1 2 3 6 5 12 -1 8 -4 -6 14 15 13 56 28 16 20 26 -7 58 -12 -15 54 -16 -17 -8 30 33 37 -30 -9 52 -26 -24 -35 -31 -10 -5 44 -36 41 42 -29 -19 45 -39 -14 -48 51 50 -50 -49 -32 -34 55 -23 57 -3 -13 60 -40 -61
right_child=-2 4 7 10 9 18 25 17 36 -11 11 19 46 21 23 24 -18 43 -20 -21 -22 22 27 -25 32 -27 -28 40 29 35 31 -33 53 34 39 -37 -38 38 59 -41 -42 -43 -44 -45 -46 -47 47 48 49 -51 -52 -53 -54 -55 -56 -57 -58 -59 -60 61 -62 -63
leaf_value=-0.04758016729650083 0.050000000000000003 -0.049786210222352946 0.021839876272291579 -0.029907068172031939 -0.027701624136868733 0.024276397972582187 -0.012395463653626572 0.046940515184076798 0.0048918710472019619 -0.049212164333485277 -0.015357637998922502 -0.017586211327998817 -0.04244741329220577 -0.038325711709860225 -0.0082540772772993123 0.029359284258555773 -0.049369930980813798 -0.007480731569515519 0.043272650140062707 0.024018402455893921 0.031546379838182273 -0.035044078048782741 -0.025951798193816114 0.030621563989016012 0.021152567927568412 0.014859863444950328 -0.0050557895943058916 0.014190656320548257 -0.04388013071712088 -0.023682208264636968 0.017743157315991197 0.032724722712344223 0.011746168903679183 -0.017989330390858572 0.021993340172321338 0.0031859299086569996 -0.013376089610040201 -0.026982824427332044 -0.035784882258637851 -0.010382255203944559 -0.040086022668953253 -0.024253158367444641 -0.02601516238865664 0.027053608373467066 0.020327095621114184 0.01063248189410569 -0.044460148592211632 0.050000000000000003 -0.027600713883453473 -0.039971890896306546 0.01572117052831996 -0.039542383737644467 -0.0091563664285290673 -0.014779967599158278 -0.03936603607029765 -0.019859457996894592 -0.036458981376608073 -0.033146805810195516 -0.038715236273031028 -0.0035542746624663019 -0.010077987493327153 -0.025300079919814273
leaf_weight=365.09629625082016 3182.3643336296082 158.84026181697845 59.287820935249329 50.816536128520966 127.38415080308914 165.67821532487869 61.76035064458847 30.297885954380035 41.134320020675659 596.75126534700394 18.087409317493439 67.804406225681305 731.60024911165237 128.20214593410492 28.628136157989502 56.56071937084198 27.025368571281433 49.740404963493347 164.47016805410385 10.880152344703673 22.61213606595993 84.011396825313568 25.891238629817963 23.809928178787231 33.665268778800964 41.983391761779785 20.110865116119385 20.195031583309174 47.95899361371994 131.47962218523026 76.933378756046295 95.464156627655029 22.443803131580353 25.609811902046204 27.684731245040894 18.657813966274261 245.98647665977478 17.573115646839142 20.449274659156799 18.061241626739502 34.119531750679016 172.14922428131104 17.977075159549713 11.094299197196959 18.713924944400787 15.72365617752075 135.44387626647949 1.9935125112533558 20.533441126346588 25.630316197872162 26.913290739059448 133.19045728445053 15.639489710330961 31.359370291233063 88.837038636207581 95.950079798698425 178.14445859193802 42.678944706916809 27.511606752872467 24.470018565654755 215.89410668611526 127.04007786512375
leaf_count=181 2175 74 63 70 263 150 106 16 68 636 25 128 494 155 45 60 17 90 95 14 22 147 33 28 42 56 32 29 38 251 107 104 28 43 36 29 492 19 20 32 32 293 35 12 27 24 98 2 17 18 27 87 27 39 103 178 250 86 24 41 414 257
internal_value=0.00368208 -0.0235054 -0.0123089 -0.0199973 -0.0309986 -0.0268585 -0.0373539 0.00588545 -0.00517965 -0.0454282 -0.0123144 -0.00227104 -0.0359786 -0.0317549 -0.0166226 0.00601706 -0.0132697 0.018693 0.0337398 -0.0187974 0.0107016 -0.0266627 -0.0242135 0.00939772 0.015086 -0.00136568 0.0237639 -0.0188337 -0.0186036 -0.0260415 0.0264185 0.0231118 0.00585634 -0.007314 -0.000551323 -0.0203433 -0.0107589 -0.0156008 -0.013948 0.00921094 -0.0234166 -0.0207124 -0.00474419 -0.00118278 0.00141142 -0.00921984 -0.0403713 -0.0359523 -0.0304191 -0.0159848 -0.00302717 -0.0382219 0.0131987 -0.00371468 -0.0310522 -0.0269481 -0.0416624 -0.0462622 -0.0236848 -0.0160077 -0.0123022 -0.021788
internal_weight=8604 5421.64 2173.69 1528.01 3247.94 2523.81 468.84 645.689 346.409 724.135 1059.17 317.95 2193.66 1118.35 741.215 211.754 67.7249 299.28 330.148 106.196 40.6995 738.689 610.486 52.4381 144.029 103.744 238.446 341.688 688.777 198.096 218.335 188.037 87.4684 97.247 71.3558 150.137 287.121 490.681 439.864 45.746 244.441 210.321 38.1721 60.8347 52.0107 33.2968 1075.31 343.705 208.261 73.077 47.4467 135.184 92.5729 53.8032 268.799 179.961 379.664 201.519 95.316 387.853 236.343 151.51
internal_count=8604 6429 3016 2005 3413 2514 343 1011 623 899 1662 399 2269 1526 1263 233 64 388 245 166 47 1116 961 73 169 162 286 533 1190 318 254 238 109 144 111 280 560 872 802 68 389 357 64 102 70 43 743 249 151 62 44 89 134 67 428 325 410 160 152 732 434 298
is_linear=0
shrinkage=0.05


Tree=9
num_leaves=63
num_cat=0
split_feature=51 43 15 18 52 18 52 47 26 47 47 15 50 15 15 47 50 4 47 47 12 12 15 30 30 56 56 59 50 18 47 57 47 59 14 54 56 31 47 65 26 30 13 11 13 30 47 38 14 5 20 54 52 31 14 11 3 15 14 50 13 23
split_gain=4307.17 929.979 450.903 99.6255 193.025 83.4478 66.6411 42.9242 31.6466 27.1712 20.5757 18.2057 16.9497 14.799 12.5455 6.13944 5.19725 5.17638 4.8069 4.78635 4.6984 5.92837 4.19415 6.06972 6.44658 6.14202 4.10571 4.73235 4.09132 3.88527 3.77108 4.61142 3.72906 4.48235 3.63208 4.36777 3.56522 4.21589 3.3989 4.70835 3.76822 3.68281 4.54858 3.14613 2.95958 4.68088 2.85443 2.66003 2.58394 3.13047 2.76246 2.58218 2.42577 2.40418 2.65349 2.52562 3.45162 2.48318 2.3896 2.32673 2.30045 2.23013
threshold=1.0000000180025095e-35 1.0000000180025095e-35 4.0928433486588096 1.8027602617187346 1.0000000180025095e-35 1.7520314413393463 1.0000000180025095e-35 13.250000000000002 0.68750000000000011 13.15 13.250000000000002 3.4390948717627174 1.0000000180025095e-35 4.3751421475437224 3.3423238653204104 13.050000000000002 1.0000000180025095e-35 4.8824357953680462 13.050000000000002 13.15 3.5581081520826321 1.0000000180025095e-35 3.7991681090961644 203.50000000000003 34.500000000000007 21.27806563039724 13.83997155049787 6.9689745056901273 1.0000000180025095e-35 1.8027602617187346 13.350000000000003 0.037897463099299381 13.350000000000003 7.9956140350877201 4.1203422038229505 0.0041419719827586214 53.517510486781781 7.5000000000000009 13.350000000000003 7.7976578831352059 0.53250000000000008 395.50000000000006 3.7501611135828807 5.0881324710570741 2.6928460258455043 228.50000000000003 13.350000000000003 2.5000000000000004 5.1922872053180829 6.3836784270628435 6.6864847774674381 0.0079808728448275881 1.0000000180025095e-35 4.5000000000000009 5.5883148513455554 6.2369147995280771 7.9971767184294302 4.8887745386013366 4.7892456950811892 1.0000000180025095e-35 2.6503064363551432 0.023500000000000004
decision_type=2 2 2 2 2 2 2 2 2 2 2 2 2 2 2 2 2 2 2 2 2 2 2 2 2 2 2 2 2 2 2 2 2 2 2 2 2 2 2 2 2 2 2 2 2 2 2 2 2 2 2 2 2 2 2 2 2 2 2 2 2 2
left_child=1 5 3 4 10 6 19 12 11 17 18 16 15 29 46 43 34 48 -3 -1 21 28 23 24 25 -17 -20 -28 32 52 31 -18 -10 -34 35 -9 37 -26 39 40 -11 42 -42 61 45 -14 51 -37 -7 50 -50 -12 -4 -19 55 56 -55 -56 -29 -31 -39 -5
right_child=-2 2 13 7 -6 9 -8 8 20 38 14 -13 44 -15 -16 22 30 53 26 -21 -22 -23 -24 -25 36 -27 27 58 -30 59 -32 -33 33 -35 -36 47 -38 60 -40 -41 41 -43 -44 -45 -46 -47 -48 -49 49 -51 -52 -53 -54 54 57 -57 -58 -59 -60 -61 -62 -63
leaf_value=0.01217569253539956 0.050000000000000003 -0.022224146001158285 -0.03588422495813319 -0.017954317881110963 -0.050000000000000003 0.021941183340906341 -0.050000000000000003 0.0011130436626455935 -0.016620004796576129 0.036749173194859278 0.0028065748465136071 -0.0070517831549243189 -0.025124178303770856 -0.049647210240304232 -0.011381740457726408 0.029163133371613571 -0.025597611018908801 0.01368441546777506 -0.019153912777217171 0.044109798139015416 0.011792730900300854 -0.035971422879069508 -0.018550352252427273 0.015738138262950847 0.016324157477323933 -0.0071096549596128744 0.019588762873947715 -0.01631462871697523 -0.025732012165601531 -0.030888622638513403 0.023864356493035341 0.013047091554290203 0.021957304129484503 -0.010805414779234785 0.037036640075514569 0.039560443356750595 -0.033112291884740776 0.0089076141107739797 0.046970893002494518 0.044729984710141911 0.024270430407348553 0.033129218348927333 -0.012969000969929385 -0.011814321647176967 -0.025848338379784536 0.010513320878465425 0.033152393084968666 0.017687831027786233 0.010185086988570142 0.025184724441592907 -0.010728358764852579 0.027918232081296041 -0.050000000000000003 0.035752598181936233 0.0025657956198463453 0.03668618567899621 0.013393744543989027 0.03113880723669667 0.012698964677397487 -0.041835484908538001 -0.015292923263631693 -0.039729594208317426
leaf_weight=23.69770622253418 3182.3643336296082 52.850302755832672 46.013286411762238 39.314659714698792 482.38532543182373 74.060534775257111 65.7798171043396 20.649438679218292 34.873227596282959 113.8696340918541 19.682625710964203 69.394975185394287 23.304929375648499 1964.5927739143372 29.229355931282043 22.757060945034027 11.963834702968596 36.650389015674591 27.975452840328217 23.241519927978516 16.72041243314743 29.933358669281006 39.487640082836151 43.920793294906616 15.267361283302305 23.955724895000458 27.14426988363266 25.354552865028381 32.45147567987442 148.26355266571045 29.278059840202332 21.760304689407349 20.819659411907196 20.939288437366486 62.114905297756195 26.371957540512085 16.264989376068115 11.280336260795591 87.671266615390778 95.444051206111908 22.323673009872437 37.275016844272614 12.960590958595274 396.01357865333557 269.03890663385391 15.239305794239042 57.187234997749329 29.393041431903839 92.792163848876953 28.518357396125793 19.028054594993591 21.332065284252167 89.899083375930786 31.755977034568787 18.20151907205582 78.430093884468079 37.815478205680847 13.059756219387053 9.8553406000137311 72.168207108974457 75.841974318027496 16.77550745010376
leaf_count=32 2175 107 95 72 220 90 30 25 72 121 29 120 46 1753 54 29 18 48 50 16 25 29 78 60 22 35 37 46 67 292 34 28 25 39 69 28 23 18 70 53 29 44 19 782 547 23 62 36 129 33 28 25 41 30 27 79 43 15 14 149 152 17
internal_value=0.00382507 -0.0232785 -0.0325945 -0.0163104 -0.0310392 0.0227525 -0.0175239 -0.00858234 0.00471188 0.0284284 0.00275983 0.0150362 -0.0142069 -0.0479468 0.0173741 -0.00991272 0.0226419 0.0198884 -0.010247 0.0279876 -0.0132487 -0.0162606 -0.00360419 -0.000784216 -0.00517247 0.0105614 -0.00323941 0.0039007 -0.0108518 -0.0385721 0.0107356 -0.000662342 -0.0045504 0.00552902 0.0280568 0.0207575 -0.0113667 -0.0079123 0.0383728 0.0356985 0.0310747 0.0221696 0.0105917 -0.0133841 -0.0239919 -0.0110341 0.0259332 0.0280317 0.0143851 0.0103976 0.00662632 0.0158673 -0.0452211 0.025353 0.0277387 0.0305345 0.0235995 0.0145025 -0.00819365 -0.0344726 -0.0121595 -0.0244669
internal_weight=8604 5421.64 4509.06 2188.12 752.997 912.576 112.719 1435.13 426.664 799.857 270.611 270.927 1008.46 2320.94 127.431 700.88 201.532 430.312 143.18 46.9392 155.737 139.017 248.776 209.288 165.367 46.7128 90.3296 62.3542 109.084 356.344 63.0022 33.7241 76.6322 41.7589 138.529 76.4144 118.655 102.39 369.544 281.873 186.429 72.5593 35.2843 452.104 307.583 38.5442 98.2019 55.765 214.399 140.339 111.82 41.0147 135.912 215.913 179.263 148.002 69.5715 31.2613 35.2099 220.432 87.1223 56.0902
internal_count=8604 6429 5493 3163 644 936 78 2519 615 858 424 358 1904 2330 170 1288 238 522 254 48 257 232 417 339 279 64 147 97 203 577 80 46 136 64 158 89 215 192 336 266 213 92 48 871 616 69 116 64 280 190 157 54 136 242 194 152 73 42 60 441 170 89
is_linear=0
shrinkage=0.05


Tree=10
num_leaves=63
num_cat=0
split_feature=64 53 61 63 18 50 12 16 12 25 19 7 63 50 11 63 29 5 27 50 20 11 23 25 22 18 50 12 24 19 30 27 38 17 9 20 34 22 23 11 33 30 59 22 36 33 9 59 14 23 27 38 17 11 63 22 26 29 29 22 12 9
split_gain=4287.02 160.455 409.543 276.237 90.4876 77.1037 70.2502 26.3531 22.2615 19.3589 17.805 14.5752 18.2463 14.3257 13.7679 9.98747 9.57827 7.73945 7.68843 7.31312 8.04843 7.16066 7.00379 6.84989 6.30895 6.70622 5.82549 6.16872 5.41577 5.23512 5.52208 5.50617 5.22452 6.06702 5.20888 5.2054 9.86281 4.70203 4.71149 4.6166 6.56929 4.41046 4.39034 8.152 5.62978 7.51045 4.93336 6.4398 4.15353 3.99613 3.87035 3.75923 3.63031 3.60101 3.40434 3.32051 4.20344 3.19829 4.14303 3.34581 3.22199 3.18933
threshold=1.0000000180025095e-35 1.0000000180025095e-35 1.0000000180025095e-35 4.1247810193202259 1.8228093691213478 1.0000000180025095e-35 1.0000000180025095e-35 2.8549125987344408 3.261736920984406 0.013500000000000002 3.7726948748059121 7.9971767184294302 3.7145549444159762 1.0000000180025095e-35 5.9927743081317395 4.4318457413563097 0.012500000000000002 2.9036774610288023 0.75650000000000006 1.0000000180025095e-35 4.7492611597348082 5.3935743170429413 0.015500000000000002 0.0035000000000000005 3.7805000000000004 2.7871059483319889 1.0000000180025095e-35 3.449246363987458 0.020500000000000004 5.1503930356556173 13.500000000000002 7.8415000000000008 8.5000000000000018 3.5828017139578887 4.8948608469904622 6.7505163313626655 3.5000000000000004 1.2505000000000002 0.0065000000000000014 5.4778438751567533 10.500000000000002 200.50000000000003 5.98998538011696 3.7105000000000001 6.5000000000000009 9.5000000000000018 5.4141365560260359 15.241285577230574 3.1463641103250413 0.0025000000000000005 6.7520000000000007 4.5000000000000009 3.0523089289855379 6.1698213040278507 1.0000000180025095e-35 0.73550000000000015 0.52850000000000008 0.10950000000000001 0.22450000000000003 0.85200000000000009 3.5731613400326894 5.7524324395038553
decision_type=2 2 2 2 2 2 2 2 2 2 2 2 2 2 2 2 2 2 2 2 2 2 2 2 2 2 2 2 2 2 2 2 2 2 2 2 2 2 2 2 2 2 2 2 2 2 2 2 2 2 2 2 2 2 2 2 2 2 2 2 2 2
left_child=1 4 61 11 5 -1 13 8 -8 48 19 12 17 37 21 -5 -9 -4 28 20 55 41 -12 34 50 -26 27 -20 -18 30 -28 53 42 -34 -19 -32 -37 38 -6 -22 -41 -15 44 46 -29 -46 47 -44 -7 -21 -24 -45 -42 -31 -25 -10 -57 59 -59 -50 -61 -3
right_child=-2 2 3 15 6 9 7 16 10 -11 22 -13 -14 14 -16 -17 18 23 26 49 39 -23 24 54 25 -27 29 32 -30 31 35 -33 33 -35 -36 36 -38 -39 -40 40 52 -43 43 51 45 -47 -48 -49 57 -51 -52 -53 -54 -55 -56 56 -58 58 -60 60 -62 -63
leaf_value=-0.04984494011379869 0.049999610811432921 0.032975169816017044 0.017300940801461724 -0.033302929181500449 0.011180975055542264 -0.016553104997554621 -0.040912265571673906 0.006273505462128382 0.037210990105709649 -0.039134393316342247 -0.0031083562619080994 -0.013726013586804506 -0.01823696917199449 -0.012972125356335136 0.019671369746305331 -0.049717285546963502 0.012957253326831078 -0.0076127910358961635 -0.041695630609855983 0.0038464538236178437 0.015581257507571018 -0.024058740194469234 -0.040473289671610548 0.022333798857011596 0.0046223774045410122 -0.035148005830228576 0.0091209691118798782 -0.03356522053963374 -0.030498531370854665 -0.017599216778964862 -0.03926344023389438 -0.0056108197858358543 -0.022059861044927312 0.018565026530661097 0.014813107566169546 -0.0044370863646132309 -0.03711583704743647 0.012228419034920094 -0.0074643762573887761 -0.039154499888721092 -0.0096096695010645418 0.016900688031879406 0.0037823479284357121 -0.014954821119150219 -0.035323280971198044 0.0020480050203362794 -0.038702076492024021 -0.037282119187324173 0.020307715625712555 -0.019924210371607923 -0.020681761683979449 0.021874172615257745 0.023305815123317357 -0.039045177471047826 -0.0023267412230228842 0.026986198785699956 -0.0096082982224854202 -0.024241959731855934 0.013786517581180567 0.0081198711408784121 -0.024163891819304058 0.013464300626582347
leaf_weight=743.08472973108292 3182.3643336296082 405.2951523065567 152.41370636224747 111.40058815479279 40.22173023223877 67.572555243968964 99.109291851520538 16.20800656080246 15.379583239555357 66.987048208713531 28.455155789852142 152.682592689991 76.155232131481171 46.890413641929626 23.725761711597443 551.22232931852341 15.751711666584017 126.09202551841736 87.283846795558929 21.591971755027771 18.685869455337524 228.80976933240891 96.178909659385681 51.838732361793518 23.583596467971802 19.253370344638824 6.4087769389152518 355.95982927083969 13.15973901748657 29.87637585401535 626.5080389380455 26.515866458415985 36.064484477043152 12.333203494548796 32.584346055984497 32.667496562004089 78.74795925617218 50.105126321315765 214.92453408241272 17.488949179649353 55.840571522712708 16.776523411273956 21.362880408763885 13.90123623609543 26.289534747600555 27.51451051235199 46.885622084140778 17.261745631694794 25.7192742228508 97.602279007434845 33.238773047924042 13.814310133457182 9.8553406000137311 56.761466979980469 19.170219838619232 15.835878133773805 15.555323243141173 23.304929375648499 10.339690983295439 21.107621371746063 12.192926049232481 22.086673498153687
leaf_count=341 2175 309 211 230 64 118 84 25 18 66 39 311 153 82 31 542 23 236 55 34 28 465 91 70 30 20 9 457 18 31 574 29 60 17 44 35 73 77 412 22 110 23 30 22 31 36 64 24 33 180 39 19 14 53 29 20 30 46 15 33 22 22
internal_value=0.00393284 -0.0231072 -0.0103854 -0.024598 -0.0289231 -0.0420509 -0.0242917 -0.0286091 -0.0193833 -0.0165624 -0.0148294 -0.000346597 0.0041112 -0.0095015 -0.0169603 -0.0469577 -0.0319634 0.00856536 -0.0323645 -0.00639183 0.00100668 -0.0199319 -0.0260887 0.00276864 -0.0298849 -0.0132527 -0.0328516 -0.0293153 -0.00682269 -0.0355679 -0.0370912 -0.0255479 -0.0274241 -0.0117074 -0.00300761 -0.0374925 -0.0275343 -0.0017751 -0.00452509 -0.0068768 -0.0119216 -0.00510051 -0.0288786 -0.0201636 -0.0312867 -0.0162122 -0.0278016 -0.0145698 -0.00712621 -0.0156182 -0.0353902 0.00340192 -0.00467187 -0.0316497 0.0156762 0.0181776 0.00885248 -0.000251947 -0.012555 0.0067615 -0.00370076 0.0319669
internal_weight=8604 5421.64 1700.94 1273.56 3720.69 970.309 2750.39 2128.93 567.655 227.224 468.546 610.937 458.254 621.454 316.202 662.623 1561.28 382.099 1545.07 267.836 148.642 292.477 200.71 229.685 172.255 42.837 1516.16 658.671 28.9115 857.486 744.332 113.154 571.387 48.3977 158.676 737.923 111.415 305.251 255.146 101.871 83.1849 63.6669 522.99 113.226 409.764 53.804 85.5102 38.6246 160.237 119.194 129.418 27.7155 65.6959 86.6378 71.009 46.7708 31.3912 92.6644 33.6446 59.0198 33.3005 427.382
internal_count=8604 6429 2157 1826 4272 674 3598 2444 759 333 675 1054 743 1154 601 772 1685 590 1660 456 242 570 219 379 180 50 1619 815 41 804 691 113 760 77 280 682 108 553 476 174 146 105 683 159 524 67 118 54 267 214 130 41 124 84 99 68 50 149 61 88 55 331
is_linear=0
shrinkage=0.05


Tree=11
num_leaves=63
num_cat=0
split_feature=51 43 12 18 61 63 18 52 11 52 47 24 47 50 14 14 47 22 63 57 16 12 12 47 11 11 10 11 23 10 63 65 63 59 47 47 25 38 14 4 27 12 16 4 36 12 12 47 65 27 4 47 9 39 38 50 2 31 16 19 0 14
split_gain=4261.71 897.575 170.309 82.8426 79.3786 90.8319 71.3709 77.3794 66.6621 65.4906 28.5226 23.0894 21.4278 13.2226 11.0513 10.8879 9.55515 14.2256 9.45238 8.40613 7.66286 7.49163 9.14802 7.28597 6.94234 6.86998 6.23627 6.03235 5.8758 5.6583 5.39817 21.072 10.2078 5.13388 5.01527 4.36889 5.11602 4.29476 4.22018 3.99894 3.84768 4.24272 3.75249 4.99196 3.68759 3.5571 6.01351 3.48184 4.56472 3.46624 3.22046 3.16172 3.15855 3.07433 5.58969 3.01646 2.95994 2.81789 2.76366 3.16433 2.71126 3.68262
threshold=1.0000000180025095e-35 1.0000000180025095e-35 4.1142272132701523 1.7520314413393463 1.5000000000000002 3.8997348095684461 1.8027602617187346 1.0000000180025095e-35 6.0328201027668156 1.0000000180025095e-35 13.15 0.017500000000000005 13.250000000000002 1.0000000180025095e-35 4.778516474261985 3.1463641103250413 13.250000000000002 0.74350000000000016 4.3475641766623392 0.0076818942819029913 3.383994752393733 1.0000000180025095e-35 2.7677736395883343 13.15 5.4337690974543031 5.2342622786498518 2.7122284653342015 5.5010571013014191 0.023500000000000004 2.1746387637339781 4.5174861767211523 5.022197059679228 3.954338941611474 2.2089989888776547 13.15 13.050000000000002 0.0035000000000000005 2.5000000000000004 1.0000000180025095e-35 1.7924812503605783 1.3955000000000002 3.7227570486397199 1.3520752584198996 1.0000000180025095e-35 5.5000000000000009 2.9156616022199118 1.0000000180025095e-35 13.350000000000003 7.7976578831352059 1.6180000000000001 6.7346937204821744 13.250000000000002 5.2442753582502233 1.0000000180025095e-35 3.5000000000000004 1.0000000180025095e-35 13.245926548164839 2.5000000000000004 3.1266183452219072 3.6505739029280164 7.3965984295304734 4.2733700446686305
decision_type=2 2 2 2 2 2 2 2 2 2 2 2 2 2 2 2 2 2 2 2 2 2 2 2 2 2 2 2 2 2 2 2 2 2 2 2 2 2 2 2 2 2 2 2 2 2 2 2 2 2 2 2 2 2 2 2 2 2 2 2 2 2
left_child=1 3 4 9 6 12 7 20 11 34 33 13 35 16 26 19 25 -18 -7 -4 23 29 -23 56 -14 45 51 -26 -24 -19 31 55 -33 50 -1 -6 -37 -21 49 40 -15 60 -27 -44 -35 46 -8 48 53 -25 57 -10 -45 54 -12 -17 -3 -5 59 -13 61 -42
right_child=-2 2 15 10 5 18 8 -9 14 -11 47 58 24 39 -16 30 17 21 -20 37 -22 22 28 38 27 42 -28 -29 -30 -31 -32 32 -34 44 -36 36 -38 -39 -40 -41 41 -43 43 52 -46 -47 -48 -49 -50 -51 -52 -53 -54 -55 -56 -57 -58 -59 -60 -61 -62 -63
leaf_value=0.011125895715168473 0.04999345651699915 -0.028295339039160601 -0.044553164266334072 0.0033316009471894763 -0.011896934424975763 -0.024919411744601262 -0.016126942777164487 -0.050000000000000003 -0.019360929912274165 -0.050000000000000003 0.001355302636798623 -0.015309032566502409 0.029348006316715559 -0.029241196234485498 -0.045687415762407452 -0.042351132164345537 0.031042235654921022 0.030260663212583791 -0.047732145988478671 0.012277286472389161 -0.048998581828178546 -0.050000000000000003 0.013662637031266016 -0.027393000295073317 -0.005245534783075911 0.0078783295924561639 -0.042975270205702361 0.018842332565874826 -0.029279541363656233 -0.0036413477151385795 -0.049923653023133591 -0.00074770212848076058 -0.033070356354966156 0.015219125679924693 0.043814763302455845 -0.0068777113821827471 0.016030253128957419 -0.024334115900427854 0.0098503054312944066 -0.023436941445725203 0.0037220759129262277 -0.028886640003578976 0.019323699008248915 -0.011511334401968127 -0.0056710587099765251 -0.0070054832095460531 -0.046855063663926215 0.046870989587682668 0.044354542684529451 0.0015529241450031701 0.032318336193070028 0.012916872528375763 -0.038061713281628572 0.036061031605867627 0.031787318285553055 -0.047482790500838284 -0.0020579957036056481 0.021920765751742899 -0.045248716378210319 -0.046580382261261488 0.010143264247158213 -0.032270133149545827
leaf_weight=23.69770622253418 3182.3643336296082 44.644401729106903 24.806540310382843 22.695801436901093 118.83417683839798 83.792616307735443 31.995180785655975 574.47706937789917 19.713440835475922 65.7798171043396 21.30676943063736 20.509161233901978 75.472920536994934 24.528889179229736 280.96097505092621 495.14375042915344 32.696568012237549 16.348284006118774 99.121490478515625 16.236062049865723 12.416354000568388 17.541284561157227 18.173463582992554 18.744740068912506 41.990798830986023 27.944637715816498 19.197259366512299 68.215071856975555 14.182662963867186 49.796515941619873 412.25326895713806 36.206649720668793 75.074309408664703 111.11110770702362 23.241519927978516 61.392869651317596 40.41811865568161 15.810582280158995 52.695211172103882 317.60391157865524 17.204762816429142 16.550191700458527 12.817553877830504 290.77202767133713 26.084366321563721 19.486237287521362 31.694004237651825 87.671266615390778 95.444051206111908 23.073078393936157 70.055805623531342 12.333203494548796 11.650576889514921 113.41333919763565 51.708806276321411 679.15777206420898 14.158383071422575 200.36524295806885 65.220739245414734 13.358887076377867 30.534722566604614 12.108759582042692
leaf_count=32 2175 89 23 34 239 173 65 262 34 30 32 30 86 45 263 580 40 20 120 24 8 8 28 32 74 45 22 89 12 88 375 61 155 142 16 113 57 27 76 612 26 25 18 576 35 36 15 70 53 36 74 17 17 119 62 579 25 237 62 17 44 25
internal_value=0.00406286 -0.0228973 -0.0320496 0.0223246 -0.0242936 -0.00802289 -0.0287217 -0.0413169 -0.0221788 -0.0178054 0.0279799 -0.0162158 0.00514849 -0.0139206 -0.0417927 -0.0442243 -0.00900013 0.0019116 -0.0372817 -0.0227008 -0.0112189 -0.00629637 -0.0209235 -0.00815928 0.0176652 -0.0128068 -0.0204389 0.00966434 -0.00516021 0.00473784 -0.044945 -0.0433485 -0.0225538 0.0192301 0.0273115 -0.00538463 0.00221656 -0.00578537 0.000438246 -0.0206818 -0.0120119 -0.00648013 -0.00968218 -0.0112388 0.0112474 -0.0256989 -0.0314183 0.0381686 0.0354619 -0.011422 0.0229665 -0.00693876 -0.0125342 0.0309092 0.0229069 -0.045319 -0.021978 0.0200294 -0.0392314 -0.0276437 -0.00028392 -0.0111455
internal_weight=8604 5421.64 4509.06 912.576 2754.37 589.238 2165.13 740.209 1424.92 112.719 799.857 1092.72 406.324 993.63 332.205 1754.69 575.099 148.739 182.914 56.8532 165.732 116.042 49.8974 153.316 185.679 426.36 51.2439 110.206 32.3561 66.1448 1697.84 1285.58 111.281 430.312 46.9392 220.645 101.811 32.0466 94.513 418.531 100.927 76.3984 343.185 315.24 137.195 83.1754 63.6892 369.544 281.873 41.8178 293.117 32.0466 302.423 186.429 73.0156 1174.3 58.8028 223.061 99.0888 33.868 59.8482 29.3135
internal_count=8604 6429 5493 936 3669 951 2718 528 2190 78 858 1854 658 1745 336 1824 968 196 293 74 266 156 48 258 249 772 73 163 40 108 1750 1375 216 522 48 409 170 51 144 777 165 120 656 611 177 116 80 336 266 68 345 51 593 213 94 1159 114 271 109 47 95 51
is_linear=0
shrinkage=0.05


Tree=12
num_leaves=63
num_cat=0
split_feature=51 43 15 18 52 18 52 47 47 26 15 15 47 15 19 12 15 22 47 18 47 59 19 38 9 47 47 47 65 26 12 17 29 58 4 59 18 33 47 10 56 10 28 0 4 26 52 11 65 0 20 31 14 3 11 52 65 30 52 47 26 0
split_gain=4233.39 873.363 459.258 114.353 194.354 81.7702 64.8826 34.3361 29.4855 25.3374 20.8142 18.5259 16.2664 13.1684 6.01088 6.9312 5.32487 10.1249 7.60575 5.29664 5.09388 4.94171 4.62059 4.34777 5.01173 4.16865 4.11164 3.62102 4.65542 3.83686 3.88329 3.55773 3.54151 3.41178 3.13506 3.04369 2.98599 2.9098 4.7935 3.79242 3.60807 3.03465 2.88153 2.87945 4.08643 3.40639 3.14521 3.71739 3.65233 2.83597 3.14888 2.70405 2.62722 3.42936 3.26568 2.55935 4.81553 3.11102 2.47629 2.40687 2.40225 2.39483
threshold=1.0000000180025095e-35 1.0000000180025095e-35 4.1377496004966696 1.8027602617187346 1.0000000180025095e-35 1.7520314413393463 1.0000000180025095e-35 13.250000000000002 13.15 0.68750000000000011 3.4390948717627174 4.4389297192571542 13.250000000000002 3.3423238653204104 2.0126758453675748 1.0000000180025095e-35 3.7991681090961644 1.2005000000000001 13.050000000000002 1.774501631012894 13.15 2.2089989888776547 2.3502401828962087 3.5000000000000004 5.0149352820019777 13.050000000000002 12.950000000000001 13.350000000000003 7.7976578831352059 0.52650000000000008 4.6481598821237267 2.428943537015599 0.14550000000000002 0.68750000000000011 6.7346937204821744 0.33309726156751657 1.0206963425791129 10.500000000000002 13.450000000000001 2.2999415360368443 52.334053075154984 2.5569048513364732 0.19950000000000004 6.6220332320974098 1.7924812503605783 0.59050000000000014 1.0000000180025095e-35 5.2342622786498518 6.9943423433860836 7.63299062031163 5.1029059508623904 3.5000000000000004 5.5711167731695577 7.2714554729845702 6.1384605660328875 1.0000000180025095e-35 5.5998361724181835 247.50000000000003 1.0000000180025095e-35 13.350000000000003 0.7835000000000002 6.8887304063348935
decision_type=2 2 2 2 2 2 2 2 2 2 2 2 2 2 2 2 2 2 2 2 2 2 2 2 2 2 2 2 2 2 2 2 2 2 2 2 2 2 2 2 2 2 2 2 2 2 2 2 2 2 2 2 2 2 2 2 2 2 2 2 2 2
left_child=1 5 3 4 12 6 20 16 21 10 23 19 25 59 15 35 17 22 49 58 -1 34 43 37 -25 -3 -24 28 29 -10 -31 -28 36 -23 51 -11 -27 40 39 42 -9 -41 -39 -5 45 -45 48 -48 -46 -19 -51 -7 53 -53 -55 56 57 -20 -4 61 -56 -14
right_child=-2 2 11 7 -6 8 -8 9 27 14 -12 -13 13 -15 -16 -17 -18 18 55 -21 -22 33 26 24 -26 32 31 -29 -30 30 -32 -33 -34 -35 -36 -37 -38 38 -40 41 -42 -43 -44 44 46 -47 47 -49 -50 50 -52 52 -54 54 60 -57 -58 -59 -60 -61 -62 -63
leaf_value=0.010639796395751135 0.049954496133795108 -0.020203909423846256 -0.035520520456475364 -0.028325819293768345 -0.050000000000000003 0.006643708503445981 -0.050000000000000003 0.042160103594870414 0.03655309469739345 0.0051224675291775788 -0.0083710112168439866 -0.049679543644748005 0.0023661400275246484 -0.011888108856725943 0.014019169780063945 -0.03597227514347303 -0.02204293505304053 -0.022341742029955234 -0.028735312579361523 -0.033638064566459715 0.043583845254764983 0.014624936025591471 -0.021674617738631025 0.020297886619666312 -0.014659117750911424 0.012297687193032368 0.016726588718499417 0.04676666189047754 0.044112335125220586 0.028087707109201238 0.0013313875128520654 -0.0094935665051563145 -0.018170015196102472 -0.0054688470048599915 0.031529321188798601 -0.014332997476535681 -0.0095032757090985909 0.0087942270775396968 0.038144745708182035 -0.013663893405163524 0.013489259320131003 0.015614249597500268 0.037519165183391892 -0.0081760815785263449 -0.022611299312259504 0.023113622200281361 -0.032732920264188038 -0.0083715719552791869 -0.012745632457266893 0.015004102626254429 -0.017490076027283117 0.036049378289170313 0.012463839062802934 0.0084748302211547707 0.017856558687308011 0.019578013399094884 0.015446428355049904 0.0077194048807280556 -0.050000000000000003 0.030816357907860404 0.040476560854089461 0.026549622915646384
leaf_weight=23.69770622253418 3182.3643336296082 54.787704288959503 42.138483345508575 37.429593563079834 495.54128885269165 35.000949442386627 65.7798171043396 42.348113119602203 109.39825868606567 27.003992438316345 79.821592271327972 1866.060304582119 19.682625710964203 34.072859764099121 19.682625710964203 31.842704713344574 126.95402359962463 35.411801159381866 14.530511498451235 261.42478638887405 23.241519927978516 111.11110770702362 18.660573601722717 29.477207899093628 15.721768379211424 38.880901038646698 30.534722566604614 87.671266615390778 95.444051206111908 59.463560938835144 17.567095279693604 22.448450565338135 26.550457179546356 26.084366321563721 70.055805623531342 78.661150515079498 26.35130912065506 15.267361283302305 27.881119668483734 16.379099130630493 14.811066389083861 19.254386305809021 20.391420006752014 29.512670457363129 195.67755484580994 12.333203494548796 17.004598796367645 197.95162224769592 180.20639806985855 14.754955410957338 15.070972859859465 49.095923066139221 53.967373788356781 37.703256249427795 25.663163244724274 37.483960866928101 32.071940183639526 9.7992296218872053 98.669725656509399 57.187234997749329 21.630378603935242 21.332065284252167
leaf_count=32 2175 111 87 54 226 52 30 43 116 42 138 1606 29 64 29 34 254 65 30 508 16 142 35 33 18 57 44 70 53 75 22 40 46 35 74 155 47 22 29 25 20 26 22 50 404 17 21 396 371 22 29 47 70 47 35 52 44 16 45 62 20 25
internal_value=0.0041768 -0.0226936 -0.0317216 -0.0156667 -0.0312099 0.0219142 -0.0179552 -0.00745848 0.0275328 0.00425479 0.013238 -0.0475816 0.00218237 0.0148945 -0.0118241 -0.0155233 -0.0124561 -0.0111052 0.000339327 -0.0378489 0.0269517 0.0186365 -0.0135602 0.0217968 0.00813863 -0.00928992 -0.0014912 0.037892 0.0351317 0.030534 0.0219858 0.00561737 -0.00277504 0.0108046 0.0223023 -0.00936092 0.00349093 0.0257457 0.0205669 0.0136926 0.0347309 0.00215641 0.0252205 -0.0148506 -0.0140534 0.00104591 -0.0151228 -0.0102987 -0.0178815 -0.0127743 -0.00141513 0.0194044 0.0217793 0.0255285 0.0194514 0.00945154 0.00272159 -0.0140525 -0.0456668 0.0241872 0.0282021 0.0149442
internal_weight=8604 5421.64 4509.06 2240.77 774.386 912.576 112.719 1466.38 799.857 438.544 281.353 2268.29 278.845 132.275 157.19 137.508 1027.84 900.883 159.123 402.233 46.9392 430.312 741.759 201.532 45.199 146.57 71.6437 369.544 281.873 186.429 77.0307 52.9832 91.7827 137.195 293.117 105.665 65.2322 156.333 99.1734 71.2923 57.1592 35.6335 35.6588 670.116 632.686 41.8459 590.84 214.956 375.884 65.2377 29.8259 223.061 188.06 134.093 84.9968 93.8856 56.4017 24.3297 140.808 98.2019 47.2935 41.0147
internal_count=8604 6429 5493 3247 667 936 78 2580 858 636 376 2246 441 180 260 231 1944 1690 258 640 48 522 1432 238 51 261 119 336 266 213 97 84 150 177 345 197 104 187 124 95 63 51 44 1313 1259 67 1192 417 775 116 51 271 219 149 102 142 90 46 132 116 55 54
is_linear=0
shrinkage=0.05


Tree=13
num_leaves=63
num_cat=0
split_feature=64 43 15 18 52 18 52 15 38 15 50 15 63 22 15 9 18 22 65 19 15 5 3 52 57 39 15 65 14 3 14 15 28 29 11 52 9 7 2 11 22 28 21 20 9 6 57 6 57 3 6 29 15 11 1 4 15 56 24 57 22 10
split_gain=4199.29 852.338 457.798 118.275 194.068 80.8359 64.2964 21.7719 20.9415 21.8534 13.1931 12.3599 6.64469 6.5345 9.44539 6.56541 6.19622 6.07962 4.53214 4.18449 7.00957 4.00035 5.10091 4.04211 3.87901 3.71183 4.49445 3.44907 3.5715 3.99852 3.22971 3.12553 3.1119 3.08443 3.07614 3.05737 3.00063 2.96816 3.20589 2.96253 2.81732 2.92771 2.99483 2.96908 2.66923 2.63052 2.47253 2.46288 2.43544 2.40954 2.38361 2.38322 2.3629 2.26517 2.2356 2.22123 3.14552 2.1079 2.06953 2.02047 2.01902 1.99543
threshold=1.0000000180025095e-35 1.0000000180025095e-35 4.1377496004966696 1.8027602617187346 1.0000000180025095e-35 1.7520314413393463 1.0000000180025095e-35 4.4389297192571542 2.5000000000000004 3.5063017852307401 1.0000000180025095e-35 3.6021142442168572 4.3368996763592191 1.2385000000000004 3.6525355472937187 4.5622521124171422 1.774501631012894 0.89050000000000018 5.7141800863521466 3.1567740231385479 3.5678488786225504 3.0849625007211565 7.2714554729845702 1.0000000180025095e-35 0.024515188826661226 1.0000000180025095e-35 3.1680396547188345 6.1798747801611658 3.1463641103250413 7.0056136277116279 4.1857820874527665 3.002375577795501 0.18750000000000003 0.070500000000000021 6.537441265132343 1.0000000180025095e-35 5.720158515568734 6.2191360280624162 14.357122758833063 5.6122535823635396 2.0695000000000001 0.34550000000000003 4.7115000000000009 6.5896137628651035 4.8948608469904622 9.6891241402763146 0.027140465170746756 9.6891241402763146 0.002723926262836779 5.6292830169449672 9.4807898478474275 0.080500000000000016 4.3160225135161427 5.2342622786498518 8.3309099209081143 3.9534452978042598 4.8836216725946651 60.397216951296656 0.0065000000000000014 0.098623159658279044 0.52450000000000008 3.207768948887507
decision_type=2 2 2 2 2 2 2 2 2 2 2 2 2 2 2 2 2 2 2 2 2 2 2 2 2 2 2 2 2 2 2 2 2 2 2 2 2 2 2 2 2 2 2 2 2 2 2 2 2 2 2 2 2 2 2 2 2 2 2 2 2 2
left_child=1 5 3 4 11 6 45 16 9 18 13 27 30 17 15 -15 35 25 21 -12 -21 22 24 51 -5 -10 33 28 47 48 -7 -17 44 -27 40 -4 39 -19 -39 -14 41 42 43 -32 -29 -1 -20 -3 -30 -26 -42 -23 -18 -50 55 56 -41 58 -49 -51 -35 -52
right_child=-2 2 7 8 -6 12 -8 -9 10 -11 19 -13 36 14 -16 31 52 37 46 20 -22 23 -24 -25 49 26 -28 32 29 -31 34 -33 -34 60 -36 -37 -38 38 -40 54 50 -43 -44 -45 -46 -47 -48 57 53 59 61 -53 -54 -55 -56 -57 -58 -59 -60 -61 -62 -63
leaf_value=0.038191043688853142 0.049828011931295553 -0.022320100018800849 -0.033911089685860152 -0.021509762089624448 -0.050000000000000003 0.034808681506473205 -0.050000000000000003 -0.049554663578445866 -0.017904703837802734 -0.016616196074985327 -0.020928933396954008 -0.018680185014254357 0.016675161872425563 -0.0108382076185649 -0.01316876429226238 0.030737909836506417 -0.027722865753077298 -0.024726094566906276 0.031145562620002051 0.007904202417554183 -0.024802753566569649 0.016483461735940692 0.025885936485417524 0.025938109381833864 0.015452907943401404 -0.00087809344922794037 -0.011804503468963435 -0.008901493912663077 0.026934755010822854 -0.014516907259634663 0.020061598526198834 0.0088834912732280186 0.021381596082149484 0.032018709008932798 0.0042820596235363982 -0.050000000000000003 0.017458922975047808 -0.010598124754241404 0.016301433812399912 0.034608159049683361 0.031231063074032256 0.0046233719478928096 0.029692899577776762 -0.002447462943090787 0.019529292597283046 0.01451274112609611 0.012538496613811043 -0.021252332527736575 0.019213109712840314 0.0029376787174700712 0.024178584106019405 -0.0083238941398913035 -0.037250396828832397 -0.0085008024950524556 0.046758045767795901 0.038810627457550796 0.011583709328059823 0.016520294769104625 0.0067901778443636334 -0.024950599539083868 0.0081164854166554199 0.0051896567265004067
leaf_weight=23.968018352985382 3182.3643336296082 18.260389685630798 42.138483345508575 24.812203705310822 495.54128885269165 60.009225130081177 65.7798171043396 1866.060304582119 18.314612865447998 94.097716569900513 288.32222026586533 56.753161311149597 19.687828540802002 21.477862000465393 55.555369198322296 36.627482056617737 139.26381903886795 36.661928653717041 37.652293801307678 36.002854228019714 30.057779252529144 18.74198043346405 15.835878133773802 42.952092528343201 21.219843327999115 21.30676943063736 22.876689970493317 20.454938054084778 25.775385200977325 13.645977199077604 80.367386817932129 29.566021800041199 61.293889045715332 23.269466817378998 22.102489829063416 98.669725656509399 26.208827435970306 482.87031936645508 11.336447238922117 46.837409853935242 140.01194489002228 30.422500610351562 66.575983643531799 17.916316747665405 13.842365622520445 22.971207797527313 33.953230738639832 14.102272093296053 15.351527750492098 18.629758477211002 97.454779148101807 20.026698648929596 122.1609673500061 14.186438560485838 45.784596920013428 108.64403057098389 21.709396541118622 12.845609366893767 12.333203494548796 9.9703221917152387 14.242549538612364 16.123840093612671
leaf_count=21 2175 31 87 41 226 64 30 1606 23 171 572 114 19 32 108 46 284 57 46 50 61 26 20 58 29 32 43 38 31 25 97 42 80 29 28 45 24 925 16 32 167 48 80 25 18 27 50 27 19 30 130 35 224 24 26 70 20 17 17 16 22 28
internal_value=0.00423505 -0.0225269 -0.0314456 -0.0154163 -0.0312237 0.0215407 -0.0181003 -0.0472804 -0.00706845 0.00385123 -0.010338 0.00214399 0.0271271 -0.00668012 0.00296121 0.0131824 -0.0367294 -0.00886897 0.0117511 -0.0183283 -0.00697756 0.00735484 0.000111564 0.0153734 -0.00535739 0.00243958 0.00700039 0.00746538 0.00204891 0.00972328 0.0238842 0.0209764 0.0146333 0.0143143 0.0224923 -0.0451852 0.0335314 -0.0109994 -0.00998108 0.0352673 0.0233889 0.0188749 0.0215048 0.0159584 0.00257315 0.0266033 0.0223226 -0.00714827 0.0157034 0.0026871 0.026865 0.00366875 -0.032175 0.00590272 0.0369089 0.0343639 0.0273161 -9.54219e-05 -0.00816938 -0.0067845 0.0229435 0.0214829
internal_weight=8604 5421.64 4509.06 2240.77 774.386 912.576 112.719 2268.29 1466.38 337.892 1128.49 278.845 799.857 774.106 143.227 87.6714 402.233 630.879 243.794 354.383 66.0606 172.189 90.468 81.7208 74.6321 100.01 81.6955 222.092 126.501 68.9593 530.984 66.1935 95.5912 58.8188 470.975 140.808 268.872 530.869 494.207 242.663 448.873 195.282 164.86 98.2837 34.2973 46.9392 71.6055 57.5415 55.3134 49.8199 253.591 38.7687 261.425 29.538 222.975 177.191 68.5468 39.2811 26.4355 28.6001 37.512 113.579
internal_count=8604 6429 5493 3247 667 936 78 2246 2580 522 2058 441 858 1375 228 120 640 1147 351 683 111 255 136 119 116 149 126 327 191 99 667 88 136 83 603 132 191 998 941 167 575 250 202 122 56 48 96 92 74 75 325 61 508 43 148 122 52 61 44 46 51 158
is_linear=0
shrinkage=0.05


Tree=14
num_leaves=63
num_cat=0
split_feature=51 15 18 52 61 63 15 47 26 61 53 15 47 12 63 4 47 0 47 19 27 47 52 18 29 15 12 15 15 23 29 17 12 19 23 6 0 22 47 28 10 28 27 23 4 17 23 27 14 1 1 33 47 22 52 26 30 28 19 2 29 6
split_gain=4145.32 216.623 189.676 236.204 49.1748 284.375 36.6931 36.546 31.3686 27.9767 126.659 21.8668 16.208 12.2208 9.85948 8.79812 8.32386 10.6221 7.79765 7.27841 6.69147 6.41775 6.1343 5.93925 5.26331 5.21467 5.05871 5.02126 4.64403 5.49054 5.76744 5.65862 4.55241 5.2598 4.88341 4.06033 3.86222 5.72593 6.0486 3.67645 4.06589 4.8783 3.60416 3.63216 3.55816 3.54189 3.5181 3.46068 3.348 3.23514 3.46445 3.08778 4.35944 3.11983 3.02314 2.91939 2.9135 2.76625 4.6534 2.58338 2.58291 2.6226
threshold=1.0000000180025095e-35 4.6925869693425559 1.8027602617187346 1.0000000180025095e-35 1.0000000180025095e-35 4.6988606895722258 3.7844389610383358 13.15 0.7945000000000001 1.0000000180025095e-35 1.0000000180025095e-35 3.7369539464911505 13.250000000000002 3.5852911940047547 4.4589246904107922 6.7878877899373835 13.350000000000003 7.5660490162760112 13.15 2.0126758453675748 6.8985000000000012 13.15 1.0000000180025095e-35 1.7032700902169777 0.11850000000000001 4.2055562023233595 1.0000000180025095e-35 4.3689095136219001 4.85707906728961 0.011500000000000002 0.040500000000000008 3.3889884592733224 4.4671047120104026 4.9593358439305844 0.067500000000000018 9.4083293501912184 5.9424668239748817 1.2005000000000001 12.950000000000001 0.31550000000000006 3.207768948887507 0.10050000000000002 2.0010000000000003 0.0092500000000000013 4.9770981551934383 1.7032700902169777 0.025500000000000005 2.0775000000000006 5.5675356605908854 6.5622222300042941 8.0848059413021058 11.500000000000002 13.450000000000001 1.0065000000000002 1.0000000180025095e-35 0.28650000000000003 26.500000000000004 0.27650000000000008 3.3140206880897671 11.292481250360579 0.018500000000000003 7.0821392191505863
decision_type=2 2 2 2 2 2 2 2 2 2 2 2 2 2 2 2 2 2 2 2 2 2 2 2 2 2 2 2 2 2 2 2 2 2 2 2 2 2 2 2 2 2 2 2 2 2 2 2 2 2 2 2 2 2 2 2 2 2 2 2 2 2
left_child=1 2 3 11 5 28 7 15 16 10 13 12 46 25 -11 36 17 24 44 26 22 48 -15 57 47 -8 -10 -24 29 31 -31 -3 33 34 -22 -26 -4 -38 -39 40 -32 -42 43 -19 -7 -41 59 -9 -12 -34 -51 -18 53 -53 -49 -29 -40 -13 -59 -1 -30 -62
right_child=-2 4 6 -5 -6 18 9 8 19 14 21 23 -14 20 -16 -17 51 42 -20 -21 32 -23 27 -25 35 -27 -28 55 60 30 39 -33 49 -35 -36 -37 37 38 56 45 41 -43 -44 -45 -46 -47 -48 54 -50 50 -52 52 -54 -55 -56 -57 -58 58 -60 -61 61 -63
