tree
version=v4
num_class=1
num_tree_per_iteration=1
label_index=0
max_feature_idx=121
objective=huber
feature_names=Column_0 Column_1 Column_2 Column_3 Column_4 Column_5 Column_6 Column_7 Column_8 Column_9 Column_10 Column_11 Column_12 Column_13 Column_14 Column_15 Column_16 Column_17 Column_18 Column_19 Column_20 Column_21 Column_22 Column_23 Column_24 Column_25 Column_26 Column_27 Column_28 Column_29 Column_30 Column_31 Column_32 Column_33 Column_34 Column_35 Column_36 Column_37 Column_38 Column_39 Column_40 Column_41 Column_42 Column_43 Column_44 Column_45 Column_46 Column_47 Column_48 Column_49 Column_50 Column_51 Column_52 Column_53 Column_54 Column_55 Column_56 Column_57 Column_58 Column_59 Column_60 Column_61 Column_62 Column_63 Column_64 Column_65 Column_66 Column_67 Column_68 Column_69 Column_70 Column_71 Column_72 Column_73 Column_74 Column_75 Column_76 Column_77 Column_78 Column_79 Column_80 Column_81 Column_82 Column_83 Column_84 Column_85 Column_86 Column_87 Column_88 Column_89 Column_90 Column_91 Column_92 Column_93 Column_94 Column_95 Column_96 Column_97 Column_98 Column_99 Column_100 Column_101 Column_102 Column_103 Column_104 Column_105 Column_106 Column_107 Column_108 Column_109 Column_110 Column_111 Column_112 Column_113 Column_114 Column_115 Column_116 Column_117 Column_118 Column_119 Column_120 Column_121
feature_infos=[5:13] [0:10] [7:15] [4:11] [0:8] [0:8] [7:12] [5:10] [1:7] [0:5.7781512503836439] [1:3.3010299956639813] [1.4771212547196624:6.5563025007672868] [0:4.7781512503836439] [2:4] [0:5.7781512503836439] [0:5] [1:3.6989700043360187] [1:3.6989700043360187] [1:3] [0:5.3033049080590757] [0:6.9087547793152204] [0.5:10] [0.5:5] [0.001:0.10000000000000001] [0.001:0.050000000000000003] [0.00050000000000000001:0.050000000000000003] [0.10000000000000001:0.90000000000000002] [0.5:10] [0.01:0.5] [0.01:0.5] [10:999] [1:20] [1:20] [2:20] [1:10] [0:16] [0:8] [0:8] [1:10] [0:1] [0:1] [0:1] [0:1] [0:3] none none none [12.4:13.699999999999999] none [53.600000000000001:399] [207:1500] [7457:146000] [29.100000000000001:572] [0.52700000000000002:19.100000000000001] [66.700000000000003:399] [1172:8586] none [0:1] [0:1] [0:1] [0:1] [0.0021551724137931034:0.55172413793103448] [0.0086206896551724137:2.2068965517241379] [0.015625:1024] [0.00067326468576972857:4.2312483823251519] [0:1] [0.015625:96] [0:3] [0:3] [0:5] [0:5] [0:13] [0:13] [0:1] [0:1] [0:1] [0:1] [0:15] [0:15] [0:23.890756251918219] [0:4.5] [0:63.966865691558546] [0:26.516524540295379] [0:25] [0:18.494850021680094] [0:50] [0:8.9973916238621126] [0:14.334453751150932] [0:2.6970000000000001] [0:38.422064766172809] [0:15.909914724177227] [0:15] [0:11.096910013008056] [0:30] [0:14.32402314931163] [0.10000000000000001:2.6844819944188067] [5:38.416499819665155] [0:15.909914724177227] [0.5:15] [1:11.096910013008056] [0.5:30] [0:4.2730759655445087] [0:61.18183491342954] [0:25.339992977608187] [0:23.807008690670617] [0:17.674238151349741] [0:47.781512503836439] [0.5:11.700000000000001] [0:4.7729744172531685] [0.050000000000000003:4.4838000000000005] [0.10000000000000001:3.3290730039024168] [0.050000000000000003:9] [0:68.942963804767984] [2.5:63.921508415989493] [5:47.226349946321342] [2.5:130] [0:26.516524540295379] [0:19.616765778758509] [0:53.033049080590757] [0.5:18.494850021680094] [0.25:50] [0.5:36.989700043360187]
tree_sizes=5210 5573 5553 5580 5570 5568 5568 5566 5595 5583 5612 5571 5572 5548 5591 5588 5556 5617 5611 5616 5604 5601 5591 5628 5594 5631 5621 5606 5595 5630 5569 5619 5620 5606 5583 5603 5583 5583 5614 5586 5509 5513 5548 5539 5566 5560 5589 5549 5582 5549 5531 5575 5591 5557 5579 5605 5557 5571 5578 5568 5535 5578 5572 5561 5541 5623 5600 5570 5559 5582 5562 5542 5611 5603 5615 5598 5617 5625 5614 5623 5590 5598 5622 5577 5593 5594 5606 5635 5630 5643 5620 5609 5648 5645 5632 5631 5651 5629 5665 5684 5595 5648 5654 5598 5658 5646 5646 5564 5630 5699 5653 5654 5668 5653 5720 5645 5661 5636 5648 5683 5675 5663 5722 5716 5686 5644 5630 5684 5703 5686 5678 5662 5696 5678 5676 5645 5691 5694 5691 5660 5705 5735 5694 5704 5740 5687 5744 5687 5677 5647 5713 5705 5698 5687 5658 5753 5712 5758 5703 5707 5707 5703 5705 5695 5720 5727 5727 5676 5718 5707 5714 5710 5728 5736 5707 5727 5725 5707 5691 5725 5680 5710 5720 5703 5678 5734 5737 5677 5717 5697 5735 5677 5704 5677 5739 5709 5740 5719 5719 5706 5699 5721 5736 5715 5700 5723 5760 5730 5686 5735 5742 5718 5728 5701 5716 5719 5711 5694 5721 5717 5735 5686 5712 5682 5721 5727 5732 5728 5723 5724 5722 5728 5728 5719 5740 5718 5725 5733 5734 5722 5704 5739 5748 5706 5707 5700 5708 5730 5663 5697 5717 5707 5691 5703 5711 5728 5716 5746 5699 5705 5692 5728 5702 5687 5709 5751 5689 5761 5735 5729 5723 5720 5715 5713 5710 5728 5712 5724 5765 5748 5721 5738 5711 5723 5752 5741 5758 5719 5713 5732 5713 5738 5735 5721 5717 5748 5748 5746 5740 5743 5731 5780 5712 5756 5738 5716 5743 5678 5723 5644

Tree=0
num_leaves=63
num_cat=0
split_feature=58 43 15 47 49 50 57 18 60 57 60 50 47 96 15 15 18 49 47 50 47 96 18 121 47 57 60 18 9 107 50 115 47 47 15 111 60 121 105 89 47 112 66 47 4 28 93 86 28 115 85 3 47 23 15 47 20 49 47 11 49 121
split_gain=4759.16 1081.34 432.763 93.3121 135.296 85.4396 67.8936 65.2318 59.2813 65.8465 41.123 23.692 34.8223 19.5051 17.929 17.5975 17.3861 19.2068 27.1464 13.6206 37.3321 13.4276 13.3819 12.1173 10.419 10.0387 8.74773 8.16324 6.83086 6.00281 5.87758 4.81678 4.57473 3.89109 3.69253 4.14537 3.23004 3.87314 4.0072 3.07536 5.04457 2.93973 2.93946 2.6621 2.48111 2.47942 2.43573 2.31427 2.05651 1.93011 1.81425 1.7914 1.76464 1.73827 1.67236 1.53866 1.51 1.45923 1.54037 1.40169 1.36124 1.32652
threshold=1.0000000180025095e-35 1.0000000180025095e-35 3.8968292352010638 13.250000000000002 397.50000000000006 1350.0000000000002 1.0000000180025095e-35 1.8095466653133714 1.0000000180025095e-35 1.0000000180025095e-35 1.0000000180025095e-35 1350.0000000000002 13.050000000000002 11.220661782252717 4.2037941387385631 3.5390132215408916 1.8481781943666664 397.50000000000006 13.15 1350.0000000000002 13.050000000000002 13.001791503693452 1.7520314413393463 13.468053373449898 13.050000000000002 1.0000000180025095e-35 1.0000000180025095e-35 1.8095466653133714 4.8095466653133725 5.3623630125439066 1350.0000000000002 34.32946542537384 12.950000000000001 13.250000000000002 3.5767442590158263 2.2294620000000003 1.0000000180025095e-35 8.6030918651819075 15.938646333117237 13.627533884472793 13.350000000000003 35.528446822905671 0.25097984322508404 13.250000000000002 5.9188139665857031 0.18050000000000002 7.4735000000000005 3.9322707758994908 0.23150000000000004 25.643449080986358 9.0024678904718165 6.0552416549081132 12.750000000000002 0.0092500000000000013 4.031105113504867 12.850000000000003 6.0602900572549077 397.50000000000006 13.250000000000002 6.0102997495519679 397.50000000000006 12.848057411429137
decision_type=2 2 2 2 2 2 2 2 2 2 2 2 2 2 2 2 2 2 2 2 2 2 2 2 2 2 2 2 2 2 2 2 2 2 2 2 2 2 2 2 2 2 2 2 2 2 2 2 2 2 2 2 2 2 2 2 2 2 2 2 2 2
left_child=1 5 3 6 7 10 11 8 9 -5 16 21 28 -14 30 29 48 18 44 -8 53 26 31 46 36 27 47 -6 45 39 57 -7 -30 55 35 -15 37 59 41 40 -9 -39 -29 -20 -18 -13 -22 -3 -1 -10 -23 -47 -19 -21 -32 -12 -35 58 -4 -24 61 -57
right_child=-2 2 14 4 25 22 19 15 49 -11 33 12 13 34 -16 -17 17 52 43 20 23 50 24 -25 -26 -27 -28 42 32 -31 54 -33 -34 56 -36 -37 -38 38 -40 -41 -42 -43 -44 -45 -46 51 -48 -49 -50 -51 -52 -53 -54 -55 -56 60 -58 -59 -60 -61 -62 -63
leaf_value=6.7560422666697688 6.8501977221994581 6.7501977221994585 6.7562890552852988 6.7501977221994585 6.7582740853673222 6.7919337694673718 6.7581977443417145 6.816762630397406 6.8228581768769647 6.8258930577737242 6.8297473011154013 6.7767147522044482 6.7799579142029733 6.8409335423907054 6.7504264371881817 6.7997191116522879 6.7923683488671145 6.8040470609356882 6.8233268925550474 6.7752018450527371 6.8315545150244787 6.7790847532784229 6.8289258356231084 6.772852795599114 6.8488399790900765 6.7595149546960975 6.7751522365195385 6.7941502636152142 6.781758207898628 6.8092012130050845 6.7741232616123774 6.8262196861250466 6.8131347537711395 6.8288890876032697 6.8042693396105589 6.8170836027763952 6.8396388709998011 6.7989447982182156 6.8398560251622387 6.8449617399810041 6.8403072451840368 6.8222551226055517 6.7785483141128466 6.8438808137207214 6.8101414151926933 6.7784750569690253 6.8080263227601963 6.7691447760491554 6.7787166713504972 6.8422487974629149 6.7729673106428629 6.7950185272589971 6.7895689485326214 6.7596595927392462 6.7642318674924864 6.8180456841020769 6.8474334523479552 6.7533147417335693 6.7659511479023626 6.8440326656552664 6.814511211172297 6.8302617976396265
leaf_weight=20 2916 83 110 96 47 20 583 35 21 41 44 277 36 35 2343 42 72 24 23 20 22 863 28 20 172 122 91 37 21 20 68 21 26 23 20 38 99 21 20 86 65 38 164 50 27 30 22 20 20 33 141 36 171 179 115 50 21 160 66 34 80 40
leaf_count=20 2916 83 110 96 47 20 583 35 21 41 44 277 36 35 2343 42 72 24 23 20 22 863 28 20 172 122 91 37 21 20 68 21 26 23 20 38 99 21 20 86 65 38 164 50 27 30 22 20 20 33 141 36 171 179 115 50 21 160 66 34 80 40
internal_value=6.79615 6.77471 6.76659 6.77873 6.79353 6.81999 6.77405 6.8123 6.79034 6.77285 6.80858 6.77976 6.78869 6.81121 6.75229 6.82922 6.79868 6.80209 6.81427 6.76246 6.7719 6.7759 6.83674 6.80512 6.83945 6.77126 6.76386 6.77703 6.78124 6.83523 6.7607 6.80949 6.79912 6.8242 6.8233 6.82852 6.83272 6.82786 6.82051 6.83803 6.83207 6.81396 6.78142 6.8374 6.79722 6.77879 6.81979 6.75388 6.76738 6.83471 6.77823 6.7875 6.79135 6.76122 6.76791 6.82141 6.83774 6.75677 6.75991 6.83721 6.81926 6.82348
internal_weight=10268 7352 6234 3372 809 1118 2563 439 191 137 665 1717 519 129 2862 248 407 367 172 846 263 1198 453 64 412 370 194 248 390 206 519 41 47 258 93 73 240 141 79 186 100 59 201 73 99 343 44 103 40 54 1004 66 195 199 183 214 44 336 176 62 170 90
internal_count=10268 7352 6234 3372 809 1118 2563 439 191 137 665 1717 519 129 2862 248 407 367 172 846 263 1198 453 64 412 370 194 248 390 206 519 41 47 258 93 73 240 141 79 186 100 59 201 73 99 343 44 103 40 54 1004 66 195 199 183 214 44 336 176 62 170 90
is_linear=0
shrinkage=1


Tree=1
num_leaves=63
num_cat=0
split_feature=58 43 73 47 49 50 59 95 57 60 50 47 79 49 47 94 64 64 50 47 121 77 64 50 97 47 57 99 64 59 47 111 0 87 77 109 0 78 47 60 121 105 6 77 26 112 110 66 78 94 47 49 82 17 68 0 11 60 115 20 47 77
split_gain=4691.4 1044.96 430.116 91.1601 128.853 84.3309 73.1966 64.8045 59.9578 37.9659 20.1056 33.4757 15.1766 14.3626 12.7502 20.5566 12.3697 12.2566 10.8771 34.6654 13.0702 10.3954 9.90145 8.99175 8.96039 8.79702 8.73437 7.24111 6.21187 6.0266 5.76778 7.73923 5.46553 5.36182 4.9695 4.89663 4.76379 4.05109 4.04626 4.03206 3.93571 4.14692 3.86277 3.78029 3.4523 3.10773 3.09854 2.8408 2.83094 2.58533 2.37084 2.53445 2.20833 2.15419 1.87356 1.81737 1.81203 1.77906 1.65528 1.59647 1.54819 1.49115
threshold=1.0000000180025095e-35 1.0000000180025095e-35 1.0000000180025095e-35 13.250000000000002 397.50000000000006 1350.0000000000002 1.0000000180025095e-35 0.79114029929190088 1.0000000180025095e-35 1.0000000180025095e-35 1350.0000000000002 13.050000000000002 18.906826436988229 397.50000000000006 13.15 7.9177233255509867 0.0054739447674312944 0.0076150582973094202 1350.0000000000002 13.050000000000002 9.8467800906113698 8.2776155281436719 0.0047368769229965838 1350.0000000000002 5.3300149725348831 13.050000000000002 1.0000000180025095e-35 5.2831529725264677 0.0067457837514625736 1.0000000180025095e-35 13.350000000000003 2.8002480000000007 6.2573570270692445 12.374050495922063 6.423298313877936 0.69993200000000011 6.7346937204821744 11.992581634945205 13.250000000000002 1.0000000180025095e-35 8.6030918651819075 16.048992504851714 9.9964733159077124 12.063815043650784 0.38950000000000007 35.528446822905671 0.57349913042456746 0.25097984322508404 7.7548772067246059 8.6689894554864271 13.350000000000003 397.50000000000006 20.785353803767531 3.3241794199240831 1.5000000000000002 6.9943423433860836 6.0102997495519679 1.0000000180025095e-35 29.032236974038252 6.0602900572549077 12.750000000000002 8.0040294900263458
decision_type=2 2 2 2 2 2 2 2 2 2 2 2 2 2 2 2 2 2 2 2 2 2 2 2 2 2 2 2 2 2 2 2 2 2 2 2 2 2 2 2 2 2 2 2 2 2 2 2 2 2 2 2 2 2 2 2 2 2 2 2 2 2
left_child=1 5 3 8 6 9 30 44 10 13 16 27 21 14 58 -16 29 -13 -10 -20 -21 23 -7 50 35 39 28 46 -6 -3 31 36 -19 -23 54 -9 -5 61 -11 40 56 45 -34 -35 -8 -42 -12 -30 -27 -15 -4 57 -17 -47 -32 -18 -24 -52 -1 -40 -51 -25
right_child=-2 2 12 4 26 22 7 24 18 38 11 17 -14 49 15 52 55 32 19 20 -22 33 25 37 -26 48 -28 -29 47 -31 34 -33 42 43 -36 -37 -38 -39 59 -41 41 -43 -44 -45 -46 53 -48 -49 -50 60 51 -53 -54 -55 -56 -57 -58 -59 -60 -61 -62 -63
leaf_value=0.0048234048642610255 0.050000000000000003 -0.02514836734279673 -0.0437134928440224 0.011859275627395381 -0.043419081930603301 0.0018058136105537415 -0.025909691303968432 0.021244198922067883 -0.039724844304374105 0.020395038896196774 -0.0028377555621167025 -0.016122036565233162 -0.049511805160975766 -0.022260494138065138 -0.013090039224460207 0.046379884376245385 -0.026731448493493622 0.0017312561526246694 -0.03687250447027119 0.037062810381631492 -0.013035734593868257 -0.047788397375790256 0.026546607847357618 -0.022649575955637803 0.044217220808450995 0.02893880857598214 -0.038169059180452131 0.0028401592991461879 -0.0057696025516535791 -0.048727540811523799 0.036204175677682672 -0.0046431016549468044 0.044479458806691352 -0.021060953562317249 0.017073330825025386 -0.0090013296707816739 0.039534487032021087 -0.046856218576431276 0.027942894980483485 0.039294663563263249 -0.0021028430984270843 0.039204270541667946 0.019308537670544218 -0.043447888032956558 -0.050000000000000003 0.032418575909520901 -0.021466967715738708 -0.021073830996950468 0.048464422631368513 0.0045413453809239647 -0.035465723179424036 -0.045519370971054872 0.027767948508262637 0.0097712223728497818 0.048682195498393137 -0.020387888638642285 0.043447495943733622 -0.015898992764275699 -0.0082056406529291588 0.047010798113686698 -0.0096742444722032229 -0.03240260036041339
leaf_weight=38 2916 47 322 23 28 20 20 32 562 214 24 27 1702 38 29 34 129 23 196 23 30 667 29 113 26 21 115 38 37 64 56 20 27 33 22 23 48 27 23 104 22 20 35 44 58 21 319 168 160 22 26 29 30 21 65 905 35 21 68 21 148 60
leaf_count=38 2916 47 322 23 28 20 20 32 562 214 24 27 1702 38 29 34 129 23 196 23 30 667 29 113 26 21 115 38 37 64 56 20 27 33 22 23 48 27 23 104 22 20 35 44 58 21 319 168 160 22 26 29 30 21 65 905 35 21 68 21 148 60
internal_value=-0.00366453 -0.0249493 -0.0329321 -0.0201027 -0.00473667 0.019563 0.0148834 -0.0112941 -0.0247521 0.00822906 -0.0192471 -0.010805 -0.0463769 -0.00128287 0.00831985 0.0218316 -0.022882 0.0132256 -0.0358705 -0.0271712 0.00870514 -0.0424009 0.0362011 -0.0374924 0.02003 0.0377898 -0.0268938 -0.0178691 -0.0213288 -0.0387436 0.0326707 0.0228303 0.0225478 -0.0463462 0.0389328 0.00859607 0.0305693 -0.0288434 0.0232343 0.0317499 0.0264481 0.0193311 0.0302701 -0.0338535 -0.043823 0.0131207 -0.0201635 -0.0183116 0.046199 -0.0104701 -0.0418387 -0.0338954 0.0376555 0.0210949 0.0429072 -0.0211793 0.0357893 -0.0267231 -0.00353485 0.0370435 -0.00783458 -0.0260321
internal_weight=10268 7352 6234 3190 741 1118 393 159 2449 665 1638 493 3044 407 199 93 1145 112 811 249 53 1342 453 598 81 433 348 381 233 111 234 91 85 744 143 55 71 200 258 252 148 84 62 77 78 64 343 205 181 208 398 76 64 42 121 1034 64 47 106 44 170 173
internal_count=10268 7352 6234 3190 741 1118 393 159 2449 665 1638 493 3044 407 199 93 1145 112 811 249 53 1342 453 598 81 433 348 381 233 111 234 91 85 744 143 55 71 200 258 252 148 84 62 77 78 64 343 205 181 208 398 76 64 42 121 1034 64 47 106 44 170 173
is_linear=0
shrinkage=0.05


Tree=2
num_leaves=63
num_cat=0
split_feature=71 43 15 50 47 49 59 86 60 50 47 15 15 49 47 96 96 59 72 107 96 72 15 96 47 60 23 95 47 59 72 59 8 49 89 49 47 64 100 96 107 47 68 62 99 72 59 85 9 6 16 83 60 4 47 86 59 49 96 47 31 96
split_gain=4622.27 1008.69 479.698 83.2465 75.7526 113.56 67.9845 101.468 34.8484 33.0055 57.2357 26.4749 18.9211 13.6865 12.4366 26.2502 11.3829 18.904 25.6053 11.15 15.4893 17.0513 12.6026 11.0728 10.3365 9.56056 9.02824 7.71812 6.05902 5.93653 11.0824 5.81307 5.48495 5.43838 8.66321 5.06926 4.22001 4.16762 3.93964 3.35677 3.40897 3.15058 2.96556 2.95347 2.52741 2.42517 4.90513 2.26814 2.1572 1.93188 1.85664 1.68942 1.87526 1.65266 1.60507 1.60399 1.89927 1.54185 1.52663 2.0326 1.52537 1.49087
threshold=1.0000000180025095e-35 1.0000000180025095e-35 3.9637642077068107 1350.0000000000002 13.250000000000002 397.50000000000006 1.0000000180025095e-35 3.7442929831226768 1.0000000180025095e-35 1350.0000000000002 13.050000000000002 3.5607432846386975 4.2037941387385631 397.50000000000006 13.15 13.844584960207909 13.001791503693452 1.0000000180025095e-35 5.8703120222447076 6.742328001722 13.763734987769675 5.7141800863521466 3.3779353706421138 10.609952493784132 13.050000000000002 1.0000000180025095e-35 0.0045000000000000014 1.4849016471787464 13.350000000000003 1.0000000180025095e-35 5.7943573177911327 1.0000000180025095e-35 1.5000000000000002 224.80000000000004 13.627533884472793 397.50000000000006 13.250000000000002 0.013413141857810644 8.9994293176607609 19.836954519311849 8.3374212515144297 13.250000000000002 1.5000000000000002 0.37931034482758624 5.0965881398702768 6.9943423433860836 1.0000000180025095e-35 11.558118322180011 4.9845214836529079 9.8587578907551148 3.3864097697223499 1.6990134251006352 1.0000000180025095e-35 5.9188139665857031 12.750000000000002 4.083984439184615 1.0000000180025095e-35 224.80000000000004 15.327321309287258 13.250000000000002 7.5000000000000009 11.50545729147224
decision_type=2 2 2 2 2 2 2 2 2 2 2 2 2 2 2 2 2 2 2 2 2 2 2 2 2 2 2 2 2 2 2 2 2 2 2 2 2 2 2 2 2 2 2 2 2 2 2 2 2 2 2 2 2 2 2 2 2 2 2 2 2 2
left_child=1 3 4 8 9 6 11 37 13 16 26 28 35 14 53 -16 25 18 -18 20 21 31 60 -5 38 55 -11 42 33 30 -28 -12 -9 34 -6 57 -10 -8 47 -40 50 -17 61 -34 -15 46 -29 -25 -31 -32 -41 52 -30 -1 -46 56 -3 -4 59 -26 -22 -7
right_child=-2 2 12 23 5 27 7 32 36 10 19 -13 -14 44 15 41 17 -19 -20 -21 22 -23 -24 24 58 -27 29 45 51 48 49 -33 43 -35 -36 -37 -38 -39 39 40 -42 -43 -44 -45 54 -47 -48 -49 -50 -51 -52 -53 -54 -55 -56 -57 -58 -59 -60 -61 -62 -63
leaf_value=-0.0072014026688532783 0.050000000000000003 -0.038901533062259359 -0.038209285329167661 0.0012686941772699356 -0.012428919154973258 -0.045254312536933211 -0.050000000000000003 0.045412703118670517 0.019553466317043685 0.00051761444758724527 -0.0028427140171369239 -0.0062975969223771251 -0.049525691877304878 -0.025265220442088322 -0.018791064886110171 0.023727663572538985 -0.037972548725714247 -0.018520472627065278 -0.021706336801093892 -0.026478278721598067 0.048306057921477727 0.031483135434488461 0.0036336386655798046 0.042339746658521971 0.028959396574646235 -0.023290497157722714 -0.036877245079152861 -0.03423259111997836 0.03466345965862274 -0.019682105098221173 -0.0076986272128876949 -0.033462827388317358 0.031657081984338309 0.03628955501608732 0.031133180081844333 -0.046439473307321948 0.036555602909654476 -0.024660208709537987 0.011834948073031711 0.027420851981474294 0.015666202398982327 0.046991245206012285 -0.024020705778490414 0.0051390406453893298 0.0043416160118320722 -0.013392772585959049 -0.015569269881673058 0.026489457608230654 -0.0023378635942935943 -0.021851929915430664 0.043167218455495558 0.027292490496554158 0.0477740758390569 0.0068031973751454524 -0.0097788606892175028 -0.030606822268320968 -0.048900154074455832 -0.030999191966536763 0.049599742398343305 0.050000000000000003 0.031944802326375039 -0.034069152468672169
leaf_weight=77 2916 96 143 22 21 55 86 34 214 37 31 52 2343 24 28 22 502 549 467 22 28 24 41 83 24 96 195 68 46 173 29 31 21 41 25 126 44 20 34 36 30 43 44 21 23 74 73 31 20 143 39 22 67 29 161 26 94 154 132 22 29 65
leaf_count=77 2916 96 143 22 21 55 86 34 214 37 31 52 2343 24 28 22 502 549 467 22 28 24 41 83 24 96 195 68 46 173 29 31 21 41 25 126 44 20 34 36 30 43 44 21 23 74 73 31 20 143 39 22 67 29 161 26 94 154 132 22 29 65
internal_value=-0.0032677 -0.0243951 -0.0322381 0.0193379 -0.0198514 -0.00672904 0.0100813 -0.0136069 0.00807707 -0.0240129 -0.0155619 0.0258158 -0.0477686 -0.00103596 0.00833803 0.0216826 -0.0277211 -0.0259333 -0.0301332 0.00716286 0.0111852 -0.00430089 0.024775 0.0358687 0.0376348 -0.0364193 -0.0234033 -0.0269547 0.0333379 -0.0249838 -0.028717 -0.0181528 0.0304836 0.0230482 0.0112461 -0.0380359 0.0224531 -0.0452189 0.03114 0.0254895 0.029911 0.0391174 -0.0351243 0.0183981 -0.0100043 -0.020723 -0.02457 0.0380296 -0.0178848 -0.0194656 0.035609 0.039969 0.042437 -0.00336996 -0.0080138 -0.0422543 -0.0438482 -0.0344707 0.0468662 0.0390223 0.0399819 -0.0391957
internal_weight=10268 7352 6234 1118 3468 835 456 182 665 2633 803 274 2766 407 199 93 1830 1518 969 206 184 86 98 453 431 312 597 379 222 560 367 62 76 87 46 423 258 106 253 139 105 65 164 42 208 215 141 114 193 172 75 135 113 106 184 216 190 297 178 46 57 120
internal_count=10268 7352 6234 1118 3468 835 456 182 665 2633 803 274 2766 407 199 93 1830 1518 969 206 184 86 98 453 431 312 597 379 222 560 367 62 76 87 46 423 258 106 253 139 105 65 164 42 208 215 141 114 193 172 75 135 113 106 184 216 190 297 178 46 57 120
is_linear=0
shrinkage=0.05


Tree=3
num_leaves=63
num_cat=0
split_feature=58 43 15 50 50 107 57 60 18 59 18 18 59 15 18 22 49 15 18 27 49 57 26 49 107 15 38 49 26 15 15 15 27 18 13 119 49 23 49 9 87 5 33 23 64 18 31 4 107 15 15 121 2 10 96 15 107 5 84 28 23 107
split_gain=4557.15 975.15 501.313 82.3606 56.9077 62.1611 40.1374 31.8818 31.1996 29.4692 32.4844 29.0014 48.5954 26.0985 17.5616 17.2859 17.0207 14.3338 12.867 10.9236 9.35197 8.64242 7.56826 7.05533 16.0345 8.19888 7.02587 6.31537 10.3306 8.12751 5.75243 5.67422 5.22115 4.89171 4.59023 4.48854 4.41351 4.18852 4.16511 4.16092 3.95575 3.93411 5.63471 3.66979 3.61334 3.51007 4.25285 3.28037 3.23352 2.84427 2.66149 2.58594 2.51201 2.50394 2.41342 2.39985 2.37357 3.18266 2.12471 2.09742 2.08781 1.90005
threshold=1.0000000180025095e-35 1.0000000180025095e-35 4.031105113504867 1350.0000000000002 1350.0000000000002 6.2940411582666966 1.0000000180025095e-35 1.0000000180025095e-35 2.0916633983008173 1.0000000180025095e-35 1.8095466653133714 1.8292918577035315 1.0000000180025095e-35 3.4662584691513123 1.8481781943666664 0.96250000000000002 397.50000000000006 4.2812947567818638 1.7520314413393463 2.6435000000000004 397.50000000000006 1.0000000180025095e-35 0.56950000000000001 397.50000000000006 4.2260196751860217 3.4197079734970535 4.5000000000000009 397.50000000000006 0.59850000000000014 3.6013527050161622 3.3020049662061157 2.7024168583099697 2.8665000000000007 2.0773641037200781 3.1272667881082037 4.694173567604027 397.50000000000006 0.010500000000000001 397.50000000000006 4.7032700902169786 6.6022770843001934 2.4534452978042594 11.500000000000002 0.0092500000000000013 0.043909893940666932 2.3128105407124542 7.5000000000000009 1.7924812503605783 9.3560882240120566 2.3042630167885974 3.835849015308979 7.3198061598034849 11.792481250360579 2.428943537015599 27.564707298779734 3.002375577795501 5.3215073767353154 5.8201224681111734 15.715324994839863 0.23150000000000004 0.019500000000000003 3.3913769667042168
decision_type=2 2 2 2 2 2 2 2 2 2 2 2 2 2 2 2 2 2 2 2 2 2 2 2 2 2 2 2 2 2 2 2 2 2 2 2 2 2 2 2 2 2 2 2 2 2 2 2 2 2 2 2 2 2 2 2 2 2 2 2 2 2
left_child=1 3 4 7 6 8 11 14 9 15 -11 12 20 26 59 30 43 38 37 22 34 -7 49 24 25 32 35 28 29 44 53 -25 45 -12 39 40 60 -5 -4 -3 41 -10 -43 -16 51 46 -13 -26 -20 -17 61 -8 -30 -6 -50 -29 57 -45 -58 -1 -9 -15
right_child=-2 2 17 18 5 21 27 36 13 10 33 23 -14 50 16 19 -18 -19 48 -21 -22 -23 -24 31 47 -27 -28 55 52 -31 -32 -33 -34 -35 -36 -37 -38 -39 -40 -41 -42 42 -44 56 -46 -47 -48 -49 54 -51 -52 -53 -54 -55 -56 -57 58 -59 -60 -61 -62 -63
leaf_value=-0.043696024229284376 0.050000000000000003 -0.024195147740344206 -0.036821175631549623 0.025236366912722588 0.03755995477823651 -0.019590104027257232 -0.023565964461178396 0.01968417632393539 0.038038427382707601 -0.049700203770166873 0.013731658122231883 0.026717191480011462 -0.048825173949201904 -0.011703383894637228 0.031817123576998715 0.0097860593481787633 -0.0074706930018221158 -0.049759225769130062 0.039839970181916158 0.016749764922441859 -0.024708395270687161 -0.034859101475578629 -0.02627794093884794 -0.017238522090214807 -0.0018413964891806245 -0.015131140458558141 -0.0026734519004821778 -0.034895420198567749 -0.017561331888039908 -0.03746395702614929 -0.0020883835479617121 -0.028949781416392907 0.023679192529784312 -0.016335711022838952 0.014285888480288642 0.0060290910303592684 0.014721692825353913 -0.0067354531692607068 -0.047086036329468089 0.0055656287009301399 0.039442517608404164 0.032445896802277406 0.0030099521114214049 0.020451183394700485 0.0072396028786897663 -0.011229141780308316 -0.0019010221476064009 -0.018487514699230132 0.036346548469737172 -0.014901734613813462 -0.019101309914921608 -0.0038119660162677367 -0.035722646252343469 0.015264096632599831 0.013845164993439208 -0.044575594965513651 -0.0069197776594332287 -0.00077695815783479939 0.014417844433337452 -0.020797239430248738 0.032505446393193339 0.007992494705831632
leaf_weight=20 2916 24 315 20 34 260 37 50 29 77 31 21 192 25 25 28 195 2190 364 33 66 144 70 650 32 58 25 380 21 33 20 123 36 24 35 25 121 21 144 23 56 29 37 76 26 35 34 394 26 20 43 30 204 20 22 77 28 23 20 20 87 24
leaf_count=20 2916 24 315 20 34 260 37 50 29 77 31 21 192 25 25 28 195 2190 364 33 66 144 70 650 32 58 25 380 21 33 20 123 36 24 35 25 121 21 144 23 56 29 37 76 26 35 34 394 26 20 43 30 204 20 22 77 28 23 20 20 87 24
internal_value=-0.00289113 -0.0238692 -0.0315807 0.0191305 -0.0193925 -0.0096306 -0.0234578 0.00792979 -5.77119e-05 -0.00998173 -0.0287371 -0.019146 -0.032229 0.012034 -0.00078673 0.0010214 0.00264214 -0.0480754 0.0355731 -0.00868039 -0.0106988 -0.0250325 -0.0157922 -0.0159296 -0.0119094 0.000425278 0.0221298 -0.0326524 -0.0276085 -0.0161459 0.0208183 -0.019102 0.00758617 0.000611352 0.00057722 0.025653 0.0216803 0.00886056 -0.0400415 -0.00963136 0.028902 0.0226886 0.0159439 0.0141073 -0.0085814 0.00114896 0.00902593 -0.0172371 0.0382314 -0.000500521 -0.0100231 -0.0147209 -0.0340276 0.0293022 0.0260334 -0.0365264 0.0110954 0.0155194 0.0019709 -0.0322466 0.0278262 -0.00205642
internal_weight=10268 7352 6234 1118 3585 1054 2531 665 650 357 132 1723 340 293 407 225 367 2649 453 151 148 404 118 1383 610 184 201 808 351 126 74 773 126 55 82 176 258 41 459 47 151 95 66 172 93 90 55 426 412 48 92 67 225 54 48 457 147 99 48 40 137 49
internal_count=10268 7352 6234 1118 3585 1054 2531 665 650 357 132 1723 340 293 407 225 367 2649 453 151 148 404 118 1383 610 184 201 808 351 126 74 773 126 55 82 176 258 41 459 47 151 95 66 172 93 90 55 426 412 48 92 67 225 54 48 457 147 99 48 40 137 49
is_linear=0
shrinkage=0.05


Tree=4
num_leaves=63
num_cat=0
split_feature=58 43 73 50 68 18 57 57 60 49 6 79 107 49 26 49 18 49 50 18 84 49 64 49 6 9 50 12 84 66 83 95 22 12 28 36 8 49 98 49 38 83 86 108 70 60 107 39 117 64 14 110 111 20 43 16 14 105 5 70 16 110
split_gain=4499.39 939.982 482.905 81.2588 58.1211 33.8282 49.0563 37.9495 29.6138 29.2858 37.7398 23.672 23.0105 24.7495 18.6323 28.3764 17.3069 16.0612 14.2406 12.5677 9.60019 9.99574 9.17494 9.03505 7.48916 7.10911 11.3723 5.66158 6.31491 5.49303 5.48771 5.10121 4.7484 4.59457 8.17895 4.58337 4.55502 4.44266 6.03759 4.32531 4.21584 3.78784 3.70175 4.21156 3.60639 6.52655 3.35959 3.26452 3.2587 3.43571 3.2119 2.84124 2.82409 2.69807 2.56625 2.51143 2.43199 2.41937 2.37799 2.35908 2.27016 2.12454
threshold=1.0000000180025095e-35 1.0000000180025095e-35 1.0000000180025095e-35 1350.0000000000002 1.5000000000000002 1.8095466653133714 1.0000000180025095e-35 1.0000000180025095e-35 1.0000000180025095e-35 397.50000000000006 10.084962500721158 19.175161585881217 4.296949183105423 397.50000000000006 0.59850000000000014 397.50000000000006 1.8292918577035315 397.50000000000006 1350.0000000000002 1.7520314413393463 15.083752687244536 397.50000000000006 0.023989305494335103 224.80000000000004 8.6777185662235983 4.9845214836529079 1350.0000000000002 4.5689581249617381 3.9105355502322028 8.260611205432939 3.7256283484882347 0.52316073809701058 0.99950000000000017 3.2074992013494863 0.13650000000000004 1.5000000000000002 1.5000000000000002 397.50000000000006 1.2862179005501202 397.50000000000006 2.5000000000000004 1.6990134251006352 4.6382096210738171 1.5669234733387356 4.2729657041002502 1.0000000180025095e-35 9.3560882240120566 1.0000000180025095e-35 1.1045378273724888 0.017657039349751262 1.0000000180025095e-35 0.5870202952606659 1.8548675000000003 4.6001450180613412 1.5000000000000002 2.4850106329141837 5.0726799278200332 13.14097665731502 2.9036774610288023 4.1306873750279243 3.0951692113389759 1.8408319409993055
decision_type=2 2 2 2 2 2 2 2 2 2 2 2 2 2 2 2 2 2 2 2 2 2 2 2 2 2 2 2 2 2 2 2 2 2 2 2 2 2 2 2 2 2 2 2 2 2 2 2 2 2 2 2 2 2 2 2 2 2 2 2 2 2
left_child=1 3 4 8 5 7 12 54 16 10 23 20 13 33 15 22 -1 47 37 31 21 27 -8 42 -25 -14 -27 28 -4 -12 51 -5 -20 34 -7 -36 55 38 -9 -10 -16 50 43 48 45 57 -21 60 49 -6 53 -24 -37 -26 -3 -35 -48 -30 -42 -47 -18 -62
right_child=-2 2 11 19 9 6 14 18 39 -11 29 -13 25 -15 40 -17 17 -19 32 46 -22 -23 30 24 41 26 -28 -29 44 -31 -32 -33 -34 36 35 52 -38 -39 -40 -41 58 -43 -44 -45 -46 59 56 -49 -50 -51 -52 -53 -54 -55 -56 -57 -58 -59 -60 -61 61 -63
leaf_value=-0.03238054761328759 0.050000000000000003 -0.033085090720227792 -0.014910832679632939 -0.0093223111331462855 0.00083503759333065572 -0.018968833851869461 -0.020323372166603806 -0.027154730622832843 0.02702862949273719 -0.01750607367695203 -0.019247339931665129 -0.049347866954882892 -0.017006406040292753 -0.019613245949778726 -0.014223974875428461 -0.03604676347927073 0.019856653874740005 -0.0071373638853327401 0.022797783914332591 0.03941671079946401 -0.048826710169460615 -0.044868903836809609 0.004748602077364922 -0.0054116105102002621 0.036748894055684406 -0.014484933871361945 0.029379728233272381 -0.019150107597278504 -0.040329123294332581 0.0070297755139029543 -0.011674126759975307 0.025961385099660783 -0.008994596807853035 0.045054523516446357 0.026748111756408916 0.014409700716319291 0.0081854573778204019 -0.034529564409486707 0.0069428416108712563 0.014055781307366143 -0.018318619100110872 0.0092830387956422313 -0.010200684878133959 0.028374701932720514 -0.047645795663197842 -0.022313890731941486 0.035696316238206169 0.020607191334002194 -0.010894728839397431 0.025711816905633261 0.040928696430459321 0.026452251298255042 -0.010951039478892373 0.013381432195504507 -0.049213426837310698 0.019997425004839899 0.013108529500790278 -0.028436329522325349 -0.033227070778247013 -0.035866382035116356 0.010299388477296542 -0.0084260159438209869
leaf_weight=39 2916 28 33 20 35 27 34 37 137 289 147 1621 839 98 33 87 24 196 24 364 279 399 25 20 21 45 22 52 392 23 21 21 23 20 34 23 37 62 20 121 28 23 31 23 75 97 26 87 25 23 49 38 21 30 207 20 22 48 598 48 33 28
leaf_count=39 2916 28 33 20 35 27 34 37 137 289 147 1621 839 98 33 87 24 196 24 364 279 399 25 20 21 45 22 52 392 23 21 21 23 20 34 23 37 62 20 121 28 23 31 23 75 97 26 87 25 23 49 38 21 30 207 20 22 48 598 48 33 28
internal_value=-0.00255487 -0.0233995 -0.0309707 0.0188177 -0.0173768 -0.0210827 -0.0184847 -0.0343641 0.0076921 -0.00508572 0.0028909 -0.0452167 -0.0118831 0.000644755 -0.0275468 -0.014382 -0.000708668 0.00264786 -0.0160628 0.0351499 -0.0405106 -0.0384825 0.0015911 0.0141735 0.0229647 -0.0157548 -8.1612e-05 -0.0350621 -0.0362561 -0.0156922 0.0104612 0.00874983 0.00723981 0.0115529 0.0047498 0.0129601 0.0208299 -0.0252664 -0.0151907 0.0209445 -0.031642 0.0275787 0.00499728 0.00944196 -0.0373234 -0.036 0.0377771 0.0137985 0.00419554 0.0107 0.0317868 0.0178397 0.00230571 0.0230033 -0.0472918 0.032526 0.0253436 -0.0390317 -0.0325602 -0.0268002 0.00682954 0.00170412
internal_weight=10268 7352 6234 1118 3190 2451 2050 401 665 739 450 3044 1186 280 864 205 407 368 166 453 1423 1144 118 280 143 906 67 745 693 170 84 41 47 182 105 78 77 119 57 258 659 123 137 106 660 585 412 172 83 58 100 63 44 51 235 40 48 440 626 145 85 61
internal_count=10268 7352 6234 1118 3190 2451 2050 401 665 739 450 3044 1186 280 864 205 407 368 166 453 1423 1144 118 280 143 906 67 745 693 170 84 41 47 182 105 78 77 119 57 258 659 123 137 106 660 585 412 172 83 58 100 63 44 51 235 40 48 440 626 145 85 61
is_linear=0
shrinkage=0.05


Tree=5
num_leaves=63
num_cat=0
split_feature=58 76 73 50 47 54 59 18 57 79 60 18 59 18 50 47 18 47 50 47 84 54 50 47 121 50 47 18 57 105 84 111 111 47 111 47 95 0 110 105 100 70 8 83 84 96 59 47 11 60 70 18 78 57 26 84 7 66 20 57 47 0
split_gain=4439.93 904.157 492.224 80.1794 68.3609 96.1621 67.5372 113.892 37.9559 27.6295 27.4725 20.5859 30.2667 17.0085 15.014 26.6394 12.3206 14.3459 11.7069 37.5426 11.0579 10.1666 7.38015 25.085 10.9278 6.59714 6.51964 6.43239 6.92118 5.68886 6.60175 5.6808 5.64903 5.38369 6.66906 4.93859 4.9165 4.55754 4.47846 4.28781 3.9545 4.50239 3.82491 3.7659 3.61522 3.19113 3.09716 3.05136 2.61286 2.31429 6.20568 2.30795 2.6099 2.32954 2.28245 2.2399 2.09906 2.05825 1.9497 1.89813 1.7219 1.65112
threshold=1.0000000180025095e-35 1.0000000180025095e-35 1.0000000180025095e-35 1350.0000000000002 13.250000000000002 368.00000000000006 1.0000000180025095e-35 1.8721464915613384 1.0000000180025095e-35 19.175161585881217 1.0000000180025095e-35 1.7888607622545107 1.0000000180025095e-35 1.8292918577035315 703.50000000000011 13.15 1.7520314413393463 13.050000000000002 1350.0000000000002 13.050000000000002 15.083752687244536 368.00000000000006 1350.0000000000002 13.050000000000002 9.8467800906113698 1350.0000000000002 12.950000000000001 1.9003585391411926 1.0000000180025095e-35 13.14097665731502 3.9105355502322028 2.2294620000000003 2.3999280000000005 13.350000000000003 2.8002480000000007 13.250000000000002 0.5531475942062577 6.7346937204821744 1.4044213288628196 16.048992504851714 8.7048516097982063 2.8696971592125471 1.5000000000000002 1.6990134251006352 12.81320430280301 20.771234877645721 1.0000000180025095e-35 13.250000000000002 6.2530955181530006 1.0000000180025095e-35 4.2158612841660217 1.7888607622545107 9.0271727944691129 1.0000000180025095e-35 0.61250000000000016 13.339689332363195 7.5430266354978341 0.25097984322508404 6.0602900572549077 1.0000000180025095e-35 13.250000000000002 6.9943423433860836
decision_type=2 2 2 2 2 2 2 2 2 2 2 2 2 2 2 2 2 2 2 2 2 2 2 2 2 2 2 2 2 2 2 2 2 2 2 2 2 2 2 2 2 2 2 2 2 2 2 2 2 2 2 2 2 2 2 2 2 2 2 2 2 2
left_child=1 2 4 10 8 6 33 -8 11 20 13 12 25 -3 15 -15 36 39 61 26 21 29 -10 -24 -25 -1 -20 46 57 30 -4 -21 -28 34 37 -12 -5 -6 -33 40 48 45 -9 59 49 -42 -7 -17 56 51 60 53 -53 -32 -47 -31 -18 -29 -37 -35 -51 -13
right_child=-2 3 9 16 5 27 7 42 22 -11 35 18 -14 14 -16 47 17 -19 19 31 -22 -23 23 24 -26 -27 32 28 -30 55 44 38 -34 43 -36 58 -38 -39 -40 -41 41 -43 -44 -45 -46 54 -48 -49 -50 50 -52 52 -54 -55 -56 -57 -58 -59 -60 -61 -62 -63
leaf_value=-0.019078089102898557 0.050000000000000003 -0.032048439382551579 -0.014233067378606365 -0.0083209456432433351 0.010104262602070105 -0.027721331975398923 -0.050000000000000003 0.047197238180567237 -0.032661285344179843 -0.049184312915485778 0.017068065249878032 -0.022761877921634709 -0.050000000000000003 -0.0034394221761348573 -0.0067841370190744425 0.021300698071718218 0.03701454729640058 0.048337822546099508 -0.017755401901927096 0.03835158662663566 -0.048562035178198182 -0.043900995901353976 -0.030573226171260588 0.034127691290948704 -0.011681288035276037 0.010252274486881036 0.017621556411568935 -0.0032118796899512007 -0.030548682534596423 -0.01439804631906251 -0.050000000000000003 -0.0059046187065541749 -0.011015642373640017 0.046328145799352162 -0.0042825363576412204 0.025403756698917437 0.026318049058318138 0.037173732921170696 0.026131499527643126 0.044141871100518759 -0.0018087683893416241 0.035630969642935433 0.024112995635522039 0.021030228522916639 -0.045721677189819447 0.033872602358460423 -0.050000000000000003 0.043306105852127075 0.045872965175658469 -0.029518394453414518 -0.044051980751532098 -0.025293362253744692 -0.038002089484241504 -0.036401069609564733 0.013004760146079781 -0.028793062123639343 0.016863398548836509 -0.016336975684089046 0.046475827268191744 0.033137814038554612 -0.016460766827687622 -0.016415190857519937
leaf_weight=73 2916 39 33 21 23 39 87 34 562 1621 214 116 104 99 196 23 28 172 283 36 279 399 196 23 30 26 26 37 91 39 62 20 51 67 20 23 20 48 24 41 23 34 38 30 103 20 26 50 32 51 54 56 145 64 38 88 24 155 21 46 50 879
leaf_count=73 2916 39 33 21 23 39 87 34 562 1621 214 116 104 99 196 23 28 172 283 36 279 399 196 23 30 26 26 37 91 39 62 20 51 67 20 23 20 48 24 41 23 34 38 30 103 20 26 50 32 51 54 56 145 64 38 88 24 155 21 46 50 879
internal_value=-0.00220642 -0.0229129 -0.0303384 0.018492 -0.0166139 -0.00330744 0.013642 -0.0115031 -0.0206401 -0.0447211 0.00744058 -0.0162602 -0.0311633 -0.000650765 0.00267671 0.0134577 0.0347154 0.0373167 -0.0141519 -0.00736067 -0.0396369 -0.0374602 -0.0294864 -0.0223207 0.00819808 -0.0113752 -0.0142456 -0.0224487 -0.0191908 -0.0340108 -0.0359914 0.0236215 -0.00134594 0.0307279 0.0212207 0.0202048 0.00857612 0.0284047 0.0115696 0.0294182 0.0263847 0.0203607 0.0350139 0.0367778 -0.0372188 0.013951 -0.0366328 0.0363729 0.0346317 -0.0354018 -0.0303696 -0.0377872 -0.0344613 -0.0430926 0.0202006 -0.0243725 0.027714 -0.0138077 0.0354609 0.0409586 -0.0230542 -0.0171551
internal_weight=10268 7352 6234 1118 3190 741 393 159 2449 3044 665 1638 203 407 368 172 453 412 1435 440 1423 1144 811 249 53 99 360 348 283 745 618 80 77 234 91 258 41 71 44 240 199 115 72 143 585 81 65 73 84 482 155 327 201 126 58 127 52 192 44 113 101 995
internal_count=10268 7352 6234 1118 3190 741 393 159 2449 3044 665 1638 203 407 368 172 453 412 1435 440 1423 1144 811 249 53 99 360 348 283 745 618 80 77 234 91 258 41 71 44 240 199 115 72 143 585 81 65 73 84 482 155 327 201 126 58 127 52 192 44 113 101 995
is_linear=0
shrinkage=0.05


Tree=6
num_leaves=63
num_cat=0
split_feature=58 43 81 50 79 47 49 59 18 57 60 12 83 64 78 18 18 49 47 18 47 59 72 70 50 47 0 18 2 78 57 50 47 93 79 12 72 47 49 47 3 96 115 47 105 12 49 100 70 72 23 59 18 47 50 18 78 59 47 79 64 11
split_gain=4378.43 873.423 395.972 79.4351 73.0855 51.6828 75.8258 54.0984 100.973 27.837 25.2764 19.1626 18.9122 18.5776 17.9199 18.4707 16.8461 14.4692 26.0399 12.1936 14.9291 12.0377 8.42904 13.3274 8.33041 24.8227 10.8494 7.56247 6.53333 6.39695 6.17839 6.06962 22.3362 7.9814 6.02207 13.6058 5.50824 6.0081 7.63996 5.08235 4.80801 4.59838 4.49049 4.44382 4.36268 4.35553 4.06509 3.93063 4.34201 3.8296 3.44326 3.41335 3.30464 3.17268 3.1568 3.15288 4.28734 3.59676 3.12011 3.08199 3.00645 2.64653
threshold=1.0000000180025095e-35 1.0000000180025095e-35 22.414576628631394 1350.0000000000002 17.723311045204319 13.250000000000002 397.50000000000006 1.0000000180025095e-35 1.8721464915613384 1.0000000180025095e-35 1.0000000180025095e-35 4.2079167839026281 1.8437705866115752 0.0047368769229965838 9.8869005152887315 2.1628604290097067 1.8292918577035315 397.50000000000006 13.15 1.7520314413393463 13.050000000000002 1.0000000180025095e-35 6.2573570270692445 3.9180302576015564 1350.0000000000002 13.050000000000002 5.7141800863521466 1.8095466653133714 11.792481250360579 8.9552682499732992 1.0000000180025095e-35 1350.0000000000002 13.050000000000002 8.3360000000000003 19.972636025834777 4.4992745764453712 6.707342617903608 13.350000000000003 224.80000000000004 13.250000000000002 6.9366259214510642 13.001791503693452 34.32946542537384 13.250000000000002 16.048992504851714 4.000043425105825 397.50000000000006 8.7048516097982063 2.8696971592125471 5.022197059679228 0.0087500000000000026 1.0000000180025095e-35 2.3434074772536588 13.15 1350.0000000000002 1.7888607622545107 8.059132673731062 1.0000000180025095e-35 13.250000000000002 19.535948575957672 1.2337055220343387 6.2530955181530006
decision_type=2 2 2 2 2 2 2 2 2 2 2 2 2 2 2 2 2 2 2 2 2 2 2 2 2 2 2 2 2 2 2 2 2 2 2 2 2 2 2 2 2 2 2 2 2 2 2 2 2 2 2 2 2 2 2 2 2 2 2 2 2 2
left_child=1 3 5 10 11 9 7 12 -9 13 16 14 36 21 15 22 -1 18 -18 42 44 -3 55 53 41 50 -27 51 -28 43 -29 -11 -33 -34 35 -6 37 38 -7 -12 -10 49 -5 -17 47 -16 60 61 59 -15 -26 -8 -31 -24 -37 57 -57 -4 -20 -49 -13 -21
right_child=-2 2 4 19 34 6 27 8 40 31 39 46 -14 24 45 29 17 -19 58 20 -22 -23 23 -25 25 26 28 30 -30 52 -32 32 33 -35 -36 54 -38 -39 -40 -41 -42 -43 -44 -45 -46 -47 -48 48 -50 -51 -52 -53 -54 -55 -56 56 -58 -59 -60 -61 -62 -63
leaf_value=-0.031719737461744217 0.050000000000000003 -0.016921099349856378 -0.037435679287893008 -0.0085232091695070268 -0.047932702483056672 -0.0077270093819369447 -0.026649703085422517 -0.050000000000000003 0.038730823487605689 -0.031023861934932381 0.016350249299821967 -0.01334755399810343 -0.0076960158041294892 -0.037129114896059037 -0.045248340492122875 -0.018291699645302164 -0.0032830847789429955 -0.0064483916833616636 0.020837639466575957 0.027167300650706661 0.048267564082214998 -0.049445854149984592 -0.019720907629497589 -0.038090013428447173 0.0011942862470944724 -0.017009517727419734 0.042797065474863713 -0.013170290866401048 0.011100702108563605 -0.035986966255901233 -0.029046999625861648 -0.029205971548056348 0.031052266158671543 -0.0095186131833880049 -0.049606813091642693 -0.035025352468206122 0.04532811904946963 0.035708445625669966 0.031488223677432099 0.035008839556989683 0.0099594131670892247 -0.016023516188767389 0.024581064975687437 0.0017923586659462137 0.043818881798808169 -0.026466348811107522 -0.028845780060209075 0.020503543118118413 0.034897391055025817 -0.016513768310953931 -0.016582662393842398 -0.050000000000000003 -0.019968747939881789 0.0029003945329496936 -0.01877008850072942 -0.024507065654778091 -0.042962647722317622 -0.050000000000000003 0.043089575290679936 -0.00018593401958545049 0.0073945057851960887 0.045442906045354906
leaf_weight=39 2916 50 111 20 455 23 34 82 53 520 214 58 34 50 335 145 99 196 23 52 172 66 31 97 30 20 29 192 37 74 90 188 22 27 1364 110 60 77 27 44 20 863 21 34 41 34 29 54 34 41 296 29 57 31 41 61 65 117 50 27 25 32
leaf_count=39 2916 50 111 20 455 23 34 82 53 520 214 58 34 50 335 145 99 196 23 52 172 66 31 97 30 20 29 192 37 74 90 188 22 27 1364 110 60 77 27 44 20 863 21 34 41 34 29 54 34 41 296 29 57 31 41 61 65 117 50 27 25 32
internal_value=-0.00184362 -0.0224062 -0.0297044 0.0182889 -0.0416863 -0.0164515 -0.00480868 0.0107233 -0.0119231 -0.0202007 0.00728888 -0.0325042 0.0266065 -0.0162161 -0.0343622 -0.0302572 -0.000472323 0.00283922 0.0134228 0.0344368 0.0370246 -0.0354266 -0.03608 -0.0265168 -0.0145848 -0.00864318 0.0152518 -0.0217363 0.0250279 -0.0206213 -0.0182373 -0.0280013 -0.0213695 0.00869688 -0.0477642 -0.0436167 0.0328433 0.026945 0.0134492 0.0195323 0.0308482 -0.0171507 0.00843264 -0.0144769 0.0289672 -0.0435178 -0.0127306 0.0259073 0.0199016 -0.0278409 -0.0149467 -0.0373983 -0.0290172 -0.00841026 -0.0306117 -0.0403753 -0.0340278 -0.0438832 0.0360787 0.0136071 -0.00709995 0.0341294
internal_weight=10268 7352 6234 1118 3274 2960 721 376 155 2239 665 1304 221 1482 1192 823 407 368 172 453 412 116 513 159 1366 412 86 345 66 310 282 757 237 49 1970 606 187 127 50 258 73 954 41 179 240 369 112 199 115 91 326 63 131 62 151 354 126 228 73 81 83 84
internal_count=10268 7352 6234 1118 3274 2960 721 376 155 2239 665 1304 221 1482 1192 823 407 368 172 453 412 116 513 159 1366 412 86 345 66 310 282 757 237 49 1970 606 187 127 50 258 73 954 41 179 240 369 112 199 115 91 326 63 131 62 151 354 126 228 73 81 83 84
is_linear=0
shrinkage=0.05


Tree=7
num_leaves=63
num_cat=0
split_feature=58 77 88 15 50 47 49 18 59 57 60 15 64 18 47 49 49 18 47 59 50 47 15 47 15 7 59 50 18 91 49 111 50 47 121 47 57 25 121 95 57 105 96 59 100 70 23 59 12 96 11 78 57 89 47 47 7 20 89 47 0 26
split_gain=4318.57 899.732 357.837 168.033 78.5169 48.4222 68.5745 60.9147 97.7559 28.643 23.129 19.4819 18.0752 16.7202 14.0558 23.1966 12.9985 12.0271 15.6071 9.86577 9.37098 29.748 8.8763 8.2933 10.9081 7.89769 7.70916 7.3149 6.22675 6.12083 6.01077 5.97684 5.20996 18.0166 11.9168 5.15378 5.01823 4.90775 4.75476 4.64932 4.48131 4.47888 4.19401 5.54711 3.85159 4.14293 3.26257 3.21566 3.135 2.72255 2.7127 2.63556 3.86059 2.6342 3.16425 2.31901 2.204 2.17573 2.14382 2.04039 4.24292 2.02846
threshold=1.0000000180025095e-35 4.0006504665102094 0.13150000000000003 4.2037941387385631 1350.0000000000002 13.250000000000002 397.50000000000006 1.8095466653133714 1.0000000180025095e-35 1.0000000180025095e-35 1.0000000180025095e-35 3.8819834440474801 0.0033953601357985938 1.8292918577035315 13.250000000000002 397.50000000000006 397.50000000000006 1.7520314413393463 13.050000000000002 1.0000000180025095e-35 1350.0000000000002 13.050000000000002 4.3477299490886567 13.250000000000002 3.4662584691513123 7.8169800768161135 1.0000000180025095e-35 1350.0000000000002 1.8095466653133714 2.4010000000000002 224.80000000000004 1.8725630000000002 1350.0000000000002 13.050000000000002 12.040126487537124 13.250000000000002 1.0000000180025095e-35 0.0029000000000000002 12.848057411429137 0.52316073809701058 1.0000000180025095e-35 16.083590506773824 13.001791503693452 1.0000000180025095e-35 8.7048516097982063 2.8696971592125471 0.0025000000000000005 1.0000000180025095e-35 2.7007002703907728 21.891461296408753 6.2530955181530006 7.1415358561218314 1.0000000180025095e-35 13.414685235807216 13.350000000000003 13.350000000000003 7.5430266354978341 6.0602900572549077 21.686359889680862 13.350000000000003 10.500000000000002 0.70350000000000013
decision_type=2 2 2 2 2 2 2 2 2 2 2 2 2 2 2 2 2 2 2 2 2 2 2 2 2 2 2 2 2 2 2 2 2 2 2 2 2 2 2 2 2 2 2 2 2 2 2 2 2 2 2 2 2 2 2 2 2 2 2 2 2 2
left_child=1 2 4 11 10 9 7 8 55 12 13 16 19 -1 -15 -16 23 39 41 -4 42 29 -5 30 -25 40 -26 51 47 -22 58 -23 -11 -34 -35 -12 59 -33 46 -6 53 44 43 -14 50 49 -32 -8 -42 -46 56 -13 -53 54 -9 -7 -19 -37 -3 -30 -61 -51
right_child=-2 3 5 22 17 6 28 25 -10 32 35 27 20 14 15 -17 -18 18 -20 -21 21 31 -24 24 26 -27 -28 -29 36 -31 38 37 33 34 -36 57 -38 -39 -40 -41 48 -43 -44 -45 45 -47 -48 -49 -50 61 -52 52 -54 -55 -56 -57 -58 -59 -60 60 -62 -63
leaf_value=-0.031394406828360685 0.050000000000000003 -0.029741075102032888 -0.013426503299602441 -0.040065032708729416 -0.0089471585303545001 0.018442825352152189 -0.023837189128001535 0.018679836845916252 -0.050000000000000003 -0.029452257643448415 0.015662622008628807 -0.042516576134496269 -0.014664283376641392 -0.0024710909391952949 0.042373576409676497 -0.0092324865589800634 -0.027672854914196899 0.036044410955426952 0.048197407730811735 -0.050000000000000003 -0.015189315777925004 0.040328469242040928 -0.049523233908984575 0.0257612151003653 0.0022191601686496684 0.0018007533252239229 -0.032146190598607065 -0.022831373591035764 -0.017100776388094978 0.012676241816509337 0.0027709266287274659 -0.0049953709542751319 -0.027446871034560668 0.029828008092366732 -0.020812929084613213 0.023827775947385187 -0.027031960851129369 0.025748663630198551 0.0087795799225568773 0.02473748897512754 0.011865710287258545 0.043736996352672579 -0.015081462299224869 -0.04156139983485143 0.00076764229951160293 0.034178915318539914 -0.02064805727066665 -0.050000000000000003 0.03723245823667163 0.03261553691700101 0.045016878913156692 -0.027706288363122823 -0.041062741203322296 0.048506787088182235 0.04195442670024932 0.037545575455148167 0.015395708537350098 0.046087805022086419 -0.013832294959574937 -0.014279483257118484 0.009715261006796802 0.012547913188224331
leaf_weight=39 2916 72 28 282 20 24 24 23 78 521 214 90 41 280 51 38 175 28 172 54 320 26 2061 31 47 20 25 187 104 21 20 25 186 26 21 23 85 27 30 21 29 40 900 36 28 34 58 23 21 20 32 152 84 54 40 47 24 21 30 58 27 34
leaf_count=39 2916 72 28 282 20 24 24 23 78 521 214 90 41 280 51 38 175 28 172 54 320 26 2061 31 47 20 25 187 104 21 20 25 186 26 21 23 85 27 30 21 29 40 900 36 28 34 58 23 21 20 32 152 84 54 40 47 24 21 30 58 27 34
internal_value=-0.001488 -0.0219095 -0.0059326 -0.0410589 0.0180727 -0.0152306 -0.00329945 0.0124894 -0.0113606 -0.0187426 0.00714957 -0.0239113 -0.014697 -0.000259974 0.00303066 0.0203395 -0.0167595 0.034132 0.036702 -0.0375115 -0.0133569 -0.00710146 -0.0483849 -0.0106577 0.000963528 0.031493 -0.00971325 -0.0307146 -0.0198261 -0.0134733 -0.0163577 0.0207547 -0.0266728 -0.0204578 0.00720121 0.018867 -0.016942 0.0109679 -0.00813686 0.00830595 0.0350489 0.0284637 -0.0160397 -0.0272396 0.025409 0.0195045 -0.0146432 -0.0366403 0.0225197 0.0134199 0.0335629 -0.0352366 -0.0324603 0.0404032 0.0334574 0.0310883 0.0265142 0.0344519 -0.025062 -0.0124041 -0.00665762 0.0199804
internal_weight=10268 7352 4008 3344 1119 2889 657 336 149 2232 666 1001 1478 408 369 89 488 453 412 82 1396 419 2343 313 103 187 72 513 321 341 210 78 754 233 47 258 274 52 108 41 167 240 977 77 200 116 78 47 50 82 84 326 236 117 63 71 52 44 102 189 85 54
internal_count=10268 7352 4008 3344 1119 2889 657 336 149 2232 666 1001 1478 408 369 89 488 453 412 82 1396 419 2343 313 103 187 72 513 321 341 210 78 754 233 47 258 274 52 108 41 167 240 977 77 200 116 78 47 50 82 84 326 236 117 63 71 52 44 102 189 85 54
is_linear=0
shrinkage=0.05


Tree=8
num_leaves=63
num_cat=0
split_feature=58 77 88 79 50 68 18 59 47 107 77 47 57 60 18 86 68 50 47 47 50 12 47 50 50 107 74 18 47 50 79 12 47 57 47 47 105 95 22 50 11 50 100 70 47 77 50 50 77 99 77 68 70 57 16 0 50 57 11 79 47 109
split_gain=4259.96 893.733 338.849 86.7791 77.9019 44.0308 36.8361 46.3657 33.4472 34.1775 33.1092 29.9826 26.8616 21.3745 16.5041 15.6792 15.6966 14.3191 27.4472 13.9836 22.562 13.4244 13.3262 13.3165 21.9785 13.2164 12.6269 11.9273 16.1907 8.01992 7.63567 10.2315 7.28074 5.38151 5.2802 4.78218 4.57455 4.48008 4.2514 7.11726 4.13084 3.82746 3.82101 3.99791 3.79656 5.20715 3.62632 3.56268 3.38291 3.23254 3.10155 3.57379 3.48868 2.93112 2.91586 3.64666 2.86632 2.86298 2.74999 2.64142 2.52066 2.46238
threshold=1.0000000180025095e-35 4.0006504665102094 0.13150000000000003 16.812993835397602 1350.0000000000002 1.5000000000000002 1.8095466653133714 1.0000000180025095e-35 13.250000000000002 5.4412245151881349 8.1989111024130139 13.350000000000003 1.0000000180025095e-35 1.0000000180025095e-35 1.8292918577035315 3.591732238951836 1.5000000000000002 1350.0000000000002 13.050000000000002 13.250000000000002 703.50000000000011 4.0503217222305468 13.250000000000002 1350.0000000000002 703.50000000000011 5.5976959323537985 1.0000000180025095e-35 1.7520314413393463 13.050000000000002 1350.0000000000002 19.972636025834777 4.4992745764453712 13.350000000000003 1.0000000180025095e-35 13.250000000000002 13.350000000000003 16.083590506773824 0.5531475942062577 1.2005000000000001 1350.0000000000002 5.632962873882156 703.50000000000011 8.7048516097982063 2.8696971592125471 13.050000000000002 7.2513442605503693 1350.0000000000002 1350.0000000000002 4.2617856800638672 2.2135157262258285 8.4516746248321173 2.5000000000000004 4.173678850963781 1.0000000180025095e-35 1.4697596263093093 7.6036215779683696 1350.0000000000002 1.0000000180025095e-35 6.2530955181530006 19.535948575957672 13.350000000000003 0.56890800000000008
decision_type=2 2 2 2 2 2 2 2 2 2 2 2 2 2 2 2 2 2 2 2 2 2 2 2 2 2 2 2 2 2 2 2 2 2 2 2 2 2 2 2 2 2 2 2 2 2 2 2 2 2 2 2 2 2 2 2 2 2 2 2 2 2
left_child=1 2 4 10 13 6 7 22 12 23 15 17 38 14 -1 16 33 -7 -19 -16 -21 50 47 24 32 41 30 37 36 35 31 -5 -10 48 -15 53 42 -6 49 -40 -24 -13 58 59 -31 -46 -35 -4 -3 -8 -12 -52 -53 -17 55 -14 -33 -11 -29 -44 -18 -25
right_child=-2 3 5 26 27 11 8 -9 9 57 21 25 54 34 19 29 60 18 -20 20 -22 -23 40 61 -26 -27 -28 28 -30 44 -32 56 -34 46 -36 -37 -38 -39 39 -41 -42 -43 43 -45 45 -47 -48 -49 -50 -51 51 52 -54 -55 -56 -57 -58 -59 -60 -61 -62 -63
leaf_value=-0.03107241288973735 0.050000000000000003 -0.026941841698828198 -0.027412374249134942 -0.042836556042837981 -0.0079887038185482932 -0.013415244253424753 0.0037158513083480876 -0.049092276610549872 0.0024946301527645279 -0.010803305586346259 -0.034013734467145874 0.046634598169475794 -0.026217677791913353 0.015003913574468938 -0.002358126798727816 -0.020249598192533962 -0.017927629473032777 -0.011605014588561032 0.033134743327444253 0.042124320069948838 -0.0087708624202365946 -0.00938728231833213 0.021789984287763086 0.043630119209939783 -0.022854560134666309 -0.0015657960836376464 -0.050000000000000003 0.025965460824618977 0.048127353373308514 -0.016679279506206512 -0.047486255316020888 -0.031787875946611165 0.038508397185554107 -0.036773512747000768 0.034022211510984397 -0.0055698949890211225 0.043463640138506891 0.025077169137075545 -0.012749948554624947 0.016246010250214375 -0.0070455765270668533 0.023302854922337413 0.019544741980455541 0.033475231798365715 0.019367202498018744 -0.0076638918617860444 -0.015532242160406896 -0.0071761689823249299 -0.048997740890129961 -0.014182807776713833 -0.044674738925754569 -0.014152541244402529 -0.043685085922479633 -0.033042177649687476 -0.026729699219545763 -6.9086362297336265e-05 -0.016745502183171498 -0.024785191965275916 0.044594845641404396 0.00062043552419969018 0.0018380530016577764 0.023470789167497841
leaf_weight=39 2916 21 87 365 21 347 26 193 23 78 123 32 30 214 280 135 54 91 55 51 38 36 27 33 42 42 1204 52 172 55 391 113 36 54 44 40 40 20 59 33 23 39 54 34 25 62 32 29 101 847 359 20 20 67 596 24 44 69 32 28 23 28
leaf_count=39 2916 21 87 365 21 347 26 193 23 78 123 32 30 214 280 135 54 91 55 51 38 36 27 33 42 42 1204 52 172 55 391 113 36 54 44 40 40 20 59 33 23 39 54 34 25 62 32 29 101 847 359 20 20 67 596 24 44 69 32 28 23 28
internal_value=-0.00113741 -0.0214199 -0.00549632 -0.0405053 0.0178634 -0.0145443 -0.0177245 -0.0324276 -0.014981 9.03793e-05 -0.0299254 -0.00256333 -0.0178647 0.00698313 -0.000139833 -0.0224243 -0.0313094 -0.0078879 0.005249 0.00312946 0.0203938 -0.0389187 -0.0130524 0.0159306 0.00478997 0.0206669 -0.0466374 0.0338596 0.036419 -0.0158298 -0.042203 -0.0382455 0.0244691 -0.0384488 0.0182473 -0.0213649 0.028028 0.00814099 -0.0125724 -0.00234922 0.00852563 0.0338186 0.0249409 0.0190599 -0.00639677 0.000103664 -0.0288698 -0.0223533 -0.0452012 -0.0136497 -0.0409553 -0.0430952 -0.0289188 -0.0244927 -0.0257217 -0.0145961 -0.0275722 -0.0173662 0.0330624 0.0130828 -0.0120236 0.0343767
internal_weight=10268 7352 4008 3344 1119 2889 2283 359 1924 309 1227 606 1615 666 408 669 285 493 146 369 89 558 166 162 101 113 2117 453 412 384 913 522 59 208 258 242 240 41 965 92 50 71 200 116 142 87 86 116 122 873 522 399 40 202 650 54 157 147 84 82 77 61
internal_count=10268 7352 4008 3344 1119 2889 2283 359 1924 309 1227 606 1615 666 408 669 285 493 146 369 89 558 166 162 101 113 2117 453 412 384 913 522 59 208 258 242 240 41 965 92 50 71 200 116 142 87 86 116 122 873 522 399 40 202 650 54 157 147 84 82 77 61
is_linear=0
shrinkage=0.05


Tree=9
num_leaves=63
num_cat=0
split_feature=58 77 43 15 50 68 18 59 47 49 47 49 57 15 60 18 47 49 50 47 47 18 47 49 15 50 47 15 59 4 0 87 25 47 49 4 50 20 121 23 11 11 50 108 18 57 23 59 95 100 59 4 20 113 47 47 78 0 20 4 22 49
split_gain=4204.37 884.185 321.345 187.098 77.1929 41.4752 38.8645 48.0158 31.1565 57.848 27.7476 27.7621 24.2569 22.9809 19.7621 16.2567 13.8891 22.2733 13.417 25.9007 12.4334 14.9091 12.0585 11.0692 8.00915 7.91059 7.03449 10.219 7.55337 6.04648 5.90096 5.57869 5.52372 5.33081 5.13896 4.579 5.38189 4.55553 4.29172 3.97532 3.82648 3.746 3.21119 3.11793 3.0243 4.02318 2.85474 2.73055 2.68646 2.51718 2.5085 2.41301 2.40176 2.32694 2.22102 2.16743 2.07333 1.96125 1.95163 1.88388 1.74801 2.08557
threshold=1.0000000180025095e-35 4.0006504665102094 1.0000000180025095e-35 4.274411868084278 1350.0000000000002 1.5000000000000002 1.8095466653133714 1.0000000180025095e-35 13.250000000000002 397.50000000000006 13.350000000000003 397.50000000000006 1.0000000180025095e-35 3.8819834440474801 1.0000000180025095e-35 1.8292918577035315 13.250000000000002 397.50000000000006 1350.0000000000002 13.050000000000002 13.050000000000002 1.774501631012894 13.250000000000002 397.50000000000006 4.438399933516334 1350.0000000000002 13.250000000000002 3.4662584691513123 1.0000000180025095e-35 6.0552416549081132 7.3174055250858601 5.4031205211758193 0.0024500000000000004 13.250000000000002 224.80000000000004 1.2924812503605783 1350.0000000000002 6.696416582362489 12.848057411429137 0.0035000000000000005 5.9940970338054251 5.632962873882156 1350.0000000000002 1.0026600506582477 1.774501631012894 1.0000000180025095e-35 0.0025000000000000005 1.0000000180025095e-35 1.3890808544631545 8.7048516097982063 1.0000000180025095e-35 6.8137669422363967 6.0602900572549077 12.585352603027044 12.950000000000001 13.050000000000002 5.215671017916816 9.9943506635066601 6.048552817139119 6.7481772442823091 1.2005000000000001 397.50000000000006
decision_type=2 2 2 2 2 2 2 2 2 2 2 2 2 2 2 2 2 2 2 2 2 2 2 2 2 2 2 2 2 2 2 2 2 2 2 2 2 2 2 2 2 2 2 2 2 2 2 2 2 2 2 2 2 2 2 2 2 2 2 2 2 2
left_child=1 2 4 13 14 6 7 22 12 31 18 -12 35 23 15 -1 51 -18 -7 54 29 -22 42 26 -5 44 34 -28 -29 30 -6 32 -10 59 56 36 -8 40 46 -14 53 -24 -4 -34 50 -46 -36 -11 -42 -50 -15 -17 -35 -32 -20 -27 -3 -13 -31 -16 -37 -62
right_child=-2 3 5 24 20 10 8 -9 9 47 11 57 39 25 33 16 17 -19 19 -21 21 -23 41 -25 -26 55 27 28 -30 58 37 -33 43 52 38 60 -38 -39 -40 -41 48 -43 -44 -45 45 -47 -48 -49 49 -51 -52 -53 -54 -55 -56 -57 -58 -59 -60 -61 61 -63
leaf_value=-0.030753721497379816 0.050000000000000003 -0.035463064491748811 -0.026041755936611663 -0.041359419230173333 0.0030118487200097126 -0.012763812269489428 -0.012268561668073137 -0.049066840193277811 0.033581447172345534 -0.024532168443230067 0.043349097619454068 -0.013800500107534003 -0.0048907016515731816 -0.034846495091915133 0.012332833870326189 -0.0040615345916227893 0.042451637923717506 -0.0083323192439581223 -0.016547385383336274 0.032391655092889611 0.0024213598656933756 0.048046040595972055 0.020766214189912986 -0.02535616913996637 -0.049724207243543733 -0.030690312245043747 0.025050196484211952 0.0025257257913100595 -0.031490613147616385 0.026321082207418623 0.027723299000750892 0.039009903185069562 -0.0043276079412963662 0.022318645842049435 0.0028052532084984708 -0.013469047127914569 0.016406046363214653 0.0054050349751892301 0.0087688940173635873 -0.025223772571086885 0.047977619161528928 -0.0066932980295108723 -0.0068297330033162545 0.020440933752494554 -0.026957099841441963 -0.039081483506239384 -0.019101187484017734 -0.012145843508963784 0.041219356008197955 0.01851159119978547 -0.050000000000000003 0.0096449038278110123 0.04570632875852642 0.0067302252335304574 6.9175039728482576e-05 -0.019464176853320428 -0.018890519073994999 0.0060422664135694505 0.044539490826808074 0.025165806793280784 0.0024580649492379866 -0.016886336796663026
leaf_weight=39 2916 25 87 338 34 347 36 193 33 88 60 33 25 72 180 243 50 38 61 55 20 171 27 175 1866 57 31 47 25 21 33 48 27 23 20 839 30 23 30 625 31 23 29 24 200 104 58 90 23 26 44 37 21 22 30 175 77 20 49 34 38 22
leaf_count=39 2916 25 87 338 34 347 36 193 33 88 60 33 25 72 180 243 50 38 61 55 20 171 27 175 1866 57 31 47 25 21 33 48 27 23 20 839 30 23 30 625 31 23 29 24 200 104 58 90 23 26 44 37 21 22 30 175 77 20 49 34 38 22
internal_value=-0.000802647 -0.0209523 -0.00511405 -0.0399355 0.0176484 -0.0139198 -0.0170051 -0.0321082 -0.0141885 0.000330462 -0.00229116 0.0200564 -0.0169754 -0.0234909 0.00680478 -5.78202e-05 0.00319528 0.0205222 -0.00741342 0.00530292 0.0335669 0.0432686 -0.0123913 -0.0152852 -0.0484414 -0.0296325 -0.00965445 0.00104854 -0.0092855 0.0264942 0.0219078 0.0254121 0.017642 0.0176307 -0.014904 -0.0119462 0.000765351 0.0259741 -0.00730275 -0.0244417 0.0294784 0.00813484 -0.0212388 0.00732818 -0.0337258 -0.0311049 -0.0134842 -0.0182694 0.0364582 0.0291703 -0.0405944 -0.00225033 0.0334809 0.0193261 -0.0110694 -0.0222223 -0.0229524 -0.00631266 0.039074 0.0143717 -0.0128794 -0.00463488
internal_weight=10268 7352 4008 3344 1118 2890 2284 359 1925 310 606 113 1615 1140 665 407 368 88 493 146 453 191 166 488 2204 652 313 103 72 262 192 132 84 258 210 965 66 158 108 650 135 50 116 51 420 304 78 178 80 49 116 280 44 55 91 232 102 53 70 214 899 60
internal_count=10268 7352 4008 3344 1118 2890 2284 359 1925 310 606 113 1615 1140 665 407 368 88 493 146 453 191 166 488 2204 652 313 103 72 262 192 132 84 258 210 965 66 158 108 650 135 50 116 51 420 304 78 178 80 49 116 280 44 55 91 232 102 53 70 214 899 60
is_linear=0
shrinkage=0.05


Tree=10
num_leaves=63
num_cat=0
split_feature=58 77 88 15 50 68 96 59 57 15 72 25 49 25 49 4 50 96 49 8 49 15 96 49 94 49 50 115 72 86 59 108 113 49 49 25 27 98 96 105 30 49 23 78 57 49 100 100 59 115 13 14 3 6 106 15 25 59 26 23 10 84
split_gain=4150.41 874.114 306.226 196.437 76.5023 39.1915 28.6926 42.484 21.4767 21.1076 18.2146 17.1149 14.5109 13.3154 16.6905 12.9263 12.592 11.7661 12.9936 11.7388 12.9233 10.7883 10.3834 9.93138 9.35411 8.45201 7.47417 6.90174 6.71958 10.4048 11.762 6.17067 5.36708 5.3073 5.24407 4.94836 4.25826 4.05297 4.21948 4.03667 3.79986 3.44519 3.32678 3.20035 3.62484 3.19662 3.15802 5.33459 6.29125 3.12119 3.07517 3.02927 3.61297 2.98292 2.96152 2.91978 2.91596 2.90274 2.78294 2.68133 2.64977 2.41619
threshold=1.0000000180025095e-35 4.0006504665102094 0.13150000000000003 4.274411868084278 1350.0000000000002 1.5000000000000002 10.609952493784132 1.0000000180025095e-35 1.0000000180025095e-35 3.8819834440474801 1.0000000180025095e-35 0.0033750000000000004 397.50000000000006 0.0021000000000000007 397.50000000000006 1.7924812503605783 1350.0000000000002 11.660032810323422 397.50000000000006 1.5000000000000002 397.50000000000006 4.438399933516334 12.016989835785695 397.50000000000006 7.2609690959908315 397.50000000000006 1350.0000000000002 27.530632724311168 6.1395150682248252 3.708590845150344 1.0000000180025095e-35 1.1863136299221635 4.1636732033280017 224.80000000000004 397.50000000000006 0.0033750000000000004 2.2005000000000003 3.1228043974598307 13.763734987769675 16.013887889200344 203.50000000000003 397.50000000000006 0.0092500000000000013 7.1415358561218314 1.0000000180025095e-35 397.50000000000006 8.2700070908908874 14.499178031429091 1.0000000180025095e-35 52.930335908085453 3.1758015362095651 4.0843749392276107 6.1598360604734976 9.8177829003681207 16.999147716757992 4.7415730774942082 0.015500000000000002 1.0000000180025095e-35 0.69950000000000012 0.019500000000000003 2.5769165750215097 15.059860467811625
decision_type=2 2 2 2 2 2 2 2 2 2 2 2 2 2 2 2 2 2 2 2 2 2 2 2 2 2 2 2 2 2 2 2 2 2 2 2 2 2 2 2 2 2 2 2 2 2 2 2 2 2 2 2 2 2 2 2 2 2 2 2 2 2
left_child=1 2 4 9 10 6 7 25 19 23 17 13 27 14 33 16 45 -1 42 20 24 -5 -6 28 31 51 43 -13 29 30 -3 -8 -21 36 59 -17 -7 38 -34 46 -31 50 -19 57 -45 -10 -24 48 61 56 -39 -4 -53 -42 -29 -49 -44 -11 -30 -12 -37 -48
right_child=-2 3 5 21 22 11 8 -9 15 26 34 12 -14 -15 -16 35 -18 18 -20 32 -22 -23 39 -25 -26 -27 -28 54 58 40 -32 -33 37 -35 -36 60 -38 41 -40 -41 53 -43 49 44 -46 -47 47 55 -50 -51 -52 52 -54 -55 -56 -57 -58 -59 -60 -61 -62 -63
leaf_value=-0.030039899935945871 0.049998513274967918 -0.0033315812156576178 -0.0096352903858611463 -0.039868066526023593 0.0063035286118092978 -0.003510119499904769 -0.012331394281457454 -0.048623245404024795 -0.0064857066657982368 -0.033417133462261148 0.014545996713917703 0.0079097306267136621 -0.014060928928000586 -0.011985583088349508 -0.015623479828519641 -0.02410474705869349 0.018208264096234088 0.027965823182811229 -0.0064409105984312336 0.0083985647070221603 -0.017619673667165141 -0.049576258073218513 0.039978819285272298 -0.024197029857231038 0.03260834428831004 -0.025860148280858992 -0.021204939473607048 0.043682670082364768 0.0052979856150270239 -0.013512918872983901 -0.048414292530371598 0.022140765828745707 -0.031431356697313249 0.034342292696237564 0.009488602234955016 0.0033013403988801518 0.026274732318485067 0.018359198868274692 -0.012668614894948036 0.046030631097587378 0.013005618191664327 -0.018741684816777706 0.0035673626817953894 -0.025878086749934498 -0.037384764832055682 -0.026994436783225911 0.035357418966790038 0.044913258004401414 0.0058284018384782898 -0.00073963159408706885 -0.0057672737033239441 0.025105219092220066 -0.0049487566156312824 -0.010600969833119409 0.020586303459561389 0.02812751759774983 0.020963725460959332 -0.050000000000000003 -0.014382948669726434 0.029075843059115283 -0.019996803091919941 0.016714285966008904
leaf_weight=30 2916 23 38 338 33 28 34 157 38 71 50 42 35 332 53 658 39 28 196 32 48 1866 114 175 40 50 232 35 82 91 39 21 31 37 121 26 21 25 897 74 32 20 39 204 103 38 63 63 38 52 28 20 20 23 23 44 63 42 23 87 23 24
leaf_count=30 2916 23 38 338 33 28 34 157 38 71 50 42 35 332 53 658 39 28 196 32 48 1866 114 175 40 50 232 35 82 91 39 21 31 37 121 26 21 25 897 74 32 20 39 204 103 38 63 63 38 52 28 20 20 23 23 44 63 42 23 87 23 24
internal_value=-0.000477115 -0.0204971 -0.00474928 -0.0393719 0.0174575 -0.0133507 -0.016351 -0.0311925 -0.014234 -0.0225218 0.00667542 -0.00204728 0.0136478 -0.00654588 0.00644681 -0.0204345 -0.00488803 0.000100021 0.00249208 -0.00990002 0.00352642 -0.0480874 0.0333094 -0.0146577 0.0142108 -0.00981265 -0.0284079 0.0233459 -0.0093242 -0.0145293 -0.0316901 0.000830703 -0.0117587 0.0200483 0.0170737 -0.0229632 0.00925482 -0.0124031 -0.0132954 0.0354313 -0.00724191 -0.00105942 0.0121122 -0.0323866 -0.0297386 -0.0167401 0.0331644 0.0298159 0.0228011 0.00922975 0.00561314 0.000474208 0.0100782 0.00313377 0.0345238 0.0380107 0.0143122 -0.0395807 0.000986924 0.023773 -0.00763452 0.0302145
internal_weight=10268 7352 4008 3344 1119 2889 2283 285 1998 1140 666 606 135 471 139 822 115 408 378 1176 143 2204 453 488 95 128 652 100 313 208 62 55 1033 86 258 707 49 1001 928 420 146 73 182 420 307 76 346 232 125 154 53 78 40 55 58 107 102 113 105 137 49 87
internal_count=10268 7352 4008 3344 1119 2889 2283 285 1998 1140 666 606 135 471 139 822 115 408 378 1176 143 2204 453 488 95 128 652 100 313 208 62 55 1033 86 258 707 49 1001 928 420 146 73 182 420 307 76 346 232 125 154 53 78 40 55 58 107 102 113 105 137 49 87
is_linear=0
shrinkage=0.05


Tree=11
num_leaves=63
num_cat=0
split_feature=71 77 88 15 50 68 18 59 47 49 47 49 57 15 72 18 47 49 47 18 15 50 47 47 49 49 18 59 47 4 0 47 87 25 16 18 59 11 4 50 57 15 23 113 100 49 47 100 47 50 59 4 111 3 47 16 72 4 113 15 47 0
split_gain=4096.04 862.195 290.294 204.407 75.4847 36.9331 42.7512 51.1009 27.6025 51.0904 24.7531 24.2972 19.9262 19.6323 16.8839 16.0501 13.9511 21.1402 13.7991 14.8897 12.9761 11.8105 23.1293 10.4362 8.7258 7.0892 6.51328 20.2162 7.86939 6.21221 5.77719 5.69516 5.11632 5.08189 4.89407 4.44698 7.14028 3.98252 3.95041 4.82053 3.94834 3.29773 3.29252 3.23452 3.23061 2.95305 4.13278 3.34899 2.91738 2.66364 2.26451 2.26285 2.11384 3.16031 2.02704 1.9069 2.87239 1.85369 1.77618 1.76013 1.75359 1.61501
threshold=1.0000000180025095e-35 4.0006504665102094 0.13150000000000003 4.2812947567818638 1350.0000000000002 1.5000000000000002 1.8095466653133714 1.0000000180025095e-35 13.250000000000002 397.50000000000006 13.350000000000003 397.50000000000006 1.0000000180025095e-35 3.8819834440474801 1.0000000180025095e-35 1.8292918577035315 13.250000000000002 397.50000000000006 13.050000000000002 1.774501631012894 4.4775842080881469 1350.0000000000002 13.050000000000002 13.250000000000002 397.50000000000006 397.50000000000006 1.9003585391411926 1.0000000180025095e-35 13.250000000000002 6.0552416549081132 7.3174055250858601 13.250000000000002 5.4031205211758193 0.0024500000000000004 2.002160686891322 1.774501631012894 1.0000000180025095e-35 6.1156103841674794 1.2924812503605783 1350.0000000000002 1.0000000180025095e-35 3.5390132215408916 0.0035000000000000005 11.994979642570987 4.3238785593838109 224.80000000000004 12.950000000000001 9.1396554877312095 13.250000000000002 1350.0000000000002 1.0000000180025095e-35 6.8137669422363967 1.8911380000000002 8.7330143256254527 12.950000000000001 3.4150568500833454 5.4756423574834869 6.7481772442823091 10.757533054985682 4.5418724109762456 13.250000000000002 6.7210829861146619
decision_type=2 2 2 2 2 2 2 2 2 2 2 2 2 2 2 2 2 2 2 2 2 2 2 2 2 2 2 2 2 2 2 2 2 2 2 2 2 2 2 2 2 2 2 2 2 2 2 2 2 2 2 2 2 2 2 2 2 2 2 2 2 2
left_child=1 2 4 13 14 6 7 23 12 32 21 -12 38 24 15 -1 51 61 29 -20 -5 -7 54 49 26 35 27 48 45 30 -6 57 33 -10 -35 36 60 43 39 -8 -37 -30 -14 -32 -25 -28 -47 -48 -3 -4 -11 -17 -39 -54 -23 56 -31 -16 -13 -45 -15 -18
right_child=-2 3 5 20 18 10 8 -9 9 50 11 58 42 25 31 16 17 -19 19 -21 -22 22 -24 44 -26 -27 28 -29 41 55 37 -33 -34 34 -36 40 -38 52 -40 -41 -42 -43 -44 59 -46 46 47 -49 -50 -51 -52 -53 53 -55 -56 -57 -58 -59 -60 -61 -62 -63
leaf_value=-0.030335342015426321 0.049980475360065169 -0.0099387794484694803 -0.023803443376017714 -0.039691073037224051 0.0021591942729976251 -0.011671373291848287 -0.01133352021376292 -0.049033657615820986 0.032361758319717465 -0.022196994120763106 0.041084459287424886 -0.012500726770270955 -0.0043372769951820376 -0.030809723189019641 0.011119797709414141 -0.0038423088879358993 0.030594384595751763 -0.0075936575469217798 0.0023559231916442515 0.047950786352157597 -0.049604353537412584 -0.01542561321717794 0.030877813425931062 -0.0058730995201546213 -0.023090880018259801 -0.035032021153520269 -0.017810294233056762 -0.045492871486863429 0.025839574440665869 0.017917565051466227 0.029245678206595283 0.032893765489147471 0.037640825969477494 -0.010566093975847419 0.020947634734745538 -0.017008993451626184 -0.050000000000000003 0.042247142891089128 -0.011671765789111716 0.015804449220498406 -0.028558453655726204 0.0018519594591405047 -0.022841928351521493 0.017300373626252016 0.019627568113652093 -0.018838083148002626 -0.0091031607883051043 0.01586892637263598 0.013449445584168038 -0.0063058533159823255 -0.010917104054242373 0.0094308215671697199 0.010547238874714822 0.036206493861973291 0.00044875741004943851 0.048991308647852679 0.043574077542871237 0.023849555937682884 0.006382621079683304 -0.0025209678026537102 -0.016678743268407525 0.048818531968901235
leaf_weight=39 2916 30 87 405 34 347 36 193 33 88 60 33 25 46 180 243 20 38 20 171 1785 61 55 23 175 207 71 43 23 20 30 44 48 22 28 222 38 33 899 30 111 38 625 24 27 30 25 29 24 29 90 37 20 30 30 26 24 34 20 21 42 31
leaf_count=39 2916 30 87 405 34 347 36 193 33 88 60 33 25 46 180 243 20 38 20 171 1785 61 55 23 175 207 71 43 23 20 30 44 48 22 28 222 38 33 899 30 111 38 625 24 27 30 25 29 24 29 90 37 20 30 30 26 24 34 20 21 42 31
internal_value=-0.000163431 -0.0200518 -0.00441175 -0.0387975 0.0172097 -0.0127864 -0.015699 -0.0315387 -0.0127435 0.000947905 -0.00181352 0.0192938 -0.0153631 -0.0217679 0.00649949 0.000168834 0.00339285 0.0206371 0.0329557 0.0431765 -0.0477711 -0.00665149 0.00527932 -0.0111982 -0.0141493 -0.0273504 -0.00914996 -0.0199131 -0.00431652 0.0255048 0.020856 0.0165108 0.0246472 0.0171327 0.00708159 -0.0238861 -0.0318869 0.0248793 -0.010805 0.00100192 -0.0208588 0.0108965 -0.0221302 0.0165285 0.00789726 -0.0103036 -0.0039586 0.00430777 0.000455987 -0.019429 -0.0164937 -0.00208836 0.0324252 0.0259428 -0.0101923 0.0382558 0.031912 0.0131423 -0.00537494 0.00805041 -0.0240654 0.0416718
internal_weight=10268 7352 4008 3344 1119 2889 2283 359 1924 309 606 113 1615 1154 666 408 369 89 453 191 2190 493 146 166 488 666 313 97 216 262 192 258 131 83 50 459 126 158 965 66 333 61 650 75 50 155 84 54 54 116 178 280 83 50 91 70 44 214 53 45 88 51
internal_count=10268 7352 4008 3344 1119 2889 2283 359 1924 309 606 113 1615 1154 666 408 369 89 453 191 2190 493 146 166 488 666 313 97 216 262 192 258 131 83 50 459 126 158 965 66 333 61 650 75 50 155 84 54 54 116 178 280 83 50 91 70 44 214 53 45 88 51
is_linear=0
shrinkage=0.05


Tree=12
num_leaves=63
num_cat=0
split_feature=58 77 88 15 50 68 18 59 47 49 47 49 15 57 49 47 18 47 18 50 47 15 47 72 18 59 60 50 4 0 59 4 87 25 20 16 47 11 18 59 57 60 18 4 50 11 95 15 23 47 81 100 47 89 50 50 50 120 47 49 47 70
split_gain=4036 848.709 277.061 211.673 74.8178 34.7455 44.4993 52.5659 25.43 47.1525 22.6946 22.3787 22.3191 17.9634 15.8917 20.7267 24.173 14.3151 14.8554 10.9619 21.4711 10.9022 9.43488 7.79401 10.7637 12.8548 7.35847 7.1028 6.27137 5.57221 5.42001 5.13275 4.83714 4.74027 4.57649 4.50965 4.16234 4.10435 4.05437 4.56572 4.12718 3.81195 3.65506 3.63197 4.45599 3.11426 3.04364 3.04344 2.96091 2.90808 5.65638 2.70597 2.60084 2.54422 2.94693 2.40079 2.3979 2.34035 2.28339 2.25162 2.06169 2.05856
threshold=1.0000000180025095e-35 4.0006504665102094 0.13150000000000003 4.3334270294979467 1350.0000000000002 1.5000000000000002 1.8095466653133714 1.0000000180025095e-35 13.250000000000002 397.50000000000006 13.350000000000003 397.50000000000006 3.909394702236054 1.0000000180025095e-35 397.50000000000006 13.15 1.9566419508802095 13.050000000000002 1.774501631012894 1350.0000000000002 13.050000000000002 4.5021265572629519 13.250000000000002 6.0111839065142281 1.8095466653133714 1.0000000180025095e-35 1.0000000180025095e-35 1350.0000000000002 6.0552416549081132 7.3174055250858601 1.0000000180025095e-35 6.8137669422363967 5.4031205211758193 0.0024500000000000004 6.696416582362489 2.002160686891322 13.250000000000002 5.9940970338054251 1.774501631012894 1.0000000180025095e-35 1.0000000180025095e-35 1.0000000180025095e-35 1.9566419508802095 1.2924812503605783 1350.0000000000002 5.632962873882156 1.3890808544631545 3.7274178584352713 0.0035000000000000005 13.250000000000002 40.883115057200165 8.7048516097982063 12.950000000000001 13.627533884472793 1350.0000000000002 1350.0000000000002 1350.0000000000002 4.8416725000000014 13.050000000000002 397.50000000000006 13.250000000000002 4.1023135255253607
decision_type=2 2 2 2 2 2 2 2 2 2 2 2 2 2 2 2 2 2 2 2 2 2 2 2 2 2 2 2 2 2 2 2 2 2 2 2 2 2 2 2 2 2 2 2 2 2 2 2 2 2 2 2 2 2 2 2 2 2 2 2 2 2
left_child=1 2 4 12 14 6 7 22 13 32 19 -12 23 43 15 31 -17 28 -19 -7 -21 -5 55 24 25 59 42 38 29 -6 60 41 33 -10 37 -35 56 57 39 -14 61 -1 -16 44 -8 -24 -39 -38 -15 50 -18 -48 -28 -32 -55 -4 -25 -31 -29 -3 -26 -40
right_child=-2 3 5 21 17 10 8 -9 9 -11 11 -13 27 48 26 16 49 18 -20 20 -22 -23 45 36 30 -27 52 58 -30 34 53 -33 -34 35 -36 -37 47 46 40 -41 -42 -43 -44 -45 -46 -47 51 -49 -50 -51 -52 -53 -54 54 -56 -57 -58 -59 -60 -61 -62 -63
leaf_value=-0.0066150672833925938 0.049902443631727189 -0.0018213066780431706 -0.022613271107447559 -0.04008050416442719 0.002079812207204454 -0.011104622154204062 -0.010814067235009538 -0.049008251577036678 0.031222246045416055 -0.01570303317347772 0.039487290630737942 -0.0051001670928496239 -0.03082827442139387 -0.0041551109552383425 -0.027478748071007433 -0.01232188573299811 0.009141167001798749 0.0023382537544239311 0.047880682850267454 -0.009680962969886733 0.029889493584632876 -0.049601558925308015 0.019039166077143618 -0.01586212854779942 -0.023098094824056788 -0.050000000000000003 0.016793968395247178 -0.029256920063043718 0.037924363426864151 0.025497019510058797 -0.016803950545462697 0.02402139324694872 0.036454711668193342 -0.01013384447856383 0.0037769476478190529 0.020116914050387485 0.017548747784618676 0.04739574229404811 -0.020951123345317638 -0.050000000000000003 -0.035989855534507557 0.0085353967922468053 -0.0049957064103627428 -0.011106353662140177 0.015277634337544442 -0.0059980956108673759 0.039869878019975581 -0.0071131842253221713 -0.021703174572177231 0.044676619153973224 0.046745627224445342 0.016325951656863954 0.0019860785540979546 -0.0072472910795892999 0.012172705456614495 -0.0060014332548297689 -0.00055519574569188994 0.0042673600748890919 -0.018166094384223379 -0.023966497462242844 -0.0093553477810142012 -0.030714252617429286
leaf_weight=93 2916 22 87 364 34 347 36 193 33 178 60 53 75 25 20 29 20 20 171 91 55 1728 27 71 104 50 52 61 70 34 33 26 48 22 23 28 29 31 148 53 118 75 188 899 30 23 23 22 625 74 20 26 69 56 30 29 40 21 194 24 37 85
leaf_count=93 2916 22 87 364 34 347 36 193 33 178 60 53 75 25 20 29 20 20 171 91 55 1728 27 71 104 50 52 61 70 34 33 26 48 22 23 28 29 31 148 53 118 75 188 899 30 23 23 22 625 74 20 26 69 56 30 29 40 21 194 24 37 85
internal_value=0.000127402 -0.0196147 -0.00409742 -0.0382132 0.0170254 -0.012279 -0.015104 -0.0312643 -0.0120887 0.00105291 -0.00163601 0.0185746 -0.0219522 -0.0146031 0.00636267 0.013994 0.0284369 0.0327018 0.0431118 -0.00626846 0.00522572 -0.0479449 -0.0106343 -0.0140054 -0.0181427 -0.0324507 -0.00145423 -0.0275603 0.0251128 0.0204419 -0.0128598 0.00334799 0.0238205 0.016514 0.0243932 0.00680658 -0.00491355 0.0279057 -0.0311491 -0.0387666 -0.0283712 0.000148533 -0.00715754 -0.0102752 0.0010458 0.00752203 0.0351344 0.00691027 -0.0210282 0.0388053 0.0279434 0.0273772 0.0083498 -0.00500166 -0.000472874 -0.0184603 -0.0103461 0.0173911 -0.0208192 -0.0133753 -0.0194918 -0.0245128
internal_weight=10268 7352 4008 3344 1119 2889 2283 359 1924 309 606 113 1252 1615 666 337 143 453 191 493 146 2092 166 518 356 96 329 734 262 192 260 194 131 83 158 50 162 135 479 128 351 168 208 965 66 50 80 51 650 114 40 49 121 119 86 116 111 55 255 46 141 233
internal_count=10268 7352 4008 3344 1119 2889 2283 359 1924 309 606 113 1252 1615 666 337 143 453 191 493 146 2092 166 518 356 96 329 734 262 192 260 194 131 83 158 50 162 135 479 128 351 168 208 965 66 50 80 51 650 114 40 49 121 119 86 116 111 55 255 46 141 233
is_linear=0
shrinkage=0.05


Tree=13
num_leaves=63
num_cat=0
split_feature=58 77 88 15 50 60 18 57 47 54 57 15 50 47 18 47 47 18 15 54 4 50 47 54 60 54 86 59 47 22 50 4 61 13 50 4 18 59 47 20 11 103 25 18 60 57 15 95 35 47 89 50 47 47 100 93 47 50 104 11 20 119
split_gain=3961.8 835.136 267.116 217.163 73.5728 25.1985 49.1795 50.3695 29.9506 37.6839 24.5361 20.2948 15.5776 20.638 23.9335 14.9126 14.8257 14.8186 14.411 12.4621 9.3741 11.0184 7.96835 7.25247 6.74288 6.67636 6.61693 19.7352 6.98949 6.41092 8.30643 6.19882 5.402 5.0604 7.37147 4.87992 4.67322 9.23564 4.54406 4.44929 4.15792 3.75943 3.57023 3.51345 3.45799 3.38963 3.32028 3.14007 3.05388 2.99039 2.96684 2.80276 3.66092 2.76378 2.71634 2.70808 2.45539 2.44061 2.22719 2.19994 2.14054 2.08727
threshold=1.0000000180025095e-35 4.0661526600410092 0.13150000000000003 4.3334270294979467 1350.0000000000002 1.0000000180025095e-35 1.8095466653133714 1.0000000180025095e-35 13.250000000000002 368.00000000000006 1.0000000180025095e-35 3.909394702236054 703.50000000000011 13.15 1.9566419508802095 13.350000000000003 13.050000000000002 1.774501631012894 4.5418724109762456 368.00000000000006 1.7924812503605783 1350.0000000000002 13.250000000000002 368.00000000000006 1.0000000180025095e-35 368.00000000000006 3.8007170782823851 1.0000000180025095e-35 13.250000000000002 1.2005000000000001 1350.0000000000002 6.0552416549081132 0.010742187500000002 2.002160686891322 1350.0000000000002 6.8137669422363967 1.774501631012894 1.0000000180025095e-35 13.250000000000002 6.696416582362489 5.9940970338054251 8.0526842739446689 0.0033750000000000004 1.9566419508802095 1.0000000180025095e-35 1.0000000180025095e-35 3.5390132215408916 1.3890808544631545 11.500000000000002 13.15 13.523071826940397 1350.0000000000002 13.050000000000002 13.15 8.7048516097982063 7.6005000000000011 12.850000000000003 1350.0000000000002 3.8539090016635345 4.9799974191642091 6.048552817139119 3.1692320131369036
decision_type=2 2 2 2 2 2 2 2 2 2 2 2 2 2 2 2 2 2 2 2 2 2 2 2 2 2 2 2 2 2 2 2 2 2 2 2 2 2 2 2 2 2 2 2 2 2 2 2 2 2 2 2 2 2 2 2 2 2 2 2 2 2
left_child=1 2 4 11 12 6 7 -4 33 50 15 23 13 35 -15 29 31 -18 -5 -17 21 38 57 26 43 36 27 49 51 41 -31 32 -6 34 -7 44 37 -13 -12 40 58 59 -22 -14 -1 -38 -30 -42 -16 -3 -10 -28 -53 -44 -49 -24 -26 -9 -34 -8 -33 -54
right_child=-2 3 5 18 16 8 10 22 9 -11 20 25 24 14 48 19 17 -19 -20 -21 42 -23 55 -25 56 -27 28 -29 46 30 -32 60 39 -35 -36 -37 45 -39 -40 -41 47 -43 53 -45 -46 -47 -48 54 -50 -51 -52 52 61 -55 -56 -57 -58 -59 -60 -61 -62 -63
leaf_value=-0.0062985399077015551 0.049694838858272153 -0.016127521665766836 -0.048988101697681696 -0.039620800626225181 0.002003348496852114 -0.012256405440469582 -0.018239854442768953 -0.022735146733073447 0.024258925199508667 -0.0090381765789395076 -0.02609658070972988 -0.022048290366720822 -0.026791779282502832 -0.012258151828728874 0.043395178169012075 0.039667456783354288 0.0023207168560475111 0.047806730831575675 -0.049704212251959784 -0.0038059063036652175 -0.020879507713543716 0.018483501613243587 -0.0073373452574014668 -0.021490414323838983 0.020662633278246585 -0.033627424986483238 -0.016974383437385162 -0.045966263452456115 0.024457943537677437 -0.0072176737586657205 0.022422921547713956 0.024108018885765758 0.025068951155425925 -0.01134110183219488 0.022623566910624504 0.023420858440490869 -0.01689026289729641 -0.050000000000000003 -0.0015079321339726448 0.0036455753664283649 0.04716640808168919 0.007892669136485746 -0.017498546193998595 -0.0047485783835191859 0.008131388012319803 -0.027262823319492431 0.0010154035466257484 0.03934983611106873 0.024604604463895847 0.0079860679960499208 0.041161455351997306 -0.013044641859829426 -0.0041721080528805037 0.0068893350306011378 0.015760822504615555 0.016937299955774237 0.0039774916813336827 -0.0052645033156430284 0.0045307815328917726 -0.0089331948494355811 0.043187782381262099 0.018671194259077314
leaf_weight=93 2916 20 194 452 34 33 71 77 50 109 42 90 20 29 85 32 20 171 1640 34 640 36 20 185 29 227 78 42 23 60 39 21 33 618 28 26 241 44 34 23 31 31 26 188 75 117 44 23 29 36 54 50 20 21 26 27 92 27 22 601 49 20
leaf_count=93 2916 20 194 452 34 33 71 77 50 109 42 90 20 29 85 32 20 171 1640 34 640 36 20 185 29 227 78 42 23 60 39 21 33 618 28 26 241 44 34 23 31 31 26 188 75 117 44 23 29 36 54 50 20 21 26 27 92 27 22 601 49 20
internal_value=0.000379437 -0.0191804 -0.00385088 -0.0377056 0.0169044 -0.0118485 -0.0149497 -0.032133 -0.00485347 0.0115047 -0.0113935 -0.0210982 0.0063307 0.0138863 0.0282982 -0.00557352 0.0324497 0.0430438 -0.0475256 0.0172721 -0.017716 -0.00430286 -0.0104781 -0.0135529 -0.00140858 -0.0265342 -0.00914317 -0.0200575 -0.00459167 -0.00745358 0.00445892 0.0247266 0.0200828 -0.00998498 0.00375407 0.00326305 -0.0232615 -0.0312265 -0.0150964 0.0239733 0.0274366 -0.00913116 -0.0199027 -0.00686812 0.000143392 -0.0202802 0.00906284 0.0347123 0.0386151 -0.000625928 0.0330352 -0.0100372 -0.004025 -0.00660183 0.0268332 0.00660766 0.00797641 -0.0181995 0.0168537 -0.00991649 0.0374639 0.00724954
internal_weight=10268 7352 4023 3329 1119 2904 2012 345 892 213 1667 1237 666 337 143 868 453 191 2092 66 799 112 151 518 329 719 333 98 235 802 99 262 192 679 61 194 492 134 76 158 135 703 687 208 168 358 67 80 114 56 104 168 90 47 49 47 121 104 55 672 70 40
internal_count=10268 7352 4023 3329 1119 2904 2012 345 892 213 1667 1237 666 337 143 868 453 191 2092 66 799 112 151 518 329 719 333 98 235 802 99 262 192 679 61 194 492 134 76 158 135 703 687 208 168 358 67 80 114 56 104 168 90 47 49 47 121 104 55 672 70 40
is_linear=0
shrinkage=0.05


Tree=14
num_leaves=63
num_cat=0
split_feature=58 77 88 15 50 68 18 57 15 107 50 50 15 57 25 18 68 57 18 54 25 54 18 50 54 107 115 50 54 87 18 23 70 50 6 86 28 96 9 54 57 27 22 97 39 27 104 4 41 18 70 102 11 25 84 113 118 57 0 5 86 57
split_gain=3855.54 819.823 256.4 224.032 72.4503 31.2458 47.8934 45.2291 21.8211 20.4866 23.1019 15.1892 13.8825 13.495 12.9315 12.8251 14.8116 15.2343 11.2174 10.9468 10.1305 12.8086 9.10802 7.01406 6.56281 6.37482 6.13983 5.52036 5.19524 4.75762 4.68554 4.51324 4.30827 4.0456 4.02622 3.97669 3.95143 3.60024 3.5469 4.55179 3.44305 3.40159 3.18887 3.08933 3.06147 3.015 6.51783 2.90789 3.34358 2.90204 3.80015 2.88754 3.80194 2.8428 2.82424 2.78788 2.71893 2.5626 2.55753 2.51501 2.36437 2.33939
threshold=1.0000000180025095e-35 4.0661526600410092 0.13150000000000003 4.3702632025119952 1350.0000000000002 1.5000000000000002 1.8095466653133714 1.0000000180025095e-35 4.031105113504867 4.296949183105423 1350.0000000000002 703.50000000000011 4.5418724109762456 1.0000000180025095e-35 0.0033750000000000004 1.8095466653133714 1.5000000000000002 1.0000000180025095e-35 1.7520314413393463 368.00000000000006 0.0021000000000000007 368.00000000000006 1.7520314413393463 703.50000000000011 368.00000000000006 9.275985000288463 27.530632724311168 1350.0000000000002 368.00000000000006 6.6642667409925886 1.8481781943666664 0.010500000000000001 3.9894715181760598 1350.0000000000002 9.30947590589947 1.9753770907967521 0.14050000000000004 27.564707298779734 5.0588013458450432 368.00000000000006 1.0000000180025095e-35 2.2005000000000003 0.99950000000000017 3.6935594066961523 1.0000000180025095e-35 2.3035000000000001 2.0595101507168301 2.9036774610288023 1.0000000180025095e-35 1.7520314413393463 4.0566378146540698 22.407731604011385 5.4090865443215721 0.0024500000000000004 15.715324994839863 7.1173693712065793 11.49191428274378 1.0000000180025095e-35 7.5507416557826383 2.6961587113893803 4.6749162274531351 1.0000000180025095e-35
decision_type=2 2 2 2 2 2 2 2 2 2 2 2 2 2 2 2 2 2 2 2 2 2 2 2 2 2 2 2 2 2 2 2 2 2 2 2 2 2 2 2 2 2 2 2 2 2 2 2 2 2 2 2 2 2 2 2 2 2 2 2 2 2
left_child=1 2 4 8 11 6 7 35 15 10 23 22 -5 38 20 16 17 -3 31 26 21 33 -1 34 40 51 -16 -9 49 36 -13 -6 44 41 -8 -4 -12 -27 -11 -40 -17 -7 -29 -32 -24 55 -47 48 -46 50 57 -20 -53 -38 -49 -36 -15 -10 -28 -42 -61 -51
right_child=-2 3 5 12 18 14 9 27 28 13 29 30 -14 56 19 24 -18 -19 25 -21 -22 -23 32 -25 -26 37 58 42 -30 -31 43 -33 -34 -35 45 -37 53 -39 39 -41 59 -43 -44 -45 47 46 -48 54 -50 61 -52 52 -54 -55 -56 -57 -58 -59 -60 60 -62 -63
leaf_value=-0.009662709098208596 0.049197447054670676 -0.049529385934402419 -0.029942458958336804 -0.038939638791747611 0.024258706681430341 -0.0027902169751801661 -0.020200932664530619 -0.015890302536411022 -0.049543273635208607 -0.010394968971787055 -0.0039844336112340294 -0.024813605584204198 -0.049534693329436025 -0.019920850622598546 0.0062114670163109197 -0.0026829699290829012 -0.0070172669357349594 -0.016078323228132043 0.024068193167055909 -0.011719137813363756 -0.0099504601825853578 -0.013207066269978038 0.0064040883114994179 -0.01627174356070004 -0.018406443754953841 0.029790040670383364 0.021849457453936339 0.01922257219751676 -0.034239515755775468 0.033323368430137633 0.014146678453045234 -0.008929338765197567 0.026159512295990308 0.030522093317798666 -0.015689059678051207 -0.048856777949152858 0.029621980673280257 0.0036811731107856921 0.016272487478523417 -0.013164568444093069 -0.026097085609702239 0.023830534202889317 -0.0083320275392560744 -0.001628425380896546 0.043461462222039698 0.031412782706320287 -0.0050663062930107125 0.0049199952347640033 0.016488535163268724 -0.019047614428237446 -0.019503292471573161 0.024017418166383721 0.040676931945401583 0.0087138391024357571 0.026626264602369207 0.0070326186716556556 -0.0061327325866410605 -0.028830801429493087 0.04296162690107639 -0.018291916224795084 0.0015590605108688276 -0.028033577990052957
leaf_weight=37 2916 77 33 381 20 28 21 109 32 838 30 20 1640 605 42 222 74 61 38 35 332 53 99 152 163 31 32 21 207 32 35 21 85 37 27 176 29 23 29 24 30 21 21 274 20 24 25 47 27 205 37 39 281 37 22 27 38 28 26 30 30 112
leaf_count=37 2916 77 33 381 20 28 21 109 32 838 30 20 1640 605 42 222 74 61 38 35 332 53 99 152 163 31 32 21 207 32 35 21 85 37 27 176 29 23 29 24 30 21 21 274 20 24 25 47 27 205 37 39 281 37 22 27 38 28 26 30 30 112
internal_value=0.000547935 -0.0187478 -0.00355946 -0.0371024 0.0167752 -0.011395 -0.0140584 -0.0308062 -0.0209793 -0.0109473 -0.000930037 0.00628251 -0.0475373 -0.0135855 -0.00129538 -0.0148393 -0.0250652 -0.034743 0.0322016 0.0123474 -0.00520572 0.00612704 0.0137433 -0.00907246 -0.0102753 0.0346836 0.0207707 -0.0099559 -0.0277719 0.0166271 -0.00135966 0.00725995 0.01663 0.0180422 -0.000247535 -0.0458703 0.0110616 0.0186696 -0.00960161 0.0029425 -0.0060273 0.00861868 0.00544527 0.000158399 0.0128625 0.00382063 0.012801 0.0183745 0.0279664 -0.0245381 -0.0321059 0.0370991 0.0386466 0.0179007 0.0118408 -0.00432822 -0.019106 -0.0398775 0.0313135 -0.0142766 -0.00836643 -0.0222225
internal_weight=10268 7352 4023 3329 1119 2904 2298 360 1308 1938 404 666 2021 1534 606 687 212 138 453 135 471 139 337 276 475 412 100 151 621 128 329 41 300 86 124 209 96 54 891 53 312 49 42 309 215 103 49 116 47 414 97 358 320 66 69 54 643 60 58 90 60 317
internal_count=10268 7352 4023 3329 1119 2904 2298 360 1308 1938 404 666 2021 1534 606 687 212 138 453 135 471 139 337 276 475 412 100 151 621 128 329 41 300 86 124 209 96 54 891 53 312 49 42 309 215 103 49 116 47 414 97 358 320 66 69 54 643 60 58 90 60 317
is_linear=0
shrinkage=0.05


Tree=15
num_leaves=63
num_cat=0
split_feature=58 77 43 74 50 79 68 18 59 47 49 77 47 49 47 18 49 47 18 57 12 68 18 59 50 47 43 47 79 12 4 87 60 0 50 4 25 105 20 60 77 47 18 92 108 35 18 60 100 79 47 64 11 57 119 16 60 50 47 11 47 78
split_gain=3727.16 802.863 247.298 151 71.2223 34.5173 30.0287 48.8306 57.3037 20.5733 35.9822 20.3678 18.4343 17.5264 16.2166 14.7457 14.4275 21.3495 23.7252 13.8841 12.9212 10.8701 13.689 14.5928 8.86029 17.8911 7.97941 7.39993 6.9855 8.23394 6.43303 6.22768 6.13064 5.45874 4.73775 4.71483 4.58786 4.57815 4.54988 3.75968 3.50089 3.71702 3.42429 3.38655 3.48128 3.34887 3.33886 3.01917 2.93877 2.79841 2.75895 2.73688 2.7363 2.6414 2.38009 2.37108 3.20529 2.33286 9.25859 2.33006 2.20958 2.19478
threshold=1.0000000180025095e-35 4.1890599181119059 1.0000000180025095e-35 1.0000000180025095e-35 1350.0000000000002 17.932063935568937 1.5000000000000002 1.8095466653133714 1.0000000180025095e-35 13.250000000000002 397.50000000000006 8.2776155281436719 13.350000000000003 397.50000000000006 13.050000000000002 1.774501631012894 397.50000000000006 13.15 1.9566419508802095 1.0000000180025095e-35 4.1179338299936488 1.5000000000000002 1.8095466653133714 1.0000000180025095e-35 1350.0000000000002 13.050000000000002 1.5000000000000002 13.250000000000002 20.705878617229263 4.4957524140443974 6.0552416549081132 5.4031205211758193 1.0000000180025095e-35 7.3174055250858601 1350.0000000000002 6.8137669422363967 0.0024500000000000004 16.083590506773824 6.696416582362489 1.0000000180025095e-35 7.52857576095911 13.250000000000002 1.774501631012894 4.1691452009912 1.2311618062135619 11.500000000000002 1.9566419508802095 1.0000000180025095e-35 8.7048516097982063 19.346775626249332 13.050000000000002 0.0099516639427595383 5.632962873882156 1.0000000180025095e-35 2.8274019525386609 3.4150568500833454 1.0000000180025095e-35 1350.0000000000002 13.050000000000002 5.999348014756678 12.850000000000003 11.562871314352845
decision_type=2 2 2 2 2 2 2 2 2 2 2 2 2 2 2 2 2 2 2 2 2 2 2 2 2 2 2 2 2 2 2 2 2 2 2 2 2 2 2 2 2 2 2 2 2 2 2 2 2 2 2 2 2 2 2 2 2 2 2 2 2 2
left_child=1 2 4 5 16 11 7 8 27 19 31 21 24 -14 30 -16 17 35 -19 51 39 22 23 -3 -8 -26 -24 -4 29 -7 33 36 46 -6 53 47 -11 38 48 42 41 -23 -13 44 -38 -20 -18 -1 59 -31 -36 -9 -29 -28 -52 56 -32 -21 -59 -35 -34 -44
right_child=-2 3 6 -5 14 28 12 9 -10 10 -12 20 13 -15 15 -17 32 18 45 57 -22 40 26 -25 25 -27 34 52 -30 49 55 -33 60 37 50 -37 43 -39 -40 -41 -42 -43 61 -45 -46 -47 -48 -49 -50 -51 54 -53 -54 -55 -56 -57 -58 58 -60 -61 -62 -63
leaf_value=-0.0064572362574718658 0.048466916744110522 -0.018714388735084374 -0.01613941792653412 -0.049990278999439641 0.00084797009168302313 -0.039131591231744485 -0.0096799413293887932 0.0083846170116554618 -0.048943114057660872 0.026682710528506765 -0.013886409829170006 -0.044187696408480408 0.03556530304253102 -0.0038933444346459407 0.0022873113991226999 0.047661223894322827 -0.025946823129197584 -0.01220017079392384 0.043554201385095005 -0.020402426420498575 -0.010717875248918388 -0.0090053560957312588 -0.035606688413430343 -0.049497223993787524 -0.0086055766484075865 0.027515701543201099 -0.011292675177433662 0.017148427918021167 -0.043950410627058428 -0.017664826500483535 0.014871490113437176 0.034310180833563207 0.01966452428685694 0.020209675189107656 -0.014927470960787365 0.022442439363266415 -0.019313774965703488 0.043553073963393335 -0.0019668093705106351 -0.027213171898478234 -0.015331724873307138 0.009157749687934794 -0.03036120292023722 0.020232389938263668 0.010187424729811028 0.023847244307398797 -0.0044582931625456622 0.007026057119636487 0.0157437775132712 -0.029878986312110944 -0.0052710901920658519 -0.0094503018635769612 -0.0058590531038741275 -0.023723094185664394 0.014946321366975705 0.048699576694231771 0.041973981152599059 -0.018919644159488162 0.0086654960567987462 0.04111149427791437 0.0038365909905658797 -0.043279474174104091
leaf_weight=93 2916 77 117 1297 34 281 347 22 195 35 181 100 60 53 20 171 20 29 84 456 73 90 44 77 91 55 84 28 227 66 20 48 29 24 35 26 20 23 21 164 113 41 166 21 20 29 188 75 60 162 37 967 24 87 24 26 24 171 37 30 92 41
leaf_count=93 2916 77 117 1297 34 281 347 22 195 35 181 100 60 53 20 171 20 29 84 456 73 90 44 77 91 55 84 28 227 66 20 48 29 24 35 26 20 23 21 164 113 41 166 21 20 29 188 75 60 162 37 967 24 87 24 26 24 171 37 30 92 41
internal_value=0.00063421 -0.0183375 -0.00348371 -0.0367172 0.0165398 -0.028062 -0.0110774 -0.0136444 -0.0304744 -0.0105472 0.000952912 -0.0230138 -0.00115695 0.0170581 0.0318302 0.04291 0.0061239 0.0134115 0.0281431 -0.0128083 -0.0302915 -0.0174298 -0.0219145 -0.0341058 -0.00533202 0.00500175 -0.0158777 -0.00916434 -0.0366562 -0.0334032 0.0237529 0.0196051 -0.00131872 0.0190221 -0.0126265 0.00262853 0.0122526 0.022933 0.01942 -0.0333252 -0.00888319 -0.00332072 -0.0365902 0.003973 -0.00456318 0.0384967 -0.0065245 -0.000437909 0.0233597 -0.0263433 -0.00373729 -0.00905357 0.00652959 -0.0176169 0.0026833 0.0367285 0.0296547 -0.0184008 -0.0140127 0.0318218 0.00763006 -0.0329199
internal_weight=10268 7352 4066 3286 1118 1989 2948 2342 364 1978 325 1253 606 113 453 191 665 336 142 1653 544 709 465 154 493 146 311 169 736 509 262 144 329 192 267 194 96 158 135 471 244 131 307 61 40 113 208 168 114 228 96 989 52 171 61 70 44 664 208 54 121 207
internal_count=10268 7352 4066 3286 1118 1989 2948 2342 364 1978 325 1253 606 113 453 191 665 336 142 1653 544 709 465 154 493 146 311 169 736 509 262 144 329 192 267 194 96 158 135 471 244 131 307 61 40 113 208 168 114 228 96 989 52 171 61 70 44 664 208 54 121 207
is_linear=0
shrinkage=0.05


Tree=16
num_leaves=63
num_cat=0
split_feature=58 43 15 50 18 59 15 57 47 49 78 47 47 18 49 47 96 15 50 47 15 6 50 47 47 15 0 47 4 83 49 15 60 15 0 105 0 4 50 47 111 79 20 15 0 18 15 100 50 23 47 60 49 72 16 60 59 57 0 47 2 96
split_gain=3590.69 621.624 609.128 70.1217 49.4434 127.933 36.9693 31.3975 24.2761 17.0941 17.3863 16.6992 14.9856 14.7025 14.1084 21.1176 23.6148 12.7841 12.5682 25.0259 12.3084 11.7223 8.93478 7.58623 6.99758 6.67051 6.61234 9.19287 6.49073 6.47269 5.92349 7.01048 5.62371 5.38087 5.25076 4.61252 4.55936 4.46089 4.41101 13.8852 6.10851 4.39868 4.32133 3.88361 3.45545 3.20714 2.91453 2.89439 2.85211 2.82419 2.77208 2.7367 2.54678 2.52143 2.45414 3.19861 2.16459 2.10595 2.04979 2.04553 1.99032 1.91655
threshold=1.0000000180025095e-35 1.0000000180025095e-35 4.2812947567818638 1350.0000000000002 1.8095466653133714 1.0000000180025095e-35 4.5741759945061675 1.0000000180025095e-35 13.350000000000003 397.50000000000006 7.4601598944211993 13.050000000000002 13.350000000000003 1.774501631012894 397.50000000000006 13.15 13.253967248656119 3.3363595506603851 1350.0000000000002 12.950000000000001 3.744801105930001 10.084962500721158 1350.0000000000002 13.050000000000002 13.350000000000003 4.0694457290301411 7.3264224865009906 13.15 6.0552416549081132 1.6990134251006352 397.50000000000006 3.6689911480103024 1.0000000180025095e-35 4.0013658726334089 7.3174055250858601 16.083590506773824 10.500000000000002 6.8137669422363967 1350.0000000000002 13.050000000000002 2.8453720000000007 22.143257527215567 6.696416582362489 4.438399933516334 6.6510338362632604 1.9566419508802095 3.6689911480103024 8.7048516097982063 1350.0000000000002 0.0087500000000000026 13.250000000000002 1.0000000180025095e-35 224.80000000000004 7.4716694905246985 3.4150568500833454 1.0000000180025095e-35 1.0000000180025095e-35 1.0000000180025095e-35 5.6581407658731111 12.950000000000001 11.792481250360579 27.240609490256741
decision_type=2 2 2 2 2 2 2 2 2 2 2 2 2 2 2 2 2 2 2 2 2 2 2 2 2 2 2 2 2 2 2 2 2 2 2 2 2 2 2 2 2 2 2 2 2 2 2 2 2 2 2 2 2 2 2 2 2 2 2 2 2 2
left_child=1 3 4 14 5 12 43 8 18 10 -10 28 22 -13 15 37 -17 52 25 60 21 26 46 -24 33 -6 27 44 34 -25 31 -26 45 38 -5 42 -11 51 -9 -40 -41 50 47 -4 -21 -16 53 -36 -2 -28 -18 -1 -14 -3 55 -30 -23 -45 -15 -34 -20 -49
right_child=48 2 6 11 7 -7 -8 24 9 36 -12 13 17 58 32 16 41 -19 19 20 -22 56 23 29 30 -27 49 -29 54 -31 -32 -33 59 -35 35 -37 -38 -39 39 40 -42 -43 -44 57 -46 -47 -48 61 -50 -51 -52 -53 -54 -55 -56 -57 -58 -59 -60 -61 -62 -63
leaf_value=-0.0061482609162026997 0.046390982288507819 -0.017033112659364157 -0.031113941440887655 0.000816794709466836 -0.0098907696382140361 -0.049173194477792649 -0.04935013501609406 -0.019357092341617921 0.036503640522559486 -0.012478374236096176 -0.00013102145085372685 0.0022701565909665081 0.03358940307892138 0.034935325494518991 -0.025298152579925955 -0.0098632247187197212 0.03094716561692102 -0.01038151675762207 -0.025685185387730597 -0.018861263021826745 -0.0060648697672995057 -0.016163645476102828 -0.018517583302962475 0.024712074076866403 0.020466625767157361 -0.022957497313267218 0.043657363770586072 0.033188827442271369 0.014462523795664312 -0.0053173789252085914 -0.017737410274835733 -0.012997220067211011 0.014782578687299975 -0.028981168979690188 0.031188277886421596 0.04317435165462287 0.011360597444905175 0.021838219682327832 -0.0184875727781365 0.019338269772138015 -0.012149021999600034 0.018941498344594784 -0.0018918831544440418 -0.03604086893953775 0.010530257113277913 -0.0042377499710710255 -0.0254713754362722 0.023046608647222029 0.049588706257851535 0.024399805441498758 0.050000000000000003 0.0066888063310955974 0.013153725222994885 -0.0024784675774139329 0.048605923641186495 0.041536752148143327 0.0053406349975954406 -0.045095524284028521 0.04994803563588196 0.0016503366575056713 -0.010967357373380827 0.0050131377549125604
leaf_weight=93 1762 152 324 34 1243 305 1579 586 75 78 57 20 31 27 20 32 28 51 25 20 99 25 39 34 34 106 33 28 20 38 52 29 52 105 54 23 27 26 186 43 24 22 21 190 20 188 82 34 1154 45 60 75 30 37 26 24 22 97 144 69 283 26
leaf_count=93 1762 152 324 34 1243 305 1579 586 75 78 57 20 31 27 20 32 28 51 25 20 99 25 39 34 34 106 33 28 20 38 52 29 52 105 54 23 27 26 186 43 24 22 21 190 20 188 82 34 1154 45 60 75 30 37 26 24 22 97 144 69 283 26
internal_value=0.000707643 -0.0179135 -0.0240705 0.0164181 -0.0125689 -0.0237107 -0.045309 -0.00982556 -0.00640236 0.00870771 0.0206841 0.0315899 -0.00798988 0.0428334 0.00608298 0.0132895 0.0279409 0.00809309 -0.00823975 -0.00221927 0.00826826 0.0156205 -0.0127053 -0.000757078 -0.0168918 -0.0109175 0.022612 0.0112157 0.0233932 0.0088632 -0.00524695 0.00506263 -0.00127688 -0.0183104 0.0186414 0.022477 -0.00634835 0.00256529 -0.0169749 -0.0114574 0.00805924 0.0389385 0.0189508 -0.0348657 -0.0041655 -0.00626279 -0.0175992 0.0227903 0.0476565 0.0325472 0.0439377 -0.000417427 0.0235391 -0.0141838 0.036427 0.0292303 -0.00609781 -0.0391012 0.0475776 0.00729394 -0.012162 0.0152321
internal_weight=10268 7352 6234 1118 4044 799 2190 3245 2186 237 132 453 494 191 665 336 142 112 1949 600 292 193 382 111 1059 1349 146 68 262 72 115 63 329 944 192 158 105 194 839 253 67 110 135 611 40 208 271 114 2916 78 88 168 61 189 70 44 47 287 171 121 308 60
internal_count=10268 7352 6234 1118 4044 799 2190 3245 2186 237 132 453 494 191 665 336 142 112 1949 600 292 193 382 111 1059 1349 146 68 262 72 115 63 329 944 192 158 105 194 839 253 67 110 135 611 40 208 271 114 2916 78 88 168 61 189 70 44 47 287 171 121 308 60
is_linear=0
shrinkage=0.05


Tree=17
num_leaves=63
num_cat=0
split_feature=58 77 15 76 50 18 60 57 15 57 64 15 50 18 60 57 18 18 50 4 50 26 92 50 6 57 60 50 50 18 23 50 50 72 23 119 70 57 18 112 15 39 4 41 115 6 15 100 57 84 22 0 57 22 95 50 23 30 50 36 98 7
