tree
version=v4
num_class=1
num_tree_per_iteration=1
label_index=0
max_feature_idx=121
objective=huber
feature_names=Column_0 Column_1 Column_2 Column_3 Column_4 Column_5 Column_6 Column_7 Column_8 Column_9 Column_10 Column_11 Column_12 Column_13 Column_14 Column_15 Column_16 Column_17 Column_18 Column_19 Column_20 Column_21 Column_22 Column_23 Column_24 Column_25 Column_26 Column_27 Column_28 Column_29 Column_30 Column_31 Column_32 Column_33 Column_34 Column_35 Column_36 Column_37 Column_38 Column_39 Column_40 Column_41 Column_42 Column_43 Column_44 Column_45 Column_46 Column_47 Column_48 Column_49 Column_50 Column_51 Column_52 Column_53 Column_54 Column_55 Column_56 Column_57 Column_58 Column_59 Column_60 Column_61 Column_62 Column_63 Column_64 Column_65 Column_66 Column_67 Column_68 Column_69 Column_70 Column_71 Column_72 Column_73 Column_74 Column_75 Column_76 Column_77 Column_78 Column_79 Column_80 Column_81 Column_82 Column_83 Column_84 Column_85 Column_86 Column_87 Column_88 Column_89 Column_90 Column_91 Column_92 Column_93 Column_94 Column_95 Column_96 Column_97 Column_98 Column_99 Column_100 Column_101 Column_102 Column_103 Column_104 Column_105 Column_106 Column_107 Column_108 Column_109 Column_110 Column_111 Column_112 Column_113 Column_114 Column_115 Column_116 Column_117 Column_118 Column_119 Column_120 Column_121
feature_infos=[5:13] [0:10] [7:15] [4:11] [0:8] [0:8] [7:12] [5:10] [1:7] [0:5.7781512503836439] [1:3.3010299956639813] [1.4771212547196624:6.5563025007672868] [0:4.7781512503836439] [2:4] [0:5.7781512503836439] [0:5] [1:3.6989700043360187] [1:3.6989700043360187] [1:3] [0:5.3033049080590757] [0:6.9087547793152204] [0.5:10] [0.5:5] [0.001:0.10000000000000001] [0.001:0.050000000000000003] [0.00050000000000000001:0.050000000000000003] [0.10000000000000001:0.90000000000000002] [0.5:10] [0.01:0.5] [0.01:0.5] [10:1000] [1:20] [1:20] [2:20] [1:10] [0:16] [0:8] [0:8] [1:10] [0:1] [0:1] [0:1] [0:1] [0:3] none none none [12.4:13.699999999999999] none [53.600000000000001:399] [207:3817.5999999999999] [7457:146000] [29.100000000000001:572] [0.52700000000000002:19.100000000000001] [0.59999999999999998:399] [564:8586] none [0:1] [0:1] [0:1] [0:1] [0.0021551724137931034:0.55172413793103448] [0.0086206896551724137:2.2068965517241379] [0.018415178571428572:1024] [0.00067326468576972857:4.2312483823251519] [0:1] [0.015625:128] [0:3] [0:3] [0:5] [0:5] [0:13] [0:13] [0:1] [0:1] [0:1] [0:1] [0:15] [0:15] [0:23.890756251918219] [0:4.5] [0:63.966865691558546] [0:26.516524540295379] [0:25] [0:18.494850021680094] [0:50] [0:8.9986964646779466] [0:14.334453751150932] [0:2.6970000000000001] [0:39] [0:15.909914724177227] [0:15] [0:11.096910013008056] [0:30] [0:14.334453751150932] [0.10000000000000001:2.7000000000000002] [5:38.360541967715818] [0:15.909914724177227] [0.5:15] [1:11.096910013008056] [0.5:30] [0:4.3003361253452796] [0:61.18183491342954] [0:25.339992977608187] [0:23.890756251918219] [0:17.674238151349741] [0:47.781512503836439] [0.5:11.700000000000001] [0:4.7729744172531685] [0.050000000000000003:4.5] [0.10000000000000001:3.3290730039024168] [0.050000000000000003:9] [0:68.942963804767984] [2.5:63.921508415989493] [5:47.226349946321342] [2.5:125.9987577232027] [0:26.516524540295379] [0:19.616765778758509] [0:53.033049080590757] [0.5:18.494850021680094] [0.25:50] [0.5:36.989700043360187]
tree_sizes=5229 5573 5533 5575 5595 5587 5559 5543 5559 5543 5587 5554 5552 5556 5586 5559 5585 5632 5615 5607 5586 5596 5595 5579 5595 5638 5626 5630 5580 5594 5573 5648 5565 5584 5581 5557 5602 5560 5586 5596 5563 5570 5560 5553 5555 5597 5536 5544 5553 5535 5565 5564 5610 5547 5612 5582 5541 5552 5568 5564 5549 5551 5585 5596 5548 5610 5567 5554 5563 5615 5597 5564 5604 5618 5648 5584 5560 5635 5579 5649 5593 5606 5640 5600 5619 5586 5666 5588 5630 5666 5635 5609 5644 5637 5628 5634 5641 5636 5625 5665 5615 5625 5643 5631 5647 5592 5659 5662 5640 5664 5677 5684 5638 5652 5679 5691 5664 5657 5683 5682 5695 5714 5676 5679 5670 5636 5617 5619 5703 5666 5725 5693 5697 5728 5706 5694 5745 5668 5718 5669 5677 5702 5685 5691 5733 5675 5683 5717 5713 5686 5717 5717 5711 5726 5715 5715 5749 5730 5685 5711 5735 5730 5701 5673 5693 5706 5713 5701 5721 5774 5718 5722 5680 5744 5716 5714 5692 5742 5742 5711 5697 5699 5702 5687 5748 5714 5706 5739 5691 5728 5707 5741 5692 5755 5687 5708 5705 5724 5719 5730 5679 5726 5757 5719 5705 5705 5673 5732 5702 5685 5741 5714 5707 5720 5712 5716 5735 5727 5715 5726 5742 5703 5734 5706 5736 5714 5727 5725 5714 5722 5739 5737 5725 5728 5745 5721 5748 5715 5746 5661 5719 5704 5739 5722 5744 5745 5684 5690 5728 5720 5700 5744 5737 5730 5750 5747 5747 5713 5721 5750 5723 5679 5755 5764 5754 5700 5741 5732 5760 5716 5699 5760 5697 5690 5693 5716 5749 5761 5738 5727 5732 5723 5739 5727 5734 5749 5730 5740 5686 5724 5737

Tree=0
num_leaves=63
num_cat=0
split_feature=58 43 15 51 47 49 50 18 60 57 57 60 50 47 15 49 50 47 47 18 96 96 18 47 15 57 57 21 60 86 121 2 15 111 49 47 18 105 4 9 63 60 15 49 113 37 105 121 4 57 63 66 112 47 66 47 17 66 12 11 28 96
split_gain=4974.12 1092.34 442.948 92.565 77.709 73.4754 83.8677 60.8091 66.5406 68.9001 57.2643 37.8514 22.3119 33.6039 22.0479 21.8038 19.1371 46.6739 17.7739 14.5312 13.8759 13.013 12.6469 12.6412 11.8726 9.8819 9.57882 9.31392 8.99182 7.48689 7.42888 10.602 6.12645 8.23327 5.91981 8.64224 5.70341 5.67545 5.23883 4.85027 4.83277 4.53004 4.07316 3.79832 3.56071 3.02915 2.97291 4.46302 3.96805 2.83151 2.75566 2.71646 4.71177 2.68395 2.45449 2.22311 2.10959 1.96479 1.94631 1.76925 1.7566 1.63863
threshold=1.0000000180025095e-35 1.0000000180025095e-35 3.9617294835548029 121953.50000000001 13.250000000000002 397.50000000000006 2658.8000000000006 1.8228093691213478 1.0000000180025095e-35 1.0000000180025095e-35 1.0000000180025095e-35 1.0000000180025095e-35 1350.0000000000002 13.050000000000002 3.5417009947255429 192.20000000000005 1350.0000000000002 13.050000000000002 13.250000000000002 1.7442753582502224 10.705435010808303 13.849525325872024 1.8027602617187346 13.050000000000002 4.2019965094752196 1.0000000180025095e-35 1.0000000180025095e-35 5.4135000000000009 1.0000000180025095e-35 3.9508514588885468 12.723722259772286 11.792481250360579 3.5767442590158263 2.2557635000000005 192.20000000000005 13.15 1.9057875029352969 3.7317082480883066 5.9188139665857031 4.8721464915613391 2.6155853645806153 1.0000000180025095e-35 3.5964319717305151 397.50000000000006 13.933893779869093 1.5000000000000002 16.09379403747489 8.5820708409919302 5.5077075261933448 1.0000000180025095e-35 1.0009784735812135 1.1728193723745988 8.7435845144649598 12.750000000000002 0.26774088541666674 12.950000000000001 2.2821672979756391 2.9811046112438553 2.5728576299104202 6.0739015196871842 0.18250000000000002 6.8765038844726236
decision_type=2 2 2 2 2 2 2 2 2 2 2 2 2 2 2 2 2 2 2 2 2 2 2 2 2 2 2 2 2 2 2 2 2 2 2 2 2 2 2 2 2 2 2 2 2 2 2 2 2 2 2 2 2 2 2 2 2 2 2 2 2 2
left_child=1 3 4 11 10 6 7 8 9 -6 12 15 22 39 30 18 -12 45 38 -5 -15 -20 28 41 43 29 40 37 -3 -7 49 -32 33 -22 35 -13 -17 -19 50 60 -8 46 -24 -4 -28 -18 47 59 -49 -9 -1 -42 -53 -38 -31 -36 -11 -41 -51 -21 -14 -10
right_child=-2 2 24 19 5 25 26 14 61 56 16 34 13 20 -16 36 17 27 21 23 32 -23 42 -25 -26 -27 44 -29 -30 54 31 -33 -34 -35 55 -37 53 -39 -40 57 51 -43 -44 -45 -46 -47 -48 48 -50 58 -52 52 -54 -55 -56 -57 -58 -59 -60 -61 -62 -63
leaf_value=6.8243031443365751 6.8696176422575226 6.7696176422575229 6.7818958621994403 6.8256060804573142 6.7698430441472333 6.7791824001274774 6.827121993588178 6.8631747562302179 6.8442471024763512 6.8510230012483202 6.7768091177869643 6.8398502712754468 6.7950822609769261 6.799915721829076 6.8184650703446446 6.7817731544935818 6.7983293321952054 6.8541015116071753 6.8165241993033998 6.8411310317229219 6.8607421707026246 6.8643839846237507 6.7968906704506455 6.8683563364647631 6.7698163117719101 6.7781136430770514 6.7837290405410178 6.798000844735812 6.7933536318877454 6.8106233113919421 6.8569149555591746 6.8088845402935263 6.8175284408477248 6.8276066248659664 6.8431440573608402 6.865626819048237 6.8266834898090618 6.8213720046515531 6.8369876939385872 6.8255706917797712 6.7990323108682489 6.8590184565087196 6.7850087812749882 6.7716233204865564 6.8053785601284176 6.7782564893606887 6.8593891197020698 6.8213657009124224 6.8474470571616406 6.8372395221757571 6.8074423213231023 6.7994025283398569 6.829658262497821 6.807805327348019 6.7969201182026531 6.8295802064542146 6.8304659127383545 6.8039418514012411 6.85903385469706 6.8604617737241664 6.8043139476114858 6.8608175915204379
leaf_weight=39 3055 84 303 36 105 57 21 115 25 26 582 93 283 35 56 20 21 27 20 20 37 49 958 189 2346 126 109 20 76 41 27 20 31 38 46 50 21 26 32 21 174 103 78 128 23 179 29 35 25 21 64 31 22 182 161 88 24 21 20 29 63 37
leaf_count=39 3055 84 303 36 105 57 21 115 25 26 582 93 283 35 56 20 21 27 20 20 37 49 958 189 2346 126 109 20 76 41 27 20 31 38 46 50 21 26 32 21 174 103 78 128 23 179 29 35 25 21 64 31 22 182 161 88 24 21 20 29 63 37
internal_value=6.81557 6.79431 6.78641 6.83883 6.79746 6.80774 6.8159 6.82988 6.81036 6.79285 6.79251 6.82739 6.79776 6.80631 6.84624 6.81805 6.78193 6.79285 6.82987 6.85612 6.82721 6.85051 6.79398 6.85868 6.77122 6.7896 6.79838 6.82707 6.78089 6.79519 6.8539 6.83648 6.83623 6.84395 6.84179 6.84886 6.80725 6.83805 6.81932 6.79871 6.80417 6.85108 6.796 6.77885 6.7875 6.78036 6.84516 6.84138 6.83223 6.85915 6.81383 6.80205 6.81196 6.80976 6.7997 6.83424 6.84116 6.81476 6.84787 6.85257 6.79676 6.85414
internal_weight=10823 7768 6598 1170 3821 1241 856 476 217 155 2580 704 1725 529 259 427 855 273 204 466 141 69 1196 430 2777 385 380 73 160 259 203 47 106 75 277 143 223 53 135 388 248 241 1036 431 132 200 138 109 60 156 103 227 53 203 202 134 50 42 41 49 346 62
internal_count=10823 7768 6598 1170 3821 1241 856 476 217 155 2580 704 1725 529 259 427 855 273 204 466 141 69 1196 430 2777 385 380 73 160 259 203 47 106 75 277 143 223 53 135 388 248 241 1036 431 132 200 138 109 60 156 103 227 53 203 202 134 50 42 41 49 346 62
is_linear=0
shrinkage=1


Tree=1
num_leaves=63
num_cat=0
split_feature=58 43 73 51 47 51 49 57 59 59 60 95 64 49 57 50 47 47 50 47 79 47 94 47 77 121 64 50 64 111 78 95 60 49 47 59 99 0 17 0 47 94 47 114 87 78 77 78 105 110 113 16 34 20 98 47 49 47 107 68 113 47
split_gain=4899.09 1055.77 443.003 91.0781 71.6026 68.137 80.3753 50.5045 41.2165 38.6515 34.9162 33.7193 31.0919 20.8974 17.8119 17.669 34.8067 17.5119 15.6448 44.924 14.2845 12.706 11.9519 10.7464 10.5785 10.3425 10.1488 8.5591 8.10719 7.87238 7.81326 7.33251 7.1751 5.90554 9.09885 5.54437 5.51289 5.32703 5.23698 5.11583 4.71449 4.20365 4.18298 4.53737 4.11871 3.86873 3.75713 3.65897 3.32314 3.10046 2.97263 2.85208 2.80951 2.86036 2.79179 2.71435 2.50457 2.50143 2.49458 2.3915 2.44865 2.35879
threshold=1.0000000180025095e-35 1.0000000180025095e-35 1.0000000180025095e-35 121953.50000000001 13.250000000000002 121953.50000000001 192.20000000000005 1.0000000180025095e-35 1.0000000180025095e-35 1.0000000180025095e-35 1.0000000180025095e-35 0.77258410450953863 0.01805398289017978 192.20000000000005 1.0000000180025095e-35 1350.0000000000002 13.050000000000002 13.250000000000002 1350.0000000000002 13.050000000000002 18.892885620925458 13.350000000000003 7.9165005647955935 13.050000000000002 8.2929072639327099 12.000222810781414 0.0054069610443757922 1350.0000000000002 0.0076818942819029913 2.2557635000000005 7.1044299845540522 1.1998139290897125 1.0000000180025095e-35 192.20000000000005 13.15 1.0000000180025095e-35 5.2817882438062966 7.2431661263843328 2.0951658490851464 7.5887097689946197 13.350000000000003 10.3002373315318 13.050000000000002 30.956480154082914 12.491266366290999 11.990652444738444 6.2024572559926918 7.5969662116007735 15.849487026815094 1.9454734617449609 13.933893779869093 3.2034408455582279 4.5000000000000009 5.5432204948189954 1.5364500426182512 13.350000000000003 397.50000000000006 12.750000000000002 10.767492744725223 1.5000000000000002 7.0019633712851306 13.450000000000001
decision_type=2 2 2 2 2 2 2 2 2 2 2 2 2 2 2 2 2 2 2 2 2 2 2 2 2 2 2 2 2 2 2 2 2 2 2 2 2 2 2 2 2 2 2 2 2 2 2 2 2 2 2 2 2 2 2 2 2 2 2 2 2 2
left_child=1 3 4 10 7 6 8 15 21 46 13 -11 54 17 31 26 36 41 -9 -20 24 39 -19 32 27 -21 35 55 -18 -30 -25 -8 37 34 -12 -3 -17 -5 -31 -6 -33 -1 -43 -44 -26 -29 59 -15 49 51 -16 -39 58 -54 -10 -4 -57 -49 61 60 -7 -42
right_child=-2 2 20 23 5 9 14 18 12 11 33 -13 -14 47 50 16 28 22 19 25 -22 -23 -24 30 44 -27 -28 45 29 38 -32 40 -34 -35 -36 -37 -38 48 -40 -41 52 42 43 -45 -46 -47 -48 57 -50 -51 -52 -53 53 -55 -56 56 -58 -59 -60 -61 -62 -63
leaf_value=-0.012879569446456365 0.050000000000000003 -0.025916008936597946 -0.044135334207562778 0.0042495438770856712 -0.0092305276542901989 0.041770742943993328 -0.0321949591430334 -0.040395643020218072 -0.050000000000000003 -0.041046205943539027 0.019330396287716545 0.024898599791857934 0.018659669082415731 -0.025157898101246075 -0.036534689743961166 -0.021603101822575171 -0.011178757835711753 -0.00068804735229128881 -0.03723993106912344 0.026236281480367593 -0.049571224794072929 0.039160941570034163 0.044537423457950358 0.019230769230769232 -0.047923424596872932 -0.016913307280767533 -0.022225869121398817 -0.027284680438621783 0.036729080475082519 -0.010176656767725945 0.04858434198165739 -0.021869719338913761 0.039026583071418965 0.013969251024862579 0.045779130913317201 -0.049112726355853842 -0.00048118135686415966 0.021011733400978543 0.023596568913622339 0.024149749631231482 -0.02015544873216878 -0.0035496781726239942 0.0012085818871855735 0.034888567812740801 -0.034345731194146349 -0.047862309102828689 0.015096820555627347 0.0079001967608928678 0.043856188546245296 0.010370721355138814 -0.019513041192087636 0.043028288862357544 -0.012395943111429613 0.0085840552579611543 -0.026186490282416344 -0.027422682769023456 -0.046428907376069292 -0.010848691884821618 -0.00059671383351087579 0.047164110871760742 0.019820929598063232 -0.0044123833378156034
leaf_weight=44 3055 47 328 32 24 27 78 550 32 42 93 36 38 42 222 338 28 21 195 41 1696 88 48 26 662 21 1010 188 38 24 177 168 113 134 50 57 34 38 22 22 115 51 20 20 61 26 20 20 24 32 29 24 33 32 20 52 26 161 28 46 24 30
leaf_count=44 3055 47 328 32 24 27 78 550 32 42 93 36 38 42 222 338 28 21 195 41 1696 88 48 26 662 21 1010 188 38 24 177 168 113 134 50 57 34 38 22 22 115 51 20 20 61 26 20 20 24 32 29 24 33 32 20 52 26 161 28 46 24 30
internal_value=-0.00364174 -0.024738 -0.0325002 0.0190357 -0.0205281 -0.0102899 -0.0157685 -0.0254408 0.0104521 0.0166534 0.00768587 -0.0106101 -0.0157185 -0.0012827 -0.0237595 -0.0202918 -0.0123153 0.0102821 -0.0356368 -0.0254524 -0.0465208 0.0280293 0.0307731 0.0361823 -0.0426685 0.0116211 -0.0237573 -0.0378765 0.0121213 0.019888 0.0448248 -0.0181542 0.0295115 0.0215111 0.0285782 -0.0386296 -0.0196726 0.0223435 0.00597576 0.00673395 -0.0154568 -0.000191049 0.00594406 0.0180486 -0.0467779 -0.0297848 0.034829 -0.0118622 0.0272503 0.0230105 -0.034568 0.0295343 -0.01093 -0.00206733 -0.040841 -0.0421417 -0.0337581 -0.00877699 -0.0142599 0.0388975 0.0314414 -0.0168983
internal_weight=10823 7768 6598 1170 3559 1154 959 2405 224 195 704 78 90 427 735 1598 484 204 807 257 3039 134 69 466 1343 62 1114 620 112 84 203 484 263 277 143 104 372 150 46 46 406 135 91 40 723 214 117 223 118 94 251 62 238 65 52 406 78 181 173 97 51 145
internal_count=10823 7768 6598 1170 3559 1154 959 2405 224 195 704 78 90 427 735 1598 484 204 807 257 3039 134 69 466 1343 62 1114 620 112 84 203 484 263 277 143 104 372 150 46 46 406 135 91 40 723 214 117 223 118 94 251 62 238 65 52 406 78 181 173 97 51 145
is_linear=0
shrinkage=0.05


Tree=2
num_leaves=63
num_cat=0
split_feature=71 43 15 51 47 49 50 59 86 15 50 47 60 49 47 96 47 96 59 72 15 107 66 15 47 95 15 60 47 49 60 94 96 59 72 49 47 63 89 0 95 17 105 121 4 49 4 99 100 98 66 62 15 112 68 72 29 47 95 47 4 15
split_gain=4823.4 1019.81 494.74 89.4642 61.6713 62.4058 61.4647 69.2951 99.4298 40.3444 35.1038 61.5072 32.0819 20.042 17.2108 17.9599 11.4158 10.8081 18.7796 23.712 10.799 16.4247 14.7454 10.4436 9.09042 7.98772 7.91804 7.81223 7.37424 7.38108 6.8836 6.58875 6.35379 6.08917 8.60413 5.90048 9.54697 5.59553 5.4765 4.99693 4.06869 3.80914 3.59993 3.34856 3.62827 3.34042 3.17597 3.08774 2.84886 3.83373 2.8238 2.78353 2.64862 2.64443 2.55013 2.40037 2.3609 2.3226 2.31484 2.09618 1.95832 1.91716
threshold=1.0000000180025095e-35 1.0000000180025095e-35 4.0293837757885624 121953.50000000001 13.250000000000002 397.50000000000006 2658.8000000000006 1.0000000180025095e-35 3.7558748556724919 3.5417009947255429 1350.0000000000002 13.050000000000002 1.0000000180025095e-35 192.20000000000005 13.15 13.849525325872024 13.050000000000002 13.001791503693452 1.0000000180025095e-35 5.8703120222447076 3.6616703002877551 5.6642895989726174 9.611859563176159 4.2511148038296787 13.15 1.5978548844573595 3.5417009947255429 1.0000000180025095e-35 13.350000000000003 363.40000000000003 1.0000000180025095e-35 5.6795698566707093 15.565177105836089 1.0000000180025095e-35 6.2383731019697342 192.20000000000005 13.15 2.6155853645806153 10.818582177480861 7.5887097689946197 0.6366977339375014 2.6584881196607744 16.09379403747489 8.5820708409919302 5.6292830169449672 397.50000000000006 6.4837932636480371 5.0965881398702768 11.952083604190351 3.0764411056676351 1.1728193723745988 0.93103448275862088 3.9058496624885319 9.4342715218186797 1.5000000000000002 5.2286904395362681 0.19050000000000003 12.750000000000002 0.89483670921327718 12.950000000000001 1.7924812503605783 3.5612803101964228
decision_type=2 2 2 2 2 2 2 2 2 2 2 2 2 2 2 2 2 2 2 2 2 2 2 2 2 2 2 2 2 2 2 2 2 2 2 2 2 2 2 2 2 2 2 2 2 2 2 2 2 2 2 2 2 2 2 2 2 2 2 2 2 2
left_child=1 3 4 12 10 6 7 9 38 28 17 33 13 14 46 -16 30 27 19 -19 21 22 40 45 -24 54 41 -3 29 39 32 -18 -5 34 58 36 -14 -8 -9 -6 -13 -10 43 -34 -45 -4 -1 -15 50 -50 -39 -27 -11 -52 -7 -30 -17 -49 -12 -37 -35 -21
right_child=-2 2 23 16 5 25 37 8 26 52 11 20 35 47 15 56 31 18 -20 61 -22 -23 24 -25 -26 51 -28 -29 55 -31 -32 -33 42 60 -36 59 -38 48 -40 -41 -42 -43 -44 44 -46 -47 -48 57 49 -51 53 -53 -54 -55 -56 -57 -58 -59 -60 -61 -62 -63
leaf_value=-0.0076145756799706268 0.050000000000000003 -0.042351680323481564 -0.038100767112009125 -0.0022202544683671516 -0.0088266916573047638 -0.040248807811488707 0.0010553862058347273 -0.021622700563498909 0.045615888100404012 -0.0020807540550342074 -0.019270490610506386 0.013881951104849577 0.01845803033003943 -0.023739064189537272 -0.0109151309132576 0.028431436058246731 0.019565217391304349 -0.038897639771968855 -0.019682897620377157 -0.022143639571442938 -0.01292228883320237 -0.023501841999866345 -0.021403801707284793 -0.04977778845082944 0.020077368289232254 -0.023738750852463606 4.4038440100848682e-05 -0.025066378023675697 0.03179878617861661 0.034767875805193069 0.038301691317733019 0.04798490247378747 0.031927060440648351 -0.0041277630173641704 -0.020492197340611598 0.021977680945849939 0.045550235242582865 -0.025827654195018115 -0.049759341411444613 0.025013063400983811 0.037971566640413727 0.019202925122919538 0.04377953694202006 0.0041468915050583231 0.030843260656110944 -0.047654029130935673 0.014482018779963255 0.0075249370560050016 0.0018543912418957414 -0.024586511002137112 -0.021725985661466073 -0.0046297790438291579 -0.021176967248320581 -0.0020914168269545947 -0.026612557501842576 0.045089628406595895 0.046602738553132766 -0.010535190967026592 -0.037172128224084458 0.008806766226056922 -0.019579775393915873 -0.033595868310658264
leaf_weight=87 3055 220 284 23 24 120 31 21 39 46 20 24 93 41 25 33 23 492 554 423 57 27 28 2245 25 206 20 93 58 49 113 180 48 23 181 46 50 224 98 20 65 21 24 35 20 135 20 20 29 26 47 21 30 27 48 82 39 162 186 88 189 40
leaf_count=87 3055 220 284 23 24 120 31 21 39 46 20 24 93 41 25 33 23 492 554 423 57 27 28 2245 25 206 20 93 58 49 113 180 48 23 181 46 50 224 98 20 65 21 24 35 20 135 20 20 29 26 47 21 30 27 48 82 39 162 186 88 189 40
internal_value=-0.00322575 -0.0241584 -0.0317873 0.0188634 -0.0205204 -0.0115424 -0.00421566 0.00719561 -0.0158157 0.0220152 -0.0248856 -0.0163287 0.00761451 -0.000982355 0.0103433 0.0255966 0.0358573 -0.0287602 -0.0270063 -0.0312547 0.00589746 0.012245 0.0190419 -0.0484253 -0.00183721 -0.0280878 0.0272895 -0.0372158 0.0323336 0.0214199 0.0289819 0.0447649 0.021961 -0.0247146 -0.0284458 0.0208667 0.0279308 -0.0193118 -0.0447941 0.00655502 0.0314755 0.0363714 0.0263403 0.0222768 0.0138547 -0.0411788 -0.00348437 -0.0113431 -0.0211004 -0.0106449 -0.0230301 -0.021971 -0.00961873 -0.014562 -0.0363527 0.0395834 0.0382742 -0.00855056 -0.0354341 0.0133281 -0.0179034 -0.023133
internal_weight=10823 7768 6598 1170 3934 1287 892 508 199 309 2647 825 704 427 204 97 466 1822 1509 955 226 169 142 2664 53 395 80 313 233 93 263 203 150 599 387 277 143 384 119 44 89 60 127 103 55 419 107 223 353 55 298 227 76 74 168 140 72 182 206 134 212 463
internal_count=10823 7768 6598 1170 3934 1287 892 508 199 309 2647 825 704 427 204 97 466 1822 1509 955 226 169 142 2664 53 395 80 313 233 93 263 203 150 599 387 277 143 384 119 44 89 60 127 103 55 419 107 223 353 55 298 227 76 74 168 140 72 182 206 134 212 463
is_linear=0
shrinkage=0.05


Tree=3
num_leaves=63
num_cat=0
split_feature=58 43 15 51 51 107 57 60 18 59 15 18 59 18 96 49 18 18 15 49 66 49 49 26 57 15 18 13 63 15 15 7 66 21 21 49 18 15 10 3 120 9 5 107 49 39 28 66 98 29 15 7 104 24 96 1 64 111 1 7 23 9
split_gain=4751.28 985.588 517.968 87.8762 53.9767 65.6291 45.7227 29.5409 27.4863 43.461 20.6983 24.3478 32.0455 34.1493 25.1574 19.1848 14.2831 14.1062 13.4462 9.49655 10.3795 9.3772 8.95051 11.7186 8.3903 7.71605 7.65135 7.3563 6.58457 6.44638 6.17876 7.8321 6.48824 6.04847 7.79046 5.87561 5.78386 5.29154 4.73259 4.52163 3.93428 3.90807 3.79267 3.78414 3.68222 3.5637 3.17488 3.1211 3.11392 3.30092 2.97996 2.90436 4.41787 3.04004 2.88133 2.80107 4.41697 2.80101 2.45258 2.4007 2.3803 2.30512
threshold=1.0000000180025095e-35 1.0000000180025095e-35 4.0293837757885624 121953.50000000001 121953.50000000001 6.2985868407972339 1.0000000180025095e-35 1.0000000180025095e-35 1.6384605660328873 1.0000000180025095e-35 3.8001669411486669 2.0916633983008173 1.0000000180025095e-35 1.8228093691213478 13.584707054588391 192.20000000000005 1.7442753582502224 1.8603276782758624 4.2511148038296787 397.50000000000006 2.0554436395098081 192.20000000000005 397.50000000000006 0.55950000000000022 1.0000000180025095e-35 3.3746562392546258 2.0773641037200781 3.1918699930082637 1.449301242236025 3.1493728449125711 3.3020049662061157 6.0767760158540565 5.3342490842490848 3.9310000000000005 4.222500000000001 192.20000000000005 1.9057875029352969 3.6232972199920495 1.7520314413393463 5.5390754038673267 7.8607450000000005 5.115607323981302 3.0849625007211565 7.9594346189977188 397.50000000000006 1.0000000180025095e-35 0.22250000000000003 5.2537401991947457 2.0438938763481298 0.097500000000000017 4.4767084410913567 6.2383731019697342 1.8918446152336685 0.0027500000000000003 15.239642952402507 5.1896891835356316 0.12485209959478971 1.2966895000000003 2.1609640474436813 6.6934701226621565 0.019500000000000003 4.7596514246177151
decision_type=2 2 2 2 2 2 2 2 2 2 2 2 2 2 2 2 2 2 2 2 2 2 2 2 2 2 2 2 2 2 2 2 2 2 2 2 2 2 2 2 2 2 2 2 2 2 2 2 2 2 2 2 2 2 2 2 2 2 2 2 2 2
left_child=1 3 4 7 6 10 8 15 9 21 11 12 14 -14 51 17 -5 -1 44 20 28 27 23 37 -7 33 -15 -3 -10 -21 31 54 42 48 -35 60 -17 41 -34 -36 -25 46 -33 -18 -4 50 61 -16 -13 -50 -19 52 -6 -53 -22 56 -47 -30 -55 -41 -9 -8
right_child=-2 2 18 16 5 24 22 35 19 -11 -12 25 13 26 47 36 43 45 -20 29 30 -23 -24 40 -26 -27 -28 -29 57 -31 -32 32 38 34 39 -37 -38 -39 -40 59 -42 -43 -44 -45 -46 55 -48 -49 49 -51 -52 53 -54 58 -56 -57 -58 -59 -60 -61 -62 -63
leaf_value=-0.026509017724057907 0.050000000000000003 -0.011024620202747552 -0.036671682554756252 0.0052811501547694213 0.025045642331242565 -0.020388732673820315 -0.0097606435418128978 0.018775390217510554 0.004884379289366983 -0.050000000000000003 -0.022403174734208733 0.04575064712762833 -0.050000000000000003 0.022337113127664288 -0.0050352122830438686 -0.036497087616007777 0.040292427891021609 0.021619688004255296 -0.04966046716163313 -0.01841525469575583 0.028839429157475633 -0.024714503449908758 -0.03733004420750409 -0.033754816976877364 -0.035463281376608487 -0.0016649486934195976 -0.014967231745166438 0.024084877178072932 0.00021828345954418181 -0.031170661593305657 -0.018375165562447109 -0.0023735994100570683 0.0092822547381122902 -0.010916780737730173 0.0021724723279476165 0.012737182094937072 -0.0083153086287781532 -0.035349694305720429 -0.014958823590911925 0.037055400555784053 -0.015380125818774106 0.0088795524009543918 0.026838574558496475 0.028180298064629062 -0.046701799807725132 0.025877499370238723 -0.0011772429437509604 -0.025477962603056153 0.03805977733184894 0.012991727400442649 0.00085842435115150045 0.039706564350770072 -0.0016620800248347224 0.029075446466091448 0.004073992501134458 0.032779847766671859 -0.00072790488529090702 -0.018857440009186217 0.0066609635625196539 0.015429737454368956 0.032185461781253775 -0.031674874254635409
leaf_weight=23 3055 37 284 36 30 254 21 52 33 163 90 25 66 27 33 20 351 25 2245 678 24 59 448 325 145 49 28 25 20 116 71 25 24 26 23 134 203 24 125 33 32 23 20 79 135 39 28 43 24 29 56 26 32 26 23 35 26 509 23 21 91 28
leaf_count=23 3055 37 284 36 30 254 21 52 33 163 90 25 66 27 33 20 351 25 2245 678 24 59 448 325 145 49 28 25 20 116 71 25 24 26 23 134 203 24 125 33 32 23 20 79 135 39 28 43 24 29 56 26 32 26 23 35 26 509 23 21 91 28
internal_value=-0.00282634 -0.0236019 -0.0311017 0.0186919 -0.0195734 -0.00988586 -0.0231142 0.00754329 -0.0187688 -0.0331477 -0.000135935 0.00341735 -0.00520353 -0.0257519 0.0064695 -0.000706092 0.0355344 0.0103747 -0.0481258 -0.0163205 -0.0127246 -0.0104458 -0.0322447 -0.0275083 -0.025867 0.0159364 0.00334581 0.00313244 -0.0167845 -0.0202788 -0.00541165 -0.00159253 -0.00602911 0.0207013 0.0127474 0.0202599 -0.0108428 -0.0142661 -0.0110542 0.0207379 -0.0321078 -0.00920603 0.0106096 0.0380672 -0.0399033 0.0150616 -0.0146082 -0.0166015 0.0312046 0.0243433 0.00726622 0.019268 0.011261 0.0258871 0.0167202 0.0213759 0.0152353 -0.0181362 0.0185544 0.0286454 0.0273091 -0.0222831
internal_weight=10823 7768 6598 1170 3934 1053 2881 704 1952 284 654 564 334 121 213 427 466 204 2664 1668 874 121 929 481 399 230 55 62 562 794 312 241 194 181 103 277 223 124 149 77 357 100 45 430 419 181 77 76 78 53 81 137 62 75 47 100 65 529 49 54 143 49
internal_count=10823 7768 6598 1170 3934 1053 2881 704 1952 284 654 564 334 121 213 427 466 204 2664 1668 874 121 929 481 399 230 55 62 562 794 312 241 194 181 103 277 223 124 149 77 357 100 45 430 419 181 77 76 78 53 81 137 62 75 47 100 65 529 49 54 143 49
is_linear=0
shrinkage=0.05


Tree=4
num_leaves=63
num_cat=0
split_feature=58 43 73 52 68 50 107 49 6 60 18 57 18 79 49 57 18 99 57 18 18 57 49 84 49 18 35 35 66 107 70 70 49 18 96 64 5 70 26 49 16 8 49 29 105 38 12 16 49 98 24 98 107 39 49 66 98 29 109 113 31 18
split_gain=4686.92 948.897 500.195 86.4341 52.577 27.8355 32.139 27.4569 36.7805 27.2834 26.0172 33.6566 24.6026 22.855 18.0176 15.1763 30.2081 19.3017 15.0505 13.9658 13.7175 11.3404 9.65065 8.63063 9.32414 7.40527 7.01379 7.29871 6.55664 5.74799 5.73166 7.67268 5.69948 5.69105 5.53738 5.39587 5.21803 4.28399 4.16235 10.2804 4.45782 4.15362 10.6123 4.07673 4.05031 3.87244 3.86534 3.81528 3.77125 3.6935 3.4119 3.3064 3.20207 3.08948 2.96753 5.32464 2.77082 2.72698 2.66591 2.50497 2.40392 2.33836
threshold=1.0000000180025095e-35 1.0000000180025095e-35 1.0000000180025095e-35 477.20000000000005 1.5000000000000002 1350.0000000000002 5.4813721575086838 397.50000000000006 10.083709072915871 1.0000000180025095e-35 1.8027602617187346 1.0000000180025095e-35 2.0986402790628103 18.892885620925458 192.20000000000005 1.0000000180025095e-35 1.8603276782758624 3.1858178848729768 1.0000000180025095e-35 1.7442753582502224 1.8603276782758624 1.0000000180025095e-35 363.40000000000003 14.980404273052773 397.50000000000006 2.0773641037200781 8.5000000000000018 7.5000000000000009 8.4944596687715972 3.4087315275430505 4.2710499427232111 3.7022458088793431 192.20000000000005 1.9057875029352969 11.562409786941135 0.026550378606963389 2.4534452978042594 3.8885442677513313 0.5525000000000001 397.50000000000006 1.6074219240238492 1.5000000000000002 397.50000000000006 0.10750000000000001 13.249473199101081 2.5000000000000004 3.2108532830816032 3.2165617150230035 397.50000000000006 3.1637019638975636 0.0051000000000000012 1.2185215824898876 6.7520165689602178 1.0000000180025095e-35 363.40000000000003 1.1728193723745988 2.3008833125190109 0.26250000000000007 0.43530100000000005 13.933893779869093 9.5000000000000018 1.8027602617187346
decision_type=2 2 2 2 2 2 2 2 2 2 2 2 2 2 2 2 2 2 2 2 2 2 2 2 2 2 2 2 2 2 2 2 2 2 2 2 2 2 2 2 2 2 2 2 2 2 2 2 2 2 2 2 2 2 2 2 2 2 2 2 2 2
left_child=1 3 4 9 5 10 12 8 22 14 21 41 15 23 20 16 -7 50 54 -5 -1 -3 34 24 30 -18 27 29 -10 -14 31 44 -11 -16 -6 -24 -37 -33 39 40 -13 42 46 52 61 -36 -12 60 51 -28 -17 -23 -21 57 55 -8 -54 -49 -47 -20 -22 -4
right_child=-2 2 13 19 7 6 18 -9 28 32 11 38 26 -15 33 17 25 -19 59 43 47 48 35 -25 -26 -27 49 -29 -30 -31 -32 37 -34 -35 45 36 -38 -39 -40 -41 -42 -43 -44 -45 -46 58 -48 53 -50 -51 -52 -53 56 -55 -56 -57 -58 -59 -60 -61 -62 -63
leaf_value=-0.026220876237620479 0.050000000000000003 -0.047724091361282743 -0.043974542741540015 0.005185796051389642 0.017377155958389751 -0.048751732294376085 -0.013462324688831965 -0.018235582555014944 -0.018919713793031742 0.026504427689146754 -0.0022997187378887948 -0.021416443613944233 -0.0020072946832938631 -0.049217241677402893 -0.035858388603664935 0.029360367935150861 0.019251123319069544 -0.023688548649458782 -0.031928314254025127 0.038256023048112792 0.031527646826136679 -0.027779469514886541 0.030763650673453685 -0.048846424611441175 -0.044825326130761733 -0.014471486378915427 0.038097617623861879 -0.017282828712766922 0.010665788838551158 0.026516572209565267 -0.048629003721223751 -0.010525625624563318 0.012152602372399129 -0.007903639206048009 0.0096990093588829041 0.029833741745223172 -0.00019400324672460558 -0.029045192658446219 -0.033230613007200593 -0.036292040766431735 0.0070577646065170738 -0.016989037214118832 -0.02216218032035977 0.040704754749624962 -0.025208610646604075 0.004401034936308861 0.026176779090680859 -0.0076978259852954331 -0.035909751341456457 0.010707073826342822 0.0057040096157126956 -0.0035100907532741193 0.036068384794761307 0.017631715668196029 -0.018902277590200901 0.01234017383793126 0.014385943407783423 0.014465110425067984 -0.017694977272388546 -0.01724698186823816 0.012182456616742108 -0.03600341268398171
leaf_weight=23 3055 157 143 36 49 65 153 296 173 143 26 27 33 1696 20 35 27 46 243 60 42 36 77 251 385 41 32 27 21 38 71 41 134 203 37 23 39 131 485 65 28 747 50 306 63 20 22 35 63 20 27 23 23 55 209 23 41 23 43 33 26 258
leaf_count=23 3055 157 143 36 49 65 153 296 173 143 26 27 33 1696 20 35 27 46 243 60 42 36 77 251 385 41 32 27 21 38 71 41 134 203 37 23 39 131 485 65 28 747 50 306 63 20 22 35 63 20 27 23 23 55 209 23 41 23 43 33 26 258
internal_value=-0.00246733 -0.0231017 -0.0304606 0.0183974 -0.0177392 -0.0209535 -0.0145406 -0.00624932 0.00111154 0.00734065 -0.0248554 -0.022165 -0.00317761 -0.0453587 -0.000587269 -0.0130725 -0.024379 0.000851369 -0.0212621 0.0351011 0.0101512 -0.038838 0.0124475 -0.040486 -0.0385643 -0.00108163 0.0127201 0.00484441 -0.0157172 0.013259 -0.0351549 -0.0336507 0.0195617 -0.0104108 0.00360725 0.0219238 0.0109453 -0.0246306 -0.0311677 -0.0228301 -0.00692048 -0.0157193 -0.00604094 0.0376056 -0.0369944 -0.00314 0.010752 0.0147731 -0.0274025 0.0275628 0.0190584 -0.0183185 0.0299577 0.00914175 -0.014874 -0.0100904 0.0221781 0.00109092 -0.0106804 -0.0301729 0.024131 -0.038846
internal_weight=10823 7768 6598 1170 3559 2781 1052 778 482 704 1729 1450 391 3039 427 241 133 108 661 466 204 279 288 1343 1092 68 150 98 194 71 707 636 277 223 149 139 62 172 605 120 55 845 98 430 464 100 48 181 122 52 62 59 124 113 385 176 64 58 63 276 68 401
internal_count=10823 7768 6598 1170 3559 2781 1052 778 482 704 1729 1450 391 3039 427 241 133 108 661 466 204 279 288 1343 1092 68 150 98 194 71 707 636 277 223 149 139 62 172 605 120 55 845 98 430 464 100 48 181 122 52 62 59 124 113 385 176 64 58 63 276 68 401
is_linear=0
shrinkage=0.05


Tree=5
num_leaves=63
num_cat=0
split_feature=58 76 73 51 47 51 50 59 18 59 18 57 79 60 18 50 47 18 59 47 57 47 22 51 18 74 50 47 18 50 100 60 47 50 96 50 47 0 70 70 105 105 110 47 7 84 57 70 18 59 84 89 7 84 105 70 50 47 9 37 16 68
split_gain=4622.46 913.146 510.495 85.3195 53.8474 48.471 58.8343 39.1438 54.1009 33.952 61.6854 32.2784 26.731 25.1726 17.5694 18.4943 27.5623 16.2779 30.0323 14.097 12.2498 10.9879 10.7051 24.989 10.6281 10.292 10.2418 31.6518 9.69513 8.25092 8.09785 6.97742 6.91429 6.65851 6.31714 5.48936 11.5617 4.50417 4.21082 4.29578 3.93678 3.91002 3.48133 3.41753 3.51859 3.38188 3.06099 4.87215 3.87349 2.90716 2.86428 2.80805 2.7147 2.52155 2.66785 2.51056 2.31757 2.52146 2.3147 2.22872 2.22334 2.21402
threshold=1.0000000180025095e-35 1.0000000180025095e-35 1.0000000180025095e-35 121953.50000000001 13.250000000000002 121953.50000000001 703.50000000000011 1.0000000180025095e-35 1.8892926639314813 1.0000000180025095e-35 1.9003585391411926 1.0000000180025095e-35 18.892885620925458 1.0000000180025095e-35 1.8027602617187346 703.50000000000011 13.15 1.8027602617187346 1.0000000180025095e-35 13.050000000000002 1.0000000180025095e-35 13.350000000000003 1.2005000000000001 121953.50000000001 1.8603276782758624 1.0000000180025095e-35 1350.0000000000002 13.050000000000002 1.9799974191642085 1350.0000000000002 9.7943254394709509 1.0000000180025095e-35 13.050000000000002 1350.0000000000002 16.383701818938952 703.50000000000011 13.15 7.5887097689946197 4.2665491580363417 3.7022458088793431 15.849487026815094 10.851213475098769 1.9454734617449609 13.350000000000003 9.9985897404688124 3.3984201615073988 1.0000000180025095e-35 4.2168649464960355 1.7817405426972057 1.0000000180025095e-35 14.906365641345637 23.957450040538166 6.2760943797785762 4.078257378861756 14.598188505479387 3.9565481330833996 703.50000000000011 13.250000000000002 4.7201396066177947 5.5000000000000009 3.0513454564813549 1.5000000000000002
decision_type=2 2 2 2 2 2 2 2 2 2 2 2 2 2 2 2 2 2 2 2 2 2 2 2 2 2 2 2 2 2 2 2 2 2 2 2 2 2 2 2 2 2 2 2 2 2 2 2 2 2 2 2 2 2 2 2 2 2 2 2 2 2
left_child=1 2 4 13 11 6 7 21 -9 45 -11 17 25 14 -3 16 59 18 33 31 28 37 41 -24 -21 29 -13 -28 -8 46 58 34 -25 -1 -5 36 -15 -6 39 53 42 -19 60 -30 51 61 47 48 49 -4 56 -45 -18 -31 -55 -41 57 -50 -29 -16 -36 -7
right_child=-2 3 12 19 5 9 20 8 -10 10 -12 26 -14 35 15 -17 52 22 -20 24 -22 -23 23 32 -26 -27 27 30 43 38 -32 -33 -34 -35 40 -37 -38 -39 -40 55 -42 -43 -44 44 -46 -47 -48 -49 50 -51 -52 -53 -54 54 -56 -57 -58 -59 -60 -61 -62 -63
leaf_value=-0.019809331470990885 0.050000000000000003 -0.032938001246044513 -0.033145858021453027 -0.00052249201883872349 -0.0079266946762800213 0.028040106813220875 -0.037273285402493049 -0.048916447105316015 0.029571001819874113 -0.050000000000000003 0.039669042650391076 -0.033226306162097236 -0.049039842237560256 0.015255109782165458 -0.0072626028088973718 -0.0075404707290646113 0.020050627999007704 -0.01731902384274556 -0.050000000000000003 0.010000000000000002 -0.02850703373662682 0.037207993361252273 -0.017709150426408166 -0.00035743631888180972 0.048388848974893657 -0.050000000000000003 -0.031029920101401588 0.011356460629031062 -0.018028765710565331 -0.02034659917408135 -0.01438243365423246 0.036450948781566697 0.033433715544822738 0.0081509102977091272 0.018714659761845772 0.011594852344037395 0.04506926483102143 0.023394572108306672 -0.047027109527006387 -0.0084421513427514593 0.042783647775650024 0.0022810785744625788 0.0056778669357299806 -0.013572846295147982 0.0080558931386029275 0.014488552032929401 -0.045425463899145611 -0.047862726315721742 -0.032228156521099886 -0.050000000000000003 -0.048094140099627633 0.00055627757033636406 0.041277880954449293 -0.037298684716671519 -0.019964628542773425 -0.026270083093376303 -0.035825441172696593 -0.017653376301284881 0.035412119815591725 0.010187861807450342 0.037097780958845701 0.043390695362662275
leaf_weight=68 3055 38 40 30 24 46 44 52 38 44 34 550 1696 93 77 207 20 1192 99 20 251 88 117 24 183 202 195 20 177 32 22 113 41 31 38 134 50 22 41 28 25 26 28 193 27 23 244 111 73 71 28 43 61 198 25 67 133 50 20 24 29 48
leaf_count=68 3055 38 40 30 24 46 44 52 38 44 34 550 1696 93 77 207 20 1192 99 20 251 88 117 24 183 202 195 20 177 32 22 113 41 31 38 134 50 22 41 28 25 26 28 193 27 23 244 111 73 71 28 43 61 198 25 67 133 50 20 24 29 48
internal_value=-0.00210529 -0.0225973 -0.0298162 0.0181125 -0.0169645 -0.00808591 -0.0127067 0.00972672 -0.0157773 0.0146389 -0.0109135 -0.0212247 -0.0448669 0.00712731 -0.000487752 0.0026822 0.0143091 -0.0171083 -0.0305271 0.0347082 -0.0195436 0.0268563 -0.0152105 -0.00389982 0.0446067 -0.0395972 -0.0293759 -0.0211357 -0.0148951 -0.0377556 0.00998319 0.0270679 0.020957 -0.0110541 0.0199993 0.0188661 0.0256796 0.00705304 -0.0318668 -0.0300909 0.0251297 -0.0169006 0.0204839 -0.0126573 -0.00904232 0.0316738 -0.0408255 -0.0386074 -0.0360065 -0.0439264 -0.0329111 -0.0109985 0.0360366 -0.0334719 -0.0353554 -0.0210155 -0.0312504 -0.0263034 0.0233843 -0.00311596 0.0266715 0.0358787
internal_weight=10823 7768 6598 1170 3559 1154 959 224 90 195 78 2405 3039 704 427 389 182 1598 198 466 735 134 1400 182 203 1343 807 257 484 1141 62 263 65 99 150 277 143 46 391 350 120 1218 95 440 263 117 750 506 395 111 284 236 81 255 223 95 256 123 40 101 67 94
internal_count=10823 7768 6598 1170 3559 1154 959 224 90 195 78 2405 3039 704 427 389 182 1598 198 466 735 134 1400 182 203 1343 807 257 484 1141 62 263 65 99 150 277 143 46 391 350 120 1218 95 440 263 117 750 506 395 111 284 236 81 255 223 95 256 123 40 101 67 94
is_linear=0
shrinkage=0.05


Tree=6
num_leaves=63
num_cat=0
split_feature=58 43 79 52 85 47 60 107 18 57 107 49 57 49 60 12 78 50 70 18 49 47 79 12 18 72 47 49 50 18 50 47 57 50 47 60 113 96 78 49 47 89 50 49 23 105 70 70 114 4 79 11 92 81 3 70 78 18 7 85 98 21
split_gain=4557.02 882.252 414.323 83.9999 63.828 44.0504 37.5355 29.2766 27.6453 39.5257 32.0724 27.1061 26.4447 24.1589 23.3381 19.1085 18.8851 20.5944 17.7811 17.446 17.7941 26.879 16.5554 18.1551 16.2086 27.6324 14.8125 13.5041 11.3675 10.5915 9.17647 22.9334 7.67077 7.22715 26.1205 6.69137 6.6661 6.09023 5.56017 5.4935 11.9241 5.41253 5.0406 5.00753 4.56478 3.98307 3.928 5.64441 3.89249 3.52332 3.33487 3.26419 3.16308 3.12485 3.05917 2.85685 2.8222 4.67344 2.76106 2.62358 2.79758 2.71445
threshold=1.0000000180025095e-35 1.0000000180025095e-35 15.791439578352383 477.20000000000005 12.46971931963793 13.250000000000002 1.0000000180025095e-35 5.5989359611995626 1.8721464915613384 1.0000000180025095e-35 5.445073547714359 397.50000000000006 1.0000000180025095e-35 397.50000000000006 1.0000000180025095e-35 3.9134164492455761 8.553357542250529 2658.8000000000006 3.6603274407905948 1.8027602617187346 192.20000000000005 13.15 18.892885620925458 4.172106398171711 1.8027602617187346 5.022197059679228 13.050000000000002 397.50000000000006 1350.0000000000002 1.8603276782758624 1350.0000000000002 13.050000000000002 1.0000000180025095e-35 1350.0000000000002 13.050000000000002 1.0000000180025095e-35 11.588260003517989 16.383701818938952 8.4260986324157834 192.20000000000005 13.15 12.476746203939468 1350.0000000000002 397.50000000000006 0.0092500000000000013 15.849487026815094 4.2665491580363417 2.9931618885253832 26.875177024865962 6.4346041252754143 16.737421464238842 5.4763962215220472 5.0655050230983907 46.124571270832497 7.9971767184294302 3.9565481330833996 9.693600396386314 2.2866795194690002 6.2760943797785762 22.77256137227473 1.192453841495108 4.5245000000000006
decision_type=2 2 2 2 2 2 2 2 2 2 2 2 2 2 2 2 2 2 2 2 2 2 2 2 2 2 2 2 2 2 2 2 2 2 2 2 2 2 2 2 2 2 2 2 2 2 2 2 2 2 2 2 2 2 2 2 2 2 2 2 2 2
left_child=1 3 4 14 5 12 8 11 9 -7 13 18 24 16 19 28 17 -10 -8 -1 21 49 23 -4 25 -3 35 51 56 -28 -14 -32 -12 38 52 37 -33 -5 -26 40 -16 -36 -27 50 -43 53 47 59 -17 -21 -25 -11 -35 54 -39 -49 57 -6 -23 60 -30 -62
right_child=-2 2 22 26 15 6 7 -9 10 27 32 -13 30 -15 39 48 -18 -19 -20 20 -22 58 -24 43 33 42 29 -29 46 -31 31 36 -34 34 41 -37 -38 45 -40 -41 -42 44 -44 -45 -46 -47 -48 55 -50 -51 -52 -53 -54 -55 -56 -57 -58 -59 -60 -61 61 -63
leaf_value=-0.032634624917256209 0.050000000000000003 -0.049493245411779463 -0.045803825154064066 -0.00050333393737673766 -0.040247808051615611 -0.049485408445867171 0.033743105617288813 -0.010768102373395649 0.031148926747430652 0.0239330246216721 -0.011548770075508703 -0.019881049295266472 -0.032063500825109517 -0.027272144709388879 0.014566169466894692 -0.01710353016646372 -0.03060125682502985 -0.015497630710403124 -0.013869495127026156 -0.0075832574386839524 -0.0071670898334190688 0.019599488899111749 -0.048828315732666772 -0.007238719689434972 -0.016903713405209797 -0.01898075622462091 0.010000000000000002 -0.034157615381738414 -0.039355985888025982 0.048322743978707602 -0.029436297650346582 0.015589633625414637 -0.025835207568319599 -0.016819211497877403 -0.00016602519899606706 0.035757413077483931 -0.017993856928395956 0.040174090396612884 -0.036678624032316982 0.011062700647679193 0.04484391852468253 0.042796425335109238 0.0065158574974962654 -0.038175558695545446 0.011265125057914041 0.042441378593444823 -0.046131375680367154 -0.003667105288823714 0.0064439941269273937 0.015850889456924051 -0.026179321422032678 -0.0020125069613145157 0.0036770473420619969 0.0059834041765757968 0.017891293985032759 -0.023185826269419573 -0.045654678570813151 -0.025159182235074698 0.041007206308060012 -0.042262148771967212 -0.029822024715098518 -0.012757898574672279
leaf_weight=38 3055 97 383 30 259 119 133 175 112 27 192 39 542 43 93 54 20 30 23 81 207 20 1696 29 905 63 20 23 33 183 191 45 184 320 28 113 22 24 37 134 50 24 28 77 22 25 24 37 26 20 117 22 20 28 43 38 145 64 61 35 54 41
leaf_count=38 3055 97 383 30 259 119 133 175 112 27 192 39 542 43 93 54 20 30 23 81 207 20 1696 29 905 63 20 23 33 183 191 45 184 320 28 113 22 24 37 134 50 24 28 77 22 25 24 37 26 20 117 22 20 28 43 38 145 64 61 35 54 41
internal_value=-0.00173513 -0.0220815 -0.0291773 0.0179337 -0.0200055 -0.0170677 -0.00901527 0.00407853 -0.0152908 -0.031793 -0.00986578 0.0174024 -0.0209908 0.00604402 0.00703374 -0.0326489 0.0148872 0.021294 0.0267233 -0.000298595 0.00286019 0.0142649 -0.0462937 -0.0392001 -0.017168 -0.0309265 0.0344005 -0.00255151 -0.0351912 0.0445471 -0.0283689 -0.0206072 -0.01854 -0.0152605 -0.00975437 0.0265687 0.00456222 0.0196465 -0.0176804 0.0183366 0.0251528 0.0171662 -0.0111356 -0.0278584 0.0277162 0.0246839 -0.0268522 -0.0249081 -0.00945058 -0.00294283 -0.0224171 0.012284 -0.0156135 0.0200109 0.0258732 -0.0135566 -0.0398596 -0.0372581 0.0357214 -0.0301312 -0.0268141 -0.0224575
internal_weight=10823 7768 6598 1170 4296 3486 1142 370 772 191 581 195 2344 205 704 810 162 142 156 427 389 182 2302 606 1544 188 466 72 730 203 800 258 376 1356 414 263 67 150 942 277 143 74 91 223 46 120 262 238 80 101 146 49 340 95 67 75 468 323 81 163 128 95
internal_count=10823 7768 6598 1170 4296 3486 1142 370 772 191 581 195 2344 205 704 810 162 142 156 427 389 182 2302 606 1544 188 466 72 730 203 800 258 376 1356 414 263 67 150 942 277 143 74 91 223 46 120 262 238 80 101 146 49 340 95 67 75 468 323 81 163 128 95
is_linear=0
shrinkage=0.05


Tree=7
num_leaves=63
num_cat=0
split_feature=58 77 88 15 51 68 18 59 57 47 51 49 49 47 47 18 51 114 49 26 47 15 47 15 60 49 47 47 18 2 50 60 60 96 18 49 11 47 77 78 27 105 0 29 47 28 114 121 118 121 7 47 25 47 111 120 37 57 18 59 11 49
split_gain=4491.47 902.425 383.679 166.212 82.6454 41.4885 29.0749 53.7086 38.6019 22.7617 42.1456 24.2225 22.3939 24.6999 21.0043 19.8216 18.8188 18.544 15.9706 15.6709 15.5222 15.4748 14.2857 13.5693 13.1657 12.0402 11.3982 10.931 10.5551 8.50481 10.7155 6.41012 6.11553 5.90289 5.63137 5.22109 5.08624 4.98636 4.64154 5.38622 4.5467 4.14119 4.02558 3.77901 3.75262 3.70115 3.57209 3.56871 4.04989 3.3426 3.31712 3.06821 2.94638 4.48422 2.80172 2.71191 2.7052 2.59302 2.56572 2.58899 2.30194 2.20461
threshold=1.0000000180025095e-35 4.0004338607656145 0.12950000000000003 4.1457400992589379 121953.50000000001 1.5000000000000002 1.8027602617187346 1.0000000180025095e-35 1.0000000180025095e-35 13.15 121953.50000000001 192.20000000000005 192.20000000000005 13.15 13.350000000000003 1.5622521124171413 121953.50000000001 8.3922918643781195 397.50000000000006 0.5525000000000001 13.050000000000002 3.841609694155069 13.250000000000002 4.318897654129028 1.0000000180025095e-35 397.50000000000006 13.15 13.250000000000002 1.8603276782758624 11.792481250360579 1350.0000000000002 1.0000000180025095e-35 1.0000000180025095e-35 15.565177105836089 1.9057875029352969 363.40000000000003 5.7045792380865681 13.350000000000003 6.844182140516641 6.767536928585594 2.0805000000000002 16.09379403747489 6.9483554078630583 0.040500000000000008 13.15 0.22850000000000004 8.04165655432538 8.5820708409919302 24.132211981379715 9.8965332180093935 6.1189037368615686 13.350000000000003 0.0029000000000000002 13.050000000000002 3.8121420000000006 4.4003135000000011 5.5000000000000009 1.0000000180025095e-35 1.8228093691213478 1.0000000180025095e-35 6.0739015196871842 397.50000000000006
decision_type=2 2 2 2 2 2 2 2 2 2 2 2 2 2 2 2 2 2 2 2 2 2 2 2 2 2 2 2 2 2 2 2 2 2 2 2 2 2 2 2 2 2 2 2 2 2 2 2 2 2 2 2 2 2 2 2 2 2 2 2 2 2
left_child=1 2 4 18 12 6 7 16 17 52 11 14 13 32 42 -15 37 22 21 25 31 27 36 61 34 40 -18 35 -22 30 44 33 56 -6 -14 -3 -8 -4 -29 -40 -10 47 -11 -21 -19 -37 -45 60 -49 -32 -17 -31 -7 -54 -53 -42 -1 58 59 -20 -35 -5
right_child=-2 3 5 23 20 9 8 -9 19 10 -12 -13 24 15 -16 50 26 29 57 43 28 -23 -24 -25 -26 -27 -28 38 -30 51 49 -33 -34 41 -36 45 -38 -39 39 -41 55 -43 -44 46 -46 -47 -48 48 -50 -51 -52 54 53 -55 -56 -57 -58 -59 -60 -61 -62 -63
leaf_value=-0.0080108808120712641 0.050000000000000003 -0.02606237026278016 -0.027450132107845061 -0.035902784124278185 -0.0039990852384463602 -0.015854683318192817 -0.016442408573089373 -0.050000000000000003 -0.011613111844840082 -0.020653807336375826 0.043320016174624533 -0.013652920574773084 -0.034591996502131225 -0.014817232154309752 0.045676303865053718 0.021039024604992435 -0.012518530764750072 -0.018511980040757745 -0.027862712155495375 -0.006043546256564912 0.010000000000000002 -0.025842471873811307 0.034826613418959283 -0.049422800703971981 0.010551722540989052 -0.029968460674651642 0.031164112780243159 0.017035761436349467 0.048256729291802879 -0.01499659672750224 0.034515315081392016 0.035077072890162202 0.013908342386174055 0.016177899488247934 -0.0067842177894589231 -0.015635452579761691 0.015005823038518429 -0.00082233455032110214 -0.02327782680769451 0.0056679244753387245 0.0022015416260921595 0.042233789339661598 0.0099515416405417719 -0.0072188370994159161 0.0023286411124798989 0.0054477388419521353 -0.028135715284804394 -0.0033402400850145904 0.023799907123403893 0.0063043727938617983 0.042373969490235711 -0.010727235393421929 -0.015427588950842619 0.010679583765309433 0.0059182249730633154 0.02518617120527086 0.01077729229722172 -0.039098528171739276 -0.025388124579829831 -0.050000000000000003 0.038387635496578053 -0.044165076661109928
leaf_weight=82 3055 86 108 228 23 267 36 190 37 21 59 181 20 20 39 22 28 54 28 21 20 299 37 2102 134 44 32 38 183 932 21 113 93 20 203 68 20 21 25 45 33 24 22 21 36 30 728 27 28 21 106 137 38 29 31 21 25 93 140 25 28 125
leaf_count=82 3055 86 108 228 23 267 36 190 37 21 59 181 20 20 39 22 28 54 28 21 20 299 37 2102 134 44 32 38 183 932 21 113 93 20 203 68 20 21 25 45 33 24 22 21 36 30 728 27 28 21 106 137 38 29 31 21 25 93 140 25 28 125
internal_value=-0.00136172 -0.0215613 -0.00679136 -0.0412249 0.0177626 -0.0155977 -0.0184239 -0.0312273 -0.0162479 -0.00435741 0.00512821 -0.00343954 0.00696321 0.015989 0.0191046 0.031474 -0.0123553 -0.0108112 -0.0225407 -0.0242078 0.0341007 -0.017847 0.010718 -0.0478995 -0.00183503 -0.00849435 0.0107789 -0.00965984 0.0444876 -0.0124364 -0.000443958 0.0260835 0.00453008 0.0193084 -0.00927819 -0.0170714 -0.0052109 -0.0231154 0.00296731 -0.00466984 0.00188874 0.0235294 -0.00499526 -0.0269627 -0.0101757 -0.00918141 -0.0275493 0.0191711 0.0104766 0.0204098 0.038707 -0.0138754 -0.0135022 -0.00412747 -0.00765575 0.01114 -0.00362112 -0.0322401 -0.0289352 -0.0383048 0.0291336 -0.0388285
internal_weight=10823 7768 4436 3332 1171 3265 2609 379 2230 656 322 263 705 348 82 148 189 1325 877 905 466 591 93 2455 357 135 60 292 203 1232 132 263 200 150 223 184 56 129 108 70 91 127 43 770 90 98 749 103 55 42 128 1100 334 67 168 54 107 286 193 53 48 353
internal_count=10823 7768 4436 3332 1171 3265 2609 379 2230 656 322 263 705 348 82 148 189 1325 877 905 466 591 93 2455 357 135 60 292 203 1232 132 263 200 150 223 184 56 129 108 70 91 127 43 770 90 98 749 103 55 42 128 1100 334 67 168 54 107 286 193 53 48 353
is_linear=0
shrinkage=0.05


Tree=8
num_leaves=63
num_cat=0
split_feature=58 77 88 79 52 68 77 18 59 57 50 47 47 52 50 47 18 114 52 47 86 87 68 47 107 60 74 18 47 47 2 50 50 79 12 52 60 47 72 96 18 77 16 57 11 57 78 47 47 50 50 105 0 30 0 50 77 47 110 121 77 77
split_gain=4429.38 897.106 364.542 85.8457 81.349 39.3941 33.8275 31.1619 55.4153 35.0565 21.7671 24.6257 21.307 39.344 22.7942 19.9508 19.5597 17.2686 17.0456 16.2224 16.1162 14.7696 13.9894 13.4389 12.1125 12.0634 11.6097 10.5157 10.3221 9.50914 7.90511 10.0791 7.82071 7.25451 9.60799 7.13756 6.12832 6.0496 5.96287 5.67397 5.52275 5.10021 4.79668 4.77582 4.71853 4.5264 4.58487 4.5176 4.50653 6.27003 4.09763 4.07196 3.73267 3.69723 3.68512 3.54277 3.41707 3.41324 3.24389 3.23745 3.20682 5.42701
threshold=1.0000000180025095e-35 4.0004338607656145 0.12950000000000003 16.813161405153227 477.20000000000005 1.5000000000000002 8.0367766181765194 1.8027602617187346 1.0000000180025095e-35 1.0000000180025095e-35 703.50000000000011 13.15 13.15 477.20000000000005 703.50000000000011 13.350000000000003 1.5622521124171413 8.3922918643781195 477.20000000000005 13.050000000000002 3.7558748556724919 12.152762381988984 1.5000000000000002 13.250000000000002 4.2235239836923801 1.0000000180025095e-35 1.0000000180025095e-35 1.8603276782758624 13.15 13.250000000000002 11.792481250360579 1350.0000000000002 1350.0000000000002 19.960549021118865 4.5068025674503458 477.20000000000005 1.0000000180025095e-35 12.950000000000001 7.8795799979634209 16.383701818938952 1.9057875029352969 8.4713585168445249 1.4697596263093093 1.0000000180025095e-35 5.7045792380865681 1.0000000180025095e-35 6.4510883072219736 13.350000000000003 13.250000000000002 703.50000000000011 703.50000000000011 15.849487026815094 6.0333809661934543 196.50000000000003 6.9483554078630583 1350.0000000000002 7.2943666356484709 13.15 1.9454734617449609 9.8965332180093935 10.010368642351899 12.628206605179907
decision_type=2 2 2 2 2 2 2 2 2 2 2 2 2 2 2 2 2 2 2 2 2 2 2 2 2 2 2 2 2 2 2 2 2 2 2 2 2 2 2 2 2 2 2 2 2 2 2 2 2 2 2 2 2 2 2 2 2 2 2 2 2 2
left_child=1 2 4 6 10 7 20 8 18 17 11 38 -7 14 15 54 -13 23 47 36 22 41 45 44 29 40 33 -21 -20 32 31 57 -11 34 -5 43 39 -37 -1 -6 -12 -8 -26 48 -9 -3 -47 -4 -22 -50 -31 58 -39 -18 -14 -36 -54 -19 -41 -33 -43 -62
right_child=-2 3 5 26 19 12 21 9 -10 24 25 16 13 -15 -16 -17 53 30 28 27 35 -23 -24 -25 42 -27 -28 -29 -30 50 -32 59 -34 -35 55 37 -38 52 -40 51 -42 60 -44 -45 -46 46 -48 -49 49 -51 -52 -53 56 -55 -56 -57 -58 -59 -60 -61 61 -63
leaf_value=-0.0022077823104520188 0.050000000000000003 -0.044154724251964816 -0.026128459273389096 -0.042744594997139243 -0.00046492594604690871 -0.012817352269859817 -0.033905674793890547 -0.01573447136518856 -0.050000000000000003 -0.03048438487921731 -0.033986636595800521 -0.014743146002292635 -0.019670292947973525 0.042108524035094151 -0.012977817588748195 0.044696033115570362 0.020269635902798695 -0.01763780318476536 -0.011914958778236595 0.010000000000000002 -0.021410695619526365 -0.0087909208796918391 -0.010886881110491232 0.033916232493278145 -0.0052149189370019099 0.010063508356601667 -0.050000000000000003 0.048185313334230519 0.029654600957292134 0.021622956967136512 -0.013198352225167168 0.033857880497262592 0.0024303097994281698 -0.047648149728775027 -0.032579493287852722 -0.02397018608547026 0.034402303898344394 -0.017539711899589746 0.015725067685787211 0.025094362784788684 -0.0064483490091974491 -0.046446915051566999 -0.026301289164292214 -0.032082610354774582 0.014555648230016233 -0.019049501291980658 -0.044508469903043343 -0.00078317607708630111 0.011532322726755714 -0.02316677194574605 -0.0052009823492595135 0.041800845026969909 0.019765561716631058 0.04240336941821235 0.0096122845330021602 -0.015140745606982992 -0.0023286143999679816 0.0022380828449968249 0.0048292850975745491 0.0060942269152119049 -0.025666847269524607 -0.048003830588780917
leaf_weight=127 3055 115 108 368 30 334 210 36 190 59 20 20 21 59 181 39 23 54 28 20 105 40 64 37 28 134 1211 183 32 24 1100 21 26 385 95 31 113 20 73 67 203 277 733 59 20 48 28 21 30 23 35 25 30 105 22 42 42 36 28 21 57 52
leaf_count=127 3055 115 108 368 30 334 210 36 190 59 20 20 21 59 181 39 23 54 28 20 105 40 64 37 28 134 1211 183 32 24 1100 21 26 385 95 31 113 20 73 67 203 277 733 59 20 48 28 21 30 23 35 25 30 105 22 42 42 36 28 21 57 52
internal_value=-0.00100545 -0.0210649 -0.00633856 -0.0406705 0.0175952 -0.0149225 -0.0301857 -0.0176764 -0.0309314 -0.0154237 0.00688085 0.0157794 -0.00396957 0.00520794 -0.00307014 0.0187993 0.0312412 -0.0102426 -0.0117619 0.0338047 -0.0216164 -0.0382026 -0.0311183 0.010533 -0.0230092 -0.00179338 -0.0468137 0.0444232 0.0102555 -0.00971163 -0.0118109 -0.000249062 -0.0204164 -0.0424781 -0.0385366 -0.0144899 0.0256087 -0.00486752 0.00433771 0.0189841 -0.00891815 -0.0401765 -0.0255254 -0.0199441 -0.00491657 -0.0378974 -0.0284291 -0.0220025 -0.0154113 -0.00352577 0.00571045 0.0238464 0.00156925 0.0384262 -0.00468851 -0.0272333 0.00687729 -0.00968745 0.0191215 0.0199761 -0.0435881 -0.036323
internal_weight=10823 7768 4436 3332 1171 3265 1231 2609 379 2230 705 348 656 322 263 82 148 1325 189 466 595 636 255 93 905 357 2101 203 60 144 1232 132 85 890 505 340 263 123 200 150 223 596 761 217 56 191 76 129 158 53 59 120 92 128 43 137 72 90 95 42 386 109
internal_count=10823 7768 4436 3332 1171 3265 1231 2609 379 2230 705 348 656 322 263 82 148 1325 189 466 595 636 255 93 905 357 2101 203 60 144 1232 132 85 890 505 340 263 123 200 150 223 596 761 217 56 191 76 129 158 53 59 120 92 128 43 137 72 90 95 42 386 109
is_linear=0
shrinkage=0.05


Tree=9
num_leaves=63
num_cat=0
split_feature=58 77 43 15 51 68 18 59 57 49 47 47 51 49 15 18 47 47 114 51 26 47 49 15 60 18 49 47 47 62 50 49 4 0 4 72 18 49 77 78 11 47 47 20 30 18 59 57 0 47 96 25 121 47 11 82 63 47 25 50 111 96
split_gain=4369.51 889.073 346.409 183.656 79.9668 37.1594 33.2481 57.0555 31.8924 21.1296 24.6691 19.9428 36.5739 21.3497 19.7703 19.4175 18.8224 16.9798 16.0256 15.4295 13.0203 12.5954 12.3245 11.2158 11.0563 10.4722 10.2426 9.375 9.33875 7.32983 9.4768 6.27252 5.94838 6.1923 5.91111 6.59914 5.41279 4.44259 4.38205 4.941 4.3778 4.0929 3.92134 4.38618 3.84738 3.81731 6.00205 4.24693 3.37376 3.36552 4.84098 3.36473 3.13017 3.1046 2.99289 3.07647 2.82238 2.67398 2.64737 4.29441 2.53385 2.31361
threshold=1.0000000180025095e-35 4.0004338607656145 1.0000000180025095e-35 4.2288236117642457 121953.50000000001 1.5000000000000002 1.8027602617187346 1.0000000180025095e-35 1.0000000180025095e-35 192.20000000000005 13.15 13.15 121953.50000000001 192.20000000000005 3.841609694155069 1.5622521124171413 13.350000000000003 13.050000000000002 8.3922918643781195 121953.50000000001 0.5525000000000001 13.250000000000002 397.50000000000006 4.4357169777103485 1.0000000180025095e-35 1.8603276782758624 397.50000000000006 13.250000000000002 13.15 0.2413793103448276 1350.0000000000002 397.50000000000006 6.0979936490142554 7.3174055250858601 6.8137669422363967 7.9512817709857773 1.9057875029352969 363.40000000000003 6.844182140516641 6.767536928585594 5.7045792380865681 13.350000000000003 13.250000000000002 4.5900436644025815 196.50000000000003 1.8228093691213478 1.0000000180025095e-35 1.0000000180025095e-35 6.9483554078630583 13.050000000000002 14.000809501211966 0.0077500000000000008 9.8965332180093935 13.15 5.9989128497995141 22.897667292966734 21.923300229182583 13.350000000000003 0.0029000000000000002 1350.0000000000002 3.8121420000000006 25.866081147183014
decision_type=2 2 2 2 2 2 2 2 2 2 2 2 2 2 2 2 2 2 2 2 2 2 2 2 2 2 2 2 2 2 2 2 2 2 2 2 2 2 2 2 2 2 2 2 2 2 2 2 2 2 2 2 2 2 2 2 2 2 2 2 2 2
left_child=1 2 4 14 9 6 7 19 18 10 34 58 13 16 22 -12 48 32 21 41 26 40 27 -5 36 -19 42 37 -21 30 53 45 33 -6 35 -1 -11 -3 -29 -40 -8 -4 -10 -44 -17 46 -16 -47 -13 -39 -51 -22 -32 -20 -35 -56 -46 -31 -7 -60 -59 -34
right_child=-2 3 5 23 17 11 8 -9 20 24 15 12 -14 -15 31 44 -18 25 29 28 51 -23 -24 -25 -26 -27 -28 38 -30 57 52 -33 61 54 -36 -37 -38 49 39 -41 -42 -43 43 -45 56 47 -48 -49 -50 50 -52 -53 -54 -55 55 -57 -58 60 59 -61 -62 -63
leaf_value=-0.0062079249754389276 0.050000000000000003 -0.023906627500992875 -0.024870422144454937 -0.040796069993570827 0.0023569793850918741 -0.014437189303802445 -0.015057015253437889 -0.050000000000000003 -0.0099548646177236855 -0.033391870418563487 -0.014669430255889893 -0.018733612412498112 0.040809246405201449 -0.012338545387456431 -0.024875052300232806 0.019828991656718049 0.043568868667651445 0.010000000000000002 -0.016804906546517655 -0.011340487429073879 -0.025022841970915744 0.032957348771191934 -0.026084893343003492 -0.049734076946024885 0.0095978833739333025 0.048106321024764434 -0.027352808822285048 0.016614312306046486 0.028199441773631408 -0.013584710238938145 0.033190878196841196 -0.036247095623344341 0.042871045292570048 0.01705629455565072 0.026885962918400765 0.014167912844873842 -0.0061291078484062055 -0.017987015542197737 -0.022298177276737989 0.0054254529604481332 0.014118978679180145 -0.00074588165928920114 0.028662199562504178 -0.00093320457925719601 0.048042710482234685 -0.017903787520181232 -0.049212420143579183 -0.030630701959763435 0.0092845930294557059 -0.015779021849933392 0.015083685034403094 -0.0073661438721631251 0.0058910861788761051 0.0021510463583076164 0.036924845478948087 0.015161359183151613 0.030345351248979569 -0.0096532035822959727 -0.015424866442169463 0.0099176703486591588 0.0061765518880659539 0.023528304120356388
leaf_weight=114 3055 86 108 433 38 267 36 190 39 20 20 21 59 181 76 23 39 20 54 28 742 37 158 1853 134 183 44 38 32 933 21 189 52 67 25 61 203 47 25 45 20 21 21 31 71 194 38 99 22 24 27 28 21 36 62 22 33 137 35 32 31 22
leaf_count=114 3055 86 108 433 38 267 36 190 39 20 20 21 59 181 76 23 39 20 54 28 742 37 158 1853 134 183 44 38 32 933 21 189 52 67 25 61 203 47 25 45 20 21 21 31 71 194 38 99 22 24 27 28 21 36 62 22 33 137 35 32 31 22
internal_value=-0.000659553 -0.0205829 -0.00592272 -0.0401006 0.0174218 -0.0142856 -0.0169594 -0.0306512 -0.0146334 0.00678674 0.0155729 -0.00364745 0.0052314 -0.00274995 -0.0227469 0.0311232 0.0184151 0.0334884 -0.00969465 -0.0112001 -0.0218696 0.0103199 -0.0148359 -0.0480411 -0.00175331 0.044352 -0.00754657 -0.00874918 0.00974747 -0.0112043 -7.05002e-05 -0.0287199 0.0251032 0.020398 0.00414344 0.00089451 -0.0085742 -0.015613 0.00294477 -0.00447584 -0.00463702 -0.0209432 0.00203008 0.0110188 0.0383346 -0.0252244 -0.0329875 -0.022204 -0.00439872 -0.00833497 0.000560058 -0.0243808 0.019541 -0.00922253 0.0249382 0.0312249 0.0424272 -0.0125391 -0.0122073 -0.00332097 -0.00673224 0.0371205
internal_weight=10823 7768 4436 3332 1170 3266 2610 379 2231 704 347 656 322 263 1046 147 82 466 1326 189 905 93 450 2286 357 203 135 292 60 1233 132 596 263 189 200 175 223 184 108 70 56 129 91 52 127 407 114 293 43 98 51 770 42 90 151 84 104 1101 334 67 168 74
internal_count=10823 7768 4436 3332 1170 3266 2610 379 2231 704 347 656 322 263 1046 147 82 466 1326 189 905 93 450 2286 357 203 135 292 60 1233 132 596 263 189 200 175 223 184 108 70 56 129 91 52 127 407 114 293 43 98 51 770 42 90 151 84 104 1101 334 67 168 74
is_linear=0
shrinkage=0.05


Tree=10
num_leaves=63
num_cat=0
split_feature=58 77 88 15 52 68 96 59 57 49 15 64 49 26 99 114 15 52 49 49 72 96 50 70 96 50 7 96 0 2 50 29 72 86 59 28 111 30 28 0 110 30 78 57 49 78 111 80 30 34 100 26 33 100 111 81 9 59 36 63 96 38
split_gain=4310.99 880.811 332.094 190.258 78.5674 35.3992 23.3819 42.9344 21.0001 20.7248 20.3396 17.8033 16.1212 13.4191 13.2335 16.3242 12.584 11.8957 11.1461 10.8582 10.136 9.77331 9.06467 8.7535 8.28341 6.50864 6.34531 6.25241 7.98635 6.24567 10.089 5.75873 5.32111 7.39991 11.7125 5.28241 4.47692 4.24546 5.11198 4.09685 3.64137 3.5396 3.43329 4.19929 3.3955 3.28936 3.27934 3.25572 3.41248 3.1813 3.17786 3.77401 3.05688 3.0478 2.83243 2.75025 2.72642 2.70494 2.60091 2.58394 2.57584 2.53849
threshold=1.0000000180025095e-35 4.0765858253576823 0.12950000000000003 4.2511148038296787 477.20000000000005 1.5000000000000002 8.9758131108327159 1.0000000180025095e-35 1.0000000180025095e-35 192.20000000000005 3.841609694155069 0.026550378606963389 397.50000000000006 0.5525000000000001 1.8027602617187346 8.3922918643781195 4.4497483023733295 477.20000000000005 397.50000000000006 397.50000000000006 1.0000000180025095e-35 12.059239292426971 1350.0000000000002 3.3766660303373359 11.705227784728651 1350.0000000000002 5.7943573177911327 13.849525325872024 6.0552416549081132 11.792481250360579 1350.0000000000002 0.10750000000000001 6.2573570270692445 3.708590845150344 1.0000000180025095e-35 0.21050000000000002 1.2831635000000001 120.50000000000001 0.18850000000000003 6.9128769164415571 0.58004648377305024 250.50000000000003 7.1044299845540522 1.0000000180025095e-35 397.50000000000006 7.5969662116007735 1.9153080000000002 3.2123828867359516 435.50000000000006 2.5000000000000004 8.7048418480662342 0.5465000000000001 11.500000000000002 6.243786244378466 1.7544600000000001 36.602046957595078 4.0965622991772319 1.0000000180025095e-35 2.5000000000000004 32.646158015991332 24.087686230326756 2.5000000000000004
decision_type=2 2 2 2 2 2 2 2 2 2 2 2 2 2 2 2 2 2 2 2 2 2 2 2 2 2 2 2 2 2 2 2 2 2 2 2 2 2 2 2 2 2 2 2 2 2 2 2 2 2 2 2 2 2 2 2 2 2 2 2 2 2
left_child=1 2 4 10 9 6 7 17 14 23 18 12 37 19 -8 22 -5 -4 32 36 45 -6 44 24 -1 42 -13 28 -17 30 58 50 33 34 -3 -35 -10 38 -7 -15 54 55 57 -44 -16 -11 -38 48 -43 -48 60 -52 -40 -34 -28 -26 -33 -12 -29 -19 -23 -39
right_child=-2 3 5 16 21 11 8 -9 13 20 25 26 -14 39 15 27 -18 59 -20 -21 -22 31 -24 -25 41 -27 40 29 -30 -31 -32 56 53 35 -36 -37 46 61 52 -41 -42 47 43 -45 -46 -47 49 -49 -50 -51 51 -53 -54 -55 -56 -57 -58 -59 -60 -61 -62 -63
leaf_value=-0.020635762121528387 0.0499954963862018 -0.0023983593173325063 -0.019948355425363301 -0.040122346935824588 0.007798951007425785 -0.0021499905995158264 -0.046883782744407659 -0.050000000000000003 -0.012435477819198217 -0.020851874016668825 -0.033474416616730972 0.014859763762125604 -0.013559437021613122 -0.0055747258709743621 0.0072495018619866602 -0.002660727230831981 -0.049695232492574098 0.00028755027800798417 -0.024887959798208521 -0.02615658983869373 0.0091538022824392811 0.042170445006340741 0.032067728835728858 0.027414111282351373 0.011299936792673895 -0.021398652341044488 -0.0095676472038030633 -0.0027684164949244375 -0.042067602400978406 -0.012138452005322698 0.020737868499679443 0.022101123952730138 0.016057459375372642 -0.014179239557818213 -0.04807427194900811 0.0051125872520762575 0.024172026728806292 0.041871507359402524 0.030590760978785433 -0.023833563729578094 -0.012132629587066672 0.037100833999635333 -0.025084014063781402 -0.037974888432811028 -0.01737447019134249 -0.0053203476746296469 0.016355794881071365 0.0033677103164206656 0.016703445091843606 -0.0090181184094399215 0.035648382932919526 0.010842567036920429 0.0074116668701171883 -0.0043356424900131271 0.017042656168341636 -0.0071734610302694917 0.040381271701854925 -0.050000000000000003 -0.02011867920971579 0.025703794006258253 0.020193862603046002 0.019633909286648939
leaf_weight=20 3055 25 87 423 35 43 25 136 39 42 65 26 60 32 42 20 1822 20 158 53 134 40 31 106 66 227 20 54 36 1090 39 22 27 94 32 57 23 21 33 769 375 29 197 93 21 181 21 28 70 30 23 46 25 57 20 29 280 40 36 20 20 33
leaf_count=20 3055 25 87 423 35 43 25 136 39 42 65 26 60 32 42 20 1822 20 158 53 134 40 31 106 66 227 20 54 36 1090 39 22 27 94 32 57 23 21 33 769 375 29 197 93 21 181 21 28 70 30 23 46 25 57 20 29 280 40 36 20 20 33
internal_value=-0.000323677 -0.0201132 -0.00557869 -0.0396167 0.0172789 -0.0137391 -0.0163363 -0.0304779 -0.014761 0.0067493 -0.0222875 -0.00335044 0.00844647 -0.0204228 -0.0108335 -0.0101752 -0.0478915 -0.00957228 -0.0141903 -0.00748433 -0.00171471 0.0332088 0.00993314 0.0154322 0.0101839 -0.0281456 -0.00910177 -0.0116577 -0.0279937 -0.0109072 -0.000503799 0.0352723 -0.00840187 -0.0126912 -0.028041 -0.00689689 0.00127346 0.0169649 0.0109142 -0.0231041 -0.010603 0.0129605 -0.0320229 -0.029218 -0.000958489 -0.00824557 0.00849844 0.018421 0.0226784 0.00142996 0.0264292 0.0191112 0.0205998 0.00221928 0.0037375 0.00566069 0.0390496 -0.0397699 -0.00970852 0.0129957 0.0348449 0.0282819
internal_weight=10823 7768 4451 3317 1171 3280 2624 263 2361 705 1072 656 215 967 1394 1369 2245 127 450 166 357 466 94 348 242 622 441 1275 56 1219 129 431 292 208 57 151 113 155 101 801 415 222 395 290 63 223 74 127 99 51 129 69 58 84 40 95 302 105 90 40 60 54
internal_count=10823 7768 4451 3317 1171 3280 2624 263 2361 705 1072 656 215 967 1394 1369 2245 127 450 166 357 466 94 348 242 622 441 1275 56 1219 129 431 292 208 57 151 113 155 101 801 415 222 395 290 63 223 74 127 99 51 129 69 58 84 40 95 302 105 90 40 60 54
is_linear=0
shrinkage=0.05


Tree=11
num_leaves=63
num_cat=0
split_feature=71 77 88 15 52 68 18 59 57 15 49 47 18 47 47 107 49 8 49 52 15 47 18 26 49 72 49 47 47 52 47 50 72 4 72 96 18 23 52 97 68 49 27 7 47 107 47 7 18 57 59 120 47 33 66 47 0 95 18 94 47 93
split_gain=4251.81 869.597 315.18 198.754 77.4625 33.2397 37.5755 59.9469 26.4416 20.8329 19.6292 25.5784 19.0682 18.6526 17.8492 25.3827 17.5426 13.734 15.9924 13.1037 12.6128 11.5004 10.4044 10.349 9.85295 9.25582 8.32648 8.26867 8.1284 6.63218 20.9321 6.558 6.12896 5.79511 5.76531 5.46054 5.32855 5.2649 9.19289 4.22784 7.97411 3.98084 3.84748 3.74624 3.74236 3.60009 3.53673 3.59759 3.52141 4.79831 3.52453 3.3404 3.1523 3.49857 3.11729 5.08631 3.11591 2.79432 2.44055 2.21914 2.12302 2.10586
threshold=1.0000000180025095e-35 4.0765858253576823 0.12950000000000003 4.274411868084278 477.20000000000005 1.5000000000000002 1.8027602617187346 1.0000000180025095e-35 1.0000000180025095e-35 3.841609694155069 192.20000000000005 13.15 1.5622521124171413 13.050000000000002 13.250000000000002 5.5989359611995626 397.50000000000006 1.5000000000000002 397.50000000000006 477.20000000000005 4.4627572148562136 13.15 1.8603276782758624 0.5525000000000001 397.50000000000006 1.0000000180025095e-35 397.50000000000006 13.250000000000002 13.15 477.20000000000005 13.050000000000002 1350.0000000000002 1.0000000180025095e-35 6.8137669422363967 7.9512817709857773 16.383701818938952 1.9057875029352969 0.0075000000000000006 477.20000000000005 4.4654918728199915 1.5000000000000002 363.40000000000003 2.0805000000000002 6.1189037368615686 13.350000000000003 5.0459396973720692 13.350000000000003 9.9985897404688124 1.7817405426972057 1.0000000180025095e-35 1.0000000180025095e-35 6.4120530000000011 13.15 11.500000000000002 7.6432639434406919 13.050000000000002 7.4136217255118009 0.92669550401783241 1.8892926639314813 3.6798675165067078 12.850000000000003 8.9980000000000029
decision_type=2 2 2 2 2 2 2 2 2 2 2 2 2 2 2 2 2 2 2 2 2 2 2 2 2 2 2 2 2 2 2 2 2 2 2 2 2 2 2 2 2 2 2 2 2 2 2 2 2 2 2 2 2 2 2 2 2 2 2 2 2 2
left_child=1 2 4 9 10 6 7 19 17 24 11 33 -13 32 29 16 56 18 21 44 -5 -8 -15 26 27 36 42 41 -21 -7 -31 48 35 34 -1 -6 -12 38 -19 40 -29 -3 -10 -14 -4 51 -39 61 50 -50 -11 -37 -25 -54 55 -43 59 -44 -33 -16 -27 -48
right_child=-2 3 5 20 13 14 8 -9 23 31 25 12 43 22 15 -17 -18 37 -20 28 -22 -23 -24 52 -26 60 -28 39 -30 30 -32 58 -34 -35 -36 45 -38 46 -40 -41 -42 54 57 -45 -46 -47 47 -49 49 -51 -52 -53 53 -55 -56 -57 -58 -59 -60 -61 -62 -63
leaf_value=-0.0064844619934503276 0.049953182438196408 -0.022542572900826157 -0.022941413325342268 -0.039768040821522105 -0.0016386844466129938 -0.014182329505022163 0.00066681735886213109 -0.050000000000000003 -0.010877509821990603 -0.032000378687941547 -0.032520262538455427 -0.014613028950989246 0.01910808083008636 0.010000000000000002 0.018584184799083445 -0.0093620868778325674 -0.012510884296277475 -0.011397412572987379 -0.017228507961739192 -0.010708439802484853 -0.049638880765151876 0.038372979614706267 0.047982738069334972 -0.024236631414679521 -0.023745948983992959 0.021258933911169019 -0.024841913001404869 -0.018738304364790275 0.026180331986688544 -0.013438099272172439 0.031309110087317391 -0.028631159875334967 0.032860046855907529 0.025889257177710536 0.012560622878067319 0.047020778689710871 -0.0054704632568935837 -0.012325074591572347 0.027252871960401538 0.016440570993802032 0.015184179724892603 -0.014282418988449008 0.023104339060576067 0.041781055610978383 9.2763710944425502e-05 0.013693755828454847 -0.010478767541443914 0.013880525270233986 -0.024202220749510971 -0.037150037347852626 -0.050000000000000003 0.022172648263605019 -0.0022307784268350314 -0.01972668018944107 -0.021557680356862216 0.013008831480457898 0.045663538149424962 0.0002562105655670166 -0.017638246107229291 0.03541056751790974 0.0055688291335495837 0.0041913334160081804
leaf_weight=114 3055 86 110 395 30 271 39 191 38 74 20 20 22 20 43 123 29 40 44 28 1791 42 183 526 158 27 45 41 32 89 37 72 113 25 61 21 203 972 25 37 30 38 23 106 21 61 116 23 216 107 43 38 33 213 29 31 28 32 169 36 107 31
leaf_count=114 3055 86 110 395 30 271 39 191 38 74 20 20 22 20 43 123 29 40 44 28 1791 42 183 526 158 27 45 41 32 89 37 72 113 25 61 21 203 972 25 37 30 38 23 106 21 61 116 23 216 107 43 38 33 213 29 31 28 32 169 36 107 31
internal_value=-1.94364e-05 -0.0196727 -0.00523097 -0.0390516 0.0170369 -0.0131809 -0.0156976 -0.0301929 -0.0132278 -0.022036 0.00658164 0.0150319 0.0307899 0.0328545 -0.00311408 0.00709702 0.0219828 -0.0087397 0.00703693 -0.0103857 -0.0478553 0.0202182 0.0442406 -0.0197973 -0.013688 -0.00165561 -0.00718575 -0.00824567 0.00896557 -0.00977573 -0.000298046 -0.0275522 0.0240659 0.003371 0.00015411 0.017441 -0.00789645 -0.0103736 0.00346808 0.00273663 -0.00440486 -0.0146918 0.00135756 0.0378841 -0.0192489 0.022211 -0.0111614 -0.00450796 -0.0311835 -0.0284914 -0.0386156 0.0310169 -0.0220516 -0.0173797 -0.00780236 -0.00202113 0.0313316 0.00981088 -0.0209224 0.0262519 0.00873027 -0.00738507
internal_weight=10823 7768 4451 3317 1171 3280 2624 382 2242 1131 705 348 148 466 656 259 136 1332 125 191 2186 81 203 910 450 357 138 292 60 397 126 681 263 200 175 150 223 1207 65 108 71 184 93 128 131 120 1142 170 440 323 117 59 772 246 98 69 107 55 241 79 134 147
internal_count=10823 7768 4451 3317 1171 3280 2624 382 2242 1131 705 348 148 466 656 259 136 1332 125 191 2186 81 203 910 450 357 138 292 60 397 126 681 263 200 175 150 223 1207 65 108 71 184 93 128 131 120 1142 170 440 323 117 59 772 246 98 69 107 55 241 79 134 147
is_linear=0
shrinkage=0.05


Tree=12
num_leaves=63
num_cat=0
split_feature=58 77 88 15 53 68 18 59 57 15 47 49 47 18 47 53 49 47 15 114 53 47 18 26 49 60 49 47 50 47 4 0 62 50 4 72 18 77 18 105 30 11 47 16 18 57 59 96 47 47 49 0 47 63 47 13 96 59 64 17 38 60
split_gain=4180.34 857.753 300.977 206.825 76.0154 31.4263 39.5046 61.4467 24.0691 19.8294 19.3877 19.2046 25.3012 18.8195 16.378 30.0053 17.5518 16.2129 15.4331 12.9592 11.8491 10.5292 10.3614 9.36274 8.78397 8.51615 7.51704 7.34389 7.12005 6.52801 6.17475 6.11174 5.8299 7.97919 5.5434 5.24838 5.21169 4.87261 4.67695 4.3201 3.9909 3.89252 3.58867 4.96724 3.52158 4.15665 3.72706 3.46086 3.39044 3.38841 3.6836 3.19502 3.08721 2.95289 2.81776 3.08688 2.58671 2.54553 2.42376 2.77649 2.41305 3.11777
threshold=1.0000000180025095e-35 4.0765858253576823 0.12950000000000003 4.2811243070693381 18.950000000000006 1.5000000000000002 1.8027602617187346 1.0000000180025095e-35 1.0000000180025095e-35 3.8754949161119536 13.050000000000002 192.20000000000005 13.15 1.5622521124171413 13.15 18.950000000000006 192.20000000000005 13.350000000000003 4.4979450367317666 8.3922918643781195 18.950000000000006 13.250000000000002 1.8603276782758624 0.5525000000000001 397.50000000000006 1.0000000180025095e-35 397.50000000000006 13.15 1350.0000000000002 13.250000000000002 6.0979936490142554 7.3174055250858601 0.2413793103448276 1350.0000000000002 6.8137669422363967 5.768123607844065 1.9057875029352969 6.844182140516641 1.9003585391411926 16.09379403747489 196.50000000000003 5.7045792380865681 13.250000000000002 2.0472705007284202 1.7817405426972057 1.0000000180025095e-35 1.0000000180025095e-35 15.092973267909054 13.350000000000003 12.950000000000001 363.40000000000003 6.9483554078630583 13.250000000000002 21.923300229182583 13.15 3.1822719332437766 25.866081147183014 1.0000000180025095e-35 0.026550378606963389 1.7852714699409489 2.5000000000000004 1.0000000180025095e-35
decision_type=2 2 2 2 2 2 2 2 2 2 2 2 2 2 2 2 2 2 2 2 2 2 2 2 2 2 2 2 2 2 2 2 2 2 2 2 2 2 2 2 2 2 2 2 2 2 2 2 2 2 2 2 2 2 2 2 2 2 2 2 2 2
left_child=1 2 4 9 11 6 7 20 19 24 30 12 34 -14 -7 16 17 51 -5 21 48 41 -12 26 29 36 42 -22 44 47 31 -6 33 52 35 -1 -13 -31 -39 60 -15 -8 -10 -44 46 -46 -11 57 -4 -49 -51 -16 -21 -42 -25 -56 -32 -3 59 -34 -33 -62
right_child=-2 3 5 18 10 14 8 -9 23 28 22 25 13 40 15 -17 -18 -19 -20 32 27 -23 -24 54 -26 -27 -28 -29 -30 37 56 39 58 -35 -36 -37 -38 38 -40 -41 53 -43 43 -45 45 -47 -48 49 -50 50 -52 -53 -54 -55 55 -57 -58 -59 -60 -61 61 -63
leaf_value=-0.0077052750229389252 0.049827098727421366 -0.01478479999805922 -0.021836054155772385 -0.039226319143611396 0.0008841029858510746 -0.01060563210149792 -0.013981913661377299 -0.050000000000000003 -0.010012206844985487 -0.031305409516271664 0.010000000000000002 -0.03195115794660524 -0.014539963863790036 0.018749767023584118 -0.017964412626766024 0.037422815363033345 -0.010725417547957014 0.040504188549060093 -0.049669343248648551 -0.012864962852980994 -0.010192139872482846 0.029942858273065406 0.047904077848124373 -0.023029407442763394 -0.022647529461288028 0.0083496611090133725 -0.023599816941552693 0.024871315230848269 -0.01988235887366047 0.015679357377322099 0.041925586251398694 0.035022998157711253 -0.0094307469902560129 0.017949481156849585 0.025319693461060524 0.0096948616300957108 -0.0051996351129678202 -0.022958334204223423 0.0029582827625206998 0.042304366014897822 0.047422353178262711 0.013529530204832555 -0.0040986786628591605 0.026652447875433912 -0.023831943979132034 -0.035939868849432358 -0.050000000000000003 -0.019506242295557804 8.8345454562278032e-05 -0.013850602573331663 0.0088032215956206396 0.0093015158718282535 0.0093077127647120516 0.029360391741449183 -0.018212683749409903 0.0022813844121992591 0.021473078497431495 -0.033322037708374767 -0.011355684432445006 0.01431740488857031 0.0088486711994815864 0.026213952532929321
leaf_weight=96 3055 46 110 445 38 334 36 191 40 73 20 20 20 23 21 59 181 39 1726 73 28 38 183 526 168 134 45 32 239 38 52 21 32 43 25 79 203 27 49 25 72 20 29 24 210 107 42 44 21 34 38 22 20 33 226 20 22 31 1050 20 59 46
leaf_count=96 3055 46 110 445 38 334 36 191 40 73 20 20 20 23 21 59 181 39 1726 73 28 38 183 526 168 134 45 32 239 38 52 21 32 43 25 79 203 27 49 25 72 20 29 24 210 107 42 44 21 34 38 22 20 33 226 20 22 31 1050 20 59 46
internal_value=0.000276238 -0.0192111 -0.00486811 -0.0384577 0.0168922 -0.0126368 -0.0150839 -0.0299466 -0.0125516 -0.0212732 0.0325613 0.00653508 0.0148935 0.0305659 -0.00284846 0.00519779 -0.00203139 0.0171591 -0.0475288 -0.00826952 -0.00989324 0.00962841 0.0441697 -0.0188193 -0.0134561 -0.00161259 -0.00682379 0.00850837 -0.0268069 -0.00842625 0.0236013 0.0188074 -0.00962849 0.000138527 0.0032959 0.000149644 -0.00759887 0.00106049 -0.00624894 0.0233179 0.0376136 -0.0041564 0.00129364 0.00982636 -0.0306379 -0.0279188 -0.038133 -0.0140298 -0.0183215 -0.00857476 -0.00189442 -0.0040144 -0.00809665 0.0417457 -0.0209636 -0.0165465 0.0358451 -0.0222478 -0.0108339 -0.000296842 0.0195508 0.0164563
internal_weight=10823 7768 4451 3317 1171 3280 2624 382 2242 1146 466 705 348 148 656 322 263 82 2171 1332 191 94 203 910 475 357 138 60 671 307 263 189 1238 136 200 175 223 114 76 151 128 56 93 53 432 317 115 193 131 116 72 43 93 105 772 246 74 77 1102 52 126 105
internal_count=10823 7768 4451 3317 1171 3280 2624 382 2242 1146 466 705 348 148 656 322 263 82 2171 1332 191 94 203 910 475 357 138 60 671 307 263 189 1238 136 200 175 223 114 76 151 128 56 93 53 432 317 115 193 131 116 72 43 93 105 772 246 74 77 1102 52 126 105
is_linear=0
shrinkage=0.05


Tree=13
num_leaves=63
num_cat=0
split_feature=58 77 88 15 51 60 18 57 57 47 51 15 47 50 47 18 50 47 15 51 18 107 51 18 59 47 60 107 47 54 47 54 47 47 4 50 47 61 54 16 4 6 18 60 30 51 95 15 61 47 23 63 100 6 15 87 51 50 18 57 57 103
split_gain=4087.23 843.846 288.371 214.224 74.7746 22.7646 43.1542 59.7876 25.1613 22.0199 27.6205 21.6736 20.0134 18.837 25.0939 18.6002 15.6179 17.3847 15.2803 10.9939 10.3168 10.1508 13.6221 10.1375 23.4939 8.99746 7.81352 7.63679 10.5103 8.86702 7.56279 7.35559 7.50646 6.21613 6.10543 5.96781 8.25447 5.69323 5.5873 5.38229 5.30531 5.15377 5.09479 4.66031 4.06553 4.0498 3.67089 3.62229 3.61387 3.47827 3.19765 3.05232 2.88931 2.80998 2.91598 2.44272 2.40705 2.35072 2.31526 3.12143 2.24547 2.1866
threshold=1.0000000180025095e-35 4.0765858253576823 0.12950000000000003 4.318897654129028 121953.50000000001 1.0000000180025095e-35 1.8027602617187346 1.0000000180025095e-35 1.0000000180025095e-35 13.15 121953.50000000001 4.0293837757885624 13.050000000000002 703.50000000000011 13.15 1.5622521124171413 703.50000000000011 13.250000000000002 4.5174070528504764 121953.50000000001 1.8603276782758624 4.2967836753043782 121953.50000000001 1.8892926639314813 1.0000000180025095e-35 13.15 1.0000000180025095e-35 5.3674743134742409 13.250000000000002 368.00000000000006 13.350000000000003 368.00000000000006 13.050000000000002 13.15 6.0552416549081132 1350.0000000000002 13.050000000000002 0.010742187500000002 368.00000000000006 2.0472705007284202 6.8137669422363967 9.009827938746918 1.9057875029352969 1.0000000180025095e-35 196.50000000000003 121953.50000000001 1.2396958436057719 3.5187111770968449 0.0083176185344827607 13.350000000000003 0.0075000000000000006 21.923300229182583 8.7048418480662342 9.8273424857425127 3.4184654720661345 7.4452670817365769 121953.50000000001 1350.0000000000002 1.9566419508802095 1.0000000180025095e-35 1.0000000180025095e-35 17.009866180649041
decision_type=2 2 2 2 2 2 2 2 2 2 2 2 2 2 2 2 2 2 2 2 2 2 2 2 2 2 2 2 2 2 2 2 2 2 2 2 2 2 2 2 2 2 2 2 2 2 2 2 2 2 2 2 2 2 2 2 2 2 2 2 2 2
left_child=1 2 4 11 13 6 7 -4 21 55 16 23 34 14 40 -16 17 -11 60 49 -14 22 30 24 38 -24 42 28 35 39 -8 32 -25 -21 37 -10 -37 -6 47 -30 43 -39 -15 -1 -17 58 -43 -3 -19 -9 -23 -46 -48 54 -34 -7 -55 -57 -13 -60 -5 -36
right_child=-2 3 5 18 12 9 8 19 27 10 -12 45 20 26 15 44 -18 48 -20 33 -22 50 25 31 -26 -27 -28 -29 29 -31 -32 -33 53 -35 61 36 -38 41 -40 -41 -42 46 -44 -45 51 -47 52 -49 -50 -51 -52 -53 -54 56 -56 57 -58 -59 59 -61 -62 -63
leaf_value=-0.0074351405056114206 0.049500158451582919 0.01347084747006496 -0.050000000000000003 -0.036403119957572977 0.00077576539605050477 -0.013013561554269974 -0.010089499049354345 -0.022359694340794357 -0.023948148323977292 -0.014682292554414634 0.03149308121630124 -0.037720264341229597 0.010000000000000002 -0.031392012683209035 -0.014467263985425234 0.018342163381369219 -0.0092532522124491 0.018395671344572498 -0.049620146469251641 -0.009319192088312573 0.047822437317319257 0.010150148045449031 0.0050807015690952544 -0.017184661035963261 -0.046326520666480069 0.042396442592144014 0.007962058568928251 -0.020830038860945626 0.00021385946444102698 -0.023585718734697864 0.018597780780068466 -0.019752478179243672 0.021222925931215289 0.023496482136749455 0.025203446438536049 -0.01845584454897203 0.020604772014277323 0.036185076570836826 -0.023519497378305956 0.029624917950215088 0.024762660168111326 0.028626813737087344 -0.0049422146324951469 0.0089288871064149757 0.047323556585858267 -0.022533845944869284 0.022276972925290465 -0.010012574614330125 0.042739001587033275 8.413884788751603e-05 -0.0096337557007518029 0.028960022736679428 0.00050215308960431667 -0.012751439707865537 0.00039203703303688342 -0.012911325418390336 0.0015924039655917531 0.01077341687950221 -0.024791764790489359 -0.036271495207823738 -0.044379534292966129 0.042380965475670322
leaf_weight=94 3055 24 191 284 37 552 128 97 121 33 70 107 20 20 20 23 258 31 1690 27 183 21 35 104 76 30 134 645 35 22 28 154 24 31 32 38 21 48 55 28 25 38 203 81 72 190 25 52 30 21 745 33 39 58 56 20 59 22 163 93 128 44
leaf_count=94 3055 24 191 284 37 552 128 97 121 33 70 107 20 20 20 23 258 31 1690 27 183 21 35 104 76 30 134 645 35 22 28 154 24 31 32 38 21 48 55 28 25 38 203 81 72 190 25 52 30 21 745 33 39 58 56 20 59 22 163 93 128 44
internal_value=0.000504272 -0.0187648 -0.00453857 -0.0378547 0.0167612 -0.0121429 -0.0149333 -0.0306277 -0.011897 -0.0059248 0.00280829 -0.0211415 0.0323019 0.00648895 0.014767 0.030375 -0.00289608 0.0145523 -0.0475153 -0.00960427 0.0440961 -0.00636778 0.0030724 -0.015038 -0.0242113 0.0223034 -0.00158038 -0.0178941 -0.0107481 0.00374232 -0.0049405 -0.0108646 -0.00631738 0.00822022 0.0231984 -0.0175908 -0.00455291 0.0183418 -0.0113811 0.0132854 0.00321702 0.0226747 -0.00731439 0.000139067 0.0373816 -0.0284481 0.0163169 -0.00259676 0.0303678 -0.0183655 -0.00909138 0.0415522 0.00900794 -0.000580342 0.0066413 -0.0121291 -0.00551822 -0.000505032 -0.0315437 -0.0289621 -0.0388812 0.0351483
internal_weight=10823 7768 4451 3317 1171 3280 2264 367 1897 1016 422 1215 466 705 348 148 352 94 2102 176 203 987 221 662 207 65 357 910 265 85 156 455 301 58 263 180 59 187 131 63 200 150 223 175 128 553 102 76 61 118 766 105 64 197 80 594 117 42 363 256 412 76
internal_count=10823 7768 4451 3317 1171 3280 2264 367 1897 1016 422 1215 466 705 348 148 352 94 2102 176 203 987 221 662 207 65 357 910 265 85 156 455 301 58 263 180 59 187 131 63 200 150 223 175 128 553 102 76 61 118 766 105 64 197 80 594 117 42 363 256 412 76
is_linear=0
shrinkage=0.05


Tree=14
num_leaves=63
num_cat=0
split_feature=58 77 88 15 51 68 18 57 15 57 50 64 18 15 54 8 54 18 68 57 51 18 26 107 54 54 18 70 92 54 7 64 12 30 30 10 113 28 30 23 115 57 11 27 4 113 34 6 50 110 23 107 70 84 105 64 30 78 63 54 18 68
split_gain=3958.73 829.668 276.459 221.491 73.6367 28.0476 43.0008 54.0005 24.6473 19.7393 18.4735 13.26 13.0844 12.5971 11.8498 11.502 14.0739 10.6052 12.3746 12.84 9.93801 8.43764 7.6605 7.02438 6.54207 6.0637 5.73453 5.69259 5.45406 4.87623 4.71446 4.29269 4.28404 3.7972 4.45923 4.98981 3.6479 3.57083 4.1006 3.79799 3.49642 3.48414 3.45682 3.27944 3.2132 3.14987 2.89783 2.86647 2.73548 2.72299 2.6678 2.95775 2.60562 2.50395 3.61654 3.08156 3.41625 4.20069 2.46935 3.49892 2.46608 3.63145
threshold=1.0000000180025095e-35 4.0765858253576823 0.12950000000000003 4.3719816882301847 121953.50000000001 1.5000000000000002 1.8027602617187346 1.0000000180025095e-35 4.0393546113841126 1.0000000180025095e-35 703.50000000000011 0.026550378606963389 1.7442753582502224 4.5415730004074497 368.00000000000006 1.5000000000000002 368.00000000000006 1.8892926639314813 1.5000000000000002 1.0000000180025095e-35 121953.50000000001 1.4231685560649028 0.5525000000000001 7.9594346189977188 368.00000000000006 368.00000000000006 1.8419735653757563 3.3766660303373359 1.877937427836246 368.00000000000006 5.7943573177911327 0.026550378606963389 3.1170963534097891 250.50000000000003 377.50000000000006 2.9607084866340654 6.3311242181841605 0.27550000000000008 120.50000000000001 0.016500000000000004 30.372695493979204 1.0000000180025095e-35 5.9824973103540575 2.0805000000000002 1.0000000180025095e-35 27.386033606205114 2.5000000000000004 9.9285181853596587 1350.0000000000002 0.58004648377305024 0.018500000000000003 4.127367068690357 2.9931618885253832 15.037910124426359 15.899034177415887 0.10239950719822301 511.50000000000006 12.796305495919652 1.449301242236025 368.00000000000006 1.7817405426972057 1.0000000180025095e-35
decision_type=2 2 2 2 2 2 2 2 2 2 2 2 2 2 2 2 2 2 2 2 2 2 2 2 2 2 2 2 2 2 2 2 2 2 2 2 2 2 2 2 2 2 2 2 2 2 2 2 2 2 2 2 2 2 2 2 2 2 2 2 2 2
left_child=1 2 4 8 10 6 7 28 17 15 21 14 -6 -5 37 16 32 18 19 -3 -9 -1 25 53 41 43 -12 33 -4 60 -13 46 40 50 -35 45 -22 38 39 47 -8 -19 -25 -11 -33 -36 -17 -7 -21 -32 -23 -52 -28 -14 55 -55 -57 -58 59 -46 61 -10
right_child=-2 3 5 13 12 11 9 20 29 22 26 30 23 -15 -16 31 -18 24 -20 48 36 27 -24 42 -26 -27 52 -29 -30 -31 49 44 -34 34 35 -37 -38 -39 -40 -41 -42 -43 -44 -45 58 -47 -48 -49 -50 -51 51 -53 -54 54 -56 56 57 -59 -60 -61 -62 -63
leaf_value=-0.016083413921296596 0.048856939838287677 -0.046163653098530585 -0.022049795724451544 -0.039348351149285428 0.0031011596942941352 0.014426813423633576 -0.0061614601030236206 -0.017475567851215602 -0.039374011281936891 -0.010166398955411033 -0.025154714678986542 0.013271906140905161 0.042180495572429672 -0.049610291150731782 -0.01110429448230813 0.017767388780008664 -0.015783274969594044 -0.002739359767693138 -0.0065384290137233724 -0.023575812223411742 0.021237378560558517 0.013181114703943226 -0.018951210173068889 0.010941690274673265 -0.018703599035432443 -0.021228458798593947 -0.0025197939996598777 0.026272196701421099 -0.049528227774526486 -0.034458876591782241 0.0037248634011484687 0.0087604744410466253 0.031278397897497201 0.035777535472341158 -0.013124683143740351 0.022666744825740659 -0.0039013241087236718 0.031969977284853277 0.024718782310260506 0.02161415251186834 0.022691267941679277 -0.01457467712033754 0.031875005354614634 0.0089338009939952338 0.014960762404877207 0.013631248126991772 -0.0036490983795374634 -0.0085717118833036655 -0.0021244652113755762 -0.0099988438833815366 0.0079689678440515235 -0.016645925192405348 0.0074746344732998654 0.044345913479185622 0.041914027864467122 0.011887104250490665 0.01762764791233672 0.045268444983022557 -0.010730779080086128 -0.008923895584176415 -0.023170272382735935 -0.019286828621157579
leaf_weight=21 3055 77 20 366 36 20 21 118 63 38 24 26 158 1635 60 22 44 218 69 42 27 46 772 41 156 45 244 104 186 215 40 23 39 27 22 57 31 26 41 26 21 87 38 55 23 22 56 42 23 375 26 23 89 23 79 36 27 28 1037 46 331 35
leaf_count=21 3055 77 20 366 36 20 21 118 63 38 24 26 158 1635 60 22 44 218 69 42 27 46 772 41 156 45 244 104 186 215 40 23 39 27 22 57 31 26 41 26 21 87 38 55 23 22 56 42 23 375 26 23 89 23 79 36 27 28 1037 46 331 35
internal_value=0.000637364 -0.0183264 -0.00422019 -0.0372553 0.0166351 -0.0116658 -0.0139776 -0.029484 -0.0213232 -0.0113355 0.00644123 -0.00241856 0.032057 -0.0477333 0.00776244 -0.00745771 0.00698016 -0.0146246 -0.023909 -0.0323496 -0.00914573 0.014639 -0.0170116 0.0344813 -0.0103751 -0.00616119 -0.00154986 0.016612 -0.0468604 -0.0283131 -0.00738209 -0.00895294 0.0193455 0.0121068 0.0177277 0.0129025 0.00780118 0.0150657 0.0116586 0.00557378 0.0082649 -0.00611534 0.0210109 0.00112942 -0.0097367 0.000253282 0.00239145 -0.00115283 -0.0159853 -0.00867608 0.00453335 -0.00358496 0.00015139 0.0375131 0.033692 0.0279943 0.0238615 0.0316993 -0.0101214 -0.000962343 -0.025233 -0.0322
internal_weight=10823 7768 4451 3317 1171 3280 2624 382 1316 2242 705 656 466 2001 215 1332 125 672 211 142 176 348 910 430 461 138 357 327 206 644 441 1207 81 223 128 101 58 155 129 88 42 305 79 93 1129 44 78 62 65 415 95 49 333 351 193 114 91 55 1106 69 429 98
internal_count=10823 7768 4451 3317 1171 3280 2624 382 1316 2242 705 656 466 2001 215 1332 125 672 211 142 176 348 910 430 461 138 357 327 206 644 441 1207 81 223 128 101 58 155 129 88 42 305 79 93 1129 44 78 62 65 415 95 49 333 351 193 114 91 55 1106 69 429 98
is_linear=0
shrinkage=0.05


Tree=15
num_leaves=63
num_cat=0
split_feature=58 77 43 74 52 79 68 18 59 47 77 59 49 47 18 43 47 49 52 18 52 12 8 49 47 52 47 52 47 49 52 18 59 60 4 0 47 6 4 18 72 30 107 10 57 64 47 43 77 77 79 12 14 100 92 99 47 77 47 77 47 77
split_gain=3815.94 813.458 264.296 153.592 72.6046 33.6744 26.4858 44.3392 65.9108 21.5835 21.033 18.718 17.6372 26.1273 18.4461 13.9929 13.4227 15.2595 11.6578 10.2456 9.96581 9.94466 9.76003 10.6221 10.4263 9.67006 24.4077 8.72805 8.49898 8.69927 9.40925 7.0406 14.335 6.91587 6.18057 5.90399 5.89864 5.14795 5.13509 4.94421 4.24867 4.24509 3.94793 3.62368 3.53584 3.43162 4.77718 3.39842 9.55542 4.92795 3.37582 4.41342 3.36429 3.3092 3.24623 3.1908 3.91631 4.45188 3.06012 3.02592 2.79922 2.68468
threshold=1.0000000180025095e-35 4.1138499846211607 1.0000000180025095e-35 1.0000000180025095e-35 477.20000000000005 19.571870497926117 1.5000000000000002 1.8027602617187346 1.0000000180025095e-35 13.050000000000002 8.2929072639327099 1.0000000180025095e-35 192.20000000000005 13.15 1.5622521124171413 1.5000000000000002 13.350000000000003 192.20000000000005 477.20000000000005 1.8603276782758624 477.20000000000005 4.4904641554346805 1.5000000000000002 397.50000000000006 13.15 477.20000000000005 13.050000000000002 477.20000000000005 13.250000000000002 192.20000000000005 477.20000000000005 1.8228093691213478 1.0000000180025095e-35 1.0000000180025095e-35 6.0979936490142554 7.3174055250858601 13.15 9.009827938746918 6.8137669422363967 1.9057875029352969 7.9512817709857773 196.50000000000003 4.4131516383159042 2.7105402420535465 1.0000000180025095e-35 0.026550378606963389 13.15 2.5000000000000004 12.941605925645078 8.853249138764939 20.74131911994365 4.5198279777217154 4.219086461368998 8.7048418480662342 1.7156818820794939 1.8027602617187346 13.050000000000002 7.2943666356484709 13.350000000000003 4.4783960025731036 13.250000000000002 7.7849127263099183
decision_type=2 2 2 2 2 2 2 2 2 2 2 2 2 2 2 2 2 2 2 2 2 2 2 2 2 2 2 2 2 2 2 2 2 2 2 2 2 2 2 2 2 2 2 2 2 2 2 2 2 2 2 2 2 2 2 2 2 2 2 2 2 2
left_child=1 2 4 5 12 10 7 8 27 34 15 28 13 38 -15 59 25 -18 -19 -11 31 47 23 24 -13 -8 -27 60 -9 52 54 32 58 39 35 -6 -29 -37 40 -14 -1 -16 -39 53 61 46 -24 49 -49 -12 51 -7 -30 -44 -31 -22 -57 -58 -17 -3 -4 -33
right_child=-2 3 6 -5 9 50 16 11 -10 19 21 22 33 14 41 20 17 18 -20 -21 55 -23 45 -25 -26 26 -28 36 29 30 -32 44 -34 -35 -36 37 -38 42 -40 -41 -42 -43 43 -45 -46 -47 -48 48 -50 -51 -52 -53 -54 -55 -56 56 57 -59 -60 -61 -62 -63
leaf_value=-0.0061748104527380252 0.048050665067182627 -0.028304734406992795 -0.020280983528875293 -0.0499958552005903 -0.00013580382924134797 -0.04317638303062557 -0.010956655938051792 -0.017403084379032378 -0.050000000000000003 0.010000000000000002 -0.032053221814161127 -0.00035587598880132041 -0.030628794194199144 -0.014314510645344853 0.0179080526465955 -0.023232075826487911 0.037344657515104004 -0.0064414458982646472 0.029564442648953793 0.047691757773441049 -0.024274547660240422 -0.013784972521931527 -0.0091080613660089911 -0.01369018969503609 0.036959073004814297 -0.011457690180101421 0.031401582821360179 -0.0094283252688390877 0.025843425297542761 -0.0029391577950230352 0.015937306834705945 -0.00828171660202736 -0.050000000000000003 0.0074625302265235744 0.034525960794574505 0.03543715668686976 0.021996107208542528 0.029556191164781066 0.023749415045604114 -0.0045727901109677786 0.010174456580740508 0.041645544996628397 0.030590619129890747 -0.008583720737979526 -0.024349623414154135 -0.0082981247722153026 0.018708009568267858 -0.018706253763934179 -0.040178567840811918 -0.044145694629758855 -0.044562489596151174 -0.029714232863801898 -0.002196186883375049 0.004242212196382193 -0.016567351030568108 -0.016477064201899341 0.012357193490535748 -0.00683229483390713 -0.0031822965337106818 -0.044010741490384808 -0.0040457282416723871 -0.020479626620448579
leaf_weight=114 3055 92 94 1313 38 113 346 910 191 20 301 36 20 20 23 71 39 100 29 183 27 77 33 37 39 89 53 28 23 54 29 134 54 134 74 48 32 34 25 203 61 104 22 21 89 818 29 124 89 117 210 132 20 26 229 64 41 115 26 46 37 68
leaf_count=114 3055 92 94 1313 38 113 346 910 191 20 301 36 20 20 23 71 39 100 29 183 27 77 33 37 39 89 53 28 23 54 29 134 54 134 74 48 32 34 25 203 61 104 22 21 89 818 29 124 89 117 210 132 20 26 229 64 41 115 26 46 37 68
internal_value=0.000708733 -0.0179099 -0.00399352 -0.0367221 0.016421 -0.0279641 -0.0112424 -0.0134774 -0.0292309 0.0317302 -0.0244229 -0.0108111 0.00628737 0.0143146 0.0303179 -0.0190075 -0.0022512 0.00993849 0.0016529 0.0439783 -0.0160968 -0.0307486 -0.0056692 0.00823264 0.0190479 -0.00644765 0.00453908 -0.0084619 -0.0148433 -0.00828164 -0.0111874 -0.0205921 -0.0293524 -0.00151505 0.0222764 0.0174802 0.00733137 0.0219134 0.00255224 -0.00690965 -0.000475923 0.0373466 0.0156111 0.00873961 -0.0160463 -0.00743852 0.00390268 -0.0328186 -0.0276783 -0.035438 -0.0399106 -0.0359233 0.0128017 0.0163186 -0.0139669 -0.00805269 -0.00606182 -0.0017889 -0.0178579 -0.0335401 -0.0156955 -0.0123879
internal_weight=10823 7768 4465 3303 1170 1990 3295 2639 382 466 1535 2257 704 347 147 827 656 168 129 203 689 708 992 112 75 488 142 191 1265 355 312 442 151 357 263 189 60 151 200 223 175 127 103 69 291 880 62 631 213 418 455 245 43 48 283 247 220 156 97 138 131 202
internal_count=10823 7768 4465 3303 1170 1990 3295 2639 382 466 1535 2257 704 347 147 827 656 168 129 203 689 708 992 112 75 488 142 191 1265 355 312 442 151 357 263 189 60 151 200 223 175 127 103 69 291 880 62 631 213 418 455 245 43 48 283 247 220 156 97 138 131 202
is_linear=0
shrinkage=0.05


Tree=16
num_leaves=63
num_cat=0
split_feature=58 43 15 51 18 59 15 57 47 47 49 49 47 47 49 15 96 15 51 51 47 15 18 15 47 49 51 15 60 111 60 81 47 49 47 112 18 110 78 51 57 106 0 47 78 60 4 29 1 7 72 63 18 15 59 50 47 121 89 0 15 47
split_gain=3667.03 628.492 631.343 71.4461 41.6607 135.527 36.0647 31.7562 22.1221 18.9622 17.926 17.3138 25.9883 13.888 12.8087 13.373 12.5126 12.3007 12.2213 11.3731 25.0564 19.1133 10.188 7.29887 6.77098 9.48488 9.77945 6.50645 6.34844 6.06841 6.03252 6.00685 10.4164 5.51858 7.54571 5.2439 4.8274 4.42806 4.20505 3.896 3.73879 3.55865 3.54875 3.43551 3.41933 3.20047 3.19773 2.61049 3.47386 2.59399 2.57579 2.4053 2.37187 3.32833 2.54785 2.36103 9.58322 3.80588 2.2375 2.10117 2.07049 2.04458
threshold=1.0000000180025095e-35 1.0000000180025095e-35 4.274411868084278 121953.50000000001 1.8027602617187346 1.0000000180025095e-35 4.578169108718078 1.0000000180025095e-35 13.050000000000002 13.350000000000003 397.50000000000006 192.20000000000005 13.250000000000002 13.250000000000002 192.20000000000005 3.4992745601048294 13.849525325872024 3.68493433210767 121953.50000000001 121953.50000000001 13.050000000000002 3.0865316247331216 1.8603276782758624 3.8567576532068544 13.250000000000002 192.20000000000005 121953.50000000001 3.9058496624885319 1.0000000180025095e-35 2.2557635000000005 1.0000000180025095e-35 38.466962349926362 13.15 363.40000000000003 13.050000000000002 29.587201006604847 1.9057875029352969 2.0162021342904426 7.3698195303251444 121953.50000000001 1.0000000180025095e-35 10.36888558011359 6.6220332320974098 13.350000000000003 6.904181993458935 1.0000000180025095e-35 6.5622222300042941 0.31450000000000006 3.6427011094311248 9.9985897404688124 6.8391900325545594 66.217443249701333 1.7817405426972057 4.4150485077391481 1.0000000180025095e-35 1350.0000000000002 13.050000000000002 9.630872399978772 23.957450040538166 6.8008853942038554 3.9912039166801843 12.950000000000001
decision_type=2 2 2 2 2 2 2 2 2 2 2 2 2 2 2 2 2 2 2 2 2 2 2 2 2 2 2 2 2 2 2 2 2 2 2 2 2 2 2 2 2 2 2 2 2 2 2 2 2 2 2 2 2 2 2 2 2 2 2 2 2 2
left_child=1 3 4 11 5 10 40 9 30 19 13 12 31 33 15 -11 -14 50 44 27 -21 29 -10 24 55 43 -27 59 36 -22 35 45 46 -3 -35 41 -13 -37 -20 -2 52 -5 -36 -26 49 -1 -33 48 -32 58 51 -15 54 -54 -4 -9 -57 -58 -16 -6 -23 -30
right_child=39 2 6 8 7 -7 -8 23 22 14 -12 28 16 17 18 -17 -18 -19 38 20 21 60 -24 -25 25 26 -28 -29 61 -31 47 32 -34 34 42 37 -38 -39 -40 -41 -42 -43 -44 -45 -46 -47 -48 -49 -50 -51 -52 -53 53 -55 -56 56 57 -59 -60 -61 -62 -63
leaf_value=-0.01042927983517368 0.045808355095364128 -0.018659699896448539 -0.030009017884731294 0.016180179256104654 -0.016146207469776557 -0.050000000000000003 -0.049485087137633624 -0.020109156995401289 0.010000000000000002 0.041682421396940186 -0.020705953645411619 -0.030092790275812149 0.0054629558912263473 0.0091561376726111542 -0.007881612497705805 -0.00027976603517812249 0.04564675675018838 -0.0090362538512895954 0.029680058823243996 -0.010445579936408017 0.040338193245080055 0.0044699647582556101 0.047585646946573523 -0.026635982103910324 -0.0023438352559294021 -0.016477524287445578 0.012636557114169453 -0.020506299487261598 0.015656907102295562 0.014091516993939877 0.014983676020117282 0.00070317330118268738 0.040634003281593327 -0.018394867244821329 -0.004623599318058595 0.032085817390018041 -0.0043464032636683411 0.0090511622605845329 0.0012238545436412097 0.049502217478676648 -0.040935988822564259 -0.0077776077353665903 0.021124792772025103 0.025627851336384601 -0.021343124032981935 0.005701983316236588 0.023204460963606836 0.04357022917990027 0.035412581555504835 0.01120982044018232 0.032388135095437372 0.028878449987281452 -0.025325763548413913 -0.035087153372582065 -0.050000000000000003 -0.018956706619219253 0.021201520838329328 -0.0086215658998116864 0.0046695323999632497 -0.0094733366923016576 -0.0094558193265194337 0.0026490967353311138
leaf_weight=62 1918 95 28 31 132 293 1565 476 20 39 172 20 26 52 184 37 76 56 37 395 49 51 183 169 21 229 33 174 46 40 38 75 27 39 23 54 203 34 20 1137 197 31 32 23 31 61 20 29 46 26 30 22 150 209 37 179 23 20 44 1110 56 88
leaf_count=62 1918 95 28 31 132 293 1565 476 20 39 172 20 26 52 184 37 76 56 37 395 49 51 183 169 21 229 33 174 46 40 38 75 27 39 23 54 203 34 20 1137 197 31 32 23 31 61 20 29 46 26 30 22 150 209 37 179 23 20 44 1110 56 88
internal_value=0.000774131 -0.0174776 -0.0234666 0.0162961 -0.0125797 -0.0227946 -0.0454396 -0.0102687 0.0314827 -0.00700172 -0.00749479 0.00624361 0.0141969 -0.000983845 0.00268652 0.0212535 0.0354038 0.00985662 -0.00143947 -0.0090195 -0.00319345 0.0114218 0.0438826 -0.0170227 -0.0154045 -0.00920303 -0.0128105 -0.0114511 -0.00148694 0.0285419 0.0219116 0.00536796 0.0132291 -0.010161 -0.0015718 0.015339 -0.0066555 0.0231861 0.0196954 0.0471831 -0.0352443 0.00420129 0.0103573 0.0122777 -0.00566645 -0.00242922 0.00544029 0.0306362 0.0261709 -0.00375316 0.0200297 0.0150195 -0.0325998 -0.0310086 -0.0413885 -0.0181232 -0.0138651 0.00733032 -0.00545946 -0.0101825 -0.0028183 0.00711446
internal_weight=10823 7768 6598 1170 4412 814 2186 3598 466 2425 521 704 347 349 418 76 102 160 342 2007 591 196 203 1173 1004 306 262 1416 357 89 263 245 122 189 94 150 223 88 57 3055 621 62 55 44 285 123 95 113 84 254 104 74 424 359 65 698 222 43 228 1242 107 134
internal_count=10823 7768 6598 1170 4412 814 2186 3598 466 2425 521 704 347 349 418 76 102 160 342 2007 591 196 203 1173 1004 306 262 1416 357 89 263 245 122 189 94 150 223 88 57 3055 621 62 55 44 285 123 95 113 84 254 104 74 424 359 65 698 222 43 228 1242 107 134
is_linear=0
shrinkage=0.05


Tree=17
num_leaves=63
num_cat=0
split_feature=58 77 76 15 52 15 18 60 57 57 50 64 15 18 18 60 57 114 50 50 18 29 52 13 52 60 57 2 50 38 70 13 26 18 64 15 18 57 30 30 10 72 100 57 50 113 29 50 52 50 28 15 20 113 52 0 50 57 79 9 31 5
split_gain=3520.33 781.292 245.584 238.875 70.0121 26.1059 24.0462 47.6648 65.0587 21.1071 17.1275 13.4954 13.1025 12.7385 11.7319 15.4406 18.0552 8.50688 8.94208 8.49607 8.001 7.95668 7.58346 7.02666 6.51302 5.84186 5.46103 5.27377 6.07477 5.18595 5.10187 4.91181 4.74966 4.71132 4.62964 4.25074 4.21745 4.01385 3.8922 4.37256 4.76561 3.8359 3.31695 3.16536 3.12087 3.12028 3.10561 3.05723 3.04807 3.49905 2.99569 2.98109 4.06784 2.93684 2.66255 3.00025 2.60416 2.59021 2.44542 2.41884 2.3329 4.59263
