tree
version=v4
num_class=1
num_tree_per_iteration=1
label_index=0
max_feature_idx=117
objective=huber
feature_names=Column_0 Column_1 Column_2 Column_3 Column_4 Column_5 Column_6 Column_7 Column_8 Column_9 Column_10 Column_11 Column_12 Column_13 Column_14 Column_15 Column_16 Column_17 Column_18 Column_19 Column_20 Column_21 Column_22 Column_23 Column_24 Column_25 Column_26 Column_27 Column_28 Column_29 Column_30 Column_31 Column_32 Column_33 Column_34 Column_35 Column_36 Column_37 Column_38 Column_39 Column_40 Column_41 Column_42 Column_43 Column_44 Column_45 Column_46 Column_47 Column_48 Column_49 Column_50 Column_51 Column_52 Column_53 Column_54 Column_55 Column_56 Column_57 Column_58 Column_59 Column_60 Column_61 Column_62 Column_63 Column_64 Column_65 Column_66 Column_67 Column_68 Column_69 Column_70 Column_71 Column_72 Column_73 Column_74 Column_75 Column_76 Column_77 Column_78 Column_79 Column_80 Column_81 Column_82 Column_83 Column_84 Column_85 Column_86 Column_87 Column_88 Column_89 Column_90 Column_91 Column_92 Column_93 Column_94 Column_95 Column_96 Column_97 Column_98 Column_99 Column_100 Column_101 Column_102 Column_103 Column_104 Column_105 Column_106 Column_107 Column_108 Column_109 Column_110 Column_111 Column_112 Column_113 Column_114 Column_115 Column_116 Column_117
feature_infos=[5:13] [0:10] [7:15] [4:11] [0:8] [0:8] [7:12] [5:10] [1:7] [0:5.7781512503836439] [1:3.3010299956639813] [1.4771212547196624:6.5563025007672868] [0:4.7781512503836439] [2:4] [0:5.7781512503836439] [0:5] [1:3.6989700043360187] [1:3.6989700043360187] [1:3] [0:5.3033049080590757] [0:6.9087547793152204] [0.5:10] [0.5:5] [0.001:0.10000000000000001] [0.001:0.050000000000000003] [0.00050000000000000001:0.050000000000000003] [0.10000000000000001:0.90000000000000002] [0.5:10] [0.01:0.5] [0.01:0.5] [10:999] [1:20] [1:20] [2:20] [1:10] [0:16] [0:8] [0:8] [1:10] [0:1] [0:1] [0:1] [0:1] [0:3] none none none [12.4:13.699999999999999] none [53.600000000000001:399] [207:1500] [7457:146000] [29.100000000000001:572] [0.52700000000000002:19.100000000000001] [66.700000000000003:399] [1172:8586] none [0:1] [0:1] [0:1] [0:1] [0.0021551724137931034:0.55172413793103448] [0.0086206896551724137:2.2068965517241379] [0.015625:1024] [0.00067326468576972857:4.2312483823251519] [0:1] [0.015625:128] [0:3] [0:3] [0:5] [0:5] [0:13] [0:13] [0:15] [0:15] [0:23.890756251918219] [0:4.5] [0:63.966865691558546] [0:26.516524540295379] [0:25] [0:18.494850021680094] [0:50] [0:8.9986964646779466] [0:14.334453751150932] [0:2.6970000000000001] [0:38.422064766172809] [0:15.909914724177227] [0:15] [0:11.096910013008056] [0:30] [0:14.32402314931163] [0.10000000000000001:2.6756344404842776] [5:38.40535319555309] [0:15.909914724177227] [0.5:15] [1:11.096910013008056] [0.5:30] [0:4.2758590257813145] [0:61.18183491342954] [0:25.339992977608187] [0:23.687686573030565] [0:17.674238151349741] [0:47.781512503836439] [0.5:11.700000000000001] [0:4.7729744172531685] [0.050000000000000003:4.4273790000000002] [0.10000000000000001:3.3290730039024168] [0.050000000000000003:9] [0:68.942963804767984] [2.5:63.921508415989493] [5:47.194271468123539] [2.5:130] [0:26.516524540295379] [0:19.616765778758509] [0:53.033049080590757] [0.5:18.494850021680094] [0.25:50] [0.5:36.989700043360187]
tree_sizes=5206 5528 5556 5556 5533 5570 5572 5576 5567 5583 5553 5574 5570 5564 5592 5608 5545 5568 5568 5602 5550 5601 5606 5565 5574 5575 5591 5608 5589 5568 5603 5594 5606 5605 5612 5574 5621 5563 5547 5549 5554 5570 5525 5556 5581 5575 5553 5561 5571 5581 5548 5575 5540 5551 5563 5540 5548 5595 5546 5504 5533 5544 5549 5557 5511 5568 5549 5564 5569 5621 5605 5572 5555 5597 5558 5564 5590 5602 5563 5571 5594 5591 5604 5586 5626 5595 5625 5635 5593 5558 5586 5580 5554 5595 5601 5606 5578 5607 5573 5589 5629 5616 5612 5601 5604 5587 5642 5586 5623 5584 5678 5664 5604 5614 5646 5653 5621 5663 5598 5680 5673 5679 5651 5681 5698 5648 5712 5643 5720 5664 5706 5645 5679 5705 5703 5656 5726 5711 5674 5668 5716 5696 5729 5678 5699 5684 5703 5728 5672 5715 5726 5717 5711 5658 5686 5675 5685 5698 5699 5720 5734 5711 5710 5731 5697 5708 5705 5716 5735 5737 5712 5708 5713 5727 5726 5685 5740 5718 5682 5706 5714 5704 5746 5718 5728 5702 5723 5702 5717 5708 5732 5723 5713 5670 5713 5707 5695 5693 5661 5697 5676 5744 5722 5729 5755 5670 5694 5707 5721 5728 5702 5704 5723 5716 5748 5726 5672 5738 5720 5650 5684 5713 5687 5668 5722 5728 5729 5736 5730 5685 5741 5749 5729 5744 5726 5737 5719 5720 5702 5730 5723 5709 5705 5746 5711 5758 5707 5701 5680 5726 5715 5723 5721 5747 5758 5713 5747 5736 5729 5735 5710 5734 5732 5671 5722 5708 5733 5734 5755 5720 5739 5716 5707 5743 5715 5700 5733 5743 5733 5747 5739 5689 5707 5764 5744 5742 5702 5747 5746 5725 5736 5726 5687 5755 5694 5779 5736 5694 5738 5725 5681 5739 5718 5753 5709 5728 5702 5756 5776 5732 5756 5681 5701 5693 5741 5725 5757 5745 5710 5714 5741 5733 5757 5725 5746 5676 5723 5766 5731 5707 5726

Tree=0
num_leaves=63
num_cat=0
split_feature=58 82 15 47 49 49 59 18 15 50 47 60 47 18 60 15 72 59 18 49 107 0 15 47 107 18 59 72 92 18 49 72 15 50 59 47 59 59 23 105 47 102 15 60 47 15 60 106 15 4 47 60 15 4 15 49 35 100 49 5 27 113
split_gain=3652.81 914.428 562.62 69.6676 118.709 54.5685 53.3562 116.023 37.0175 36.9372 54.3021 23.9892 21.1666 21.5398 14.2826 14.1874 13.8463 34.4423 32.8106 11.9979 9.62765 11.8312 13.5745 9.42573 11.7108 8.88049 6.76362 13.4392 6.62893 6.56519 6.12927 5.53518 5.30607 5.07493 4.89109 5.861 4.86318 4.58209 4.336 4.22158 3.51212 4.01419 3.42994 3.39243 2.91269 2.69384 2.5755 2.38409 2.36314 2.26195 2.12755 2.0803 2.00266 1.84794 1.73798 1.58286 1.61907 1.5735 1.49743 1.47721 1.43565 1.37903
threshold=1.0000000180025095e-35 1.0000000180025095e-35 4.0322960752608088 13.250000000000002 397.50000000000006 397.50000000000006 1.0000000180025095e-35 1.877937427836246 3.67742442810933 1350.0000000000002 13.050000000000002 1.0000000180025095e-35 13.15 1.7520314413393463 1.0000000180025095e-35 4.271609196322431 5.8703120222447076 1.0000000180025095e-35 1.7888607622545107 224.80000000000004 5.1521125000000003 6.7747720191507943 3.5728132231087431 13.350000000000003 3.1999870000000006 1.8948608469904611 1.0000000180025095e-35 6.6934701226621565 19.709983078779917 1.9268491058880872 224.80000000000004 9.99363200603627 3.5381962869548991 1350.0000000000002 1.0000000180025095e-35 13.15 1.0000000180025095e-35 1.0000000180025095e-35 0.0087500000000000026 0.79990000000000017 12.950000000000001 6.6447063052329947 3.851135977771373 1.0000000180025095e-35 13.350000000000003 3.4411449834908647 1.0000000180025095e-35 1.359200751624458 3.5577476750652859 1.7924812503605783 12.950000000000001 1.0000000180025095e-35 3.9009403252683126 5.845435504646157 3.2187824588661704 224.80000000000004 11.500000000000002 1.9738100554058746 397.50000000000006 2.6961587113893803 1.5505000000000002 1.826309285544496
decision_type=2 2 2 2 2 2 2 2 2 2 2 2 2 2 2 2 2 2 2 2 2 2 2 2 2 2 2 2 2 2 2 2 2 2 2 2 2 2 2 2 2 2 2 2 2 2 2 2 2 2 2 2 2 2 2 2 2 2 2 2 2 2
left_child=1 5 3 9 6 12 8 -8 23 16 26 29 14 -14 19 33 17 48 -19 53 21 34 37 24 30 46 27 60 39 -7 -5 36 47 58 35 -12 43 61 -29 -21 41 -30 -18 -27 -33 -20 -6 -9 51 -28 -13 -3 -10 -1 -25 56 -15 -38 -4 -51 -11 -23
right_child=-2 2 15 4 25 11 7 32 52 10 20 50 13 55 -16 -17 42 18 45 28 -22 22 -24 54 -26 31 49 38 40 -31 -32 44 -34 -35 -36 -37 57 -39 -40 -41 -42 -43 -44 -45 -46 -47 -48 -49 -50 59 -52 -53 -54 -55 -56 -57 -58 -59 -60 -61 -62 -63
leaf_value=6.6659446739395394 6.7172481572016691 6.6322361563084939 6.6274641328031363 6.6839229801732971 6.6228199331461761 6.6348105054575566 6.6176036762004165 6.7152833401172973 6.6679182623444015 6.6462816106661773 6.6581438894144807 6.6983131903559539 6.6681104547664143 6.7122209334860123 6.7014645279609226 6.6175373765067542 6.6503076789010294 6.6172481572016695 6.6532467877304313 6.6608665459010794 6.6433709887735164 6.7162731989181088 6.6647691284576096 6.7125350068566236 6.6556478466227267 6.6328779862484781 6.6698394095963671 6.6756683285016187 6.7059184955322673 6.6649427324857546 6.7121580542012671 6.6521541247562945 6.6784978139953308 6.6350142396101459 6.6493126205098854 6.6924087298834003 6.6553604291088782 6.6823196219041563 6.6509578619196441 6.6899122851575648 6.712314703062777 6.6802346610399983 6.6326355936923038 6.6481819607925301 6.6762010441854214 6.6428529122257931 6.643495767204425 6.6941405688359952 6.6239050563383248 6.6658158656483133 6.6847453630352636 6.6479220472206739 6.6507272367126857 6.6805468656731781 6.6974894852260149 6.7172481572016691 6.6985400559923498 6.6396606727078176 6.6203698085382197 6.6514800257880147 6.6335116616089973 6.7010789705259812
leaf_weight=78 2365 539 139 37 61 20 88 40 36 25 26 47 30 95 167 1982 516 77 511 22 20 28 38 116 20 106 22 20 29 188 40 34 20 147 31 24 79 24 158 29 35 32 29 55 20 71 20 20 85 20 75 22 32 30 23 116 28 20 160 177 184 32
leaf_count=78 2365 539 139 37 61 20 88 40 36 25 26 47 30 95 167 1982 516 77 511 22 20 28 38 116 20 106 22 20 29 188 40 34 20 147 31 24 79 24 158 29 35 32 29 55 20 71 20 20 85 20 75 22 32 30 23 116 28 20 160 177 184 32
internal_value=6.66353 6.64537 6.63789 6.65059 6.66291 6.6891 6.67984 6.65722 6.69233 6.6466 6.65537 6.67237 6.69708 6.70805 6.6901 6.61935 6.64267 6.63988 6.64792 6.68265 6.67647 6.67973 6.68957 6.7017 6.68974 6.64269 6.64761 6.64364 6.69195 6.66205 6.69859 6.64649 6.7008 6.62741 6.66492 6.67459 6.64347 6.70078 6.65373 6.67738 6.69969 6.69245 6.64937 6.63811 6.66106 6.65198 6.62793 6.70824 6.63167 6.65463 6.68997 6.63285 6.65983 6.67 6.71005 6.71306 6.70911 6.65219 6.62367 6.65294 6.63504 6.70817
internal_weight=9360 6995 5974 3546 867 1021 472 168 304 2679 829 330 691 269 422 2428 1850 1305 659 255 223 203 122 236 97 395 606 387 147 208 77 314 80 446 81 50 260 84 178 51 96 61 545 161 54 582 81 60 646 219 122 561 68 108 139 239 123 99 299 197 209 60
internal_count=9360 6995 5974 3546 867 1021 472 168 304 2679 829 330 691 269 422 2428 1850 1305 659 255 223 203 122 236 97 395 606 387 147 208 77 314 80 446 81 50 260 84 178 51 96 61 545 161 54 582 81 60 646 219 122 561 68 108 139 239 123 99 299 197 209 60
is_linear=0
shrinkage=1


Tree=1
num_leaves=63
num_cat=0
split_feature=58 43 80 75 68 54 47 54 54 47 60 18 95 50 90 57 18 95 54 47 50 47 80 60 110 54 110 50 76 47 50 75 74 47 18 74 105 18 0 90 47 47 74 43 59 95 11 24 80 80 99 74 25 85 85 47 112 47 25 57 107 47
split_gain=3604.75 880.119 411.148 70.9638 67.1154 53.9152 38.5121 36.5944 23.2889 22.1911 22.0778 21.3926 20.5125 23.733 19.202 18.6869 78.3691 22.5893 33.6315 22.8874 18.0745 32.9489 16.6208 13.2191 13.1005 16.6169 13.009 11.6082 9.39913 7.70419 7.55459 7.27971 7.11695 6.92117 6.72426 7.77045 6.4009 6.33477 6.03549 6.00001 5.80026 5.71001 5.21063 4.86677 4.21282 4.06917 3.57359 3.44109 3.39412 3.32325 3.23663 3.21402 3.17464 3.14351 3.00785 2.95784 4.71589 2.87372 2.84668 2.35588 2.26327 2.2106
threshold=1.0000000180025095e-35 1.0000000180025095e-35 3.9105355502322028 17.135818392737345 1.5000000000000002 368.00000000000006 13.350000000000003 368.00000000000006 368.00000000000006 13.15 1.0000000180025095e-35 1.7520314413393463 5.5452913793227356 1350.0000000000002 11.671419733477409 1.0000000180025095e-35 1.7888607622545107 3.2082192593921035 368.00000000000006 13.15 1350.0000000000002 13.050000000000002 13.324080954973015 1.0000000180025095e-35 9.3308527589274579 368.00000000000006 10.291782082165801 1350.0000000000002 1.0529598229079953 13.15 1350.0000000000002 19.541658133862402 3.5335001633090091 13.250000000000002 1.7117867598663679 9.5565257853513401 0.59782999999999997 1.9268491058880872 7.2239936054790217 12.030650575226536 13.15 13.15 12.041961148851248 1.5000000000000002 1.0000000180025095e-35 6.372288649810729 5.4448244995958381 0.0085000000000000023 4.2576063947730436 9.8630821375460496 21.005573119012691 4.0007154061231995 0.0033750000000000004 21.98289214233105 13.469387440964349 12.950000000000001 1.2083145266254529 12.950000000000001 0.0055000000000000005 1.0000000180025095e-35 2.7002650000000004 13.250000000000002
decision_type=2 2 2 2 2 2 2 2 2 2 2 2 2 2 2 2 2 2 2 2 2 2 2 2 2 2 2 2 2 2 2 2 2 2 2 2 2 2 2 2 2 2 2 2 2 2 2 2 2 2 2 2 2 2 2 2 2 2 2 2 2 2
left_child=1 5 4 8 12 9 20 -8 14 23 37 -11 15 33 22 16 43 18 19 36 61 -22 26 27 25 29 48 -1 -28 -18 58 39 -30 59 44 45 -17 -7 -29 50 -16 -15 -41 -3 51 49 -31 -47 -4 60 -5 -34 -19 -9 -23 56 -40 -10 -21 -14 -36 -6
right_child=-2 2 3 31 6 10 7 53 57 11 -12 -13 13 41 40 17 24 52 -20 30 21 54 -24 -25 -26 -27 28 38 32 46 -32 -33 34 -35 35 -37 -38 -39 55 42 -42 -43 -44 -45 -46 47 -48 -49 -50 -51 -52 -53 -54 -55 -56 -57 -58 -59 -60 -61 -62 -63
leaf_value=0.0026735977067599177 0.050000000000000003 -0.024908888543193994 -0.03137545338232476 -0.047683495162723806 -0.015594458525409114 -0.031788898706436163 0.043657281501994778 -0.015546223993708447 -0.033088830246151182 0.00085942323009173072 0.021755068572085413 0.045653299659599696 -0.015936130583286284 0.010047120527334271 -0.013157125404386811 -0.0036521703004837036 -0.0012578673660755158 -0.032294247326400342 -0.035464268353852357 0.017735429746764047 -0.011161328701391108 0.018557538175955415 -0.045965388645770169 0.033216265220931192 -0.013521309203224412 -0.020671562238463337 0.010409871828944787 0.006794743740780128 0.0051288836720314902 0.01113224595785141 0.035486649574809952 -0.04958454458199385 -0.013256497663193537 0.0015054033352778508 -0.0051618042423628102 -0.033847894715209902 -0.03233652369278233 -0.00219015340683635 0.039716948196291929 -0.02631530176659835 0.018420257849188951 0.042532157090802991 -0.04494600246349971 -0.050000000000000003 -0.050000000000000003 -0.015633235106776871 0.037917058542370798 0.0091554684564471248 -0.045889553469397243 -0.029327694392379595 -0.035054243974766496 -0.035666090416877225 -0.012041070200502872 0.0086326195299625402 0.042027874741443372 0.040373849500577125 0.012672555330209435 -0.043263495819909237 -0.0082988149353436062 -0.033441094369501677 -0.02179510361300065 -0.0056811612153398819
leaf_weight=108 2365 22 101 362 304 20 81 41 87 30 122 239 40 31 33 37 40 594 110 21 105 20 119 167 845 49 23 37 22 20 38 1310 24 39 43 72 41 188 27 87 26 24 66 159 32 28 33 28 67 51 59 48 20 20 43 43 40 343 21 37 39 69
leaf_count=108 2365 22 101 362 304 20 81 41 87 30 122 239 40 31 33 37 40 594 110 21 105 20 119 167 845 49 23 37 22 20 38 1310 24 39 43 72 41 188 27 87 26 24 66 159 32 28 33 28 67 51 59 48 20 20 43 43 40 343 21 37 39 69
internal_value=-0.00336392 -0.0214062 -0.0287383 -0.0414958 -0.0152515 0.0214947 -0.00154438 0.0216303 -0.0319146 0.0294349 0.00486846 0.0406577 -0.0194667 -0.00282937 -0.0266305 -0.0208545 -0.0167062 -0.026348 -0.0142363 0.000542619 -0.00762718 0.00599053 -0.0289489 0.0222811 -0.0111599 0.00289216 -0.0254455 0.0151196 -0.0206438 0.0153075 0.0193333 -0.0475272 -0.0224894 -0.0156556 -0.0241541 -0.0198701 -0.0187298 -0.00503619 0.0242635 -0.0428319 0.000758332 0.0242224 -0.0343521 -0.0469503 -0.0349051 -0.0145453 0.0278096 -0.00323888 -0.0371638 -0.0193059 -0.0459136 -0.0281962 -0.0316345 -0.00761873 0.034577 0.0301394 0.023571 -0.0412049 0.00471831 -0.0243476 -0.0130728 -0.0137606
internal_weight=9360 6995 5974 3070 2904 1021 683 142 1186 691 330 269 2221 171 756 2050 1168 882 268 158 541 168 697 422 987 142 578 255 410 93 80 1884 387 116 365 261 78 208 147 574 59 55 153 181 104 189 53 56 168 133 421 72 614 61 63 110 67 430 42 77 82 373
internal_count=9360 6995 5974 3070 2904 1021 683 142 1186 691 330 269 2221 171 756 2050 1168 882 268 158 541 168 697 422 987 142 578 255 410 93 80 1884 387 116 365 261 78 208 147 574 59 55 153 181 104 189 53 56 168 133 421 72 614 61 63 110 67 430 42 77 82 373
is_linear=0
shrinkage=0.05


Tree=2
num_leaves=63
num_cat=0
split_feature=58 73 43 75 68 49 73 47 49 47 18 49 57 18 47 49 47 60 49 12 51 47 43 47 73 60 49 49 51 47 117 95 51 83 47 75 12 92 18 59 112 115 51 47 43 102 73 68 28 73 51 5 68 109 51 16 9 47 49 35 4 47
split_gain=3557.64 885.875 377.545 85.6165 62.1101 53.1969 44.1746 33.0549 36.478 23.1877 21.2133 20.687 20.3027 81.5221 26.6039 50.361 24.1173 20.2657 18.4764 18.3576 15.4891 34.4599 14.6426 12.5133 13.3817 12.2652 11.2384 10.7995 9.71396 27.6399 10.7945 8.95383 13.94 8.0672 8.05913 7.05024 11.1693 6.48742 6.11151 5.41695 5.07941 4.50103 8.77713 3.84861 3.83335 3.80339 3.64506 3.5739 3.50736 3.21426 2.9417 2.73562 2.63829 2.55796 2.25801 2.13572 2.13133 2.10989 1.85646 1.88533 1.73131 1.71594
threshold=1.0000000180025095e-35 4.0004338607656145 1.0000000180025095e-35 16.837118337499945 1.5000000000000002 397.50000000000006 8.0207270134216753 13.350000000000003 397.50000000000006 13.15 1.7520314413393463 397.50000000000006 1.0000000180025095e-35 1.8095466653133714 13.250000000000002 397.50000000000006 13.350000000000003 1.0000000180025095e-35 397.50000000000006 4.0476836478812137 98550.000000000015 13.050000000000002 1.5000000000000002 13.250000000000002 6.941243021308602 1.0000000180025095e-35 224.80000000000004 224.80000000000004 98550.000000000015 13.050000000000002 11.861035516317971 2.4807247857297283 98550.000000000015 5.1618020797142945 13.350000000000003 19.541658133862402 4.3687329916119575 19.709983078779917 1.9268491058880872 1.0000000180025095e-35 7.0000296508790738 2.4495771110824527 98550.000000000015 12.950000000000001 1.5000000000000002 6.6447063052329947 8.2448226157116462 2.5000000000000004 0.23450000000000001 7.6314872571663477 98550.000000000015 3.0849625007211565 1.5000000000000002 10.76089284077697 98550.000000000015 1.6945830421822665 4.7745016310128952 12.950000000000001 224.80000000000004 11.500000000000002 5.845435504646157 12.950000000000001
decision_type=2 2 2 2 2 2 2 2 2 2 2 2 2 2 2 2 2 2 2 2 2 2 2 2 2 2 2 2 2 2 2 2 2 2 2 2 2 2 2 2 2 2 2 2 2 2 2 2 2 2 2 2 2 2 2 2 2 2 2 2 2 2
left_child=1 2 5 6 12 9 11 20 -9 25 -11 22 13 44 28 33 31 38 -18 46 -6 61 -3 27 -25 26 60 -24 -14 -30 -31 32 -15 34 -16 36 -5 40 -7 49 -28 -33 -43 45 -4 -39 54 -48 56 -26 -38 -21 -13 -10 -8 -23 -29 -19 59 -12 -1 -22
right_child=-2 3 4 35 7 17 19 8 53 10 58 52 14 16 15 -17 18 57 -20 51 21 55 23 24 39 -27 37 48 29 30 -32 41 -34 -35 -36 -37 50 43 -40 -41 -42 42 -44 -45 -46 -47 47 -49 -50 -51 -52 -53 -54 -55 -56 -57 -58 -59 -60 -61 -62 -63
leaf_value=-0.0013675976234177748 0.050000000000000003 -0.040218703068317256 -0.029960185172967613 -0.04744286532766126 -0.012085469090030179 -0.031153120696544648 -0.039450981386683209 0.047910132592738568 -0.013868878193591772 0.00085655845701694501 0.044543494888042157 -0.036791077769331396 -0.031808821350681277 -0.01157854759030872 -0.0099282482173293843 -0.03007602929655049 0.045130570690546719 0.029098326633585261 -0.0083431406691670418 -0.021303042732179166 -0.015256672930806431 0.04744675736273489 -0.029115643197635432 0.031971002447194072 0.012455151916583418 0.032236184362701314 -0.0087260233301838692 -0.019362664416907951 -0.028888785508175138 0.029785153676163068 -0.01676669794600457 -0.013527113438570215 0.032875495378313392 0.038330013873545753 0.03104717350742292 -0.049457254265328404 -0.036775434036867886 0.036989427136321522 -0.0020806458051393227 -0.024844730202237084 0.023134398524617329 -0.011952449467473774 0.016306732223631864 0.044674255337033952 -0.049080139254701553 0.011989051842829213 -0.045141808695292905 -0.029360814488086945 0.0073822428502382772 -0.0096232546620954318 -0.022950942398581125 0.004247256918725642 -0.02436749913682372 0.008222570158541203 -0.023475857723403621 0.02757952343672514 -0.0033196813068226785 0.015586928377548853 0.050000000000000003 0.02978047515664782 0.012766298310986411 -0.00069803590404576279
leaf_weight=78 2365 47 32 406 333 20 55 67 38 30 95 155 518 45 28 108 35 47 30 20 67 31 106 29 32 167 22 47 179 33 20 850 29 38 21 1310 123 29 188 29 29 93 39 35 145 32 448 39 31 34 56 22 59 20 37 24 37 75 116 28 30 29
leaf_count=78 2365 47 32 406 333 20 55 67 38 30 95 155 518 45 28 108 35 47 30 20 67 31 106 29 32 167 22 47 179 33 20 850 29 38 21 1310 123 29 188 29 29 93 39 35 145 32 448 39 31 34 56 22 59 20 37 24 37 75 116 28 30 29
internal_value=-0.0030141 -0.0209381 -0.00496257 -0.0407565 -0.014303 0.0211285 -0.0304666 -0.000142414 0.0227793 0.0290156 0.0404877 -0.0208627 -0.0181478 -0.0140889 -0.0237229 -0.00727011 -0.00910975 0.00461339 0.0204504 -0.0398384 -0.00606228 0.00722065 -0.0140371 -0.0104703 0.00224223 0.0217029 0.0148046 -0.0176031 -0.0280006 -0.0194979 0.0122184 -0.0109293 0.00584263 0.0210407 0.00763265 -0.0474192 -0.0428554 0.0238018 -0.00487608 -0.00683287 0.00939069 -0.0121931 -0.00360315 0.0314577 -0.0456234 0.0238745 -0.0421537 -0.043878 -0.00699151 0.00108143 -0.0324505 -0.00791955 -0.0333659 -0.00625114 -0.0330262 0.0387774 -0.0122961 0.0207921 0.0454623 0.0411828 0.00255848 -0.0108588
internal_weight=9360 6995 3873 3122 2852 1021 1227 609 125 691 269 606 2243 1298 945 195 1121 330 65 621 484 151 392 345 124 422 255 221 750 232 53 1056 74 87 49 1895 585 147 208 95 51 982 132 96 177 61 579 487 115 66 179 42 214 58 92 55 84 122 239 123 108 96
internal_count=9360 6995 3873 3122 2852 1021 1227 609 125 691 269 606 2243 1298 945 195 1121 330 65 621 484 151 392 345 124 422 255 221 750 232 53 1056 74 87 49 1895 585 147 208 95 51 982 132 96 177 61 579 487 115 66 179 42 214 58 92 55 84 122 239 123 108 96
is_linear=0
shrinkage=0.05


Tree=3
num_leaves=63
num_cat=0
split_feature=71 73 43 15 68 49 47 49 47 49 18 59 57 47 18 15 50 60 49 50 47 15 103 49 47 47 60 49 15 49 47 95 50 59 47 92 18 49 112 47 77 115 50 47 30 49 25 15 15 61 49 16 103 47 18 57 47 49 35 18 35 49
split_gain=3509.96 881.112 355.637 191.394 59.0013 52.5251 31.7989 35.4567 24.2034 23.4275 21.3391 50.5879 49.2282 23.07 21.0713 19.7032 19.2342 18.6602 17.8751 14.8748 33.1642 14.0908 13.8417 17.4328 16.6466 13.2037 11.3176 10.8764 9.65313 9.53338 8.70493 8.47923 13.3004 7.62528 6.53175 6.33678 5.89524 4.86756 4.76699 4.54834 4.68701 4.14354 8.11518 3.99625 3.73068 3.66349 3.62813 3.52103 2.6515 2.31668 2.28733 2.15804 2.15682 2.14376 2.04091 2.16401 2.00962 1.98325 1.98206 1.89159 1.87697 1.80606
threshold=1.0000000180025095e-35 4.0004338607656145 1.0000000180025095e-35 4.1192221031523095 1.5000000000000002 397.50000000000006 13.350000000000003 397.50000000000006 13.15 397.50000000000006 1.8095466653133714 1.0000000180025095e-35 1.0000000180025095e-35 13.350000000000003 1.7520314413393463 3.8400119441409188 1350.0000000000002 1.0000000180025095e-35 397.50000000000006 1350.0000000000002 13.050000000000002 4.3334270294979467 4.2224099284699852 397.50000000000006 13.250000000000002 13.250000000000002 1.0000000180025095e-35 224.80000000000004 3.2513945771266921 224.80000000000004 13.15 2.4807247857297283 1350.0000000000002 1.0000000180025095e-35 13.250000000000002 19.709983078779917 1.9268491058880872 224.80000000000004 7.0000296508790738 12.950000000000001 22.418533447647476 2.4495771110824527 1350.0000000000002 12.950000000000001 445.50000000000006 397.50000000000006 0.0072500000000000004 3.5381962869548991 3.67742442810933 0.068494073275862086 224.80000000000004 1.6945830421822665 3.9651068881948026 13.050000000000002 1.8095466653133714 1.0000000180025095e-35 12.950000000000001 224.80000000000004 11.500000000000002 1.7117867598663679 8.5000000000000018 224.80000000000004
decision_type=2 2 2 2 2 2 2 2 2 2 2 2 2 2 2 2 2 2 2 2 2 2 2 2 2 2 2 2 2 2 2 2 2 2 2 2 2 2 2 2 2 2 2 2 2 2 2 2 2 2 2 2 2 2 2 2 2 2 2 2 2 2
left_child=1 2 5 9 10 8 19 -8 26 15 11 16 13 31 -10 25 34 36 -15 -6 -21 45 23 24 37 29 27 -1 -27 -3 -18 32 -12 48 -4 38 -7 -14 -29 -31 -41 -33 -43 44 -37 53 60 -11 -30 -9 -17 -22 -42 -5 -49 -56 -19 58 -16 -55 -24 -28
right_child=-2 3 4 21 6 17 7 49 14 47 12 -13 22 18 57 50 30 56 -20 20 51 -23 46 -25 -26 28 61 35 33 39 -32 41 -34 -35 -36 43 -38 -39 -40 40 52 42 -44 -45 -46 -47 -48 54 -50 -51 -52 -53 -54 59 55 -57 -58 -59 -60 -61 -62 -63
leaf_value=0.0024864978382269061 0.050000000000000003 -0.02406132761585085 -0.028220098020359019 -0.043357898791631065 -0.011501156667515904 -0.030530058254953474 0.047466224343029426 -0.013181055082302346 0.00085370324552059185 -0.023479533198467913 -0.011046775488389863 -0.049156311709688316 -0.031709936857223509 0.044614792609853404 0.044332499394291326 -0.02903496894046418 -0.0031030225160066042 0.028014804486264575 -0.0079816047474741952 -0.010317995186051122 0.047090634751704434 -0.049628184645854195 -0.029390476685080488 -0.031164286733837799 0.027507468866996277 0.039748625386328923 0.025656887095469934 -0.0084087132243439566 0.024478360007588681 -0.018113315441916068 0.038411005396071986 -0.012861101970870925 0.032375524681189968 -0.018812289551414296 -0.0020949500302473705 0.032511038046616779 -0.00197661355589244 -0.00018543147792418797 0.022456321338641234 -0.013826590808837311 0.022245338713300641 -0.011367679050853176 0.015804986456313577 0.04441897391208581 0.006760570057667792 -0.045617306270660497 -0.0081468153406273249 -0.042934181317687038 0.0016726069822907447 0.0078426790609955801 -0.019551677079180624 0.027119864833851655 0.00090208868496119985 -0.042267127633094786 -0.02761959994351992 -0.041408162945654338 0.01482836473484834 0.050000000000000003 0.029195501548903331 -0.030587829960300433 -0.015663464657532482 0.036087930200414529
leaf_weight=108 2365 95 87 72 333 20 67 38 30 94 45 161 25 35 95 121 28 47 30 96 31 1856 590 64 39 21 77 22 26 31 23 850 29 29 33 39 188 24 29 23 29 93 39 35 22 156 22 60 25 20 134 24 20 45 93 41 75 116 28 151 26 90
leaf_count=108 2365 95 87 72 333 20 67 38 30 94 45 161 25 35 95 121 28 47 30 96 31 1856 590 64 39 21 77 22 26 31 23 850 29 29 33 39 188 24 29 23 29 93 39 35 22 156 22 60 25 20 134 24 20 45 93 41 75 116 28 151 26 90
internal_value=-0.00265762 -0.0204611 -0.00452857 -0.0402262 -0.013594 0.0207942 0.000207692 0.0226897 0.0286314 -0.0198544 -0.0173413 -0.0290418 -0.0153086 -0.00857171 0.0403519 -0.013841 -0.0101036 0.00438369 0.0203395 -0.00559861 0.00741827 -0.0477495 -0.0248681 -0.0113087 0.00313173 -0.00513303 0.0211602 0.0145338 0.00957839 -0.0126373 0.015619 -0.0103513 0.00597007 0.0016587 -0.0210357 0.0233848 -0.00472214 -0.0162694 0.00914199 -0.00210066 0.00479368 -0.0115812 -0.00333939 0.0309513 0.023224 -0.0395256 -0.0280985 -0.0314218 0.0132991 -0.00593149 -0.0240516 0.0383761 0.0135338 -0.0359797 -0.0352701 -0.0318385 0.0199084 0.0453099 0.0408867 -0.0332693 -0.0288111 0.0312784
internal_weight=9360 6995 3873 3122 2852 1021 609 125 691 842 2243 332 1911 1121 269 554 171 330 65 484 151 2280 790 152 88 299 422 255 101 198 51 1056 74 80 120 147 208 49 51 103 72 982 132 96 61 424 638 288 51 58 255 55 49 268 194 134 122 239 123 196 616 167
internal_count=9360 6995 3873 3122 2852 1021 609 125 691 842 2243 332 1911 1121 269 554 171 330 65 484 151 2280 790 152 88 299 422 255 101 198 51 1056 74 80 120 147 208 49 51 103 72 982 132 96 61 424 638 288 51 58 255 55 49 268 194 134 122 239 123 196 616 167
is_linear=0
shrinkage=0.05


Tree=4
num_leaves=63
num_cat=0
split_feature=58 73 84 15 68 54 47 54 47 18 59 59 54 18 15 50 60 8 54 84 47 15 50 47 47 50 15 60 50 47 47 0 59 50 47 18 0 95 28 28 15 54 50 107 60 47 47 117 4 94 15 19 16 50 85 0 47 0 50 47 47 6
split_gain=3465.44 874.877 335.8 198.715 56.0324 51.8802 30.4682 34.2879 25.199 22.9847 52.0353 40.3797 22.308 20.9314 19.591 17.6761 17.1685 16.6813 17.4785 15.4148 15.5616 14.4661 14.1936 31.8101 12.0226 10.6336 9.17304 8.92373 8.70193 8.52202 8.14175 7.40244 7.11795 6.20846 5.89976 5.68581 5.16001 5.13815 4.48315 3.89387 3.76678 3.64148 3.15497 7.20287 6.32358 3.09038 3.02632 3.67217 2.53816 2.4681 2.39298 2.22349 2.15267 2.11272 2.10437 2.09779 4.25747 2.77303 1.97682 1.94368 1.90398 1.73789
threshold=1.0000000180025095e-35 4.0004338607656145 0.11500000000000002 4.141167467512739 1.5000000000000002 368.00000000000006 13.350000000000003 368.00000000000006 13.15 1.8095466653133714 1.0000000180025095e-35 1.0000000180025095e-35 368.00000000000006 1.7520314413393463 3.8400119441409188 1350.0000000000002 1.0000000180025095e-35 1.5000000000000002 368.00000000000006 1.1130000000000002 13.250000000000002 4.3475641766623392 1350.0000000000002 13.050000000000002 13.250000000000002 1350.0000000000002 3.2513945771266921 1.0000000180025095e-35 1350.0000000000002 13.250000000000002 13.15 7.2239936054790217 1.0000000180025095e-35 1350.0000000000002 13.250000000000002 1.9268491058880872 6.9943423433860836 2.2214122795938196 0.21350000000000002 0.20150000000000004 3.8899725967921195 368.00000000000006 1350.0000000000002 2.3999280000000005 1.0000000180025095e-35 13.350000000000003 13.050000000000002 7.2202235426849368 5.9188139665857031 3.1171025187230383 3.67742442810933 4.0517471391904856 1.6945830421822665 1350.0000000000002 21.98289214233105 8.8533087123381495 13.350000000000003 7.6036215779683696 1350.0000000000002 13.050000000000002 12.950000000000001 9.015414379000747
decision_type=2 2 2 2 2 2 2 2 2 2 2 2 2 2 2 2 2 2 2 2 2 2 2 2 2 2 2 2 2 2 2 2 2 2 2 2 2 2 2 2 2 2 2 2 2 2 2 2 2 2 2 2 2 2 2 2 2 2 2 2 2 2
left_child=1 2 5 12 9 8 22 -8 25 10 15 19 14 -10 24 34 35 18 29 20 42 41 -6 -24 28 27 -26 -1 -3 -13 -17 51 50 39 -4 -7 -21 -19 -30 -22 -14 59 44 -44 -11 49 47 -33 61 -39 -28 -27 -25 55 -9 56 57 -15 -16 -5 -18 -49
right_child=-2 3 4 21 6 16 7 54 13 11 -12 17 40 53 58 30 60 37 -20 36 33 -23 23 52 26 31 32 -29 38 -31 -32 46 -34 -35 -36 -37 -38 45 -40 -41 -42 -43 43 -45 -46 -47 -48 48 -50 -51 -52 -53 -54 -55 -56 -57 -58 -59 -60 -61 -62 -63
leaf_value=0.0023794403183273975 0.050000000000000003 -0.023005399896126044 -0.026841530897494022 -0.042686311985765189 -0.010945094631937286 -0.029919457120122391 0.046875568735065744 -0.012544044283659836 0.00085085754593213414 -0.030504446968717399 -0.04914104577547275 0.0099590716908711033 -0.025962284361706913 0.015993212039271992 -0.027739566399406557 -0.002981117917183188 0.026941897510055532 0.013683796022087337 -0.015099034095421815 -0.0054777639784983232 -0.017154533399835879 -0.049526575929943792 -0.0098343395452199431 0.046558966415543718 0.038518311296190537 -0.0015856943516568704 0.023254442157653665 0.024657213462927902 -0.010167239696602338 0.044635157136465702 0.037167539455644459 0.038856939186957935 -0.018390634630260798 0.029687065055424518 -0.0020124211907386782 -0.001877782957509477 -0.027473984495152499 -0.011266053306287549 0.011338678281754257 0.011940018184806991 -0.037301944826192 -0.045285871196416472 0.013388597887630263 -0.017439620095408625 -0.015202965994956352 0.0048774116836926519 0.046666666666666669 0.029866233915090565 0.0348048790358007 0.0023653460294008259 0.0015889765173196795 0.020012140274047852 0.026613073858122033 0.050000000000000003 0.0074932233989238733 0.050000000000000003 0.050000000000000003 0.039619026543653534 -0.019301505694683228 -0.032939933938415426 0.014106717427571615 0.012152220813764467
leaf_weight=108 2365 95 87 70 333 20 67 38 30 106 161 37 181 27 134 28 47 24 39 28 23 1828 96 31 21 22 26 77 64 34 23 62 29 22 33 188 558 648 39 23 123 153 24 90 186 34 30 20 32 35 25 26 24 116 20 40 33 23 144 190 75 45
leaf_count=108 2365 95 87 70 333 20 67 38 30 106 161 37 181 27 134 28 47 24 39 28 23 1828 96 31 21 22 26 77 64 34 23 62 29 22 33 188 558 648 39 23 123 153 24 90 186 34 30 20 32 35 25 26 24 116 20 40 33 23 144 190 75 45
internal_value=-0.0023226 -0.0200128 -0.00413675 -0.0397078 -0.0129457 0.0204697 0.000504241 0.0225108 0.0282585 -0.0165975 -0.0287408 -0.0144879 -0.019589 0.0402178 -0.0138139 -0.00953357 0.00416018 -0.00637621 0.0117929 -0.0210001 -0.014296 -0.0476171 -0.00517928 0.00753606 -0.00493014 0.0206353 0.00910788 0.0116518 -0.0120909 0.0265645 0.0151251 0.0276476 0.00138764 0.00784091 -0.0200135 -0.0045741 -0.026423 -0.00907338 -0.00202422 -0.00260726 -0.0305504 -0.0391655 -0.0180036 -0.0109495 -0.0207576 -0.00983512 0.0321009 0.0293526 0.0232776 -0.0105675 0.0126341 0.0101131 0.0378553 0.0451592 -0.00563464 0.0405939 0.0360609 0.0268611 -0.0233688 -0.035564 0.0190514 0.0176027
internal_weight=9360 6995 3873 3122 2852 1021 609 125 691 2243 332 1911 881 269 577 171 330 851 110 1060 474 2241 484 151 299 422 101 185 198 71 51 237 80 68 120 208 586 741 103 46 304 413 406 114 292 717 189 159 97 683 51 48 55 239 58 123 83 50 278 260 122 65
internal_count=9360 6995 3873 3122 2852 1021 609 125 691 2243 332 1911 881 269 577 171 330 851 110 1060 474 2241 484 151 299 422 101 185 198 71 51 237 80 68 120 208 586 741 103 46 304 413 406 114 292 717 189 159 97 683 51 48 55 239 58 123 83 50 278 260 122 65
is_linear=0
shrinkage=0.05


Tree=5
num_leaves=63
num_cat=0
split_feature=58 73 82 15 68 49 18 59 59 49 6 49 15 18 59 15 50 60 84 103 49 49 4 70 87 70 18 59 115 18 4 89 0 27 82 94 18 94 87 49 111 49 3 60 9 50 26 60 15 9 49 16 29 68 11 26 9 22 17 81 6 15
split_gain=3421.28 865.375 318.128 205.13 53.2542 51.371 24.5984 53.3357 36.784 22.6441 36.2063 21.0475 18.2352 18.1964 34.6794 16.8622 16.1412 15.7925 14.0648 13.9479 18.3197 9.88451 8.23395 6.75654 6.64255 6.41353 8.9144 12.4112 5.62617 5.48306 5.13096 6.75914 4.6439 4.30647 4.02228 4.00236 3.75119 4.68129 3.53545 3.41498 3.32775 3.32215 4.20613 3.21949 3.17133 3.12572 8.07023 3.45576 3.02661 2.97231 4.27975 2.7008 3.41538 2.44849 2.4028 2.35808 2.32893 2.62797 2.31784 2.24822 2.12934 2.03684
threshold=1.0000000180025095e-35 4.0004338607656145 1.0000000180025095e-35 4.1470266755027634 1.5000000000000002 397.50000000000006 1.8095466653133714 1.0000000180025095e-35 1.0000000180025095e-35 397.50000000000006 10.084962500721158 397.50000000000006 3.8400119441409188 1.7520314413393463 1.0000000180025095e-35 4.3769691001170896 1350.0000000000002 1.0000000180025095e-35 1.1130000000000002 4.1902120111660102 397.50000000000006 224.80000000000004 1.2924812503605783 3.3812049015326155 3.3595000000000002 3.0053619326958869 1.7117867598663679 1.0000000180025095e-35 1.6840370571073646 1.9268491058880872 1.7924812503605783 7.9330000000000007 6.9943423433860836 2.0890000000000004 3.6456187382426957 1.382796436631482 2.1972783696818285 1.4316964129255838 2.6230000000000007 397.50000000000006 27.357182723954271 397.50000000000006 5.7414039783633344 1.0000000180025095e-35 4.835679001721747 1350.0000000000002 0.5485000000000001 1.0000000180025095e-35 3.5875425105057452 4.8162286460923633 397.50000000000006 3.0818871021912315 0.11050000000000001 1.5000000000000002 5.9588026377715311 0.47450000000000003 4.7958661194759182 1.0165000000000002 3.2389238279270547 11.524011870357745 9.9992952148726655 4.271609196322431
decision_type=2 2 2 2 2 2 2 2 2 2 2 2 2 2 2 2 2 2 2 2 2 2 2 2 2 2 2 2 2 2 2 2 2 2 2 2 2 2 2 2 2 2 2 2 2 2 2 2 2 2 2 2 2 2 2 2 2 2 2 2 2 2
left_child=1 2 5 11 6 13 7 16 18 10 24 12 25 14 43 39 41 29 22 20 36 23 33 51 30 26 27 -3 -18 -7 40 -32 -20 -8 53 -33 -10 -38 -39 61 -6 42 -4 -1 -28 47 -47 -24 -27 -21 -51 52 -15 -13 56 -42 57 -23 -53 -56 -46 -5
right_child=-2 3 4 15 9 17 8 -9 19 -11 -12 34 -14 21 -16 -17 28 -19 32 49 -22 54 45 -25 -26 48 44 -29 -30 -31 31 35 -34 -35 -36 -37 37 38 -40 -41 55 -43 -44 -45 60 46 -48 -49 -50 50 -52 58 -54 -55 59 -57 -58 -59 -60 -61 -62 -63
leaf_value=0.013170831614052473 0.050000000000000003 -0.00042990500173207538 0.0065090654925866569 -0.031344059004679618 0.015193996010791688 -0.029321067968849091 -0.0099045921393014769 -0.049125784580011544 0.030988514690827102 -0.010791026530321688 -0.010370910140264729 -0.042027311955953578 -0.022380796221826385 0.016545241261649479 -0.050000000000000003 -0.04948406792332477 0.028431787590185803 0.018227323255555126 -0.0052527843841484621 -0.010407167588633266 -0.013484558030157476 0.03174273510847022 -0.025385557686717349 0.035530130278444698 0.043348935366638253 0.014529684279114009 -0.0099690435119391824 -0.050000000000000003 -0.0053117940898075519 -0.0017838937270038939 0.030715148895978928 0.017553224875591696 -0.026119979741352217 0.017844169663971867 -0.025528870543473931 -0.010208688930583161 0.032768335491418839 -0.0063536553818266846 0.018741190709173679 -0.044465610311806569 0.019777472615242004 -0.027787333073323234 -0.020591510050907369 0.038851784141017844 0.011411820343207747 0.015583984109644705 -0.016121713832994416 -0.014411406526639265 -0.0044055963633581998 0.015364438095795258 -0.013097733525559308 0.0045669301715679468 0.037379480193595625 -0.023736671172082426 0.047398339779074511 0.040988261507529961 0.037486095278103267 0.0089013252896256757 0.019108937361984161 0.036299100341079957 -0.0060292497401436169 -0.039727943469869333
leaf_weight=23 2365 23 22 149 42 20 27 161 39 250 146 77 287 42 21 1773 30 122 28 608 74 34 116 89 31 51 89 28 21 188 25 20 558 29 209 37 20 32 25 163 20 57 41 26 42 26 88 188 36 28 25 40 37 24 67 38 62 20 87 143 30 141
leaf_count=23 2365 23 22 149 42 20 27 161 39 250 146 77 287 42 21 1773 30 122 28 608 74 34 116 89 31 51 89 28 21 188 25 20 558 29 209 37 20 32 25 163 20 57 41 26 42 26 88 188 36 28 25 40 37 24 67 38 62 20 87 143 30 141
internal_value=-0.00198817 -0.0195653 -0.00377571 -0.0391531 -0.0123497 0.0201745 -0.0159099 -0.0284722 -0.0137274 0.000762529 0.00880818 -0.0189519 -0.0133781 0.0279251 0.00375822 -0.0472844 -0.00902646 0.00394527 -0.019943 -0.00598534 0.00595408 0.0306492 -0.0135391 0.0240179 0.0219544 -0.00473679 -0.00942789 -0.0276449 0.0145374 -0.0044317 0.0183103 0.00903929 -0.0251229 0.0044653 -0.0294881 -0.000467667 0.0183546 0.0119556 0.00465286 -0.0386751 0.0259125 -0.0190411 -0.0111278 0.0267975 -0.0036573 -0.0159512 -0.00889059 -0.0185989 0.0066944 -0.00941724 0.00193889 0.0190442 0.026303 -0.037681 0.0366499 0.0336742 0.0308743 0.023283 0.0145288 0.0398403 0.00414471 -0.0354204
internal_weight=9360 6995 3873 3122 2852 1021 2243 332 1911 609 359 896 586 691 70 2226 171 330 1060 851 190 621 474 295 213 299 212 51 51 208 182 82 586 56 310 57 116 77 57 453 100 120 63 49 161 418 114 304 87 661 53 206 79 101 326 58 116 54 127 210 72 290
internal_count=9360 6995 3873 3122 2852 1021 2243 332 1911 609 359 896 586 691 70 2226 171 330 1060 851 190 621 474 295 213 299 212 51 51 208 182 82 586 56 310 57 116 77 57 453 100 120 63 49 161 418 114 304 87 661 53 206 79 101 326 58 116 54 127 210 72 290
is_linear=0
shrinkage=0.05


Tree=6
num_leaves=63
num_cat=0
split_feature=58 73 82 15 49 47 49 59 18 57 47 18 49 15 64 15 60 59 47 49 47 107 15 49 60 0 50 47 11 50 47 18 85 18 107 22 57 18 95 15 28 59 47 117 106 49 4 15 74 57 60 12 49 35 19 92 59 11 18 57 18 47
split_gain=3381.29 852.939 298.935 209.811 49.9723 41.5931 75.0994 46.9231 93.2243 28.4279 28.3611 20.8657 20.2964 19.0733 17.6528 17.0198 14.4844 13.959 10.8617 10.752 9.80953 9.22481 8.67802 7.89403 7.83566 7.48769 7.11083 21.7168 8.88718 6.98351 24.1983 6.7856 6.68942 6.58457 6.5237 5.84348 5.59182 5.28684 4.74195 4.45314 4.02113 3.58839 3.58125 3.6952 3.48638 3.03441 2.57589 2.47298 2.35375 3.84598 2.30127 2.27097 2.25395 2.26247 2.11495 2.03981 3.82716 1.99885 1.99535 1.91609 2.16029 1.84877
threshold=1.0000000180025095e-35 4.0004338607656145 1.0000000180025095e-35 4.1644866907574745 397.50000000000006 13.250000000000002 397.50000000000006 1.0000000180025095e-35 1.877937427836246 1.0000000180025095e-35 13.15 1.7520314413393463 397.50000000000006 4.4239826923887327 0.0033953601357985938 3.8400119441409188 1.0000000180025095e-35 1.0000000180025095e-35 13.250000000000002 224.80000000000004 13.350000000000003 3.1748580000000004 3.2513945771266921 224.80000000000004 1.0000000180025095e-35 7.2239936054790217 1350.0000000000002 13.050000000000002 5.9540011005862779 1350.0000000000002 13.050000000000002 1.7117867598663679 12.237807473723137 1.8948608469904611 1.8699100000000004 1.2010000000000003 1.0000000180025095e-35 1.9268491058880872 4.7412021866544638 3.8899725967921195 0.21350000000000002 1.0000000180025095e-35 13.050000000000002 7.2202235426849368 1.3844799572536328 397.50000000000006 5.9188139665857031 4.271609196322431 7.0703666161571563 1.0000000180025095e-35 1.0000000180025095e-35 4.4373779119129066 224.80000000000004 11.500000000000002 4.0517471391904856 13.132349631830435 1.0000000180025095e-35 6.1530522482390166 1.8095466653133714 1.0000000180025095e-35 1.8095466653133714 12.950000000000001
decision_type=2 2 2 2 2 2 2 2 2 2 2 2 2 2 2 2 2 2 2 2 2 2 2 2 2 2 2 2 2 2 2 2 2 2 2 2 2 2 2 2 2 2 2 2 2 2 2 2 2 2 2 2 2 2 2 2 2 2 2 2 2 2
left_child=1 2 4 12 10 9 7 20 -9 14 19 -12 15 45 17 18 37 -4 23 24 21 32 -20 -3 -1 54 -11 -28 -29 55 35 -24 -7 41 -32 -31 -35 -6 -36 59 -25 -8 43 57 -10 47 51 -5 50 -50 -17 -45 53 -13 -21 56 -16 -27 -41 60 -14 -18
right_child=-2 3 5 13 16 6 33 8 44 26 11 52 39 -15 29 48 61 -19 22 25 -22 -23 31 40 -26 42 27 28 -30 30 34 -33 -34 36 38 -37 -38 -39 -40 58 -42 -43 -44 46 -46 -47 -48 -49 49 -51 -52 -53 -54 -55 -56 -57 -58 -59 -60 -61 -62 -63
leaf_value=0.0015694442114585804 0.050000000000000003 -0.02193152883335164 -0.0068583735885719465 -0.030579752872761032 -0.028734646611846982 0.0038382308930158615 -0.022658052189009532 -0.049522478645667438 0.046312096676765349 -0.0262367710140336 0.00076131706436475123 0.043966143321441976 -0.031709971587205753 -0.049627175191919254 -0.01132547193704996 -0.035994967318912767 0.025180820767034557 -0.050000000000000003 0.037219109350726719 -0.0027020875734954397 0.041245768970884056 -0.010933307167142629 -0.015833639374057597 -0.009660040417475103 0.022444927968937517 0.029986461495659696 -0.024027831146920194 0.028348948332396425 -0.013890464062715184 -0.011559758966247301 0.040427144576928448 0.013623508503255638 0.038591824422279992 -0.0095651022000040158 -0.003223417539681707 0.016290974784642458 -0.024608734687385354 -0.0016946990837087917 0.028653398910537364 -0.043431381702423097 0.010707576968856394 -0.050000000000000003 0.046666666666666669 0.0083901374153076465 0.020635576434433464 -0.04380124028397616 0.033350564748980106 -0.039325984675907394 -0.014053536069857526 -0.027566983013312864 -0.018084279075264931 0.027467296422960669 0.050000000000000003 0.027793798062651021 0.018361980394603541 -0.011383685803134258 -0.035926784813404083 0.048287882685661317 -0.030998157930898142 -0.030682522995818046 -0.016017948480115996 0.012533127506573996
leaf_weight=108 2365 95 30 133 20 20 28 64 39 518 30 95 29 1670 43 47 47 50 21 22 113 20 34 64 77 37 179 33 20 323 28 46 45 188 28 20 92 188 20 50 39 21 30 39 20 189 32 206 144 83 29 26 116 28 26 885 25 25 91 62 90 75
leaf_count=108 2365 95 30 133 20 20 28 64 39 518 30 95 29 1670 43 47 47 50 21 22 113 20 34 64 77 37 179 33 20 323 28 46 45 188 28 20 92 188 20 50 39 21 30 39 20 189 32 206 144 83 29 26 116 28 26 885 25 25 91 62 90 75
internal_value=-0.00168349 -0.0191576 -0.00348187 -0.0386042 0.0197346 -0.0117932 -0.000679571 0.0165263 -0.00772809 -0.0150738 0.0273789 0.0400664 -0.0186127 -0.0470082 -0.0109908 -0.013193 0.00372784 -0.0338219 -0.00472978 0.0192915 0.0315934 0.0187615 0.00861326 -0.0115361 0.0102582 0.0263428 -0.0229786 -0.0157038 0.0124095 -0.00965958 -0.00427974 0.00110422 0.0278984 -0.0174671 0.021247 -0.00993581 -0.014508 -0.00429469 0.0100586 -0.0287451 -0.00194803 -0.034376 0.0308216 0.0278319 0.0376082 -0.0387248 0.021738 -0.0358946 -0.0215445 -0.0189946 -0.0291606 0.016021 0.045 0.0402846 0.00870762 -0.0120249 -0.0203701 0.0373661 -0.0354071 -0.0235554 -0.0198421 0.0174056
internal_weight=9360 6995 3873 3122 1021 2852 650 321 123 2202 691 269 924 2198 1452 602 330 80 299 422 198 85 101 198 185 237 750 232 53 1372 419 80 65 329 76 343 280 208 48 322 103 49 189 159 59 528 97 339 303 227 76 65 239 123 48 953 68 62 141 181 119 122
internal_count=9360 6995 3873 3122 1021 2852 650 321 123 2202 691 269 924 2198 1452 602 330 80 299 422 198 85 101 198 185 237 750 232 53 1372 419 80 65 329 76 343 280 208 48 322 103 49 189 159 59 528 97 339 303 227 76 65 239 123 48 953 68 62 141 181 119 122
is_linear=0
shrinkage=0.05


Tree=7
num_leaves=63
num_cat=0
split_feature=71 73 43 15 54 68 47 18 57 57 47 54 15 18 47 54 15 54 51 60 51 47 51 47 54 83 47 15 54 0 60 51 18 106 51 109 18 47 82 47 96 47 96 18 57 29 70 57 115 51 16 0 102 51 0 47 0 108 85 57 18 57
split_gain=3337.81 841.821 282.934 216.334 49.4224 48.1795 29.252 27.6381 45.1292 34.0112 27.3796 30.1497 26.0795 20.7298 19.6399 16.0821 14.4338 14.0114 13.8827 13.3182 12.6785 28.5648 10.7039 10.0968 22.3189 11.1329 9.15679 8.88447 7.44273 7.32241 7.18965 7.00328 6.82439 6.56727 12.2331 6.40704 5.09698 4.86537 4.74427 4.25105 4.11667 3.82013 3.66767 3.24588 3.73669 3.23168 2.73756 2.83484 2.6377 6.9188 2.60326 4.4744 2.51226 2.38819 2.37132 4.8126 3.08675 2.1831 2.12624 2.10214 1.98858 2.71577
threshold=1.0000000180025095e-35 4.0004338607656145 1.0000000180025095e-35 4.2295537553362763 368.00000000000006 1.5000000000000002 13.15 1.8095466653133714 1.0000000180025095e-35 1.0000000180025095e-35 13.350000000000003 368.00000000000006 3.8899725967921195 1.7520314413393463 13.350000000000003 368.00000000000006 4.4509569545054024 368.00000000000006 98550.000000000015 1.0000000180025095e-35 98550.000000000015 13.050000000000002 98550.000000000015 13.250000000000002 368.00000000000006 4.4596186071796264 13.250000000000002 3.2513945771266921 368.00000000000006 7.2239936054790217 1.0000000180025095e-35 98550.000000000015 1.7117867598663679 0.55175298544550833 98550.000000000015 6.2660599995616497 1.9268491058880872 13.250000000000002 1.4392608977506034 12.950000000000001 9.4989676653050861 13.050000000000002 8.7048418480662342 1.7888607622545107 1.0000000180025095e-35 0.079500000000000015 3.92205020317606 1.0000000180025095e-35 2.4495771110824527 98550.000000000015 1.0206963425791129 7.6036215779683696 6.0542889231096986 98550.000000000015 8.8533087123381495 13.350000000000003 7.6036215779683696 25.409729932487153 21.757973034204358 1.0000000180025095e-35 1.8095466653133714 1.0000000180025095e-35
decision_type=2 2 2 2 2 2 2 2 2 2 2 2 2 2 2 2 2 2 2 2 2 2 2 2 2 2 2 2 2 2 2 2 2 2 2 2 2 2 2 2 2 2 2 2 2 2 2 2 2 2 2 2 2 2 2 2 2 2 2 2 2 2
left_child=1 2 4 12 6 7 22 8 38 14 20 -12 17 -8 33 -16 59 26 37 36 -7 -22 30 50 25 -25 31 -28 43 57 -1 58 -29 34 -9 -20 -6 -10 -4 -33 45 42 52 46 -45 -41 47 -14 -35 -50 51 -11 -31 54 55 56 -15 -24 -3 -5 -30 -62
right_child=-2 3 5 16 19 10 13 9 18 23 11 -13 28 53 15 -17 -18 -19 35 -21 21 -23 29 24 -26 -27 27 32 60 41 -32 39 -34 48 -36 -37 -38 -39 -40 40 -42 -43 -44 44 -46 -47 -48 -49 49 -51 -52 -53 -54 -55 -56 -57 -58 -59 -60 -61 61 -63
leaf_value=0.0015011443465819294 0.050000000000000003 -0.025167549166777367 -0.025882605934101677 -0.037301148998604462 -0.028159953695721926 -0.0095893258792446104 0.000758779322107633 -0.006677630607737229 -0.025058728946666969 -0.02351310126045171 0.044956359299205578 -0.0042832714601837357 -0.049205281005965343 0.013932623184734472 0.043003785737923211 -0.0068850653742750486 -0.049666540271965043 -0.022500411665468421 0.033159646780594541 0.016645535859508349 -0.0085828903786023154 0.036608634428544479 -0.0017946269530802967 -0.0035990982646903684 -0.02345328097964855 0.041246206939220431 0.035845654777118138 -0.016723854241364106 -0.04250142521435215 0.042335354053276653 0.021497577156224471 -0.017374049725406099 0.011368896285645091 -0.010556120105653998 0.035180830676108603 -0.0034070178270339969 -0.0016099640063870577 -0.0015552468838230258 -0.048650028154253962 0.010580359773011879 0.019353736112160343 0.046666666666666669 0.020128380114842647 -0.01564875136211083 -0.027934370635403799 -0.015735073849957967 -0.019517604314855167 -0.027772841985440916 -0.010452814574691129 0.014718395875145993 -0.023947361217090169 0.0062912464700639248 0.0231977421031506 0.050000000000000003 0.050000000000000003 0.050000000000000003 0.038859033965222216 0.019550236008818386 -0.0091640091212145218 -0.044668300662721906 -0.026437991612097797 -0.041979192268280757
leaf_weight=108 2365 73 27 314 20 333 30 64 76 34 67 58 27 27 35 30 1611 181 23 122 96 55 25 31 94 25 21 37 62 47 77 33 52 838 24 25 188 31 150 20 28 30 85 171 97 28 35 36 91 39 586 20 27 116 40 33 23 23 29 140 85 42
leaf_count=108 2365 73 27 314 20 333 30 64 76 34 67 58 27 27 35 30 1611 181 23 122 96 55 25 31 94 25 21 37 62 47 77 33 52 838 24 25 188 31 150 20 28 30 85 171 97 28 35 36 91 39 586 20 27 116 40 33 23 23 29 140 85 42
internal_value=-0.00135005 -0.0187114 -0.0031382 -0.0380308 0.0194484 -0.0112241 0.0270506 -0.0146103 -0.0279262 -0.0122969 0.00124781 0.0221092 -0.0196342 0.0399357 -0.00669729 0.0199782 -0.0474474 -0.0113761 -0.00822697 0.00352995 -0.00413993 0.0078776 0.0188371 -0.0202428 -0.00856684 0.0164211 -0.00510356 0.00659235 -0.0271036 0.0258726 0.00982398 -0.011201 -0.000310112 -0.00833925 0.00473831 0.0141145 -0.00416285 -0.0182493 -0.045177 -0.00238912 0.0041175 0.0303017 0.0272139 -0.0229428 -0.0200954 -0.00477031 -0.0307294 -0.0369582 -0.00952812 -0.00290145 -0.0229793 -0.0124745 0.0353527 0.0448533 0.0399995 0.03518 0.0253988 0.00843312 -0.0206175 -0.039573 -0.0351611 -0.0315776
internal_weight=9360 6995 3873 3122 1021 2852 691 2243 332 1911 609 125 1057 269 1121 65 2065 502 155 330 484 151 422 790 150 56 321 110 555 237 185 211 89 1056 88 48 208 107 177 109 76 189 159 366 268 48 98 63 968 130 640 54 74 239 123 83 50 48 102 454 189 127
internal_count=9360 6995 3873 3122 1021 2852 691 2243 332 1911 609 125 1057 269 1121 65 2065 502 155 330 484 151 422 790 150 56 321 110 555 237 185 211 89 1056 88 48 208 107 177 109 76 189 159 366 268 48 98 63 968 130 640 54 74 239 123 83 50 48 102 454 189 127
is_linear=0
shrinkage=0.05


Tree=8
num_leaves=63
num_cat=0
split_feature=58 73 85 15 54 68 47 18 59 57 15 47 54 18 47 54 15 54 50 60 50 47 50 38 54 47 47 59 50 0 95 60 47 50 15 18 47 47 95 47 111 96 22 54 18 57 59 3 102 18 50 35 27 24 99 18 57 97 16 22 0 15
split_gain=3296.24 828.514 268.608 222.887 48.9672 45.5915 30.3433 29.0091 57.4583 30.9494 28.6945 25.8787 28.7566 20.6579 18.7231 15.4602 12.7065 12.6855 12.5357 12.2104 12.0333 27.2307 10.6022 9.29636 10.6309 9.18086 8.26331 8.28855 8.22725 7.11546 6.62753 6.5938 6.46542 6.39351 4.92631 4.91324 4.25907 4.08465 3.92094 3.82326 4.0454 3.7054 3.62675 5.25077 2.99321 4.18826 3.39322 2.67605 2.48917 2.46709 2.46221 2.45259 2.23751 2.13542 2.1278 2.05395 2.19582 2.0012 1.98029 1.91251 1.87976 1.85808
threshold=1.0000000180025095e-35 4.0004338607656145 1.0000000180025095e-35 4.271609196322431 368.00000000000006 1.5000000000000002 13.15 1.8095466653133714 1.0000000180025095e-35 1.0000000180025095e-35 3.8899725967921195 13.350000000000003 368.00000000000006 1.7520314413393463 13.350000000000003 368.00000000000006 4.4628617151885921 368.00000000000006 1350.0000000000002 1.0000000180025095e-35 1350.0000000000002 13.050000000000002 1350.0000000000002 2.5000000000000004 368.00000000000006 13.250000000000002 13.250000000000002 1.0000000180025095e-35 1350.0000000000002 7.2239936054790217 2.2214122795938196 1.0000000180025095e-35 13.15 1350.0000000000002 3.5381962869548991 1.9268491058880872 13.250000000000002 13.050000000000002 2.3719899326209219 12.950000000000001 36.000032088667446 8.7048418480662342 1.2010000000000003 368.00000000000006 1.774501631012894 1.0000000180025095e-35 1.0000000180025095e-35 6.0767760158540565 6.0542889231096986 1.7888607622545107 1350.0000000000002 11.500000000000002 1.1045000000000003 0.024500000000000004 9.0860524380971963 1.7888607622545107 1.0000000180025095e-35 1.0364777049594822 1.6945830421822665 1.6850000000000003 9.9901032664239313 4.0688904261847085
decision_type=2 2 2 2 2 2 2 2 2 2 2 2 2 2 2 2 2 2 2 2 2 2 2 2 2 2 2 2 2 2 2 2 2 2 2 2 2 2 2 2 2 2 2 2 2 2 2 2 2 2 2 2 2 2 2 2 2 2 2 2 2 2
left_child=1 2 4 10 6 7 22 8 18 14 17 20 -13 -8 30 -16 -5 26 36 35 -7 -22 31 24 25 -11 33 34 44 53 -9 -1 -20 55 -28 -6 -4 41 -25 -35 47 48 52 59 46 61 -12 -41 -31 -30 51 57 -32 -24 -40 -3 -57 -15 -23 -44 -14 -46
right_child=-2 3 5 16 19 11 13 9 -10 23 28 12 60 50 15 -17 -18 -19 32 -21 21 58 29 38 -26 -27 27 -29 49 37 42 -33 -34 39 -36 -37 -38 -39 54 40 -42 -43 43 -45 45 -47 -48 -49 -50 -51 -52 -53 -54 -55 -56 56 -58 -59 -60 -61 -62 -63
leaf_value=0.0014358167394810288 0.050000000000000003 -0.032163181468844414 -0.022090954436310407 -0.039655908742554431 -0.027596754585392777 -0.0091256979594913287 0.00075625007351239526 0.011811968275323147 -0.049084262036203599 -0.0081657829332268898 -0.03189013228395287 0.044015849556829502 -0.01060305749507327 0.029625753648579126 0.04232801198959351 -0.0065867126857241005 -0.049602869266267821 -0.021474840426148632 -0.0028330804713602581 0.015888015445909603 -0.0081805674087566636 0.044290923783856052 -0.00072578895072053593 -0.00094518910931504295 -0.026264139761527378 0.031275891900062566 0.029900321635332978 -0.014331072853768573 -0.028145195015452124 0.041682724638822236 0.0035341754014934267 0.02058572080254694 0.032944475616449899 -0.016505347282597515 0.0042172791003141294 -0.0015297130676930118 -0.00099489323117516251 0.046666666666666669 -0.022529350895277949 0.0050499067076837977 0.021949138280681589 0.019429806930827052 0.022139624431729316 -0.01441062755278639 -0.017152542448328697 -0.035967682438370376 -0.050000000000000003 -0.017999470988288521 0.02263329627889174 -0.015898587553836177 0.050000000000000003 0.026840637597654551 -0.010131762125041877 0.020665552054997535 -0.0084485811247889484 -0.010666785637537639 -0.029922582842409614 0.047426237050443888 0.025160317495465281 0.0032801248272889788 0.0083346881344914438 -0.027482199561127948
leaf_weight=108 2365 25 87 403 20 333 30 41 161 36 81 67 38 20 35 30 1579 181 28 122 96 31 28 23 36 25 33 34 55 47 31 77 23 33 43 188 33 30 642 34 22 85 20 37 68 112 38 20 27 163 116 28 886 20 28 57 20 75 24 41 20 121
leaf_count=108 2365 25 87 403 20 333 30 41 161 36 81 67 38 20 35 30 1579 181 28 122 96 31 28 23 36 25 33 34 55 47 31 77 23 33 43 188 33 30 642 34 22 85 20 37 68 112 38 20 27 163 116 28 886 20 28 57 20 75 24 41 20 121
internal_value=-0.00102931 -0.0182823 -0.0028326 -0.0374483 0.0191747 -0.0107111 0.0267418 -0.0140052 -0.0276473 -0.0116351 -0.0198328 0.00142121 0.0217027 0.0398651 -0.00629342 0.019752 -0.0475804 -0.01089 -0.00746402 0.00332975 -0.00381679 0.00789094 0.0183765 -0.0192148 -0.00471732 0.00799884 -0.00492159 0.00618906 -0.0268694 0.0253785 -0.0078966 0.00940632 0.0133019 -0.0107139 0.0153691 -0.00403616 -0.0162895 0.0297446 -0.0212441 -0.00229439 0.00387616 0.0265517 -0.00869271 0.000449841 -0.03096 -0.028306 -0.0376731 -0.0034869 0.0347323 -0.0189883 0.0447741 0.0398457 -0.00966977 0.00818727 -0.0219409 -0.0197112 -0.0156683 0.0436788 0.035943 0.00946357 -0.0040728 -0.0237657
internal_weight=9360 6995 3873 3122 1021 2852 691 2243 332 1911 1140 609 125 269 1121 65 1982 502 171 330 484 151 422 790 97 61 321 110 638 237 1056 185 51 211 76 208 120 189 693 109 76 159 1015 98 420 301 119 54 74 218 239 123 917 48 670 102 77 95 55 61 58 189
internal_count=9360 6995 3873 3122 1021 2852 691 2243 332 1911 1140 609 125 269 1121 65 1982 502 171 330 484 151 422 790 97 61 321 110 638 237 1056 185 51 211 76 208 120 189 693 109 76 159 1015 98 420 301 119 54 74 218 239 123 917 48 670 102 77 95 55 61 58 189
is_linear=0
shrinkage=0.05


Tree=9
num_leaves=63
num_cat=0
split_feature=71 73 82 15 49 68 47 18 57 57 15 47 49 18 47 15 49 51 49 51 47 60 49 4 51 49 47 15 0 18 95 60 49 47 82 18 47 101 47 96 47 18 47 85 8 51 60 57 57 11 49 0 47 0 108 18 57 57 18 57 15 93
split_gain=3256.11 812.614 255.394 228.939 48.4289 43.185 31.3092 30.549 46.5127 28.1827 26.2358 24.2906 27.2087 20.5396 17.8753 16.3432 14.8652 11.5318 11.4441 11.4144 25.9397 11.1895 10.4837 8.78675 13.3474 7.79842 7.43133 7.82013 6.90814 6.4303 6.11249 6.04136 5.87836 5.35672 5.13459 4.73549 4.35812 4.20846 4.00149 3.71778 3.66537 3.53429 3.47661 3.65351 3.35695 9.64398 3.16209 3.9949 3.04184 2.68607 2.585 2.56674 5.20921 3.28063 2.07752 2.00559 1.97768 1.94538 1.89407 3.0085 1.86013 1.84284
threshold=1.0000000180025095e-35 4.0004338607656145 1.0000000180025095e-35 4.271609196322431 397.50000000000006 1.5000000000000002 13.15 1.8095466653133714 1.0000000180025095e-35 1.0000000180025095e-35 3.8899725967921195 13.350000000000003 397.50000000000006 1.7520314413393463 13.350000000000003 4.4778083433060587 397.50000000000006 98550.000000000015 397.50000000000006 98550.000000000015 13.050000000000002 1.0000000180025095e-35 224.80000000000004 1.7924812503605783 98550.000000000015 397.50000000000006 13.250000000000002 3.2513945771266921 7.2239936054790217 1.7117867598663679 2.2214122795938196 1.0000000180025095e-35 224.80000000000004 13.15 1.9684578404726272 1.9268491058880872 13.050000000000002 9.1905586302135021 13.250000000000002 8.7048418480662342 13.250000000000002 1.7888607622545107 13.050000000000002 13.549544038301589 1.5000000000000002 98550.000000000015 1.0000000180025095e-35 1.0000000180025095e-35 1.0000000180025095e-35 6.2549104253713814 224.80000000000004 8.8533087123381495 13.350000000000003 7.6036215779683696 25.409729932487153 1.7888607622545107 1.0000000180025095e-35 1.0000000180025095e-35 1.8095466653133714 1.0000000180025095e-35 4.0322960752608088 2.1134953024384813
decision_type=2 2 2 2 2 2 2 2 2 2 2 2 2 2 2 2 2 2 2 2 2 2 2 2 2 2 2 2 2 2 2 2 2 2 2 2 2 2 2 2 2 2 2 2 2 2 2 2 2 2 2 2 2 2 2 2 2 2 2 2 2 2
left_child=1 2 4 10 6 7 22 8 34 14 18 19 -13 -8 30 57 -16 38 26 -7 -21 35 31 24 40 41 32 -28 54 -29 -9 -1 55 -19 -4 -6 39 -25 -10 49 -11 46 -34 -44 45 -32 47 -12 60 -30 51 52 53 -15 -24 -3 -57 -5 -27 -60 -43 -22
right_child=-2 3 5 15 21 11 13 9 17 23 25 12 -14 50 16 -17 -18 33 -20 20 61 -23 28 37 -26 58 27 29 36 -31 44 -33 42 -35 -36 -37 -38 -39 -40 -41 -42 48 43 -45 -46 -47 -48 -49 -50 -51 -52 -53 -54 -55 -56 56 -58 -59 59 -61 -62 -63
leaf_value=0.0013733321320075818 0.050000000000000003 -0.031198286026716232 -0.026837854413315654 -0.036082719503595755 -0.027044819546863438 -0.0086844854334938437 0.00075372921923796336 0.01143744248987698 -0.022763284217370186 -0.026063348778656556 -0.050000000000000003 0.042914484674806026 -0.003861975059683981 0.012584374094795851 0.041662857500570166 -0.049476741023170651 -0.0063012884929776192 -0.0024559487517063438 -0.020496014768556173 -0.0077971033101979018 0.043622741500536605 0.015158729430776639 -0.0020310307797044517 -0.021124644590256619 0.022738614033967739 -0.040056582093238834 0.033208090421699345 -0.016645687214426091 0.025537170878634219 0.010623880013680229 -0.010779444250193511 0.019703475685862754 -0.010722369449049758 0.031067003377459268 -0.048966289480650349 -0.0014536343284101139 0.046666666666666669 -0.00098299788380110695 -0.0014483054799418298 0.018755478349733443 -0.0037955187486879757 -0.0081411368830779964 -0.0096084763546241455 0.017633391494246097 -0.0091124944527827857 0.025268189648964573 -0.018338178111262982 -0.0256264592288062 -0.025762190391265212 0.044701577756892555 0.050000000000000003 0.050000000000000003 0.050000000000000003 0.038281677906279982 0.018791306409579905 -0.010152160075672887 -0.028426453713327651 -0.043389962781640819 -0.025001750633120535 -0.039647389175715274 -0.01853384546497289 0.025241942226886749
leaf_weight=108 2365 25 32 289 20 333 30 41 76 42 29 67 58 27 35 1560 30 26 181 96 30 122 25 657 31 70 21 37 41 52 55 77 57 22 145 188 30 27 31 85 33 63 20 32 932 28 41 40 105 33 116 40 33 23 23 57 20 133 100 54 136 25
leaf_count=108 2365 25 32 289 20 333 30 41 76 42 29 67 58 27 35 1560 30 26 181 96 30 122 25 657 31 70 21 37 41 52 55 77 57 22 145 188 30 27 31 85 33 63 20 32 932 28 41 40 105 33 116 40 33 23 23 57 20 133 100 54 136 25
internal_value=-0.000717733 -0.0178653 -0.00256464 -0.0368466 0.0188946 -0.0102469 0.0264199 -0.0134529 -0.0274524 -0.0110207 -0.0189935 0.00156084 0.0212102 0.0397504 -0.00592338 -0.0471153 0.0195256 -0.00745347 -0.0104424 -0.00351389 0.0078888 0.00313693 0.0179225 -0.0182537 -0.00485864 -0.0257219 -0.00477356 0.00576292 0.0248853 -0.000712906 -0.00748984 0.00900264 -0.0102665 0.0129087 -0.0449657 -0.00391433 0.0291873 -0.0203296 -0.0165879 0.0258893 -0.0162655 -0.0216557 -0.00219336 0.00715575 -0.00825439 0.0013812 -0.0293357 -0.0358704 -0.0188767 0.0340835 0.0446454 0.0395956 0.0345814 0.0244051 0.00794634 -0.0188937 -0.0148987 -0.0383857 -0.033237 -0.0301372 -0.0152437 0.0352678
internal_weight=9360 6995 3873 3122 1021 2852 691 2243 332 1911 1140 609 125 269 1121 1982 65 155 502 484 151 330 422 790 106 638 321 110 237 89 1056 185 211 48 177 208 189 684 107 159 75 414 109 52 1015 83 110 69 304 74 239 123 83 50 48 102 77 422 224 154 199 55
internal_count=9360 6995 3873 3122 1021 2852 691 2243 332 1911 1140 609 125 269 1121 1982 65 155 502 484 151 330 422 790 106 638 321 110 237 89 1056 185 211 48 177 208 189 684 107 159 75 414 109 52 1015 83 110 69 304 74 239 123 83 50 48 102 77 422 224 154 199 55
is_linear=0
shrinkage=0.05


Tree=10
num_leaves=63
num_cat=0
split_feature=58 43 75 77 49 68 18 59 47 57 75 12 47 49 18 90 70 47 49 74 92 50 49 72 50 47 47 49 98 0 85 70 59 18 109 72 74 47 47 75 18 50 47 85 75 12 12 74 47 102 47 37 49 35 57 47 0 18 49 12 4 75
split_gain=3216.27 622.77 458.859 61.2596 47.9844 42.8854 43.543 66.9278 32.3711 28.8817 27.0713 27.9188 26.6291 38.7 20.4726 17.7468 16.5467 15.4378 14.8149 11.6108 10.6826 10.396 10.3737 10.2557 9.46378 12.7336 7.19098 14.4164 9.5379 6.71355 6.62335 6.38869 6.33473 7.0054 6.05218 5.5352 5.52123 4.83103 4.62688 4.58035 4.56366 4.392 12.8383 6.86511 4.31463 8.64608 4.15695 4.03239 3.77363 3.61764 3.59496 3.45215 2.6571 2.6518 2.64896 3.10187 2.60421 2.48044 2.46847 2.4558 2.33729 2.32849
threshold=1.0000000180025095e-35 1.0000000180025095e-35 16.486720455200565 26.48018837625283 397.50000000000006 1.5000000000000002 1.8095466653133714 1.0000000180025095e-35 13.15 1.0000000180025095e-35 19.541658133862402 4.1445118672690331 13.250000000000002 397.50000000000006 1.7520314413393463 11.372611900071044 3.6606145460430213 13.350000000000003 397.50000000000006 10.375173259205555 16.068042878358685 1350.0000000000002 224.80000000000004 1.0000000180025095e-35 1350.0000000000002 13.050000000000002 13.250000000000002 397.50000000000006 24.158864967204313 7.2239936054790217 13.214622686302338 3.9465995805852581 1.0000000180025095e-35 1.8095466653133714 9.4462293753966389 5.1496040091936406 4.048644977595754 13.15 13.050000000000002 17.915927621485675 1.9268491058880872 1350.0000000000002 13.050000000000002 13.214622686302338 20.920086906482712 4.5797207333171031 4.3687329916119575 8.9282874345773653 13.350000000000003 6.0542889231096986 12.950000000000001 3.5000000000000004 224.80000000000004 11.500000000000002 1.0000000180025095e-35 13.15 11.292481250360579 2.3607816591787407 397.50000000000006 3.4296714810727713 2.1609640474436813 17.452195728641406
decision_type=2 2 2 2 2 2 2 2 2 2 2 2 2 2 2 2 2 2 2 2 2 2 2 2 2 2 2 2 2 2 2 2 2 2 2 2 2 2 2 2 2 2 2 2 2 2 2 2 2 2 2 2 2 2 2 2 2 2 2 2 2 2
left_child=1 4 3 5 8 6 7 21 22 17 11 61 24 16 -10 19 -14 41 -19 20 32 48 35 40 31 -26 -11 28 34 -24 -27 -7 36 -34 -28 -1 -5 -23 49 -13 -6 -8 60 -44 45 -12 -41 54 -3 51 56 -31 53 -16 55 -22 -51 -49 -38 -21 -43 -4
right_child=-2 2 10 15 23 12 9 -9 14 26 44 39 13 -15 52 -17 -18 18 -20 59 47 37 29 -25 25 30 27 -29 -30 38 -32 -33 33 -35 -36 -37 58 -39 -40 46 -42 42 43 -45 -46 -47 -48 57 -50 50 -52 -53 -54 -55 -56 -57 -58 -59 -60 -61 -62 -63
leaf_value=0.001313566752166177 0.050000000000000003 -0.020437567806268327 -0.039256885662741429 -0.010715418923857876 -0.026503923181444407 -0.010305972779773314 -0.0095259376001044643 -0.049091547249264803 0.0007512167344490687 -0.020284692138833563 -0.047712826382900989 -0.015299783356022091 0.037744542107112332 -0.0084854676556147517 0.043437193253714791 0.0053357543696354072 -0.0063189695177313229 0.034254334734545817 -0.0087789119842151802 -0.044307399325971976 -0.01199542732894539 -0.0072366201551631098 0.0077167280346960368 0.014462918915893679 -0.006980191757055847 0.0013653681923945747 0.0099066673241781471 -0.021086321971737421 0.03626545398008256 0.023085869536609266 0.037733431016245197 -0.039424385875463486 -0.050000000000000003 -0.020525851629541389 -0.024429850723771823 0.018859041110588264 -0.025201937934740428 0.019463787698704337 0.046666666666666669 -0.038275614924527503 -0.0013813391870458641 0.0027131107315653937 0.003748882682994008 0.036379050048654556 -0.049575429885143685 -0.032218818142404397 -0.024013014706698331 -0.030852489327154467 0.00022009260676525259 0.019506071317989968 0.033277307078242301 0.04515593354316319 0.050000000000000003 0.025928553592945849 -0.021968050736886187 0.0094580100201394259 -0.0021102023734287782 -0.016876700389730104 -0.037364713629086811 -0.029196446601833615 -0.0099820079064918965 -0.048054357341543563
leaf_weight=108 2365 122 112 44 20 324 774 206 30 689 336 92 118 122 95 41 26 45 36 116 63 32 48 122 110 21 33 104 21 37 31 20 72 28 21 77 94 36 30 74 188 44 40 27 851 123 165 63 27 38 28 34 116 28 39 23 22 64 75 35 206 229
leaf_count=108 2365 122 112 44 20 324 774 206 30 689 336 92 118 122 95 41 26 45 36 116 63 32 48 122 110 21 33 104 21 37 31 20 72 28 21 77 94 36 30 74 188 44 40 27 851 123 165 63 27 38 28 34 116 28 39 23 22 64 75 35 206 229
internal_value=-0.000406539 -0.0174489 -0.0236166 -0.0138525 0.0186388 -0.0108562 -0.0140793 -0.0286789 0.0261296 -0.011052 -0.0432828 -0.035124 -0.000573445 0.0122343 0.0396843 -0.0266566 0.0297886 -0.00593208 0.0151284 -0.0284886 -0.025197 -0.009301 0.0174893 0.00295365 -0.00730639 0.00265795 -0.017965 -0.00903637 0.0076729 0.0244154 0.0230463 -0.0119989 -0.0313659 -0.0417472 -0.00344642 0.00861628 -0.0264921 0.00689889 0.0286563 -0.0247798 -0.00379697 -0.00749569 -0.00253857 0.0168984 -0.047468 -0.0435608 -0.028429 -0.0175347 -0.0166942 0.0252582 0.0184838 0.0336546 0.0445713 0.0394515 -0.0111595 -0.00625788 0.0115801 -0.0238096 -0.0305996 -0.0408049 -0.00774767 -0.0451649
internal_weight=9360 6995 5974 3992 1021 3235 2463 423 691 2040 1982 672 772 266 269 757 144 1172 81 716 565 217 422 330 506 162 868 179 75 237 52 344 313 100 54 185 213 68 189 331 208 1091 317 67 1310 459 239 252 149 159 88 71 239 123 125 86 60 127 169 151 250 341
internal_count=9360 6995 5974 3992 1021 3235 2463 423 691 2040 1982 672 772 266 269 757 144 1172 81 716 565 217 422 330 506 162 868 179 75 237 52 344 313 100 54 185 213 68 189 331 208 1091 317 67 1310 459 239 252 149 159 88 71 239 123 125 86 60 127 169 151 250 341
is_linear=0
shrinkage=0.05


Tree=11
num_leaves=63
num_cat=0
split_feature=71 43 80 80 49 68 18 57 47 80 17 47 49 17 57 18 47 74 49 18 49 50 60 4 50 50 68 80 17 80 43 50 47 0 74 109 60 26 50 47 57 18 57 18 49 47 24 96 74 101 47 74 74 49 47 50 18 49 0 47 0 103
split_gain=3176.69 599.734 434.479 71.8142 47.4766 39.9405 36.1447 52.5091 33.1562 26.4255 33.1418 23.3798 39.2709 23.0038 22.537 20.3348 17.2579 15.9917 15.2456 11.8121 10.3002 9.76477 9.40154 8.24086 13.0983 8.04913 7.94175 7.57087 12.0267 7.15638 6.87267 6.70937 14.6087 6.59785 6.3815 5.51474 5.07144 5.04234 11.9922 4.8676 4.75603 8.60374 4.46753 4.39757 3.91151 4.49292 4.6191 3.7949 3.47654 3.43665 3.30218 3.20096 3.18682 3.09854 5.66531 2.79987 2.79228 2.78803 2.77762 5.63717 3.48915 2.66335
threshold=1.0000000180025095e-35 1.0000000180025095e-35 12.201678590206283 3.9105355502322028 397.50000000000006 1.5000000000000002 1.8095466653133714 1.0000000180025095e-35 13.15 15.608134262870927 3.3570768293580828 13.250000000000002 397.50000000000006 2.8992728420082954 1.0000000180025095e-35 1.7520314413393463 13.350000000000003 10.375173259205555 397.50000000000006 2.002160686891322 224.80000000000004 1350.0000000000002 1.0000000180025095e-35 1.7924812503605783 1350.0000000000002 1350.0000000000002 1.5000000000000002 13.721413990405429 3.0075343654617428 14.071263857550965 1.5000000000000002 1350.0000000000002 13.050000000000002 7.2239936054790217 4.0007154061231995 6.2660599995616497 1.0000000180025095e-35 0.5465000000000001 1350.0000000000002 13.050000000000002 1.0000000180025095e-35 1.7888607622545107 1.0000000180025095e-35 1.9268491058880872 397.50000000000006 13.15 0.014500000000000001 8.7048418480662342 4.048644977595754 7.1115092264535962 13.250000000000002 8.6419176284557704 9.7560411749252491 397.50000000000006 13.15 1350.0000000000002 2.3607816591787407 224.80000000000004 8.8533087123381495 13.350000000000003 7.6036215779683696 4.3933265039585656
decision_type=2 2 2 2 2 2 2 2 2 2 2 2 2 2 2 2 2 2 2 2 2 2 2 2 2 2 2 2 2 2 2 2 2 2 2 2 2 2 2 2 2 2 2 2 2 2 2 2 2 2 2 2 2 2 2 2 2 2 2 2 2 2
left_child=1 4 3 5 8 6 7 30 20 10 27 31 -13 17 16 -10 37 19 -18 26 36 53 43 24 50 42 40 28 -4 -12 -3 -7 -33 -22 -28 -23 -1 38 -8 47 41 -5 52 -6 45 -15 -47 -35 -42 -25 -16 61 -21 54 -9 -30 -40 58 59 60 -17 -27
right_child=-2 2 9 13 22 11 14 21 15 -11 29 12 -14 44 23 57 18 -19 -20 25 33 35 -24 49 -26 51 34 -29 55 -31 -32 32 -34 39 -36 -37 -38 -39 56 -41 48 -43 -44 -45 -46 46 -48 -49 -50 -51 -52 -53 -54 -55 -56 -57 -58 -59 -60 -61 -62 -63
leaf_value=0.0012564022814061631 0.050000000000000003 -0.019310968606309459 -0.043989077263883417 -0.048361785351796055 -0.025973844546824693 -0.0097589540309088903 -0.0075291541160889047 -0.020806126584929807 0.00074871271848678592 -0.048306108537189502 -0.010597560988985989 0.034557140392154968 -0.0067654830158541089 -0.014199115350093766 -0.024207293523682491 0.011183862933130177 0.042844886483405446 -0.039969372749328616 -0.0052390404802281415 -0.01371160242842355 0.007435388995024066 0.029651848712693094 0.013799047338851199 -0.019091360210017727 0.021063956882183751 0.016178265359738601 0.0052118117159063171 -0.047409966364116873 -0.030309745679712959 -0.027705153375716003 -0.049061873230067166 -0.0069419397083332855 0.027378138425675311 0.032987107258491424 -0.025038736416692183 -0.003665588271838648 0.018050796329988735 -0.0083201345543209258 0.036356343328952788 0.046666666666666669 -0.01426291659784814 -0.01665261901087231 -0.032307158611141716 -0.0013126396480034369 -0.019200108861023524 -0.0068173651507980118 0.018912640750182397 0.017500954811077784 -0.032955901999727331 -0.00020530986785888673 -0.003383763766649998 -0.013331391160221149 -0.030496046933773405 -0.023084367354188048 0.011184663832187653 -0.014411137811839581 0.010866742359385603 0.049981915411250348 0.050000000000000003 0.050000000000000003 0.037685265748397166 -0.008450186048590002
leaf_weight=108 2365 22 223 103 20 304 103 31 30 940 83 116 114 51 45 27 34 206 32 120 48 23 122 660 36 23 22 386 72 232 165 105 44 74 84 27 77 860 22 30 33 27 78 188 53 37 33 85 101 25 33 60 37 57 25 45 21 116 40 33 23 21
leaf_count=108 2365 22 223 103 20 304 103 31 30 940 83 116 114 51 45 27 34 206 32 120 48 23 122 660 36 23 22 386 72 232 165 105 44 74 84 27 77 860 22 30 33 27 78 188 53 37 33 85 101 25 33 60 37 57 25 45 21 116 40 33 23 21
internal_value=-9.54035e-05 -0.0170326 -0.0230851 -0.0135875 0.0183814 -0.00948129 -0.012733 -0.0274806 0.0258324 -0.0422289 -0.0367414 0.00109279 0.0140755 -0.0245374 -0.00997425 0.0395505 -0.00523666 -0.0277064 0.0195315 -0.0241434 0.017088 -0.00673718 0.00277949 -0.0163306 -0.00388325 -0.017401 -0.0303208 -0.0426179 -0.0371776 -0.0231974 -0.0455618 -0.00549887 0.00319285 0.0239896 -0.0187603 0.0116604 0.0082465 -0.00686161 0.00172971 0.0281938 -0.0349625 -0.041776 -0.0225264 -0.00368391 -0.00787291 -0.00291141 0.00531249 0.0247083 -0.0283524 -0.0184021 -0.0153973 -0.00581959 -0.0176672 -0.0148777 -0.00652452 -0.0241949 0.0239079 0.044421 0.0391766 0.0339605 0.0233745 0.00442378
internal_weight=9360 6995 5974 3993 1021 2904 2221 350 691 1981 1041 683 230 1089 1871 269 1072 915 66 709 422 163 330 799 114 339 370 726 340 315 187 453 149 237 106 50 185 1006 146 189 264 130 235 208 174 121 70 159 134 685 78 104 157 113 56 117 43 239 123 83 50 44
internal_count=9360 6995 5974 3993 1021 2904 2221 350 691 1981 1041 683 230 1089 1871 269 1072 915 66 709 422 163 330 799 114 339 370 726 340 315 187 453 149 237 106 50 185 1006 146 189 264 130 235 208 174 121 70 159 134 685 78 104 157 113 56 117 43 239 123 83 50 44
is_linear=0
shrinkage=0.05


Tree=12
num_leaves=63
num_cat=0
split_feature=58 73 15 43 49 68 18 57 47 15 57 18 47 49 15 47 49 49 49 51 60 51 47 49 47 0 72 82 57 47 43 95 51 47 109 70 94 95 18 57 60 85 96 47 51 47 116 28 47 57 11 16 49 0 47 0 15 101 51 57 4 24
split_gain=3136.77 762.84 241.785 221.138 46.9749 36.595 34.5416 48.9064 34.2164 27.3469 21.7599 20.2632 20.0996 35.9524 17.9673 15.2479 12.485 10.1303 9.0513 8.74286 8.61774 7.89405 7.68466 14.6745 7.24797 6.42897 5.99409 7.39777 9.20934 5.95324 5.83045 5.36972 10.5148 5.15552 5.02715 4.761 4.4903 4.44595 4.0747 4.35033 4.16503 3.89858 3.76871 3.57725 3.46077 12.8737 8.64828 3.39286 3.21554 3.1413 3.03951 3.0103 2.84638 2.84683 5.77764 3.49012 2.8121 2.50381 4.21596 2.3089 2.20566 2.0679
threshold=1.0000000180025095e-35 4.0712005214894118 4.3475641766623392 1.0000000180025095e-35 397.50000000000006 1.5000000000000002 1.8095466653133714 1.0000000180025095e-35 13.15 3.8899725967921195 1.0000000180025095e-35 1.7520314413393463 13.15 397.50000000000006 4.5746677638528057 13.350000000000003 397.50000000000006 224.80000000000004 397.50000000000006 98550.000000000015 1.0000000180025095e-35 98550.000000000015 13.350000000000003 397.50000000000006 13.250000000000002 7.2239936054790217 6.6653184123616454 3.5634810853944114 1.0000000180025095e-35 13.250000000000002 1.5000000000000002 2.4807247857297283 98550.000000000015 13.050000000000002 6.2660599995616497 3.8647482344256416 3.1857030853348074 5.1168828067596133 1.774501631012894 1.0000000180025095e-35 1.0000000180025095e-35 13.302067672526521 8.7048418480662342 13.250000000000002 98550.000000000015 13.050000000000002 7.0285000000000002 0.21350000000000002 13.250000000000002 1.0000000180025095e-35 6.2549104253713814 1.7442753582502224 224.80000000000004 8.8533087123381495 13.350000000000003 7.6036215779683696 4.1644866907574745 8.0432133869762428 98550.000000000015 1.0000000180025095e-35 5.9188139665857031 0.024500000000000004
decision_type=2 2 2 2 2 2 2 2 2 2 2 2 2 2 2 2 2 2 2 2 2 2 2 2 2 2 2 2 2 2 2 2 2 2 2 2 2 2 2 2 2 2 2 2 2 2 2 2 2 2 2 2 2 2 2 2 2 2 2 2 2 2
left_child=1 3 9 4 8 6 7 30 17 18 15 -10 36 24 59 31 -17 35 26 48 37 38 44 -24 51 61 27 28 41 47 -5 32 -8 42 -21 60 -7 -6 40 -40 49 -3 50 -28 -12 -46 -47 -29 -9 -11 -27 -14 53 54 55 -13 -23 -33 -59 -4 -1 -19
right_child=-2 2 14 5 20 12 10 19 11 21 22 52 13 -15 -16 16 -18 25 -20 34 -22 56 23 -25 -26 33 43 29 -30 -31 -32 57 -34 -35 -36 -37 -38 -39 39 -41 -42 -43 -44 -45 45 46 -48 -49 -50 -51 -52 -53 -54 -55 -56 -57 -58 58 -60 -61 -62 -63
leaf_value=-0.0013255650590113164 0.050000000000000003 -0.021140356689691546 -0.035833567926184237 -0.025910455866216903 -0.022915544871312494 -0.0077619268989840909 -0.0084442095955212914 -0.019670324321640165 0.00074621704717477166 -0.050000000000000003 -0.019434279374036124 0.010852489261715502 0.026464612372219566 -0.006829587302424691 -0.049630694527664443 0.038315083738416439 -0.0053590240702033045 -0.0016067088261479514 -0.018250866229543 0.028418757993242019 0.013163371123783824 -0.01244513555495462 0.030871179193258286 -0.0163702050379167 0.036862653426148674 0.023227202294894111 -0.00035431807448800946 -0.014524176306551015 0.003418777739958993 0.012571575291989807 -0.048915558544726206 -0.0081085466393840573 0.030164113409560302 0.046666666666666669 -0.0039717251434922222 0.021255615102222229 0.016670116689056158 -0.00081201249012048107 -0.021168749478803411 -0.032293123310512824 -0.022641258864049718 -0.050000000000000003 0.01688578706837314 0.021562950627262111 -0.018345954852799575 0.030580305608992393 -0.013152992115938107 0.0029294276739968809 -0.00056292914575146091 -0.031482314985505376 0.043613526253311927 -5.8866745751837028e-05 0.049960371466546222 0.050000000000000003 0.050000000000000003 0.037357567898605185 -0.022865620120858948 -0.0061233349324070988 0.017134723363927119 -0.043450499105042423 0.012285383576950568 0.019443729403428735
leaf_weight=92 2365 25 317 34 26 315 45 76 30 49 512 27 20 132 1366 36 30 28 181 23 122 142 25 48 99 41 52 79 24 47 145 891 29 30 25 49 20 182 242 138 44 22 85 29 165 26 20 43 31 43 33 23 116 40 33 23 119 70 27 145 44 20
leaf_count=92 2365 25 317 34 26 315 45 76 30 49 512 27 20 132 1366 36 30 28 181 23 122 142 25 48 99 41 52 79 24 47 145 891 29 30 25 49 20 182 242 138 44 22 85 29 165 26 20 43 31 43 33 23 116 40 33 23 119 70 27 145 44 20
internal_value=0.000220389 -0.01661 -0.0350808 -0.00184955 0.0181325 -0.00896557 -0.0118993 -0.0267418 0.025544 -0.0184058 -0.00932264 0.0394797 0.00191171 0.0119556 -0.0467479 -0.00485582 0.0184632 0.0166608 -0.00930985 -0.00618101 0.00261315 -0.0242824 -0.0156525 -0.000191649 0.0294179 0.0235052 -0.00426834 -0.00823766 -0.0217811 -0.00254781 -0.0445459 -0.00630503 0.00668608 0.0276553 0.0115487 0.00789259 -0.0063033 -0.00357495 -0.0278668 -0.0252087 -0.0352938 -0.0346491 0.0240683 0.00749261 -0.0172136 -0.0118249 0.0115658 -0.0083725 -0.0141345 -0.041345 0.0323184 0.0122776 0.0443416 0.0390426 0.0337619 0.0230448 -0.0171962 -0.00727805 0.000350558 -0.0382242 0.00307798 0.00716431
internal_weight=9360 6995 3107 3888 1021 2867 2258 334 691 1279 1924 269 609 274 1828 1128 66 422 502 155 330 777 796 73 142 237 321 240 71 169 179 1062 74 189 48 185 335 208 516 380 136 47 159 81 723 211 46 122 107 92 74 43 239 123 83 50 261 988 97 462 136 48
internal_count=9360 6995 3107 3888 1021 2867 2258 334 691 1279 1924 269 609 274 1828 1128 66 422 502 155 330 777 796 73 142 237 321 240 71 169 179 1062 74 189 48 185 335 208 516 380 136 47 159 81 723 211 46 122 107 92 74 43 239 123 83 50 261 988 97 462 136 48
is_linear=0
shrinkage=0.05


Tree=13
num_leaves=63
num_cat=0
split_feature=58 73 15 43 54 47 68 18 59 15 59 18 47 54 15 47 54 54 50 60 50 47 54 47 18 59 47 0 47 74 47 26 50 50 4 84 95 60 18 59 50 107 96 15 57 22 54 11 57 110 50 0 47 0 72 16 47 18 59 57 0 77
split_gain=3098.58 743.131 245.274 211.609 46.5492 35.1509 34.2605 35.6764 63.6519 31.8254 20.1938 20.193 18.6135 33.3055 13.8897 11.4934 11.6719 10.5767 9.95856 7.89026 7.88308 7.5625 14.8798 6.7205 6.39605 30.0275 7.56839 6.24706 5.42833 5.02037 4.65677 4.58553 10.322 4.54637 4.49422 4.3213 4.21703 4.19863 4.05313 6.25223 3.83201 10.2237 3.77535 3.63159 3.46566 3.28269 3.84745 3.10464 2.91468 2.91087 2.90391 2.91548 5.91696 3.48925 2.82955 2.82387 2.75845 2.31903 4.18712 3.22627 2.23499 2.28341
threshold=1.0000000180025095e-35 4.0712005214894118 4.4066763602574008 1.0000000180025095e-35 368.00000000000006 13.15 1.5000000000000002 1.8095466653133714 1.0000000180025095e-35 4.0505924036423453 1.0000000180025095e-35 1.7520314413393463 13.15 368.00000000000006 4.5746677638528057 13.350000000000003 368.00000000000006 368.00000000000006 1350.0000000000002 1.0000000180025095e-35 1350.0000000000002 13.350000000000003 368.00000000000006 13.250000000000002 1.7888607622545107 1.0000000180025095e-35 13.15 7.2239936054790217 13.050000000000002 3.6340034181046765 13.15 0.54050000000000009 1350.0000000000002 1350.0000000000002 6.8137669422363967 1.0890000000000002 5.1168828067596133 1.0000000180025095e-35 1.8095466653133714 1.0000000180025095e-35 1350.0000000000002 2.3999280000000005 8.7048418480662342 3.7040638309594445 1.0000000180025095e-35 1.2010000000000003 368.00000000000006 6.2549104253713814 1.0000000180025095e-35 12.887267571729245 1350.0000000000002 8.8533087123381495 13.350000000000003 7.6036215779683696 7.5584156379493566 1.7442753582502224 13.250000000000002 1.8095466653133714 1.0000000180025095e-35 1.0000000180025095e-35 6.6653184123616454 26.547085682244337
decision_type=2 2 2 2 2 2 2 2 2 2 2 2 2 2 2 2 2 2 2 2 2 2 2 2 2 2 2 2 2 2 2 2 2 2 2 2 2 2 2 2 2 2 2 2 2 2 2 2 2 2 2 2 2 2 2 2 2 2 2 2 2 2
left_child=1 3 9 4 5 18 7 8 20 17 21 -7 45 23 -4 31 -17 24 34 36 56 35 -23 55 25 29 44 -20 42 -3 -22 32 -12 57 37 40 -6 -1 39 -19 54 -42 47 -28 60 -8 -47 -29 -40 -34 51 52 53 -13 -9 -14 -5 58 -11 -59 -26 -62
right_child=-2 2 14 6 19 11 12 10 -10 33 15 50 13 -15 -16 16 -18 38 27 -21 30 22 -24 -25 26 -27 43 28 -30 -31 -32 -33 49 -35 -36 -37 -38 -39 48 -41 41 -43 -44 -45 -46 46 -48 -49 -50 -51 -52 -53 -54 -55 -56 -57 -58 59 -60 -61 61 -63
leaf_value=-0.0023969297574714145 0.049995499609892774 0.017972960449489102 -0.038163748806801401 -0.016912246419286188 -0.022298587887556866 0.00074372959633668266 -0.0079558026799239276 -0.019059000078302163 -0.049014260564689285 -0.029225403859568878 -0.0051960303758581483 0.010530934005078894 0.025632835216820238 -0.0064906947173629746 -0.049391872519804481 0.04006074082106352 -0.0044235121715685416 -0.018687652064148675 0.0069597545323631495 0.012553756056758042 -0.0025455156208149029 0.028490494107527121 -0.015771877446344919 0.035565736268957454 -0.01764749166322872 -0.050000000000000003 0.01323043861027275 0.02254738178566984 0.046666666666666669 -0.0075354989410133418 0.027818162148089517 -0.0064256279789983986 0.037639192225677631 -0.020733427055945091 0.026041724379839645 -0.017603066849188942 -0.00077163488361063409 0.014284726913966653 -0.011350232355113401 -0.050000000000000003 0.022514785941818667 -0.011487980830853665 0.016289253971155951 -0.0021080414683024703 -0.022566159636798231 0.019677972972393036 -0.009352621329682214 0.043150958441423651 -0.024736080477472212 0.010986018916592004 0.049938836847913677 0.050000000000000003 0.050000000000000003 0.037032719474771748 -0.0096489078295803055 -5.6179353724355286e-05 3.8826894579511702e-05 -0.023720773416677152 -0.050000000000000003 -0.033729344280803299 0.010593334041535854 -0.0070784050498760359
leaf_weight=94 2365 28 345 88 26 30 289 143 162 79 99 27 20 132 1366 30 29 44 48 122 28 31 49 99 32 44 70 41 30 62 23 657 21 224 28 542 182 63 122 25 29 93 85 86 44 25 21 33 61 20 116 40 33 23 181 23 33 220 35 127 25 68
leaf_count=94 2365 28 345 88 26 30 289 143 162 79 99 27 20 132 1366 30 29 44 48 122 28 31 49 99 32 44 70 41 30 62 23 657 21 224 28 542 182 63 122 25 29 93 85 86 44 25 21 33 61 20 116 40 33 23 181 23 33 220 35 127 25 68
internal_value=0.000519834 -0.0162078 -0.0344384 -0.00163927 0.0179075 0.0252854 -0.00860029 -0.0114389 -0.0265232 -0.0188857 -0.00882026 0.0394101 0.00192433 0.0115898 -0.0471279 -0.00309855 0.0181956 -0.0114756 0.0162817 0.00245866 -0.00533984 -0.0134062 0.00137979 0.028397 -0.00695697 -0.0161489 -0.00316705 0.0230678 0.0271588 0.000400466 0.0111479 -0.00467491 0.00354097 -0.0265771 0.00758808 -0.0146034 -0.0034625 0.00429698 -0.0197059 -0.0300327 -0.0109582 -0.00340536 0.0234781 0.00477461 -0.0104978 -0.00598114 0.00642488 0.0317355 -0.0158122 0.0246376 0.0442636 0.0389113 0.0335673 0.0227218 -0.0138021 0.0118922 -0.0122892 -0.0294165 -0.0356036 -0.0273839 -0.00624974 -0.00232794
internal_weight=9360 6995 3107 3888 1021 691 2867 2258 334 1396 1924 269 609 274 1711 856 59 711 422 330 172 1068 80 142 459 134 325 237 189 90 51 797 140 685 185 988 208 157 252 69 446 122 159 156 169 335 46 74 183 41 239 123 83 50 324 43 121 461 114 347 125 93
internal_count=9360 6995 3107 3888 1021 691 2867 2258 334 1396 1924 269 609 274 1711 856 59 711 422 330 172 1068 80 142 459 134 325 237 189 90 51 797 140 685 185 988 208 157 252 69 446 122 159 156 169 335 46 74 183 41 239 123 83 50 324 43 121 461 114 347 125 93
is_linear=0
shrinkage=0.05


Tree=14
num_leaves=63
num_cat=0
split_feature=58 73 15 43 49 47 15 68 18 59 18 59 47 49 15 18 59 47 49 49 50 47 18 50 57 47 49 4 92 47 117 72 106 50 4 24 47 50 50 49 47 72 72 84 50 107 72 0 49 35 49 47 47 49 101 50 47 112 97 15 57 70
split_gain=3058.35 722.573 243.509 205.896 46.1337 36.0534 34.1468 32.9161 36.6907 64.6267 20.1242 19.1682 17.1922 18.602 12.0273 10.5048 36.1339 10.4415 9.72814 9.62595 8.98078 20.2587 7.25252 7.17768 6.98803 6.84769 12.548 6.17072 7.27746 6.74013 5.45752 5.03803 4.54235 8.21855 4.32906 4.29368 4.20603 4.59796 4.17215 4.1189 5.1203 3.81465 3.42435 3.30452 3.88208 8.28177 3.13179 3.12664 2.96064 3.01905 2.63787 5.41341 2.58736 3.33763 2.57478 4.00734 2.52848 2.42762 2.41754 2.28975 2.27233 2.20685
threshold=1.0000000180025095e-35 4.1880956428208034 4.438399933516334 1.0000000180025095e-35 397.50000000000006 13.15 4.0594876578565069 1.5000000000000002 1.8095466653133714 1.0000000180025095e-35 1.7520314413393463 1.0000000180025095e-35 13.350000000000003 397.50000000000006 4.5855566020862453 1.7888607622545107 1.0000000180025095e-35 13.350000000000003 224.80000000000004 397.50000000000006 1350.0000000000002 13.050000000000002 1.8292918577035315 1350.0000000000002 1.0000000180025095e-35 13.350000000000003 397.50000000000006 6.1598360604734976 19.709983078779917 12.950000000000001 8.6011911650810351 1.0000000180025095e-35 0.55893455632882916 1350.0000000000002 6.8137669422363967 0.0046500000000000005 13.350000000000003 1350.0000000000002 1350.0000000000002 397.50000000000006 13.250000000000002 5.1496040091936406 1.0000000180025095e-35 1.0890000000000002 1350.0000000000002 2.3999280000000005 8.4367100401074939 6.6366064049271678 224.80000000000004 11.500000000000002 397.50000000000006 13.15 12.950000000000001 224.80000000000004 9.9369477197475007 1350.0000000000002 13.250000000000002 7.685586845576112 1.0364777049594822 4.3030771332395856 1.0000000180025095e-35 3.5511430170880147
decision_type=2 2 2 2 2 2 2 2 2 2 2 2 2 2 2 2 2 2 2 2 2 2 2 2 2 2 2 2 2 2 2 2 2 2 2 2 2 2 2 2 2 2 2 2 2 2 2 2 2 2 2 2 2 2 2 2 2 2 2 2 2 2
left_child=1 3 6 4 5 18 15 8 9 23 -7 25 20 -14 60 16 36 32 34 -19 -9 -22 -6 50 39 43 -27 28 42 30 -30 -24 33 -13 41 -25 37 -3 -8 40 47 -1 57 44 46 -46 -10 -17 49 58 51 -5 -49 -54 -34 -56 -26 -20 -12 -40 -4 -42
right_child=-2 2 14 7 22 10 38 12 11 -11 48 17 13 -15 -16 24 -18 19 27 -21 21 -23 31 35 56 26 -28 -29 29 -31 -32 -33 54 -35 -36 -37 -38 -39 59 -41 61 -43 -44 -45 45 -47 -48 52 -50 -51 -52 -53 53 -55 55 -57 -58 -59 -60 -61 -62 -63
leaf_value=-0.002284733114882987 0.049957810524402159 -0.018696036816699735 -0.035096056456908144 -0.01672751613108343 -0.026121097440288094 0.00074125056465466823 -0.029412058356959422 -0.0069239496801596695 -0.018713923535225066 -0.049005272993646515 0.027589520625770095 -0.0033775787669838523 0.036408759086434525 -0.0022682746808076726 -0.049195410432704992 -0.014732281221671306 -0.050000000000000003 0.035252116538697122 -0.015052618280539968 -0.0042328437918732909 -0.0060854232889444885 0.031972657983953302 -0.00067097210180081586 0.025968318841963385 -0.020502615161240103 0.024216553327791834 -0.015154135704040528 0.038228130895411598 0.028148558601969853 0.042121234790581032 0.0019658626837875037 0.012536805349746313 -0.0066623975573857136 0.032031220618797387 0.025437184483078974 -0.0030975052465995155 0.0085601208907728262 0.0041051807883901127 -0.017211100201571496 -0.010855090979494275 0.022929911216100059 0.013615838874171633 0.020759599152105776 -0.016732656788012199 0.01847584088682197 -0.010973668604732511 -0.0091255379719686145 -0.0094391646964306197 0.049917311478277736 0.024353590865731741 -0.019355642718215618 0.01288103647530079 -0.0053521063129760718 0.014772612638771535 -0.0046872081061781843 0.022403432959690689 -0.0073894535353507054 0.0090163997514173394 0.047154206891854608 -0.027503730890087109 -0.044311873525381094 0.0028155001788400117
leaf_weight=94 2365 67 202 38 21 30 475 333 165 163 20 57 67 58 1337 47 70 33 22 29 96 55 194 24 107 34 50 50 48 41 34 115 666 23 28 27 37 33 140 123 30 63 22 542 32 94 176 44 116 28 59 26 38 45 43 20 56 20 75 88 100 25
leaf_count=94 2365 67 202 38 21 30 475 333 165 163 20 57 67 58 1337 47 70 33 22 29 96 55 194 24 107 34 50 50 48 41 34 115 666 23 28 27 37 33 140 123 30 63 22 542 32 94 176 44 116 28 59 26 38 45 43 20 56 20 75 88 100 25
internal_value=0.000804367 -0.0158143 -0.0340166 -0.00162671 0.0176919 0.0250368 -0.0188996 -0.00840482 -0.0111406 -0.0263827 0.0393416 -0.00852521 0.00193177 0.0184626 -0.0471598 -0.0112622 -0.0207751 -0.00299182 0.0159183 0.0167833 -0.00233756 0.00777679 0.00231218 -0.00519031 -0.00743851 -0.0129347 0.000781619 0.0226254 0.0184536 0.0255686 0.0172923 0.00424454 -0.00450734 0.00680245 0.00732581 0.0105805 -0.00584262 -0.0111716 -0.0267434 -0.00347513 0.000488786 0.00409575 0.0047794 -0.0140766 -0.010994 -0.00349443 -0.0137651 -0.00371467 0.0441869 0.0387826 -0.0117294 -0.00469904 0.000362711 0.00555889 -0.00574847 0.003913 -0.0159975 -0.00359118 0.0430353 -0.0211837 -0.0381477 0.013787
internal_weight=9360 6995 3064 3931 1021 691 1425 2910 2301 337 269 1964 609 125 1639 722 207 871 422 62 484 151 330 174 515 1093 84 237 187 123 82 309 809 80 185 51 137 100 703 352 229 157 64 1009 467 126 341 174 239 123 123 64 127 83 729 63 163 42 95 228 302 55
internal_count=9360 6995 3064 3931 1021 691 1425 2910 2301 337 269 1964 609 125 1639 722 207 871 422 62 484 151 330 174 515 1093 84 237 187 123 82 309 809 80 185 51 137 100 703 352 229 157 64 1009 467 126 341 174 239 123 123 64 127 83 729 63 163 42 95 228 302 55
is_linear=0
shrinkage=0.05


Tree=15
num_leaves=63
num_cat=0
split_feature=71 73 43 75 54 80 68 64 59 73 82 68 83 64 75 38 54 50 57 92 8 54 101 59 74 70 38 54 94 60 50 43 80 54 54 73 85 73 43 73 9 22 74 64 50 11 117 9 94 26 11 73 91 92 82 59 73 100 80 91 111 73
split_gain=3010.12 700.454 194.625 128.05 45.6875 35.9894 30.0512 28.2132 42.1723 26.9947 17.1073 18.8028 16.8214 14.5448 13.8933 12.5446 14.686 10.6726 9.29655 18.591 8.91694 12.6099 8.65994 8.19759 8.04294 7.32046 7.24276 7.96296 6.82939 6.74754 6.44118 5.76642 5.08111 5.02259 4.74417 4.71417 4.56296 4.52615 6.53191 6.52039 4.46213 4.25209 3.78403 3.69272 3.45776 3.28427 3.76057 3.38206 4.54682 3.06259 6.13869 3.03548 2.98403 2.97421 2.76801 4.55946 2.75117 2.71623 2.6923 2.67181 2.64041 2.62637
threshold=1.0000000180025095e-35 4.0712005214894118 1.0000000180025095e-35 19.1740471037328 368.00000000000006 15.459647517354069 1.5000000000000002 0.0047368769229965838 1.0000000180025095e-35 8.2952289178998573 3.6055205234374692 1.5000000000000002 12.208888764907785 0.0040663434877922658 20.920086906482712 2.5000000000000004 368.00000000000006 1350.0000000000002 1.0000000180025095e-35 9.2045690720039968 1.5000000000000002 368.00000000000006 15.914870250693149 1.0000000180025095e-35 7.8062842929572769 3.3812049015326155 2.5000000000000004 368.00000000000006 1.7604926730153732 1.0000000180025095e-35 1350.0000000000002 1.5000000000000002 14.394564803729404 368.00000000000006 368.00000000000006 12.066019194066451 13.825753832883114 8.7145161008452359 2.5000000000000004 12.705447230760372 4.4547780146205893 1.6015000000000004 7.5960862529393669 0.026648748938788706 1350.0000000000002 5.9588026377715311 7.6415258255159459 5.2889181706463733 2.3008833125190109 0.57350000000000001 5.8856437799164718 8.9757043624724506 0.66284921409766595 15.787055623849364 3.5634810853944114 1.0000000180025095e-35 4.4927113529947018 1.5961441271379246 15.722302473783724 0.55790919183363785 30.684032447089631 7.3699578296810557
decision_type=2 2 2 2 2 2 2 2 2 2 2 2 2 2 2 2 2 2 2 2 2 2 2 2 2 2 2 2 2 2 2 2 2 2 2 2 2 2 2 2 2 2 2 2 2 2 2 2 2 2 2 2 2 2 2 2 2 2 2 2 2 2
left_child=1 2 4 5 13 9 7 8 34 10 11 23 37 -1 22 16 36 25 19 -9 21 40 32 31 -25 49 27 43 33 42 -12 56 -5 -17 57 -14 -8 54 51 -40 -21 -30 -6 60 -33 47 -47 48 -19 50 -15 -39 -52 -45 55 -11 -3 -4 -51 -48 -20 -32
right_child=-2 3 6 14 29 -7 15 18 -10 12 30 -13 35 17 -16 28 -18 45 26 20 -22 -23 -24 24 -26 -27 -28 -29 41 -31 61 44 -34 -35 -36 -37 -38 38 39 -41 -42 -43 -44 53 -46 46 59 -49 -50 58 52 -53 -54 -55 -56 -57 -58 -59 -60 -61 -62 -63
leaf_value=-0.0086917126611355811 0.049832096553504096 -0.026180098850566609 0.012754925551849441 -0.034700152186410767 -0.020409288956683928 -0.043627602352511764 0.012311922349035741 -0.048643498122692114 -0.050000000000000003 -0.02498634530573475 -0.013155011940049009 -0.002580502419732511 -0.003209649756386438 0.038160555157810451 -0.048241760036289764 0.016578545969661695 -0.0092710209544748078 0.034196173715772049 0.0060584032908082008 0.0014105832651257516 -0.0066353625686497086 -0.012716694712638855 -0.026210024340543897 -0.050000000000000003 -0.021317073282458493 0.031210444368116444 -0.014799460606039786 -0.019855891083451836 -0.0064969187554228926 0.011500926146171148 0.0065771053639658988 -0.021236333274282516 -0.045629976651325441 -0.0094812072291970261 -0.017571286284705487 -0.022799683223794484 0.034113491900886105 -0.035015340426973268 -0.015361626000433674 -0.039718315273523333 0.026680040931136448 0.016670903031315125 -0.00065034144162281246 0.0036860202965529072 0.00018663115821959032 0.0468611147444127 0.019662238246596912 0.03753311553538391 0.010086645106396949 0.0034213332024713356 -0.0019672917396140596 -0.046913050365658987 0.019221996277984647 0.029401057213544846 -0.022438917538053844 -0.050000000000000003 -0.046301095511602323 -0.01011551283299923 0.020744115955312739 0.035405086512462457 -0.017556679915869608 -0.0061841007186155096
leaf_weight=31 2365 65 37 175 28 202 40 25 107 49 300 84 68 34 851 71 44 33 29 25 1033 50 120 72 37 96 724 44 348 122 69 48 271 25 41 56 60 102 61 50 58 21 180 23 31 59 34 41 48 75 24 113 54 22 134 29 23 20 32 130 20 97
leaf_count=31 2365 65 37 175 28 202 40 25 107 49 300 84 68 34 851 71 44 33 29 25 1033 50 120 72 37 96 724 44 348 122 69 48 271 25 41 56 60 102 61 50 58 21 180 23 31 59 34 41 48 75 24 113 54 22 134 29 23 20 32 130 20 97
internal_value=0.00106776 -0.0154194 -0.00127536 -0.0331188 0.0174706 -0.0238242 -0.0079512 -0.0106097 -0.0282966 -0.0211358 -0.0151068 -0.0232936 -0.0286585 0.0247799 -0.0442041 0.0019057 0.0148011 0.026352 -0.00884357 -0.00598115 -0.00506643 0.00711934 -0.0381333 -0.0295975 -0.0402636 0.0196979 -0.0127985 -0.00230071 -0.00208773 0.00216543 -0.00878228 -0.0226359 -0.0413414 0.00979215 -0.00460001 -0.0120568 0.0253929 -0.0324849 -0.0361832 -0.0263331 0.0190688 -0.00517842 -0.0033102 0.00591662 -0.0128299 0.0324275 0.0360358 0.0258319 0.019909 0.0146513 0.0204306 -0.0412686 0.0127022 0.0162578 -0.0267979 -0.0342863 -0.031439 0.00473021 0.00860198 0.0321413 -0.00358041 -0.000879744
internal_weight=9360 6995 3888 3107 1021 1690 2867 2258 205 1488 826 360 662 691 1417 609 144 660 2053 1191 1166 133 566 276 109 315 862 138 465 330 466 167 446 96 98 124 100 538 326 111 83 369 208 94 79 345 223 122 81 219 112 215 78 45 212 78 88 57 107 164 49 166
internal_count=9360 6995 3888 3107 1021 1690 2867 2258 205 1488 826 360 662 691 1417 609 144 660 2053 1191 1166 133 566 276 109 315 862 138 465 330 466 167 446 96 98 124 100 538 326 111 83 369 208 94 79 345 223 122 81 219 112 215 78 45 212 78 88 57 107 164 49 166
is_linear=0
shrinkage=0.05


Tree=16
num_leaves=63
num_cat=0
split_feature=58 73 15 43 49 47 68 18 59 15 18 15 59 47 49 18 59 49 47 49 18 50 47 49 4 92 47 100 49 47 47 18 59 4 47 94 47 50 50 47 49 47 15 105 0 0 37 47 68 50 47 116 70 15 0 99 70 11 106 49 14 15
split_gain=2943.51 675.737 247.475 187.431 44.4545 38.748 28.7509 38.9885 66.5078 27.2503 19.9191 19.5594 16.3806 15.3447 26.9066 10.8525 37.0636 9.54975 9.51629 22.2892 6.87817 6.17041 6.13197 11.0106 6.12329 7.04957 7.21348 6.48416 6.03205 6.54041 5.46594 4.79611 11.0133 4.35096 3.98412 3.73486 3.61437 3.80969 3.34509 3.12662 3.12168 3.18405 3.1144 2.98147 2.61909 2.49359 2.48004 2.42959 2.35829 2.80496 9.81365 6.97721 2.27605 2.21834 2.17842 1.79782 1.71994 1.70264 2.41257 2.45398 1.66593 1.64332
threshold=1.0000000180025095e-35 4.1880956428208034 4.438399933516334 1.0000000180025095e-35 397.50000000000006 13.15 1.5000000000000002 1.8095466653133714 1.0000000180025095e-35 4.0505924036423453 1.7520314413393463 4.6651211255003266 1.0000000180025095e-35 13.15 397.50000000000006 1.7888607622545107 1.0000000180025095e-35 224.80000000000004 13.250000000000002 397.50000000000006 1.8292918577035315 1350.0000000000002 13.350000000000003 397.50000000000006 6.1598360604734976 19.709983078779917 12.950000000000001 3.8539461220462177 397.50000000000006 13.15 13.250000000000002 1.7888607622545107 1.0000000180025095e-35 6.8137669422363967 13.15 3.1857030853348074 13.350000000000003 1350.0000000000002 1350.0000000000002 12.950000000000001 224.80000000000004 13.250000000000002 3.67742442810933 0.46533750000000002 6.4675825248018484 6.8391900325545594 2.5000000000000004 13.250000000000002 1.0000000180025095e-35 1350.0000000000002 13.050000000000002 5.8670835000000006 3.8647482344256416 4.5746677638528057 7.7380883033134937 18.494097991892449 1.0000000180025095e-35 4.8603276782758629 0.63877925977679328 397.50000000000006 5.2327776359337888 4.296038662394416
decision_type=2 2 2 2 2 2 2 2 2 2 2 2 2 2 2 2 2 2 2 2 2 2 2 2 2 2 2 2 2 2 2 2 2 2 2 2 2 2 2 2 2 2 2 2 2 2 2 2 2 2 2 2 2 2 2 2 2 2 2 2 2 2
left_child=1 3 9 4 5 17 7 8 21 15 -7 53 22 35 30 16 36 33 57 43 -6 47 48 -24 25 60 27 46 29 -17 -15 32 -11 52 -23 -8 37 -3 -33 56 41 -12 54 -20 -43 -32 -27 -5 49 -9 -51 -52 -1 -4 -31 -26 -22 -14 59 -59 -19 -40
right_child=-2 2 11 6 20 10 13 12 -10 31 40 -13 18 14 -16 28 -18 24 19 -21 39 34 23 -25 55 26 -28 -29 -30 42 45 38 -34 -35 -36 -37 -38 -39 61 -41 -42 44 -44 -45 -46 -47 -48 -49 -50 50 51 -53 -54 -55 -56 -57 -58 58 -60 -61 -62 -63
leaf_value=-0.00020645248664853474 0.049504500947593386 -0.01692028461668927 -0.034194162373359392 -0.014944629996996688 -0.025655854666893858 0.00076775203148523978 -0.006615574588271095 -0.016241469553577036 -0.048986339879913569 -0.023015711886023194 0.026635717266263105 -0.049248931952712911 -0.011474400924668574 0.010890226845824441 -0.0055826787850960643 -0.0092763327502992741 -0.050000000000000003 -0.0025395246831556926 0.041764536319356976 -0.0074751250128346413 0.0065898950851988047 -0.0025817505749208586 0.023227091648561113 -0.013652854233980181 0.027207748343547184 0.018015297797733341 0.041504309162860964 -0.0013145818262163438 -0.013810828758678477 0.0050646912021976385 0.023893333258146937 -0.024665588838723745 -0.050000000000000003 0.02453179747930595 0.025503518310901915 0.015666680485010149 0.0083999021029150158 0.0041547749759047294 -0.012298290845494541 0.00020270329582854174 0.049875596628106873 0.031095470184529267 -0.0010497170282978115 0.020170319944454899 0.050000000000000003 0.039784256402009097 0.040902026817202571 0.00076820339788408838 -0.0088364045825702221 -0.015219675514734153 0.028751819647848609 -0.0094072371412514035 0.013978214920624286 -0.041344314184453751 0.023478658201879471 0.046185094404679078 0.020260133628669959 0.018055222947926573 -0.0049192136700300718 -0.0041164393035265116 0.013994780765846371 -0.022231415777966598
leaf_weight=120 2365 65 273 89 21 30 315 521 163 121 39 1186 87 43 132 169 69 39 33 88 76 28 34 50 24 29 41 33 183 36 47 364 55 28 23 20 37 32 105 200 116 27 91 31 57 52 20 34 275 165 25 23 37 180 29 26 33 24 582 26 25 69
leaf_count=120 2365 65 273 89 21 30 315 521 163 121 39 1186 87 43 132 169 69 39 33 88 76 28 34 50 24 29 41 33 183 36 47 364 55 28 23 20 37 32 105 200 116 27 91 31 57 52 20 34 275 165 25 23 37 180 29 26 33 24 582 26 25 69
internal_value=0.00128271 -0.015021 -0.0326234 -0.00130089 0.0171311 0.0243411 -0.00776793 -0.0103247 -0.0260369 -0.0173838 0.0391709 -0.0458732 -0.00762872 0.00189255 0.0106684 -0.0104549 -0.0202269 0.014888 -0.0025135 0.00885328 0.00203389 -0.00453828 -0.011705 0.00127474 0.0215334 0.0173776 0.0243803 0.0158183 -0.00654999 -0.00246158 0.025775 -0.0242836 -0.0314483 0.00637465 0.0100842 -0.00528529 -0.00489604 -0.00996769 -0.0219397 0.00391572 0.0439914 0.038442 0.00492106 0.0313048 0.0439235 0.0322401 0.0273568 -0.0106012 -0.0127856 -0.0142652 -0.00943107 0.0104673 0.00313643 -0.0370353 0.0132802 0.037076 0.0107286 -0.00491649 -0.00401374 0.00652596 0.00391919 -0.0162373
internal_weight=9360 6995 3064 3931 1021 691 2910 2301 337 1425 269 1639 1964 609 274 711 203 422 871 152 330 174 1093 84 237 187 123 82 508 325 142 714 176 185 51 335 134 97 538 309 239 123 156 64 84 99 49 123 1009 734 213 48 157 453 65 50 109 719 632 50 64 174
internal_count=9360 6995 3064 3931 1021 691 2910 2301 337 1425 269 1639 1964 609 274 711 203 422 871 152 330 174 1093 84 237 187 123 82 508 325 142 714 176 185 51 335 134 97 538 309 239 123 156 64 84 99 49 123 1009 734 213 48 157 453 65 50 109 719 632 50 64 174
is_linear=0
shrinkage=0.05


Tree=17
num_leaves=63
num_cat=0
split_feature=58 73 82 75 49 47 80 68 18 59 73 18 82 59 101 75 12 59 47 49 74 49 47 49 18 47 0 49 47 18 50 47 49 50 47 60 70 4 60 96 74 66 11 80 49 47 18 57 74 73 60 47 29 0 94 101 57 73 84 50 82 94
split_gain=2849.33 652.816 180.349 126.458 44.085 39.3439 34.2174 26.9125 40.1934 67.1126 23.8055 19.8033 16.8869 22.3802 15.7767 15.5932 22.446 14.9109 14.0751 25.9086 11.57 9.36087 8.91447 20.8208 6.54214 6.1835 5.84737 5.74974 8.70286 5.72112 5.57136 5.54756 9.98191 4.9918 12.5991 4.68246 7.70492 4.1719 3.99745 3.84535 3.6493 3.61934 3.32472 3.25394 3.23615 3.3009 3.14789 4.27118 3.90248 3.31459 3.12157 2.96299 2.8908 2.73198 2.72434 2.63458 2.56982 2.54158 2.47944 3.19226 7.09131 2.46945
